svm_type nu_svc
kernel_type linear
nr_class 2
total_sv 2501
rho -3.03765
label 1 -1
probA -1.55322
probB -0.0123641
nr_sv 1250 1251
SV
0.05768488921641506 1:0.970197 2:0.437089 3:0.225115 
0.05768488921641506 1:1.20161 2:0.60877 3:0.407335 
0.05768488921641506 1:1.22035 2:0.580866 3:0.457872 
0.05768488921641506 1:1.23559 2:0.547326 3:0.48891 
0.05768488921641506 1:0.895621 2:0.213791 3:0.335853 
0.05768488921641506 1:1.28355 2:0.345013 3:0.548369 
0.05768488921641506 1:1.29946 2:0.2192 3:0.608765 
0.05768488921641506 1:0.998413 2:0.0555635 3:0.662458 
0.05768488921641506 1:1.35841 2:0.155701 3:0.6142 
0.05768488921641506 1:1.00717 2:0.0478722 3:0.66855 
0.05768488921641506 1:1.01996 2:0.041937 3:0.69215 
0.05768488921641506 1:1.38331 2:0.11705 3:0.62117 
0.05768488921641506 1:1.05469 2:0.0825353 3:0.725156 
0.05768488921641506 1:1.06139 2:0.110942 3:0.733873 
0.05768488921641506 1:1.12139 2:0.172941 3:0.747392 
0.05768488921641506 1:1.35802 2:0.0371331 3:0.000309039 
0.05768488921641506 1:1.31909 2:0.0350261 3:0.26739 
0.05768488921641506 1:1.31127 2:0.0388147 3:0.322925 
0.05768488921641506 1:1.26911 2:0.0555144 3:0.724202 
0.05768488921641506 1:1.34256 2:0.147664 3:0.135301 
0.05768488921641506 1:1.36025 2:0.175535 3:0.0605153 
0.05768488921641506 1:1.33881 2:0.111468 3:0.606136 
0.05768488921641506 1:1.34491 2:0.138868 3:0.564177 
0.05768488921641506 1:1.3565 2:0.153889 3:0.505514 
0.05768488921641506 1:1.36216 2:0.163885 3:0.474731 
0.05768488921641506 1:1.42608 2:0.176167 3:0.222998 
0.05768488921641506 1:1.43547 2:0.123726 3:0.263959 
0.05768488921641506 1:1.41913 2:0.00382805 3:0.301516 
0.05768488921641506 1:1.36008 2:0.0131378 3:0.214867 
0.05768488921641506 1:1.3654 2:0.0393896 3:0.208306 
0.05768488921641506 1:1.38318 2:0.221456 3:0.381199 
0.05768488921641506 1:1.37585 2:0.24847 3:0.383788 
0.05768488921641506 1:1.39841 2:0.0310751 3:0.279185 
0.05768488921641506 1:1.36763 2:0.203607 3:0.326969 
0.05768488921641506 1:1.38633 2:0.0205761 3:0.151656 
0.05768488921641506 1:1.41619 2:0.0212987 3:0.21855 
0.05768488921641506 1:0.671949 2:0.0931766 3:1.20672 
0.05768488921641506 1:1.47695 2:0.0155529 3:0.357467 
0.05768488921641506 1:1.31433 2:0.0982521 3:0.368477 
0.05768488921641506 1:1.54603 2:0.000579368 3:0.356624 
0.05768488921641506 1:1.42225 2:0.0892163 3:0.2318 
0.05768488921641506 1:1.32338 2:0.149966 3:0.51187 
0.05768488921641506 1:1.29717 2:0.144127 3:0.386756 
0.05768488921641506 1:1.25784 2:0.277901 3:0.342885 
0.05768488921641506 1:1.25141 2:0.281774 3:0.335989 
0.05768488921641506 1:1.20017 2:0.193001 3:0.0252467 
0.05768488921641506 1:1.1777 2:0.232119 3:0.0251492 
0.05768488921641506 1:1.27436 2:0.37708 3:0.362971 
0.05768488921641506 1:1.15416 2:0.301865 3:0.0582412 
0.05768488921641506 1:1.13173 2:0.368824 3:0.069616 
0.05768488921641506 1:1.11628 2:0.39789 3:0.0523882 
0.05768488921641506 1:1.50301 2:0.691407 3:0.248395 
0.05768488921641506 1:1.54829 2:0.728709 3:0.337298 
0.05768488921641506 1:0.922808 2:0.372228 3:0.380766 
0.05768488921641506 1:0.649784 2:0.182642 3:0.81713 
0.05768488921641506 1:0.912984 2:0.27805 3:0.425479 
0.05768488921641506 1:1.27606 2:0.849937 3:1.30408 
0.05768488921641506 1:0.903521 2:0.19589 3:0.464875 
0.05768488921641506 1:1.21608 2:0.305181 3:0.237255 
0.05768488921641506 1:0.825145 2:0.0712267 3:0.639672 
0.05768488921641506 1:0.817222 2:0.0385253 3:0.65698 
0.05768488921641506 1:1.13223 2:0.454495 3:0.431295 
0.05768488921641506 1:0.81769 2:0.0285351 3:0.630297 
0.05768488921641506 1:1.12523 2:0.365192 3:0.421438 
0.05768488921641506 1:1.15078 2:0.20883 3:0.19397 
0.05768488921641506 1:1.2804 2:0.203099 3:0.0175292 
0.05768488921641506 1:1.30629 2:1.17696 3:0.0442406 
0.05768488921641506 1:1.41573 2:0.990788 3:0.268896 
0.05768488921641506 1:1.46647 2:0.880742 3:0.33097 
0.05768488921641506 1:1.44947 2:0.928209 3:0.235492 
0.05768488921641506 1:1.52845 2:0.377783 3:2.02367 
0.05768488921641506 1:1.55507 2:0.719919 3:2.74649 
0.05768488921641506 1:1.55492 2:0.599017 3:2.62915 
0.05768488921641506 1:1.5644 2:0.165151 3:2.01804 
0.05768488921641506 1:1.56484 2:0.260102 3:1.73733 
0.05768488921641506 1:1.59651 2:0.171458 3:0.592942 
0.05768488921641506 1:1.60448 2:0.126532 3:0.518797 
0.05768488921641506 1:0.908912 2:0.31483 3:0.200673 
0.05768488921641506 1:0.922362 2:0.280416 3:0.251624 
0.05768488921641506 1:1.61912 2:0.0364541 3:0.111324 
0.05768488921641506 1:1.63028 2:0.0120622 3:0.100899 
0.05768488921641506 1:1.6442 2:0.0155596 3:0.138328 
0.05768488921641506 1:0.955464 2:0.252109 3:0.328111 
0.05768488921641506 1:1.66957 2:0.0126041 3:0.204278 
0.05768488921641506 1:0.963891 2:0.273218 3:0.379409 
0.05768488921641506 1:0.974434 2:0.221768 3:0.425899 
0.05768488921641506 1:1.6889 2:0.0842619 3:0.134479 
0.05768488921641506 1:1.67737 2:0.0998253 3:0.00849077 
0.05768488921641506 1:1.6425 2:0.0424659 3:0.147365 
0.05768488921641506 1:1.61831 2:0.00733028 3:0.213912 
0.05768488921641506 1:0.875979 2:0.144593 3:0.605173 
0.05768488921641506 1:1.57072 2:0.0449674 3:0.323442 
0.05768488921641506 1:1.56352 2:0.0445293 3:0.327376 
0.05768488921641506 1:0.863074 2:0.162986 3:0.531496 
0.05768488921641506 1:0.842577 2:0.198652 3:0.432152 
0.05768488921641506 1:1.52014 2:0.0583143 3:0.304344 
0.05768488921641506 1:1.5153 2:0.0658701 3:0.310454 
0.05768488921641506 1:1.5111 2:0.0565708 3:0.300954 
0.05768488921641506 1:1.50671 2:0.0403 3:0.291001 
0.05768488921641506 1:1.43317 2:0.0711947 3:0.33992 
0.05768488921641506 1:1.43266 2:0.117537 3:0.292838 
0.05768488921641506 1:1.00835 2:0.0606369 3:0.462704 
0.05768488921641506 1:1.01093 2:0.0294146 3:0.500125 
0.05768488921641506 1:1.01147 2:0.0250878 3:0.496975 
0.05768488921641506 1:1.79544 2:0.577762 3:1.47415 
0.05768488921641506 1:1.71741 2:0.0311702 3:1.43444 
0.05768488921641506 1:1.66825 2:0.135326 3:1.36754 
0.05768488921641506 1:1.04636 2:0.0690253 3:0.456494 
0.05768488921641506 1:1.27781 2:1.07816 3:2.40358 
0.05768488921641506 1:1.36289 2:0.114548 3:0.11058 
0.05768488921641506 1:1.4358 2:0.16586 3:0.0812507 
0.05768488921641506 1:1.42277 2:0.184656 3:0.0347816 
0.05768488921641506 1:1.41498 2:0.231515 3:0.0392309 
0.05768488921641506 1:1.41125 2:0.260529 3:0.0603022 
0.05768488921641506 1:1.41475 2:0.301644 3:0.140826 
0.05768488921641506 1:1.40799 2:0.0164901 3:0.115553 
0.05768488921641506 1:1.38918 2:0.0083175 3:0.232108 
0.05768488921641506 1:0.683629 2:0.580144 3:0.697902 
0.05768488921641506 1:0.690143 2:0.476066 3:0.716588 
0.05768488921641506 1:1.28512 2:0.0236077 3:0.695427 
0.05768488921641506 1:0.686525 2:0.218989 3:2.55492 
0.05768488921641506 1:0.684412 2:0.192141 3:2.55567 
0.05768488921641506 1:1.21063 2:0.116173 3:0.539451 
0.05768488921641506 1:1.20642 2:0.120966 3:0.450195 
0.05768488921641506 1:1.20748 2:0.134246 3:0.342083 
0.05768488921641506 1:1.21193 2:0.144738 3:0.302399 
0.05768488921641506 1:1.22978 2:0.14003 3:0.155347 
0.05768488921641506 1:1.23606 2:0.119533 3:0.0999301 
0.05768488921641506 1:1.23591 2:0.0897789 3:0.0728904 
0.05768488921641506 1:1.24863 2:0.0825272 3:0.00333097 
0.05768488921641506 1:1.31536 2:0.318835 3:0.102564 
0.05768488921641506 1:1.3261 2:0.606569 3:0.582317 
0.05768488921641506 1:1.6281 2:0.428383 3:2.41108 
0.05768488921641506 1:1.5995 2:0.3577 3:2.21409 
0.05768488921641506 1:1.42933 2:0.634911 3:0.690472 
0.05768488921641506 1:1.46851 2:0.198477 3:0.432854 
0.05768488921641506 1:1.53206 2:0.152606 3:0.0425472 
0.05768488921641506 1:1.52822 2:0.134465 3:0.0776709 
0.05768488921641506 1:0.585705 2:0.0967527 3:2.7874 
0.05768488921641506 1:0.586035 2:0.0938652 3:2.7608 
0.05768488921641506 1:1.49875 2:0.0249071 3:0.183527 
0.05768488921641506 1:1.50187 2:0.0452346 3:0.222737 
0.05768488921641506 1:1.52443 2:0.134262 3:0.30472 
0.05768488921641506 1:1.67863 2:0.40581 3:0.22922 
0.05768488921641506 1:1.57316 2:0.317418 3:1.10076 
0.05768488921641506 1:1.56656 2:0.480284 3:1.23637 
0.05768488921641506 1:1.56711 2:0.426795 3:1.17477 
0.05768488921641506 1:1.56953 2:0.37671 3:1.10437 
0.05768488921641506 1:0.600646 2:0.553197 3:0.970935 
0.05768488921641506 1:1.57946 2:0.289468 3:0.925125 
0.05768488921641506 1:1.58486 2:0.250555 3:0.821376 
0.05768488921641506 1:0.631134 2:0.498007 3:1.11945 
0.05768488921641506 1:1.59912 2:0.269421 3:0.743697 
0.05768488921641506 1:0.656538 2:0.375403 3:1.3095 
0.05768488921641506 1:0.685386 2:0.289532 3:1.5967 
0.05768488921641506 1:0.696856 2:0.239445 3:2.49734 
0.05768488921641506 1:0.694391 2:0.0518319 3:2.46527 
0.05768488921641506 1:1.61614 2:0.0826731 3:0.441899 
0.05768488921641506 1:1.61733 2:0.0500228 3:0.371826 
0.05768488921641506 1:1.61732 2:0.0394488 3:0.346479 
0.05768488921641506 1:1.61248 2:0.0101807 3:0.208452 
0.05768488921641506 1:1.61081 2:0.0176772 3:0.181942 
0.05768488921641506 1:1.56892 2:0.234656 3:0.30596 
0.05768488921641506 1:1.49348 2:0.15357 3:0.0624902 
0.05768488921641506 1:1.44908 2:0.266744 3:0.104896 
0.05768488921641506 1:1.42227 2:0.322016 3:0.175141 
0.05768488921641506 1:1.41013 2:0.316172 3:0.243702 
0.05768488921641506 1:1.45294 2:0.060747 3:0.293242 
0.05768488921641506 1:1.49466 2:0.164978 3:0.0158024 
0.05768488921641506 1:1.49698 2:0.188251 3:0.0522284 
0.05768488921641506 1:1.48032 2:0.136111 3:0.291459 
0.05768488921641506 1:0.977107 2:0.766349 3:1.52605 
0.05768488921641506 1:0.665296 2:0.206312 3:1.7632 
0.05768488921641506 1:0.604052 2:0.299174 3:0.916333 
0.05768488921641506 1:0.645989 2:0.327389 3:0.82726 
0.05768488921641506 1:0.703323 2:0.250836 3:0.658109 
0.05768488921641506 1:0.625612 2:0.623675 3:2.63523 
0.05768488921641506 1:0.901292 2:0.00305716 3:0.685177 
0.05768488921641506 1:0.964184 2:0.0226483 3:0.770533 
0.05768488921641506 1:0.964528 2:0.387806 3:0.280218 
0.05768488921641506 1:1.09206 2:0.00338467 3:0.527536 
0.05768488921641506 1:1.07333 2:0.0241505 3:0.362587 
0.05768488921641506 1:0.960686 2:0.361612 3:0.148494 
0.05768488921641506 1:0.949837 2:0.342329 3:0.108324 
0.05768488921641506 1:0.675553 2:1.02762 3:0.540864 
0.05768488921641506 1:1.02883 2:0.00299426 3:0.166676 
0.05768488921641506 1:0.908049 2:0.0857474 3:0.360318 
0.05768488921641506 1:1.00052 2:0.0915927 3:0.393359 
0.05768488921641506 1:1.06066 2:0.0560511 3:0.451761 
0.05768488921641506 1:1.09022 2:0.161224 3:0.39373 
0.05768488921641506 1:1.082 2:0.262259 3:0.1985 
0.05768488921641506 1:1.0727 2:0.21795 3:0.150399 
0.05768488921641506 1:1.07764 2:0.0631949 3:0.128587 
0.05768488921641506 1:1.09522 2:0.0659708 3:0.158019 
0.05768488921641506 1:0.662224 2:0.085788 3:1.32668 
0.05768488921641506 1:0.647916 2:0.173612 3:1.22426 
0.05768488921641506 1:0.658617 2:0.315751 3:0.956106 
0.05768488921641506 1:0.690091 2:0.255295 3:0.728495 
0.05768488921641506 1:0.653667 2:0.254803 3:0.834233 
0.05768488921641506 1:1.04202 2:0.263452 3:0.0288051 
0.05768488921641506 1:1.03902 2:0.198775 3:0.0375264 
0.05768488921641506 1:1.03682 2:0.164077 3:0.0419171 
0.05768488921641506 1:1.03821 2:0.13876 3:0.0165073 
0.05768488921641506 1:1.03656 2:0.133728 3:0.0354688 
0.05768488921641506 1:1.03587 2:0.162058 3:0.0463832 
0.05768488921641506 1:0.836663 2:0.0416491 3:0.536174 
0.05768488921641506 1:1.01358 2:0.107739 3:0.0976696 
0.05768488921641506 1:0.876121 2:0.0553267 3:0.510052 
0.05768488921641506 1:0.896577 2:0.0864256 3:0.510757 
0.05768488921641506 1:0.957917 2:0.198545 3:0.455685 
0.05768488921641506 1:0.953914 2:0.197131 3:0.384622 
0.05768488921641506 1:0.942565 2:0.159917 3:0.249678 
0.05768488921641506 1:0.775444 2:0.196795 3:0.671056 
0.05768488921641506 1:1.0624 2:0.170121 3:0.520351 
0.05768488921641506 1:0.720512 2:0.310511 3:1.47504 
0.05768488921641506 1:0.449841 2:0.915279 3:0.947631 
0.05768488921641506 1:1.10504 2:1.15484 3:1.8085 
0.05768488921641506 1:1.1416 2:0.292443 3:0.190625 
0.05768488921641506 1:1.16 2:0.351322 3:0.221206 
0.05768488921641506 1:1.09324 2:0.773118 3:1.17255 
0.05768488921641506 1:1.06012 2:0.28188 3:0.77996 
0.05768488921641506 1:1.01059 2:0.282903 3:0.515465 
0.05768488921641506 1:0.985959 2:0.491115 3:0.502275 
0.05768488921641506 1:0.979502 2:0.575322 3:0.506676 
0.05768488921641506 1:0.9756 2:0.702111 3:0.356017 
0.05768488921641506 1:0.951622 2:0.431452 3:0.0526825 
0.05768488921641506 1:1.08373 2:0.203958 3:0.532242 
0.05768488921641506 1:1.0162 2:0.076457 3:0.197858 
0.05768488921641506 1:1.07009 2:0.0768762 3:0.69454 
0.05768488921641506 1:1.06424 2:0.0113939 3:0.294154 
0.05768488921641506 1:0.985992 2:0.226002 3:0.108387 
0.05768488921641506 1:0.971596 2:0.276185 3:0.274749 
0.05768488921641506 1:0.773819 2:0.165784 3:2.23992 
0.05768488921641506 1:0.895338 2:0.675552 3:1.31471 
0.05768488921641506 1:1.04014 2:0.111214 3:0.0675723 
0.05768488921641506 1:0.69117 2:0.102349 3:0.924276 
0.05768488921641506 1:0.895833 2:0.61291 3:0.327979 
0.05768488921641506 1:0.967876 2:0.354742 3:1.04573 
0.05768488921641506 1:0.652096 2:0.163296 3:1.1363 
0.05768488921641506 1:0.639499 2:0.131275 3:1.25699 
0.05768488921641506 1:0.639577 2:0.116226 3:1.27085 
0.05768488921641506 1:1.15211 2:0.878084 3:0.102908 
0.05768488921641506 1:1.04382 2:0.291773 3:0.0776908 
0.05768488921641506 1:0.905463 2:0.676584 3:0.0970607 
0.05768488921641506 1:0.884199 2:0.642722 3:0.114039 
0.05768488921641506 1:0.78994 2:0.21854 3:2.47058 
0.05768488921641506 1:0.812348 2:0.490886 3:0.282169 
0.05768488921641506 1:0.674568 2:0.211725 3:1.0683 
0.05768488921641506 1:0.660446 2:0.220485 3:1.01732 
0.05768488921641506 1:0.650878 2:0.212148 3:0.981922 
0.05768488921641506 1:0.644258 2:0.195563 3:0.960744 
0.05768488921641506 1:0.478532 2:1.18864 3:1.49036 
0.05768488921641506 1:0.549327 2:0.984399 3:1.97467 
0.05768488921641506 1:0.753614 2:0.768625 3:0.547139 
0.05768488921641506 1:0.758539 2:0.660015 3:0.288708 
0.05768488921641506 1:0.961259 2:0.67293 3:0.0125913 
0.05768488921641506 1:1.01477 2:0.72841 3:0.160598 
0.05768488921641506 1:0.959023 2:0.0240118 3:1.11105 
0.05768488921641506 1:1.13077 2:0.13994 3:2.63514 
0.05768488921641506 1:1.14061 2:0.27356 3:2.93191 
0.05768488921641506 1:1.25719 2:0.402534 3:0.731512 
0.05768488921641506 1:0.935084 2:0.276154 3:1.7969 
0.05768488921641506 1:0.942491 2:0.0324009 3:3.06595 
0.05768488921641506 1:0.942407 2:0.0388252 3:2.37091 
0.05768488921641506 1:0.824047 2:0.285085 3:0.927855 
0.05768488921641506 1:0.793458 2:0.316744 3:0.962123 
0.05768488921641506 1:0.754619 2:0.329536 3:1.03335 
0.05768488921641506 1:0.733322 2:0.262677 3:1.05696 
0.05768488921641506 1:0.571398 2:0.720298 3:3.13376 
0.05768488921641506 1:0.557406 2:0.638126 3:3.11041 
0.05768488921641506 1:0.983685 2:0.0678652 3:1.20118 
0.05768488921641506 1:0.986769 2:0.0291979 3:1.02858 
0.05768488921641506 1:0.713642 2:0.0816808 3:2.11072 
0.05768488921641506 1:0.72139 2:0.312683 3:0.662831 
0.05768488921641506 1:0.716224 2:0.329337 3:0.666126 
0.05768488921641506 1:0.703608 2:0.311092 3:0.684167 
0.05768488921641506 1:0.70185 2:0.293591 3:0.697542 
0.05768488921641506 1:0.87575 2:0.125317 3:1.28313 
0.05768488921641506 1:0.899456 2:0.270759 3:1.14826 
0.05768488921641506 1:0.95106 2:0.57164 3:0.637788 
0.05768488921641506 1:0.964999 2:0.564603 3:0.622631 
0.05768488921641506 1:1.08166 2:0.341302 3:2.14638 
0.05768488921641506 1:1.09002 2:0.342278 3:2.32273 
0.05768488921641506 1:1.0157 2:0.0657145 3:0.265689 
0.05768488921641506 1:0.99948 2:0.0233924 3:0.227992 
0.05768488921641506 1:1.07602 2:0.00885984 3:1.09687 
0.05768488921641506 1:0.630806 2:0.0985647 3:1.50216 
0.05768488921641506 1:1.09292 2:0.0321247 3:0.960231 
0.05768488921641506 1:0.619155 2:0.108011 3:1.67604 
0.05768488921641506 1:1.08032 2:0.0702737 3:2.28853 
0.05768488921641506 1:1.04826 2:0.199768 3:2.43428 
0.05768488921641506 1:1.02356 2:0.296125 3:2.38013 
0.05768488921641506 1:1.0371 2:0.114926 3:0.100968 
0.05768488921641506 1:1.01578 2:0.328908 3:2.33405 
0.05768488921641506 1:0.997397 2:0.381954 3:2.31324 
0.05768488921641506 1:0.849593 2:0.0199265 3:1.6818 
0.05768488921641506 1:0.581095 2:0.0796666 3:2.10038 
0.05768488921641506 1:1.14896 2:0.165238 3:0.0831524 
0.05768488921641506 1:0.661128 2:0.200006 3:1.46161 
0.05768488921641506 1:0.67099 2:0.257378 3:1.17008 
0.05768488921641506 1:0.68308 2:0.293056 3:0.94316 
0.05768488921641506 1:0.688761 2:0.291995 3:0.884856 
0.05768488921641506 1:0.693305 2:0.288328 3:0.813818 
0.05768488921641506 1:0.707799 2:0.264065 3:0.892175 
0.05768488921641506 1:0.734889 2:0.164498 3:0.831893 
0.05768488921641506 1:0.936267 2:0.665841 3:1.49488 
0.05768488921641506 1:0.990203 2:0.538928 3:1.18243 
0.05768488921641506 1:0.973742 2:0.282525 3:1.22274 
0.05768488921641506 1:0.948062 2:0.185603 3:1.84567 
0.05768488921641506 1:0.949714 2:0.216945 3:1.82977 
0.05768488921641506 1:0.987539 2:0.40268 3:1.69864 
0.05768488921641506 1:0.97972 2:0.357468 3:1.912 
0.05768488921641506 1:0.958191 2:0.318464 3:2.16728 
0.05768488921641506 1:0.931066 2:0.293515 3:2.45182 
0.05768488921641506 1:0.924304 2:0.287428 3:2.51676 
0.05768488921641506 1:0.913478 2:0.287496 3:2.62977 
0.05768488921641506 1:0.858098 2:0.296885 3:2.94884 
0.05768488921641506 1:0.845718 2:0.33761 3:2.69845 
0.05768488921641506 1:0.811754 2:0.324791 3:2.72911 
0.05768488921641506 1:0.788616 2:0.30693 3:2.7764 
0.05768488921641506 1:0.773987 2:0.286357 3:2.80569 
0.05768488921641506 1:0.691569 2:0.139325 3:2.4916 
0.05768488921641506 1:0.676546 2:0.101489 3:2.41579 
0.05768488921641506 1:0.664449 2:0.116756 3:2.43005 
0.05768488921641506 1:0.642766 2:0.142027 3:2.37949 
0.05768488921641506 1:0.643667 2:0.990503 3:1.70263 
0.05768488921641506 1:0.699093 2:0.900283 3:2.0751 
0.05768488921641506 1:0.74148 2:0.868001 3:1.72775 
0.05768488921641506 1:0.610773 2:0.0932462 3:2.20586 
0.05768488921641506 1:0.624818 2:0.155425 3:2.77508 
0.05768488921641506 1:0.705986 2:1.27087 3:1.63303 
0.05768488921641506 1:0.982122 2:0.847845 3:0.380386 
0.05768488921641506 1:0.938783 2:0.872402 3:0.192506 
0.05768488921641506 1:1.19323 2:1.05044 3:1.36319 
0.05768488921641506 1:1.18306 2:1.01467 3:1.35468 
0.05768488921641506 1:1.17588 2:0.967107 3:1.3468 
0.05768488921641506 1:1.15558 2:0.752722 3:0.946247 
0.05768488921641506 1:1.03846 2:0.323564 3:0.961705 
0.05768488921641506 1:0.950161 2:0.133167 3:1.03343 
0.05768488921641506 1:0.940485 2:0.117531 3:0.674738 
0.05768488921641506 1:0.529844 2:1.02131 3:1.41507 
0.05768488921641506 1:0.727614 2:0.382506 3:2.0634 
0.05768488921641506 1:0.683884 2:1.4018 3:3.05091 
0.05768488921641506 1:0.690007 2:1.38759 3:3.09846 
0.05768488921641506 1:0.69563 2:1.2653 3:0.124738 
0.05768488921641506 1:0.662101 2:1.26684 3:2.41132 
0.05768488921641506 1:0.688422 2:1.1286 3:0.354935 
0.05768488921641506 1:0.92542 2:0.166649 3:0.2562 
0.05768488921641506 1:0.948243 2:0.249584 3:0.216719 
0.05768488921641506 1:1.48364 2:1.01308 3:0.601234 
0.05768488921641506 1:1.51474 2:0.971274 3:0.579058 
0.05768488921641506 1:1.62018 2:0.187833 3:0.483238 
0.05768488921641506 1:1.46777 2:0.0106756 3:0.246805 
0.05768488921641506 1:1.46362 2:0.00796389 3:0.23959 
0.05768488921641506 1:1.46305 2:0.0320993 3:0.120802 
0.05768488921641506 1:1.48569 2:0.135754 3:0.0210763 
0.05768488921641506 1:1.49519 2:0.142619 3:0.00388003 
0.05768488921641506 1:1.51436 2:0.122572 3:0.0503502 
0.05768488921641506 1:1.50024 2:0.0677886 3:0.0133672 
0.05768488921641506 1:1.50107 2:0.0871619 3:0.0165966 
0.05768488921641506 1:1.50088 2:0.0504818 3:0.00915738 
0.05768488921641506 1:1.49536 2:0.030173 3:0.0119613 
0.05768488921641506 1:1.45103 2:0.00769293 3:0.123103 
0.05768488921641506 1:1.43642 2:0.00256231 3:0.159466 
0.05768488921641506 1:1.10542 2:0.946093 3:0.165319 
0.05768488921641506 1:1.13637 2:0.864806 3:0.124532 
0.05768488921641506 1:1.14515 2:0.408878 3:0.00188414 
0.05768488921641506 1:1.11515 2:0.0178584 3:0.0639926 
0.05768488921641506 1:0.961152 2:0.0133125 3:0.404276 
0.05768488921641506 1:0.944857 2:0.00130328 3:0.415004 
0.05768488921641506 1:0.895609 2:0.114182 3:0.412696 
0.05768488921641506 1:0.903657 2:0.142733 3:0.399242 
0.05768488921641506 1:0.944956 2:0.15833 3:0.373462 
0.05768488921641506 1:0.949276 2:0.145977 3:0.347459 
0.05768488921641506 1:0.984131 2:0.079357 3:0.347763 
0.05768488921641506 1:0.995031 2:0.113579 3:0.27616 
0.05768488921641506 1:1.01952 2:0.265262 3:0.18988 
0.05768488921641506 1:1.01368 2:0.264476 3:0.161953 
0.05768488921641506 1:1.00118 2:0.237734 3:0.0841018 
0.05768488921641506 1:1.09021 2:0.169725 3:0.246387 
0.05768488921641506 1:1.29268 2:0.0109172 3:0.247168 
0.05768488921641506 1:1.27386 2:0.00966434 3:0.141579 
0.05768488921641506 1:1.20592 2:0.0469376 3:0.0825573 
0.05768488921641506 1:1.06293 2:0.231172 3:0.314844 
0.05768488921641506 1:1.06832 2:0.118945 3:0.19312 
0.05768488921641506 1:1.04641 2:0.0677767 3:0.176894 
0.05768488921641506 1:1.03893 2:0.0748618 3:0.176519 
0.05768488921641506 1:1.13986 2:0.0513683 3:0.137355 
0.05768488921641506 1:1.16898 2:0.00670596 3:0.187215 
0.05768488921641506 1:1.19038 2:0.00495168 3:0.184781 
0.05768488921641506 1:1.21223 2:0.0105341 3:0.215209 
0.05768488921641506 1:1.2097 2:0.0265247 3:0.184594 
0.05768488921641506 1:1.10008 2:0.0394757 3:0.178275 
0.05768488921641506 1:0.999029 2:0.0430764 3:0.358774 
0.05768488921641506 1:0.94779 2:0.0465062 3:0.347598 
0.05768488921641506 1:1.00291 2:0.0861223 3:0.176288 
0.05768488921641506 1:0.981312 2:1.34189 3:1.89406 
0.05768488921641506 1:0.86339 2:1.34707 3:1.85481 
0.05768488921641506 1:0.830171 2:1.24932 3:1.73397 
0.05768488921641506 1:0.835167 2:1.08427 3:0.440242 
0.05768488921641506 1:0.99436 2:0.498762 3:0.0588888 
0.05768488921641506 1:1.00943 2:0.516115 3:0.0611272 
0.05768488921641506 1:1.01338 2:0.179307 3:0.0616116 
0.05768488921641506 1:1.02713 2:0.168442 3:0.0748902 
0.05768488921641506 1:1.03701 2:0.178796 3:0.0896857 
0.05768488921641506 1:1.05332 2:0.168316 3:0.0954846 
0.05768488921641506 1:0.846115 2:0.458521 3:0.412674 
0.05768488921641506 1:1.04373 2:0.0798294 3:0.0706822 
0.05768488921641506 1:1.04324 2:0.106189 3:0.240658 
0.05768488921641506 1:1.08042 2:0.186409 3:0.497104 
0.05768488921641506 1:2.37551 2:0.536416 3:2.23548 
0.05768488921641506 1:1.09259 2:0.17926 3:0.555048 
0.05768488921641506 1:1.09769 2:0.167415 3:0.560403 
0.05768488921641506 1:1.10241 2:0.158034 3:0.553096 
0.05768488921641506 1:1.17925 2:0.0773895 3:0.538587 
0.05768488921641506 1:1.20582 2:0.0515624 3:0.545747 
0.05768488921641506 1:1.23685 2:0.00930519 3:0.495734 
0.05768488921641506 1:3.05544 2:0.213099 3:2.65771 
0.05768488921641506 1:1.23725 2:0.0645579 3:0.357681 
0.05768488921641506 1:1.21452 2:0.212587 3:0.336519 
0.05768488921641506 1:3.33484 2:0.242733 3:2.60115 
0.05768488921641506 1:1.1288 2:0.409933 3:0.196416 
0.05768488921641506 1:3.49837 2:0.220597 3:2.41723 
0.05768488921641506 1:1.07627 2:0.413905 3:0.0717202 
0.05768488921641506 1:3.64062 2:0.217702 3:2.37569 
0.05768488921641506 1:3.67601 2:0.206231 3:2.39589 
0.05768488921641506 1:1.10624 2:0.114932 3:0.0963611 
0.05768488921641506 1:3.84007 2:0.179276 3:2.33961 
0.05768488921641506 1:3.84999 2:0.197827 3:2.2732 
0.05768488921641506 1:3.92954 2:0.255816 3:2.16064 
0.05768488921641506 1:4.02487 2:0.0947719 3:2.21586 
0.05768488921641506 1:4.03439 2:0.177322 3:2.44439 
0.05768488921641506 1:4.04207 2:0.270124 3:2.76713 
0.05768488921641506 1:4.04901 2:0.286206 3:2.99212 
0.05768488921641506 1:4.05061 2:0.238073 3:1.7819 
0.05768488921641506 1:4.03539 2:0.197322 3:1.73283 
0.05768488921641506 1:3.92437 2:0.201284 3:1.39137 
0.05768488921641506 1:3.76165 2:0.616756 3:1.30768 
0.05768488921641506 1:3.549 2:0.775492 3:0.244875 
0.05768488921641506 1:1.0692 2:0.0516844 3:0.593162 
0.05768488921641506 1:3.46951 2:0.754378 3:0.250876 
0.05768488921641506 1:3.43236 2:0.745133 3:0.0907252 
0.05768488921641506 1:3.13147 2:0.825393 3:0.437544 
0.05768488921641506 1:3.08374 2:0.845528 3:0.359901 
0.05768488921641506 1:3.05997 2:0.859662 3:0.33783 
0.05768488921641506 1:3.03552 2:0.868685 3:0.350159 
0.05768488921641506 1:0.919626 2:0.0596973 3:0.315443 
0.05768488921641506 1:0.973155 2:0.056014 3:0.402232 
0.05768488921641506 1:2.42718 2:0.557105 3:1.03434 
0.05768488921641506 1:2.3951 2:0.436589 3:0.947603 
0.05768488921641506 1:2.31855 2:0.559175 3:0.868307 
0.05768488921641506 1:2.27103 2:0.671107 3:0.776644 
0.05768488921641506 1:2.09216 2:0.666702 3:0.273569 
0.05768488921641506 1:2.06498 2:0.583568 3:0.225395 
0.05768488921641506 1:1.99687 2:0.450886 3:0.00706262 
0.05768488921641506 1:1.96994 2:0.4624 3:0.0447312 
0.05768488921641506 1:1.95014 2:0.452207 3:0.18663 
0.05768488921641506 1:1.94869 2:0.426218 3:0.262999 
0.05768488921641506 1:0.86404 2:0.728696 3:0.417346 
0.05768488921641506 1:1.92695 2:0.359202 3:0.432098 
0.05768488921641506 1:1.88997 2:0.451014 3:0.407571 
0.05768488921641506 1:0.935051 2:0.0949122 3:0.452547 
0.05768488921641506 1:1.67064 2:0.815675 3:0.0861975 
0.05768488921641506 1:0.937003 2:0.131469 3:0.228523 
0.05768488921641506 1:0.999653 2:0.0356529 3:0.469275 
0.05768488921641506 1:1.01501 2:0.0813293 3:0.496016 
0.05768488921641506 1:1.55773 2:0.62805 3:0.26614 
0.05768488921641506 1:1.01986 2:0.140854 3:0.489281 
0.05768488921641506 1:1.53064 2:0.61351 3:0.21314 
0.05768488921641506 1:1.51153 2:0.625232 3:0.196462 
0.05768488921641506 1:1.07508 2:0.363173 3:0.506065 
0.05768488921641506 1:1.11829 2:0.41072 3:0.441393 
0.05768488921641506 1:1.12377 2:0.417499 3:0.407753 
0.05768488921641506 1:1.25052 2:0.799506 3:0.0192808 
0.05768488921641506 1:1.23003 2:0.615349 3:0.395198 
0.05768488921641506 1:1.18959 2:0.605934 3:0.0262349 
0.05768488921641506 1:1.24855 2:0.586161 3:0.379293 
0.05768488921641506 1:1.254 2:0.554094 3:0.365002 
0.05768488921641506 1:1.26738 2:0.49877 3:0.389892 
0.05768488921641506 1:0.724386 2:0.779811 3:0.393993 
0.05768488921641506 1:1.0619 2:0.652454 3:0.292459 
0.05768488921641506 1:0.738261 2:0.474624 3:0.462607 
0.05768488921641506 1:1.42214 2:0.241484 3:0.51621 
0.05768488921641506 1:1.45882 2:0.261765 3:0.47003 
0.05768488921641506 1:0.836955 2:0.570231 3:0.233426 
0.05768488921641506 1:1.52826 2:0.184572 3:0.514896 
0.05768488921641506 1:0.820065 2:0.599112 3:0.291303 
0.05768488921641506 1:0.742884 2:0.725779 3:0.316102 
0.05768488921641506 1:1.60756 2:0.14271 3:0.422008 
0.05768488921641506 1:0.945349 2:0.0980099 3:0.304684 
0.05768488921641506 1:1.57624 2:0.0112942 3:0.167875 
0.05768488921641506 1:1.36689 2:0.104457 3:0.812677 
0.05768488921641506 1:0.610561 2:0.175197 3:0.932914 
0.05768488921641506 1:1.18963 2:0.027654 3:0.652946 
0.05768488921641506 1:1.17972 2:0.0299837 3:0.627704 
0.05768488921641506 1:1.11114 2:0.217961 3:0.50045 
0.05768488921641506 1:1.13287 2:0.252438 3:0.103884 
0.05768488921641506 1:1.23416 2:0.074152 3:0.199262 
0.05768488921641506 1:1.29708 2:0.0176492 3:0.209655 
0.05768488921641506 1:1.31393 2:0.108418 3:0.142773 
0.05768488921641506 1:1.25122 2:0.175159 3:0.129173 
0.05768488921641506 1:1.25301 2:0.189538 3:0.110277 
0.05768488921641506 1:1.26664 2:0.238787 3:0.0703949 
0.05768488921641506 1:1.3018 2:0.133656 3:0.110151 
0.05768488921641506 1:1.37477 2:0.151103 3:0.265993 
0.05768488921641506 1:1.46691 2:1.08617 3:1.72698 
0.05768488921641506 1:0.854588 2:0.811254 3:1.66903 
0.05768488921641506 1:1.46128 2:1.04086 3:1.72661 
0.05768488921641506 1:0.826769 2:0.741686 3:2.12539 
0.05768488921641506 1:0.784397 2:0.284689 3:2.9557 
0.05768488921641506 1:1.42475 2:0.360967 3:2.86555 
0.05768488921641506 1:1.42275 2:0.68911 3:2.66717 
0.05768488921641506 1:1.4163 2:0.786719 3:1.94815 
0.05768488921641506 1:1.01517 2:0.926442 3:1.75176 
0.05768488921641506 1:0.486476 2:0.283971 3:2.45943 
0.05768488921641506 1:1.41986 2:0.60763 3:0.577331 
0.05768488921641506 1:1.01696 2:0.0444932 3:0.428062 
0.05768488921641506 1:0.733627 2:0.198853 3:1.07503 
0.05768488921641506 1:0.703678 2:0.236399 3:1.0811 
0.05768488921641506 1:0.667016 2:0.158101 3:0.901538 
0.05768488921641506 1:1.0446 2:0.770557 3:0.610227 
0.05768488921641506 1:1.03628 2:0.642187 3:0.208581 
0.05768488921641506 1:1.02642 2:0.383174 3:0.0818257 
0.05768488921641506 1:0.889137 2:0.0874274 3:0.391434 
0.05768488921641506 1:0.919118 2:0.156393 3:0.39423 
0.05768488921641506 1:1.77829 2:0.238853 3:0.110177 
0.05768488921641506 1:0.9867 2:0.077154 3:0.309065 
0.05768488921641506 1:1.76487 2:0.13222 3:0.0388983 
0.05768488921641506 1:1.70642 2:0.0855762 3:0.129943 
0.05768488921641506 1:1.57328 2:0.17429 3:0.518639 
0.05768488921641506 1:1.11789 2:1.01431 3:2.03456 
0.05768488921641506 1:0.359735 2:0.144755 3:1.5637 
0.05768488921641506 1:1.17467 2:0.261288 3:0.269245 
0.05768488921641506 1:1.62797 2:0.140548 3:0.675888 
0.05768488921641506 1:1.6198 2:0.084705 3:0.528144 
0.05768488921641506 1:1.62395 2:0.129491 3:0.452741 
0.05768488921641506 1:1.64251 2:0.254674 3:0.43945 
0.05768488921641506 1:1.66127 2:0.296847 3:0.472764 
0.05768488921641506 1:1.67935 2:0.356692 3:0.496415 
0.05768488921641506 1:1.68829 2:0.381012 3:0.473356 
0.05768488921641506 1:1.15455 2:0.230857 3:0.0160142 
0.05768488921641506 1:1.74901 2:0.337784 3:0.345615 
0.05768488921641506 1:1.10646 2:0.325962 3:0.0262674 
0.05768488921641506 1:1.10209 2:0.338586 3:0.00113235 
0.05768488921641506 1:1.7065 2:0.288738 3:0.096155 
0.05768488921641506 1:0.994304 2:0.013314 3:0.477435 
0.05768488921641506 1:0.955673 2:0.152404 3:0.560512 
0.05768488921641506 1:1.49868 2:0.213756 3:0.629836 
0.05768488921641506 1:1.43687 2:0.367529 3:0.695442 
0.05768488921641506 1:1.38035 2:0.478045 3:0.752056 
0.05768488921641506 1:0.74928 2:0.679596 3:0.710518 
0.05768488921641506 1:1.20115 2:0.245807 3:0.44123 
0.05768488921641506 1:1.23014 2:0.165789 3:0.263712 
0.05768488921641506 1:1.34124 2:0.128981 3:0.297365 
0.05768488921641506 1:1.35529 2:0.157356 3:0.335296 
0.05768488921641506 1:1.46777 2:0.103333 3:0.558033 
0.05768488921641506 1:1.47636 2:0.121388 3:0.537589 
0.05768488921641506 1:1.482 2:0.102329 3:0.453223 
0.05768488921641506 1:1.47321 2:0.108547 3:0.319215 
0.05768488921641506 1:1.47396 2:0.126546 3:0.29185 
0.05768488921641506 1:1.47554 2:0.191731 3:0.240285 
0.05768488921641506 1:1.33835 2:0.34384 3:0.373173 
0.05768488921641506 1:1.28882 2:0.227552 3:0.411514 
0.05768488921641506 1:1.42133 2:0.559428 3:0.260818 
0.05768488921641506 1:0.932948 2:0.247385 3:0.270938 
0.05768488921641506 1:1.48396 2:0.540432 3:0.354619 
0.05768488921641506 1:0.939923 2:0.240898 3:0.234157 
0.05768488921641506 1:1.52489 2:0.3989 3:0.431088 
0.05768488921641506 1:1.48215 2:0.104029 3:0.202154 
0.05768488921641506 1:1.48135 2:0.110162 3:0.187829 
0.05768488921641506 1:1.46462 2:0.116628 3:0.184802 
0.05768488921641506 1:1.44261 2:0.0669462 3:0.222519 
0.05768488921641506 1:1.42178 2:0.0171004 3:0.272642 
0.05768488921641506 1:0.562416 2:0.884757 3:1.95497 
0.05768488921641506 1:1.39151 2:0.103063 3:0.121012 
0.05768488921641506 1:1.41707 2:0.0698642 3:0.0139695 
0.05768488921641506 1:1.43141 2:0.0272981 3:0.064255 
0.05768488921641506 1:1.06935 2:0.133517 3:0.612529 
0.05768488921641506 1:0.524433 2:0.761757 3:1.63951 
0.05768488921641506 1:1.53275 2:0.00664892 3:0.0809667 
0.05768488921641506 1:1.52177 2:0.0312757 3:0.0232675 
0.05768488921641506 1:1.00999 2:0.258095 3:0.025586 
0.05768488921641506 1:0.989971 2:0.151315 3:0.274793 
0.05768488921641506 1:0.898635 2:0.295083 3:0.738546 
0.05768488921641506 1:1.39263 2:0.241885 3:0.429476 
0.05768488921641506 1:0.840696 2:0.507824 3:0.839789 
0.05768488921641506 1:0.822932 2:0.491509 3:0.814515 
0.05768488921641506 1:0.701352 2:0.692248 3:0.397909 
0.05768488921641506 1:1.29377 2:0.407609 3:0.528474 
0.05768488921641506 1:0.467946 2:1.24092 3:0.921755 
0.05768488921641506 1:1.27786 2:0.399896 3:0.421326 
0.05768488921641506 1:0.874284 2:0.839301 3:0.508125 
0.05768488921641506 1:0.390466 2:1.16731 3:0.914486 
0.05768488921641506 1:1.27688 2:0.345479 3:0.336235 
0.05768488921641506 1:1.28348 2:0.332759 3:0.234456 
0.05768488921641506 1:1.26486 2:0.306828 3:0.228577 
0.05768488921641506 1:0.651702 2:0.1487 3:0.931868 
0.05768488921641506 1:0.419717 2:0.262055 3:1.38337 
0.05768488921641506 1:0.382113 2:0.32849 3:1.38526 
0.05768488921641506 1:0.918677 2:0.299563 3:0.852172 
0.05768488921641506 1:0.711392 2:0.527987 3:0.680964 
0.05768488921641506 1:0.759141 2:0.561547 3:0.755809 
0.05768488921641506 1:0.811152 2:0.59349 3:0.831674 
0.05768488921641506 1:0.930949 2:0.389413 3:0.74759 
0.05768488921641506 1:0.926089 2:0.304956 3:0.685562 
0.05768488921641506 1:1.35008 2:0.118378 3:0.293591 
0.05768488921641506 1:1.35299 2:0.0334493 3:0.242796 
0.05768488921641506 1:1.34252 2:0.0226838 3:0.16119 
0.05768488921641506 1:1.33255 2:0.0907584 3:0.0854477 
0.05768488921641506 1:1.33429 2:0.123848 3:0.0836027 
0.05768488921641506 1:1.34354 2:0.115508 3:0.117313 
0.05768488921641506 1:0.609647 2:1.3804 3:0.37104 
0.05768488921641506 1:1.41339 2:0.243869 3:0.215499 
0.05768488921641506 1:1.40342 2:0.338689 3:0.0701315 
0.05768488921641506 1:1.39353 2:0.343954 3:0.0197655 
0.05768488921641506 1:1.32929 2:0.207469 3:0.216082 
0.05768488921641506 1:0.723181 2:0.348081 3:1.4985 
0.05768488921641506 1:1.25606 2:0.0580474 3:0.371847 
0.05768488921641506 1:0.911965 2:0.222856 3:1.65605 
0.05768488921641506 1:1.03101 2:0.433682 3:1.18822 
0.05768488921641506 1:1.04623 2:0.417025 3:1.10745 
0.05768488921641506 1:1.06834 2:0.344389 3:0.817624 
0.05768488921641506 1:1.07177 2:0.2483 3:0.683126 
0.05768488921641506 1:1.35347 2:0.661503 3:1.82099 
0.05768488921641506 1:1.01416 2:0.00988541 3:0.2219 
0.05768488921641506 1:1.33554 2:0.0137161 3:0.0627895 
0.05768488921641506 1:1.31445 2:0.143878 3:0.0781588 
0.05768488921641506 1:1.30947 2:0.15822 3:0.105252 
0.05768488921641506 1:0.74592 2:0.281817 3:0.541393 
0.05768488921641506 1:1.55006 2:0.615681 3:0.37526 
0.05768488921641506 1:0.589222 2:0.251491 3:1.28006 
0.05768488921641506 1:0.567487 2:0.252242 3:1.28931 
0.05768488921641506 1:0.552903 2:0.25728 3:1.23822 
0.05768488921641506 1:0.524489 2:0.196688 3:1.06727 
0.05768488921641506 1:1.32624 2:0.077739 3:1.1022 
0.05768488921641506 1:1.29185 2:0.0755678 3:1.05734 
0.05768488921641506 1:1.2812 2:0.153481 3:0.988568 
0.05768488921641506 1:1.27606 2:0.182617 3:0.846144 
0.05768488921641506 1:1.27995 2:0.192407 3:0.729355 
0.05768488921641506 1:1.10917 2:0.0599209 3:0.597428 
0.05768488921641506 1:0.674834 2:0.675168 3:2.35668 
0.05768488921641506 1:0.995636 2:0.593804 3:1.25315 
0.05768488921641506 1:1.01642 2:0.345422 3:0.708259 
0.05768488921641506 1:0.713356 2:0.20577 3:0.662705 
0.05768488921641506 1:1.08554 2:0.341257 3:0.154414 
0.05768488921641506 1:0.76214 2:0.0905768 3:0.685956 
0.05768488921641506 1:1.15605 2:0.239189 3:0.50775 
0.05768488921641506 1:1.16758 2:0.223125 3:0.500349 
0.05768488921641506 1:1.18945 2:0.112697 3:0.0654846 
0.05768488921641506 1:1.19374 2:0.105526 3:0.0858437 
0.05768488921641506 1:1.22281 2:0.0406779 3:0.209788 
0.05768488921641506 1:1.21429 2:0.0405498 3:0.117767 
0.05768488921641506 1:1.21074 2:0.0327186 3:0.0849626 
0.05768488921641506 1:1.17283 2:0.0261676 3:0.146414 
0.05768488921641506 1:1.06759 2:0.0692886 3:0.545614 
0.05768488921641506 1:1.05257 2:0.0452368 3:0.58966 
0.05768488921641506 1:1.07419 2:0.172798 3:0.390692 
0.05768488921641506 1:1.1142 2:0.263111 3:0.129674 
0.05768488921641506 1:1.24907 2:0.277256 3:0.541923 
0.05768488921641506 1:1.26153 2:0.273171 3:0.540271 
0.05768488921641506 1:0.771394 2:0.221278 3:0.532627 
0.05768488921641506 1:1.30973 2:0.252645 3:0.602382 
0.05768488921641506 1:0.783368 2:0.223617 3:0.534934 
0.05768488921641506 1:0.794055 2:0.225078 3:0.527696 
0.05768488921641506 1:1.32852 2:0.235123 3:0.572194 
0.05768488921641506 1:1.3378 2:0.2424 3:0.551352 
0.05768488921641506 1:1.36134 2:0.255616 3:0.549226 
0.05768488921641506 1:0.863504 2:0.216057 3:0.549777 
0.05768488921641506 1:0.90009 2:0.290656 3:0.326963 
0.05768488921641506 1:0.901757 2:0.306492 3:0.229523 
0.05768488921641506 1:1.39024 2:0.33558 3:0.106267 
0.05768488921641506 1:1.32756 2:0.0347255 3:0.106977 
0.05768488921641506 1:1.38137 2:0.244824 3:0.0229004 
0.05768488921641506 1:0.95286 2:0.186493 3:0.363628 
0.05768488921641506 1:1.45449 2:0.385991 3:0.109472 
0.05768488921641506 1:1.60321 2:0.390965 3:0.471513 
0.05768488921641506 1:1.64779 2:0.293861 3:0.491803 
0.05768488921641506 1:1.25765 2:0.321349 3:0.324461 
0.05768488921641506 1:1.65121 2:0.173483 3:0.418376 
0.05768488921641506 1:1.65036 2:0.0832011 3:0.377088 
0.05768488921641506 1:1.25843 2:0.268062 3:0.0456634 
0.05768488921641506 1:1.27443 2:0.271131 3:0.00135923 
0.05768488921641506 1:1.28929 2:0.237977 3:0.0417226 
0.05768488921641506 1:1.69058 2:0.0366477 3:0.248362 
0.05768488921641506 1:1.29669 2:0.191309 3:0.0730808 
0.05768488921641506 1:1.69232 2:0.1506 3:0.0317921 
0.05768488921641506 1:1.28754 2:0.0729394 3:0.0896317 
0.05768488921641506 1:1.28928 2:0.0831674 3:0.118665 
0.05768488921641506 1:1.70735 2:0.214672 3:0.0588451 
0.05768488921641506 1:1.7218 2:0.27055 3:0.167446 
0.05768488921641506 1:1.33866 2:0.197931 3:0.0684769 
0.05768488921641506 1:1.36001 2:0.228629 3:0.0114955 
0.05768488921641506 1:1.77758 2:0.390031 3:0.214675 
0.05768488921641506 1:1.37119 2:0.162284 3:0.05404 
0.05768488921641506 1:1.36849 2:0.0922563 3:0.0858504 
0.05768488921641506 1:1.37406 2:0.109091 3:0.0697588 
0.05768488921641506 1:1.35144 2:0.00921449 3:0.00256608 
0.05768488921641506 1:1.33526 2:0.0383729 3:0.0586314 
0.05768488921641506 1:1.8131 2:0.302 3:0.490065 
0.05768488921641506 1:1.80477 2:0.255755 3:0.498229 
0.05768488921641506 1:1.79745 2:0.217481 3:0.492467 
0.05768488921641506 1:1.77571 2:0.137382 3:0.415519 
0.05768488921641506 1:1.72213 2:0.281838 3:0.799047 
0.05768488921641506 1:1.18412 2:0.0145 3:0.63799 
0.05768488921641506 1:1.17142 2:0.0574158 3:0.687032 
0.05768488921641506 1:1.13458 2:0.0806615 3:0.860637 
0.05768488921641506 1:1.64444 2:0.221835 3:0.780322 
0.05768488921641506 1:1.08845 2:0.0753571 3:1.06175 
0.05768488921641506 1:1.08159 2:0.0685021 3:1.07164 
0.05768488921641506 1:1.06442 2:0.0282277 3:1.07529 
0.05768488921641506 1:1.52502 2:0.039558 3:0.840178 
0.05768488921641506 1:1.00656 2:0.0713718 3:0.696295 
0.05768488921641506 1:1.37868 2:0.151623 3:0.828896 
0.05768488921641506 1:1.35996 2:0.0899382 3:0.702652 
0.05768488921641506 1:1.02496 2:0.0501974 3:0.510648 
0.05768488921641506 1:1.02736 2:0.0595699 3:0.464992 
0.05768488921641506 1:1.02971 2:0.067035 3:0.415049 
0.05768488921641506 1:1.03041 2:0.0536813 3:0.255038 
0.05768488921641506 1:1.28465 2:0.173794 3:0.456664 
0.05768488921641506 1:1.02308 2:0.0113387 3:0.162036 
0.05768488921641506 1:1.01859 2:0.0044812 3:0.158738 
0.05768488921641506 1:1.23846 2:0.246963 3:0.456444 
0.05768488921641506 1:1.17997 2:0.297314 3:0.476053 
0.05768488921641506 1:1.18952 2:0.205901 3:0.220538 
0.05768488921641506 1:1.22302 2:0.0988356 3:0.0531315 
0.05768488921641506 1:1.21753 2:0.125255 3:0.0498766 
0.05768488921641506 1:1.01982 2:0.0966569 3:0.119188 
0.05768488921641506 1:1.19085 2:0.245257 3:0.0487005 
0.05768488921641506 1:1.13616 2:0.392276 3:0.00218664 
0.05768488921641506 1:1.05139 2:0.485357 3:0.0479893 
0.05768488921641506 1:1.80333 2:0.168513 3:0.303312 
0.05768488921641506 1:1.8888 2:0.265662 3:0.346709 
0.05768488921641506 1:2.10408 2:0.31379 3:0.32253 
0.05768488921641506 1:2.12595 2:0.347679 3:0.310893 
0.05768488921641506 1:2.25897 2:3.16603 3:1.92791 
0.05768488921641506 1:2.6807 2:0.1792 3:0.325954 
0.05768488921641506 1:2.6795 2:0.280371 3:0.193359 
0.05768488921641506 1:2.68491 2:0.289107 3:0.172847 
0.05768488921641506 1:2.72154 2:0.144985 3:0.151805 
0.05768488921641506 1:2.6965 2:0.19107 3:0.0826929 
0.05768488921641506 1:2.5827 2:0.20091 3:0.0667348 
0.05768488921641506 1:2.55477 2:0.118589 3:0.0994749 
0.05768488921641506 1:2.50711 2:0.161641 3:0.130505 
0.05768488921641506 1:2.39005 2:0.361873 3:0.165806 
0.05768488921641506 1:2.52947 2:3.23538 3:1.64727 
0.05768488921641506 1:2.19529 2:0.287718 3:1.33466 
0.05768488921641506 1:1.9635 2:0.258299 3:0.277831 
0.05768488921641506 1:1.51395 2:3.05321 3:1.55665 
0.05768488921641506 1:1.50938 2:1.34685 3:0.0513111 
0.05768488921641506 1:1.51527 2:0.41427 3:0.0348078 
0.05768488921641506 1:1.42812 2:0.0432082 3:0.0988874 
0.05768488921641506 1:1.37218 2:2.825 3:0.277653 
0.05768488921641506 1:1.12277 2:1.1121 3:0.43733 
0.05768488921641506 1:1.091 2:0.98163 3:0.437562 
0.05768488921641506 1:1.00219 2:0.355847 3:0.143014 
0.05768488921641506 1:1.1481 2:0.468605 3:0.0501339 
0.05768488921641506 1:0.731012 2:3.17012 3:1.49773 
0.05768488921641506 1:0.752451 2:2.48934 3:0.102112 
0.05768488921641506 1:0.900708 2:0.59479 3:0.234407 
0.05768488921641506 1:0.756932 2:0.823266 3:0.76447 
0.05768488921641506 1:0.835547 2:0.622839 3:0.14366 
0.05768488921641506 1:0.930735 2:0.0649443 3:0.432733 
0.05768488921641506 1:0.977609 2:0.00738678 3:0.315714 
0.05768488921641506 1:0.984174 2:0.0582664 3:0.280008 
0.05768488921641506 1:0.990352 2:0.130379 3:0.220911 
0.05768488921641506 1:1.00134 2:0.191218 3:0.165155 
0.05768488921641506 1:1.07806 2:0.0276955 3:0.332776 
0.05768488921641506 1:1.10271 2:0.113736 3:0.375295 
0.05768488921641506 1:1.11421 2:0.145411 3:0.388377 
0.05768488921641506 1:1.19432 2:0.0566371 3:0.345208 
0.05768488921641506 1:1.20742 2:0.141741 3:0.248792 
0.05768488921641506 1:1.20682 2:0.155136 3:0.217321 
0.05768488921641506 1:1.14903 2:0.0652551 3:0.0678687 
0.05768488921641506 1:1.09392 2:0.0699472 3:0.23351 
0.05768488921641506 1:0.962653 2:0.14157 3:0.547963 
0.05768488921641506 1:0.881138 2:0.303026 3:0.603558 
0.05768488921641506 1:0.86445 2:0.322254 3:0.555582 
0.05768488921641506 1:0.852035 2:0.265092 3:0.507582 
0.05768488921641506 1:0.950129 2:0.967098 3:1.64073 
0.05768488921641506 1:1.06792 2:0.0770874 3:0.332034 
0.05768488921641506 1:1.08778 2:0.0366832 3:0.375457 
0.05768488921641506 1:1.11239 2:0.0177361 3:0.436777 
0.05768488921641506 1:1.01222 2:0.291017 3:0.161121 
0.05768488921641506 1:0.897423 2:0.207489 3:0.432212 
0.05768488921641506 1:0.810937 2:0.0165287 3:0.573205 
0.05768488921641506 1:1.31938 2:1.05966 3:1.43153 
0.05768488921641506 1:1.08532 2:0.695327 3:1.04234 
0.05768488921641506 1:0.831808 2:0.256892 3:1.0393 
0.05768488921641506 1:0.802723 2:0.0324813 3:0.754703 
0.05768488921641506 1:0.909315 2:0.356531 3:0.145503 
0.05768488921641506 1:1.03196 2:0.114783 3:0.190465 
0.05768488921641506 1:1.03127 2:0.151417 3:0.122083 
0.05768488921641506 1:0.926134 2:1.1503 3:1.61834 
0.05768488921641506 1:0.942749 2:0.803869 3:1.73275 
0.05768488921641506 1:0.926204 2:0.963852 3:1.56652 
0.05768488921641506 1:0.9258 2:0.943959 3:1.55133 
0.05768488921641506 1:0.785254 2:0.0671589 3:1.3987 
0.05768488921641506 1:0.914638 2:0.0722552 3:0.370202 
0.05768488921641506 1:0.92113 2:0.0627455 3:0.357822 
0.05768488921641506 1:0.93404 2:0.0465513 3:0.362477 
0.05768488921641506 1:0.982395 2:0.163102 3:0.119239 
0.05768488921641506 1:0.838572 2:0.582303 3:0.581454 
0.05768488921641506 1:0.861003 2:0.359543 3:0.634611 
0.05768488921641506 1:0.868844 2:0.267623 3:0.613338 
0.05768488921641506 1:0.929471 2:0.0871331 3:0.40572 
0.05768488921641506 1:0.956837 2:0.0200111 3:0.412856 
0.05768488921641506 1:0.977011 2:0.0903258 3:0.336929 
0.05768488921641506 1:1.01446 2:0.164773 3:0.377027 
0.05768488921641506 1:1.02718 2:0.205933 3:0.380459 
0.05768488921641506 1:1.08386 2:0.119136 3:0.195447 
0.05768488921641506 1:1.07863 2:0.12653 3:0.135449 
0.05768488921641506 1:1.06681 2:0.156561 3:0.0519159 
0.05768488921641506 1:1.06544 2:0.16446 3:0.0311301 
0.05768488921641506 1:1.06245 2:0.0187746 3:0.0634934 
0.05768488921641506 1:1.08098 2:0.0516955 3:0.106237 
0.05768488921641506 1:1.16368 2:0.0133681 3:0.0109103 
0.05768488921641506 1:1.14504 2:0.0320106 3:0.0563388 
0.05768488921641506 1:1.13312 2:0.0150689 3:0.0557932 
0.05768488921641506 1:1.10324 2:0.0940182 3:0.107148 
0.05768488921641506 1:0.951008 2:0.416508 3:0.158961 
0.05768488921641506 1:1.06391 2:0.101999 3:0.247054 
0.05768488921641506 1:1.15181 2:0.148031 3:0.233116 
0.05768488921641506 1:1.05049 2:1.17193 3:1.52542 
0.05768488921641506 1:1.09577 2:0.0656754 3:0.0318347 
0.05768488921641506 1:1.01005 2:0.115834 3:0.202159 
0.05768488921641506 1:1.09093 2:0.0633252 3:0.0326424 
0.05768488921641506 1:1.10991 2:0.00806707 3:0.0267895 
0.05768488921641506 1:1.11852 2:0.000805466 3:0.0487702 
0.05768488921641506 1:0.714989 2:0.881646 3:0.728676 
0.05768488921641506 1:1.21249 2:0.0952666 3:0.155825 
0.05768488921641506 1:1.22645 2:0.128173 3:0.149445 
0.05768488921641506 1:1.23865 2:0.186696 3:0.0751421 
0.05768488921641506 1:1.23214 2:0.111488 3:8.74376e-05 
0.05768488921641506 1:1.22924 2:0.0457345 3:0.00616277 
0.05768488921641506 1:1.24314 2:0.11014 3:0.080885 
0.05768488921641506 1:1.25282 2:0.0578115 3:0.0726385 
0.05768488921641506 1:1.25448 2:0.075151 3:0.0827884 
0.05768488921641506 1:1.25023 2:0.0819162 3:0.0609656 
0.05768488921641506 1:1.25201 2:0.0054712 3:0.0168896 
0.05768488921641506 1:1.26292 2:0.00440454 3:0.0409064 
0.05768488921641506 1:1.25797 2:0.0372091 3:0.02763 
0.05768488921641506 1:1.24261 2:0.109992 3:0.00657086 
0.05768488921641506 1:1.25578 2:0.142774 3:0.0527303 
0.05768488921641506 1:1.30926 2:0.0135473 3:0.0164791 
0.05768488921641506 1:1.0639 2:1.11982 3:1.66782 
0.05768488921641506 1:1.10863 2:0.896734 3:0.690212 
0.05768488921641506 1:1.3174 2:0.0391895 3:0.0210637 
0.05768488921641506 1:1.29245 2:0.0974082 3:0.00350236 
0.05768488921641506 1:1.31894 2:0.0671438 3:0.081425 
0.05768488921641506 1:1.16688 2:1.16546 3:1.74963 
0.05768488921641506 1:1.14959 2:0.224539 3:0.0713374 
0.05768488921641506 1:1.05391 2:0.151249 3:0.42315 
0.05768488921641506 1:1.03337 2:0.0699759 3:0.428606 
0.05768488921641506 1:0.631488 2:1.34671 3:1.03073 
0.05768488921641506 1:1.09813 2:0.240485 3:0.395167 
0.05768488921641506 1:1.07754 2:0.173238 3:0.272718 
0.05768488921641506 1:1.04512 2:0.070275 3:0.124146 
0.05768488921641506 1:0.885078 2:0.187057 3:0.394132 
0.05768488921641506 1:0.906758 2:0.158047 3:0.334395 
0.05768488921641506 1:0.924849 2:0.219507 3:0.204649 
0.05768488921641506 1:0.946534 2:0.241434 3:0.243002 
0.05768488921641506 1:0.987224 2:0.235529 3:0.308225 
0.05768488921641506 1:0.996003 2:0.193364 3:0.186543 
0.05768488921641506 1:1.02752 2:0.157433 3:0.220588 
0.05768488921641506 1:1.03218 2:0.549665 3:0.551039 
0.05768488921641506 1:1.01561 2:0.000805168 3:0.160107 
0.05768488921641506 1:0.951838 2:0.0338626 3:0.303667 
0.05768488921641506 1:1.05968 2:0.0816998 3:0.0495122 
0.05768488921641506 1:1.61858 2:0.942565 3:2.29563 
0.05768488921641506 1:1.62607 2:0.364533 3:0.502647 
0.05768488921641506 1:0.956907 2:0.700119 3:0.307511 
0.05768488921641506 1:0.934754 2:0.493583 3:0.126818 
0.05768488921641506 1:1.42468 2:0.306346 3:1.18167 
0.05768488921641506 1:0.993489 2:0.113683 3:0.367621 
0.05768488921641506 1:1.53508 2:0.358044 3:1.31958 
0.05768488921641506 1:1.5784 2:0.483575 3:1.16192 
0.05768488921641506 1:1.6363 2:0.500718 3:1.15535 
0.05768488921641506 1:1.65569 2:0.490992 3:1.11771 
0.05768488921641506 1:1.70889 2:0.25069 3:0.869573 
0.05768488921641506 1:1.71437 2:0.180999 3:0.79378 
0.05768488921641506 1:1.70637 2:0.12847 3:0.676274 
0.05768488921641506 1:1.6774 2:0.0708397 3:0.406174 
0.05768488921641506 1:0.92147 2:1.07937 3:1.48406 
0.05768488921641506 1:1.67926 2:0.0227834 3:0.318949 
0.05768488921641506 1:1.69026 2:0.0825318 3:0.307796 
0.05768488921641506 1:0.625696 2:1.20682 3:1.53 
0.05768488921641506 1:1.93038 2:0.411785 3:0.359302 
0.05768488921641506 1:1.91205 2:0.263318 3:0.257962 
0.05768488921641506 1:0.804496 2:0.258734 3:0.483874 
0.05768488921641506 1:1.84999 2:0.00534288 3:0.0356137 
0.05768488921641506 1:0.874615 2:0.0210975 3:0.666359 
0.05768488921641506 1:0.930603 2:1.12203 3:1.58716 
0.05768488921641506 1:0.915855 2:0.775545 3:1.01824 
0.05768488921641506 1:2.13053 2:1.04358 3:1.05425 
0.05768488921641506 1:2.10514 2:0.950641 3:1.05255 
0.05768488921641506 1:1.62089 2:0.407349 3:1.86609 
0.05768488921641506 1:1.60129 2:0.0674476 3:1.19543 
0.05768488921641506 1:1.58879 2:0.284301 3:0.631441 
0.05768488921641506 1:1.56342 2:0.0333137 3:0.34281 
0.05768488921641506 1:1.48522 2:0.0813389 3:0.470024 
0.05768488921641506 1:1.36836 2:0.0526595 3:0.547606 
0.05768488921641506 1:1.38652 2:0.0673446 3:0.363376 
0.05768488921641506 1:1.36145 2:0.0607685 3:0.399096 
0.05768488921641506 1:0.704028 2:0.391469 3:2.63978 
0.05768488921641506 1:1.37215 2:0.062379 3:0.0938162 
0.05768488921641506 1:0.754426 2:0.0746394 3:2.02306 
0.05768488921641506 1:0.844693 2:0.221223 3:1.80545 
0.05768488921641506 1:0.872269 2:0.211409 3:1.54664 
0.05768488921641506 1:1.38533 2:1.26262 3:0.803412 
0.05768488921641506 1:0.894974 2:0.205205 3:0.619636 
0.05768488921641506 1:1.24653 2:1.46839 3:0.846766 
0.05768488921641506 1:1.22626 2:0.62141 3:0.232487 
0.05768488921641506 1:1.19818 2:0.474516 3:0.389865 
0.05768488921641506 1:1.16956 2:0.22452 3:0.152683 
0.05768488921641506 1:1.20642 2:0.172231 3:0.00687757 
0.05768488921641506 1:1.14607 2:0.0854348 3:0.1796 
0.05768488921641506 1:1.08538 2:0.297523 3:0.094101 
0.05768488921641506 1:1.105 2:0.259986 3:0.0176338 
0.05768488921641506 1:1.1187 2:0.216457 3:0.0212306 
0.05768488921641506 1:1.12558 2:0.180796 3:0.0374695 
0.05768488921641506 1:1.13194 2:0.0765065 3:0.0423377 
0.05768488921641506 1:1.16398 2:0.0285067 3:0.101225 
0.05768488921641506 1:1.20512 2:0.0281716 3:0.192295 
0.05768488921641506 1:1.3144 2:0.0627512 3:0.389069 
0.05768488921641506 1:1.33087 2:0.0560638 3:0.394356 
0.05768488921641506 1:1.32109 2:0.00148846 3:0.163516 
0.05768488921641506 1:1.29547 2:0.017966 3:0.0675234 
0.05768488921641506 1:1.24393 2:0.166485 3:0.0503806 
0.05768488921641506 1:1.22642 2:0.216154 3:0.0841506 
0.05768488921641506 1:1.19773 2:0.346844 3:0.110431 
0.05768488921641506 1:0.677443 2:0.954703 3:1.59572 
0.05768488921641506 1:1.18158 2:0.397139 3:0.127902 
0.05768488921641506 1:0.632492 2:0.873027 3:1.51811 
0.05768488921641506 1:1.16405 2:0.47558 3:0.128345 
0.05768488921641506 1:1.15771 2:0.477617 3:0.112887 
0.05768488921641506 1:1.14475 2:0.367212 3:0.119694 
0.05768488921641506 1:1.12703 2:0.171208 3:0.112386 
0.05768488921641506 1:1.12429 2:0.151229 3:0.106935 
0.05768488921641506 1:1.12499 2:0.130761 3:0.0550658 
0.05768488921641506 1:1.12676 2:0.178105 3:0.0308557 
0.05768488921641506 1:1.13508 2:0.275066 3:0.0437501 
0.05768488921641506 1:1.06522 2:0.220726 3:0.140772 
0.05768488921641506 1:0.885841 2:0.559525 3:0.328571 
0.05768488921641506 1:0.867458 2:0.625602 3:0.292181 
0.05768488921641506 1:0.870902 2:0.443873 3:0.233756 
0.05768488921641506 1:0.843663 2:0.380274 3:0.606976 
0.05768488921641506 1:1.00809 2:0.132265 3:0.217013 
0.05768488921641506 1:1.00183 2:0.0842752 3:0.170212 
0.05768488921641506 1:1.00971 2:0.0822622 3:0.130532 
0.05768488921641506 1:1.00993 2:0.0949474 3:0.112316 
0.05768488921641506 1:1.01359 2:0.123171 3:0.0857155 
0.05768488921641506 1:1.01933 2:0.149767 3:0.0799955 
0.05768488921641506 1:1.03247 2:1.24344 3:0.347147 
0.05768488921641506 1:1.03662 2:1.10687 3:0.247493 
0.05768488921641506 1:1.07148 2:0.658928 3:1.09037 
0.05768488921641506 1:1.08211 2:0.464461 3:0.895834 
0.05768488921641506 1:1.09731 2:0.187272 3:0.824176 
0.05768488921641506 1:1.22536 2:0.11122 3:0.416604 
0.05768488921641506 1:1.31004 2:0.0830855 3:0.42569 
0.05768488921641506 1:1.31407 2:0.0103302 3:0.367338 
0.05768488921641506 1:1.31569 2:0.0312371 3:0.338454 
0.05768488921641506 1:1.3183 2:0.0262786 3:0.280035 
0.05768488921641506 1:1.31285 2:0.0773508 3:0.147724 
0.05768488921641506 1:1.23114 2:0.116043 3:0.132602 
0.05768488921641506 1:1.49685 2:1.25971 3:0.287997 
0.05768488921641506 1:0.80867 2:0.525166 3:1.06105 
0.05768488921641506 1:0.956319 2:0.328973 3:0.978496 
0.05768488921641506 1:0.886815 2:0.842391 3:0.0276544 
0.05768488921641506 1:0.928139 2:0.204551 3:0.264154 
0.05768488921641506 1:0.995057 2:0.150126 3:0.151619 
0.05768488921641506 1:1.01359 2:0.129212 3:0.159369 
0.05768488921641506 1:1.02543 2:0.141187 3:0.171286 
0.05768488921641506 1:0.99866 2:0.278094 3:0.069475 
0.05768488921641506 1:0.931952 2:0.696081 3:0.284106 
0.05768488921641506 1:0.788525 2:1.27629 3:0.69526 
0.05768488921641506 1:0.834816 2:0.262106 3:0.389532 
0.05768488921641506 1:0.911512 2:0.160536 3:0.462998 
0.05768488921641506 1:0.960001 2:0.0397989 3:0.354516 
0.05768488921641506 1:0.837711 2:0.589821 3:0.301595 
0.05768488921641506 1:0.9065 2:0.432208 3:0.361969 
0.05768488921641506 1:0.950491 2:0.182929 3:0.369263 
0.05768488921641506 1:0.978921 2:0.00828442 3:0.363558 
0.05768488921641506 1:1.00418 2:0.260716 3:0.359157 
0.05768488921641506 1:0.951253 2:0.429836 3:0.181377 
0.05768488921641506 1:0.96093 2:0.0960094 3:0.278852 
0.05768488921641506 1:0.591306 2:1.52045 3:3.04956 
0.05768488921641506 1:0.597536 2:1.45227 3:3.05311 
0.05768488921641506 1:0.604449 2:1.2951 3:0.282897 
0.05768488921641506 1:0.736262 2:0.53728 3:0.596464 
0.05768488921641506 1:0.811791 2:0.595433 3:0.254983 
0.05768488921641506 1:0.90814 2:0.376779 3:0.142274 
0.05768488921641506 1:0.926177 2:0.319683 3:0.219707 
0.05768488921641506 1:1.07383 2:0.36267 3:0.643263 
0.05768488921641506 1:1.31762 2:0.217674 3:0.0337676 
0.05768488921641506 1:1.25833 2:0.0534468 3:0.147888 
0.05768488921641506 1:1.25693 2:0.0532148 3:0.165888 
0.05768488921641506 1:1.25881 2:0.0352267 3:0.174865 
0.05768488921641506 1:1.26036 2:0.0285231 3:0.168304 
0.05768488921641506 1:1.09766 2:0.43935 3:0.142358 
0.05768488921641506 1:1.31595 2:0.16126 3:0.0192828 
0.05768488921641506 1:1.33547 2:0.161475 3:0.0433433 
0.05768488921641506 1:1.33089 2:0.127793 3:0.0385933 
0.05768488921641506 1:1.17841 2:0.381382 3:0.0186048 
0.05768488921641506 1:1.18474 2:0.359037 3:0.0464859 
0.05768488921641506 1:1.31429 2:0.04419 3:0.025009 
0.05768488921641506 1:1.19556 2:0.350866 3:0.0874344 
0.05768488921641506 1:1.18147 2:0.131961 3:0.0219475 
0.05768488921641506 1:1.21569 2:0.27605 3:0.00544477 
0.05768488921641506 1:1.19947 2:0.280856 3:0.00687558 
0.05768488921641506 1:1.13629 2:0.0567638 3:0.0328773 
0.05768488921641506 1:1.14625 2:0.270697 3:0.0448592 
0.05768488921641506 1:1.1518 2:0.0643198 3:0.0858627 
0.05768488921641506 1:1.06809 2:0.415397 3:0.104934 
0.05768488921641506 1:1.05898 2:0.298212 3:0.0526349 
0.05768488921641506 1:1.09489 2:0.103734 3:0.0488354 
0.05768488921641506 1:1.09847 2:0.059109 3:0.0537746 
0.05768488921641506 1:1.33641 2:0.395675 3:0.151954 
0.05768488921641506 1:1.34571 2:0.396003 3:0.148633 
0.05768488921641506 1:1.02842 2:0.165444 3:0.21142 
0.05768488921641506 1:1.1016 2:0.534467 3:0.173978 
0.05768488921641506 1:1.00367 2:0.215653 3:0.12574 
0.05768488921641506 1:1.08489 2:0.548379 3:0.201549 
0.05768488921641506 1:1.07087 2:0.547641 3:0.186288 
0.05768488921641506 1:1.01287 2:0.498939 3:0.437508 
0.05768488921641506 1:0.978867 2:0.31117 3:0.31527 
0.05768488921641506 1:0.896212 2:1.16662 3:1.7277 
0.05768488921641506 1:0.992732 2:0.637502 3:0.846695 
0.05768488921641506 1:1.12947 2:1.24794 3:1.6567 
0.05768488921641506 1:1.36068 2:0.331639 3:0.0187793 
0.05768488921641506 1:2.36103 2:0.265503 3:0.667823 
0.05768488921641506 1:2.37632 2:0.782557 3:0.937109 
0.05768488921641506 1:2.42668 2:0.153656 3:0.351726 
0.05768488921641506 1:2.45285 2:0.0177977 3:0.318711 
0.05768488921641506 1:2.48802 2:0.141518 3:0.288398 
0.05768488921641506 1:2.53068 2:0.185625 3:0.30431 
0.05768488921641506 1:2.55473 2:0.227899 3:0.266085 
0.05768488921641506 1:2.56189 2:0.252008 3:0.251432 
0.05768488921641506 1:2.58133 2:0.268092 3:0.243505 
0.05768488921641506 1:2.59363 2:0.221997 3:0.158863 
0.05768488921641506 1:2.56831 2:0.46086 3:0.062497 
0.05768488921641506 1:2.74479 2:0.063864 3:0.332464 
0.05768488921641506 1:2.78664 2:0.0114663 3:0.410756 
0.05768488921641506 1:2.83212 2:0.0514315 3:0.209564 
0.05768488921641506 1:2.85589 2:0.0839846 3:0.275037 
0.05768488921641506 1:2.7173 2:0.681365 3:2.8995 
0.05768488921641506 1:2.7403 2:0.532733 3:2.65384 
0.05768488921641506 1:2.90393 2:0.0106872 3:0.301836 
0.05768488921641506 1:2.90798 2:0.249147 3:0.290278 
0.05768488921641506 1:2.98107 2:0.52677 3:0.246778 
0.05768488921641506 1:2.98275 2:0.275356 3:0.204323 
0.05768488921641506 1:2.95297 2:0.362859 3:0.042067 
0.05768488921641506 1:2.9161 2:0.687537 3:0.358176 
0.05768488921641506 1:2.90348 2:0.639042 3:0.405997 
0.05768488921641506 1:2.88766 2:0.32993 3:0.280843 
0.05768488921641506 1:2.9361 2:0.0039184 3:0.0887104 
0.05768488921641506 1:2.98313 2:0.0960487 3:0.224236 
0.05768488921641506 1:2.81355 2:0.726026 3:1.19688 
0.05768488921641506 1:2.82269 2:0.165348 3:0.128631 
0.05768488921641506 1:2.84026 2:0.0429133 3:0.129655 
0.05768488921641506 1:2.8655 2:0.106279 3:0.111068 
0.05768488921641506 1:2.90333 2:0.0864152 3:0.197121 
0.05768488921641506 1:2.94317 2:0.131246 3:0.260919 
0.05768488921641506 1:3.02543 2:0.207907 3:0.411546 
0.05768488921641506 1:3.12222 2:0.373592 3:0.214047 
0.05768488921641506 1:3.1211 2:0.402645 3:0.157465 
0.05768488921641506 1:3.08685 2:0.328846 3:0.135802 
0.05768488921641506 1:2.95544 2:0.0414547 3:0.387683 
0.05768488921641506 1:2.88082 2:0.0485225 3:0.486901 
0.05768488921641506 1:2.84911 2:0.106766 3:0.313015 
0.05768488921641506 1:3.40425 2:1.4888 3:1.06436 
0.05768488921641506 1:3.0143 2:0.779552 3:0.90362 
0.05768488921641506 1:3.04669 2:0.88088 3:1.04821 
0.05768488921641506 1:3.15251 2:0.135635 3:0.691103 
0.05768488921641506 1:3.15184 2:0.266293 3:0.21594 
0.05768488921641506 1:3.14246 2:0.0488742 3:0.0892305 
0.05768488921641506 1:3.08192 2:0.0902151 3:0.0699611 
0.05768488921641506 1:3.1458 2:0.0636543 3:0.152784 
0.05768488921641506 1:3.25043 2:0.0222661 3:0.360545 
0.05768488921641506 1:2.88045 2:0.881666 3:0.622207 
0.05768488921641506 1:2.91734 2:0.479515 3:0.587603 
0.05768488921641506 1:2.93089 2:0.304498 3:0.531147 
0.05768488921641506 1:2.89688 2:0.258496 3:0.106044 
0.05768488921641506 1:2.88803 2:0.24985 3:0.0605867 
0.05768488921641506 1:2.8794 2:0.248178 3:0.0305021 
0.05768488921641506 1:2.94675 2:0.11468 3:0.323605 
0.05768488921641506 1:1.13575 2:0.986309 3:0.290237 
0.05768488921641506 1:1.24189 2:0.570502 3:0.0414944 
0.05768488921641506 1:1.25325 2:0.54503 3:0.0330625 
0.05768488921641506 1:1.24518 2:0.160977 3:0.0822206 
0.05768488921641506 1:1.22918 2:0.0810351 3:0.08118 
0.05768488921641506 1:1.21182 2:0.00701474 3:0.0728532 
0.05768488921641506 1:1.18664 2:0.0805428 3:0.0457329 
0.05768488921641506 1:1.15879 2:0.113783 3:0.0307439 
0.05768488921641506 1:1.26858 2:0.29057 3:0.0382957 
0.05768488921641506 1:1.30486 2:0.364344 3:0.0304044 
0.05768488921641506 1:1.30994 2:0.342713 3:0.0478645 
0.05768488921641506 1:1.31222 2:0.216854 3:0.0527029 
0.05768488921641506 1:1.17255 2:0.291661 3:0.00408705 
0.05768488921641506 1:1.16833 2:0.203532 3:0.0515113 
0.05768488921641506 1:1.21809 2:0.023862 3:0.0372924 
0.05768488921641506 1:1.20992 2:0.0700857 3:0.0685163 
0.05768488921641506 1:1.13566 2:0.242803 3:0.0889314 
0.05768488921641506 1:1.15304 2:0.132513 3:0.104611 
0.05768488921641506 1:1.17962 2:0.00621459 3:0.0925537 
0.05768488921641506 1:1.23368 2:0.1442 3:0.0230937 
0.05768488921641506 1:1.20779 2:0.0357965 3:0.0574185 
0.05768488921641506 1:1.19003 2:0.0282482 3:0.0761827 
0.05768488921641506 1:1.10714 2:0.303968 3:0.0849758 
0.05768488921641506 1:1.08649 2:0.351833 3:0.0812861 
0.05768488921641506 1:1.06948 2:0.382896 3:0.0731881 
0.05768488921641506 1:1.04523 2:0.402068 3:0.0430891 
0.05768488921641506 1:1.06367 2:0.274186 3:0.0155415 
0.05768488921641506 1:1.1063 2:0.106897 3:0.121752 
0.05768488921641506 1:1.12228 2:0.0640985 3:0.155539 
0.05768488921641506 1:1.13808 2:0.024861 3:0.187219 
0.05768488921641506 1:1.15183 2:0.000693144 3:0.211851 
0.05768488921641506 1:1.12258 2:0.0869332 3:0.0800304 
0.05768488921641506 1:1.0808 2:0.103004 3:0.16899 
0.05768488921641506 1:1.12206 2:0.0374159 3:0.221231 
0.05768488921641506 1:1.10669 2:0.0555623 3:0.0647132 
0.05768488921641506 1:0.998148 2:0.270581 3:0.0543263 
0.05768488921641506 1:1.01373 2:0.168889 3:0.0717916 
0.05768488921641506 1:0.774859 2:0.739237 3:1.63754 
0.05768488921641506 1:1.00404 2:0.173002 3:0.103998 
0.05768488921641506 1:0.956444 2:0.210926 3:0.169755 
0.05768488921641506 1:0.96186 2:0.173098 3:0.160464 
0.05768488921641506 1:1.04305 2:0.186832 3:0.126202 
0.05768488921641506 1:1.02457 2:0.0315024 3:0.127287 
0.05768488921641506 1:0.965187 2:0.323699 3:0.0626817 
0.05768488921641506 1:1.04929 2:0.21191 3:0.0727987 
0.05768488921641506 1:1.05614 2:0.16888 3:0.0642366 
0.05768488921641506 1:1.00529 2:0.320314 3:0.0874541 
0.05768488921641506 1:0.979638 2:0.218649 3:0.156013 
0.05768488921641506 1:1.05294 2:0.319097 3:0.0329642 
0.05768488921641506 1:1.03021 2:0.192373 3:0.0776821 
0.05768488921641506 1:1.04286 2:0.105516 3:0.0999739 
0.05768488921641506 1:0.897508 2:0.0642695 3:0.451649 
0.05768488921641506 1:0.955783 2:0.334762 3:0.169248 
0.05768488921641506 1:0.904405 2:0.15747 3:0.314549 
0.05768488921641506 1:1.20731 2:1.3643 3:1.64766 
0.05768488921641506 1:1.1937 2:1.19265 3:2.95807 
0.05768488921641506 1:0.584098 2:1.24865 3:1.60823 
0.05768488921641506 1:0.593678 2:0.420151 3:2.21558 
0.05768488921641506 1:0.821214 2:0.561781 3:1.91842 
0.05768488921641506 1:0.843734 2:0.655537 3:1.74263 
0.05768488921641506 1:0.813958 2:0.942348 3:0.851332 
0.05768488921641506 1:0.958334 2:0.383714 3:0.335094 
0.05768488921641506 1:1.01077 2:0.0462355 3:0.432012 
0.05768488921641506 1:1.01533 2:0.0758806 3:0.391863 
0.05768488921641506 1:1.02617 2:0.0710399 3:0.393579 
0.05768488921641506 1:0.840831 2:0.223357 3:0.3841 
0.05768488921641506 1:0.854197 2:0.243494 3:0.394362 
0.05768488921641506 1:1.07031 2:0.039501 3:0.407733 
0.05768488921641506 1:0.857181 2:0.250955 3:0.340886 
0.05768488921641506 1:1.1185 2:0.021014 3:0.467636 
0.05768488921641506 1:1.18309 2:0.085677 3:0.507977 
0.05768488921641506 1:1.1927 2:0.132563 3:0.483126 
0.05768488921641506 1:1.19989 2:0.152914 3:0.453851 
0.05768488921641506 1:0.911457 2:0.408728 3:0.257463 
0.05768488921641506 1:1.05696 2:0.217516 3:0.507232 
0.05768488921641506 1:1.09816 2:0.0415272 3:0.275096 
0.05768488921641506 1:1.30683 2:0.246999 3:1.06272 
0.05768488921641506 1:0.392889 2:0.396196 3:1.22371 
0.05768488921641506 1:0.916896 2:1.23593 3:1.8523 
0.05768488921641506 1:0.925522 2:1.00006 3:0.0381407 
0.05768488921641506 1:0.922061 2:0.464762 3:0.178405 
0.05768488921641506 1:0.849025 2:0.965617 3:0.184394 
0.05768488921641506 1:0.882672 2:0.8972 3:0.442396 
0.05768488921641506 1:1.11081 2:0.647708 3:0.559359 
0.05768488921641506 1:1.19602 2:0.530711 3:0.569752 
0.05768488921641506 1:1.34388 2:0.0575857 3:0.599126 
0.05768488921641506 1:0.958235 2:0.338103 3:0.157875 
0.05768488921641506 1:1.31088 2:0.126162 3:0.402961 
0.05768488921641506 1:1.28178 2:0.121737 3:0.253706 
0.05768488921641506 1:0.907457 2:0.808393 3:0.300613 
0.05768488921641506 1:1.04095 2:0.275902 3:1.71762 
0.05768488921641506 1:0.953905 2:0.166451 3:0.187 
0.05768488921641506 1:0.843538 2:0.386188 3:0.38942 
0.05768488921641506 1:1.04336 2:1.74724 3:2.07749 
0.05768488921641506 1:0.876759 2:0.130932 3:0.575859 
0.05768488921641506 1:0.526326 2:1.09125 3:2.96378 
0.05768488921641506 1:0.753397 2:0.330677 3:0.58061 
0.05768488921641506 1:0.558772 2:1.07226 3:1.69566 
0.05768488921641506 1:0.801203 2:0.284391 3:0.871402 
0.05768488921641506 1:1.02894 2:0.0860961 3:0.408835 
0.05768488921641506 1:1.02781 2:0.0303602 3:0.329058 
0.05768488921641506 1:1.02462 2:0.0032959 3:0.290926 
0.05768488921641506 1:1.03156 2:0.0144015 3:0.285322 
0.05768488921641506 1:1.03226 2:0.00582649 3:0.228811 
0.05768488921641506 1:1.29947 2:1.08099 3:3.12529 
0.05768488921641506 1:0.882366 2:0.960914 3:2.97705 
0.05768488921641506 1:1.07577 2:0.0720153 3:0.550237 
0.05768488921641506 1:1.08936 2:0.304857 3:0.252413 
0.05768488921641506 1:1.05228 2:0.289505 3:0.0995791 
0.05768488921641506 1:1.04467 2:0.257712 3:0.11902 
0.05768488921641506 1:0.830254 2:0.74583 3:1.06026 
0.05768488921641506 1:1.31081 2:1.02759 3:2.53747 
0.05768488921641506 1:1.10831 2:1.02452 3:1.25644 
0.05768488921641506 1:1.09552 2:0.232354 3:0.524152 
0.05768488921641506 1:1.10818 2:0.341485 3:0.527493 
0.05768488921641506 1:1.10998 2:0.399239 3:0.492522 
0.05768488921641506 1:1.12279 2:0.472147 3:0.457762 
0.05768488921641506 1:1.13433 2:0.445121 3:0.459092 
0.05768488921641506 1:1.20389 2:0.0873276 3:0.258338 
0.05768488921641506 1:1.22843 2:0.176517 3:0.238591 
0.05768488921641506 1:1.24343 2:0.19556 3:0.23081 
0.05768488921641506 1:1.26556 2:0.185516 3:0.23382 
0.05768488921641506 1:1.28492 2:0.124237 3:0.28015 
0.05768488921641506 1:1.31015 2:0.0121788 3:0.298715 
0.05768488921641506 1:1.33974 2:0.00770673 3:0.317022 
0.05768488921641506 1:1.34683 2:0.00308721 3:0.307689 
0.05768488921641506 1:1.37344 2:0.0301021 3:0.301005 
0.05768488921641506 1:1.41652 2:0.107851 3:0.327893 
0.05768488921641506 1:1.48301 2:0.142256 3:0.21879 
0.05768488921641506 1:1.49012 2:0.130726 3:0.231187 
0.05768488921641506 1:1.59062 2:0.135508 3:0.403257 
0.05768488921641506 1:1.6094 2:0.144004 3:0.427172 
0.05768488921641506 1:1.66418 2:0.0402063 3:0.407531 
0.05768488921641506 1:1.67225 2:0.0457369 3:0.344103 
0.05768488921641506 1:1.61097 2:0.238928 3:0.121715 
0.05768488921641506 1:1.60692 2:0.208335 3:0.0876624 
0.05768488921641506 1:1.61497 2:0.133756 3:0.0839239 
0.05768488921641506 1:1.63784 2:0.0377689 3:0.117522 
0.05768488921641506 1:1.70251 2:0.00308389 3:0.228749 
0.05768488921641506 1:1.71511 2:0.00832772 3:0.228636 
0.05768488921641506 1:1.744 2:0.0391912 3:0.230462 
0.05768488921641506 1:1.75703 2:0.0464947 3:0.288285 
0.05768488921641506 1:1.76157 2:0.0842502 3:0.295686 
0.05768488921641506 1:1.76538 2:0.116163 3:0.274831 
0.05768488921641506 1:1.77066 2:0.110404 3:0.280644 
0.05768488921641506 1:1.7744 2:0.0865848 3:0.268026 
0.05768488921641506 1:1.76982 2:0.0706555 3:0.199521 
0.05768488921641506 1:1.78026 2:0.0717713 3:0.225649 
0.05768488921641506 1:1.80255 2:0.00347158 3:0.215564 
0.05768488921641506 1:1.7994 2:0.0220568 3:0.179082 
0.05768488921641506 1:1.72002 2:0.251328 3:0.0467988 
0.05768488921641506 1:1.70112 2:0.253637 3:0.00280612 
0.05768488921641506 1:1.7871 2:0.0686983 3:0.0258585 
0.05768488921641506 1:1.69502 2:0.404531 3:0.155964 
0.05768488921641506 1:1.68724 2:0.231766 3:0.0247237 
0.05768488921641506 1:1.62314 2:0.216907 3:0.231668 
0.05768488921641506 1:1.5234 2:0.452256 3:0.162124 
0.05768488921641506 1:1.45669 2:0.552966 3:0.182066 
0.05768488921641506 1:1.40471 2:0.634685 3:0.188278 
0.05768488921641506 1:1.29991 2:0.771358 3:0.120629 
0.05768488921641506 1:1.22895 2:0.833984 3:0.0208405 
0.05768488921641506 1:1.01601 2:0.964201 3:0.5087 
0.05768488921641506 1:0.95777 2:1.02977 3:1.07347 
0.05768488921641506 1:0.835652 2:0.779948 3:1.00944 
0.05768488921641506 1:0.821604 2:0.788609 3:0.920444 
-0.05768488921641506 1:1.58606 2:0 3:0 
-0.05768488921641506 1:1.59296 2:0.0318571 3:0 
-0.05768488921641506 1:1.62936 2:0.00760426 3:0.20839 
-0.05768488921641506 1:1.81337 2:0.0984847 3:0.404269 
-0.05768488921641506 1:1.64546 2:0.00334608 3:0.41393 
-0.05768488921641506 1:1.64672 2:0.0118791 3:0.357264 
-0.05768488921641506 1:1.67587 2:0.0336294 3:0.366013 
-0.05768488921641506 1:1.00308 2:0.286262 3:0.232812 
-0.05768488921641506 1:1.69987 2:0.0775583 3:0.368524 
-0.05768488921641506 1:1.02939 2:0.329878 3:0.134414 
-0.05768488921641506 1:1.70615 2:0.0870627 3:0.360154 
-0.05768488921641506 1:1.73778 2:0.143551 3:0.31946 
-0.05768488921641506 1:1.7565 2:0.165778 3:0.333852 
-0.05768488921641506 1:1.79849 2:0.207701 3:0.370247 
-0.05768488921641506 1:1.80746 2:0.218522 3:0.341027 
-0.05768488921641506 1:1.15436 2:0.284821 3:0.30944 
-0.05768488921641506 1:1.83643 2:0.264401 3:0.348494 
-0.05768488921641506 1:1.38278 2:0.60564 3:0.37627 
-0.05768488921641506 1:1.42659 2:0.466657 3:0.467727 
-0.05768488921641506 1:1.43059 2:0.437658 3:0.472552 
-0.05768488921641506 1:1.43086 2:0.394223 3:0.476026 
-0.05768488921641506 1:1.4602 2:0.292007 3:0.426141 
-0.05768488921641506 1:1.47357 2:0.280394 3:0.342473 
-0.05768488921641506 1:1.57727 2:0.389407 3:0.166936 
-0.05768488921641506 1:1.61268 2:0.400966 3:0.153957 
-0.05768488921641506 1:1.63564 2:0.39988 3:0.1741 
-0.05768488921641506 1:1.67675 2:0.429055 3:0.136022 
-0.05768488921641506 1:1.7481 2:0.477653 3:0.227942 
-0.03387319222406825 1:1.8265 2:0.705215 3:0.238032 
-0.05768488921641506 1:1.84805 2:0.641005 3:0.195421 
-0.05768488921641506 1:1.89571 2:0.21898 3:0.292912 
-0.05768488921641506 1:1.9004 2:0.234659 3:0.185651 
-0.05768488921641506 1:1.87618 2:0.630071 3:0.174402 
-0.05768488921641506 1:1.87968 2:0.117481 3:0.0555501 
-0.05768488921641506 1:1.92502 2:0.244973 3:0.103086 
-0.05768488921641506 1:0.701494 2:0.179461 3:0.169889 
-0.05768488921641506 1:1.96767 2:0.186797 3:0.240199 
-0.05768488921641506 1:1.94437 2:0.0309531 3:0.0967701 
-0.05768488921641506 1:0.894151 2:0.015024 3:0.489448 
-0.05768488921641506 1:1.91646 2:0.0896047 3:0.0925873 
-0.05768488921641506 1:0.885857 2:0.133786 3:0.274467 
-0.05768488921641506 1:1.91177 2:0.0802371 3:0.166872 
-0.05768488921641506 1:0.910242 2:0.14098 3:0.304786 
-0.05768488921641506 1:1.91301 2:0.0684063 3:0.151444 
-0.05768488921641506 1:1.87993 2:0.237837 3:0.246451 
-0.05768488921641506 1:1.86873 2:0.294148 3:0.265197 
-0.05768488921641506 1:1.16369 2:0 3:0 
-0.05768488921641506 1:0.850732 2:0.442138 3:0.214632 
-0.05768488921641506 1:0.873285 2:0.325364 3:0.124366 
-0.05768488921641506 1:0.980862 2:0.791643 3:0.0158691 
-0.05768488921641506 1:0.961813 2:0.65405 3:0.0600547 
-0.05768488921641506 1:0.944607 2:0.544033 3:0.0773797 
-0.05768488921641506 1:0.841547 2:0.172254 3:0.213334 
-0.05768488921641506 1:0.821096 2:0.0892861 3:0.212553 
-0.05768488921641506 1:1.36836 2:0.439401 3:0.561051 
-0.05768488921641506 1:1.46584 2:0.494094 3:0.85203 
-0.05768488921641506 1:1.93207 2:0.401283 3:0.168235 
-0.05768488921641506 1:1.04359 2:0.831648 3:0.465559 
-0.05768488921641506 1:1.2846 2:0.964248 3:0.241436 
-0.05768488921641506 1:1.89566 2:0.240121 3:0.142604 
-0.05768488921641506 1:1.88816 2:0.202889 3:0.21721 
-0.05768488921641506 1:1.87805 2:0.199089 3:0.198154 
-0.05768488921641506 1:1.39856 2:0.610507 3:0.578565 
-0.05768488921641506 1:1.8687 2:0.171626 3:0.210189 
-0.05768488921641506 1:1.46773 2:0.661648 3:0.515665 
-0.05768488921641506 1:1.85887 2:0.15777 3:0.104323 
-0.05768488921641506 1:1.33893 2:0.617727 3:1.27982 
-0.05768488921641506 1:1.32456 2:0.628126 3:1.28686 
-0.05768488921641506 1:1.82465 2:0.208706 3:0.0420355 
-0.05768488921641506 1:1.31619 2:0.628022 3:1.3128 
-0.05768488921641506 1:1.81888 2:0.208662 3:0.0111476 
-0.05768488921641506 1:1.39681 2:0.298822 3:0.0417773 
-0.05768488921641506 1:1.81534 2:0.0362783 3:0.158333 
-0.05768488921641506 1:1.80581 2:0.068194 3:0.0488355 
-0.05768488921641506 1:1.40847 2:0.423401 3:1.26669 
-0.05768488921641506 1:1.76159 2:0.183232 3:0.167706 
-0.05768488921641506 1:1.45752 2:0.42387 3:1.11769 
-0.05768488921641506 1:1.47047 2:0.43802 3:1.10208 
-0.05768488921641506 1:1.66152 2:0.436814 3:0.231452 
-0.05768488921641506 1:1.49345 2:0.472557 3:1.03853 
-0.05768488921641506 1:1.51367 2:0.468154 3:1.00309 
-0.05768488921641506 1:1.53895 2:0.439797 3:0.923283 
-0.05768488921641506 1:1.29608 2:0.837591 3:0.249156 
-0.05768488921641506 1:1.36292 2:0.279965 3:0.023535 
-0.05768488921641506 1:1.79706 2:0.48417 3:0.156751 
-0.05768488921641506 1:1.84077 2:0.167057 3:0.286216 
-0.05768488921641506 1:1.86476 2:0.0169758 3:0 
-0.05768488921641506 1:1.86794 2:0.0821451 3:0.328709 
-0.05768488921641506 1:1.85887 2:0.036101 3:0 
-0.05768488921641506 1:1.86392 2:0.35271 3:0.307969 
-0.05768488921641506 1:1.96389 2:0.219298 3:0.175568 
-0.05768488921641506 1:1.14529 2:0.896497 3:1.27497 
-0.05768488921641506 1:1.34011 2:0.402198 3:0.113319 
-0.05768488921641506 1:1.29423 2:0.142327 3:0.000158495 
-0.05768488921641506 1:2.07548 2:0.0584974 3:0.109176 
-0.05768488921641506 1:1.26317 2:0.116951 3:0.0827059 
-0.05768488921641506 1:1.19939 2:0.0888457 3:0.106384 
-0.05768488921641506 1:1.17383 2:0.1226 3:0.145217 
-0.05768488921641506 1:1.16763 2:0.0469976 3:0.220091 
-0.05768488921641506 1:1.18793 2:0.0545526 3:0.192813 
-0.05768488921641506 1:1.23169 2:0.186819 3:0.103061 
-0.05768488921641506 1:1.89712 2:0.0810494 3:0.235218 
-0.05768488921641506 1:1.01558 2:0.488801 3:0.293343 
-0.05768488921641506 1:1.91016 2:0.081223 3:0.0808375 
-0.05768488921641506 1:1.90514 2:0.102208 3:0.0883541 
-0.05768488921641506 1:1.77032 2:0.300316 3:0.447973 
-0.05768488921641506 1:1.74929 2:0.326636 3:0.492266 
-0.05768488921641506 1:2.03726 2:0.00342798 3:0 
-0.05768488921641506 1:1.64675 2:0.103733 3:0.683054 
-0.05768488921641506 1:1.07357 2:0.0285896 3:2.18267 
-0.05768488921641506 1:1.07485 2:0.6229 3:1.19812 
-0.05768488921641506 1:1.07135 2:0.5686 3:0.486124 
-0.05768488921641506 1:1.02843 2:0.249338 3:0.0297123 
-0.05768488921641506 1:1.00128 2:0.432794 3:0.0171379 
-0.05768488921641506 1:1.64806 2:0.0358558 3:0.163478 
-0.05768488921641506 1:1.65659 2:0.0161087 3:0.114436 
-0.05768488921641506 1:1.66679 2:0.0688692 3:0.0735677 
-0.05768488921641506 1:1.6866 2:0.177777 3:0.078909 
-0.05768488921641506 1:1.68456 2:0.177297 3:0.139496 
-0.05768488921641506 1:1.68178 2:0.171015 3:0.171678 
-0.05768488921641506 1:1.67684 2:0.151697 3:0.19088 
-0.05768488921641506 1:1.67171 2:0.130099 3:0.201032 
-0.05768488921641506 1:1.62428 2:0.10273 3:0.137008 
-0.05768488921641506 1:0.618941 2:0.206048 3:1.21299 
-0.05768488921641506 1:1.56676 2:0.357593 3:0.0728156 
-0.05768488921641506 1:1.53647 2:0.42033 3:0.0163265 
-0.05768488921641506 1:1.45369 2:0.339616 3:0.596643 
-0.05768488921641506 1:0.726872 2:0.0268997 3:0.228619 
-0.05768488921641506 1:0.733704 2:0.197302 3:0.202548 
-0.05768488921641506 1:0.790262 2:0.597709 3:0.216742 
-0.05768488921641506 1:1.39457 2:0.183487 3:0.421783 
-0.05768488921641506 1:1.45875 2:0.0947722 3:0.349237 
-0.05768488921641506 1:0.747061 2:0.153321 3:0.215306 
-0.05768488921641506 1:1.46903 2:0.090835 3:0.170083 
-0.05768488921641506 1:0.718105 2:0.151072 3:0.396413 
-0.05768488921641506 1:1.47444 2:0.0521916 3:0.30321 
-0.05768488921641506 1:0.74616 2:0.0257895 3:0.070941 
-0.05768488921641506 1:0.763762 2:0.0573316 3:0.122846 
-0.05768488921641506 1:0.746396 2:1.03214e-05 3:0.0120083 
-0.05768488921641506 1:0.698092 2:0.00548769 3:0.178955 
-0.05768488921641506 1:0.690316 2:0.0154669 3:0.164314 
-0.05768488921641506 1:0.715206 2:0.0819238 3:0.0480094 
-0.05768488921641506 1:0.706061 2:0.0186514 3:0.0246122 
-0.05768488921641506 1:0.74184 2:0.34504 3:2.52605 
-0.05768488921641506 1:0.746577 2:0.0833745 3:0.103314 
-0.05768488921641506 1:0.752409 2:0.0192056 3:0.142803 
-0.05768488921641506 1:0.853611 2:0.116801 3:2.50512 
-0.05768488921641506 1:0.734915 2:0.0298025 3:0.0897476 
-0.05768488921641506 1:0.737777 2:5.70181e-05 3:0.0645639 
-0.05768488921641506 1:0.929228 2:0.0967076 3:2.44896 
-0.05768488921641506 1:1.77216 2:0.00764069 3:0 
-0.05768488921641506 1:1.98833 2:0.0484612 3:0 
-0.05768488921641506 1:1.94685 2:0.311686 3:0.212522 
-0.05768488921641506 1:1.5454 2:0.717503 3:0.529676 
-0.05768488921641506 1:1.95961 2:0.0266673 3:0.252654 
-0.05768488921641506 1:1.47825 2:0.683507 3:0.496143 
-0.05768488921641506 1:1.47814 2:0.685272 3:0.521655 
-0.05768488921641506 1:1.8582 2:0.372977 3:0.0277935 
-0.05768488921641506 1:1.48103 2:0.648327 3:0.587432 
-0.05768488921641506 1:1.48912 2:0.658912 3:0.637244 
-0.05768488921641506 1:1.24087 2:0.207394 3:0.0231227 
-0.05768488921641506 1:1.21336 2:0.010765 3:0.0985856 
-0.05768488921641506 1:1.20873 2:0.0408446 3:0.0816763 
-0.05768488921641506 1:1.19595 2:0.110847 3:0.0888483 
-0.05768488921641506 1:1.20243 2:0.189761 3:0.0232224 
-0.05768488921641506 1:1.19379 2:0.275399 3:0.0619931 
-0.05768488921641506 1:1.18245 2:0.359515 3:0.0852895 
-0.05768488921641506 1:1.18818 2:0.344121 3:0.0996783 
-0.05768488921641506 1:1.22188 2:0.368142 3:0.177618 
-0.05768488921641506 1:1.18454 2:0.4363 3:0.0645566 
-0.05768488921641506 1:0.314293 2:0.493123 3:0.82269 
-0.05768488921641506 1:0.281255 2:0.132067 3:2.40938 
-0.05768488921641506 1:0.267023 2:0.334163 3:2.18447 
-0.05768488921641506 1:1.30293 2:0.415129 3:0.266235 
-0.05768488921641506 1:0.365701 2:0.406227 3:2.43469 
-0.05768488921641506 1:0.471523 2:0.450293 3:2.87554 
-0.05768488921641506 1:0.520436 2:0.437426 3:2.95344 
-0.05768488921641506 1:1.38137 2:0.445745 3:0.31391 
-0.05768488921641506 1:1.39498 2:0.462909 3:0.321064 
-0.05768488921641506 1:1.41424 2:0.455318 3:0.318284 
-0.05768488921641506 1:1.41336 2:0.451986 3:0.279393 
-0.05768488921641506 1:1.42952 2:0.438799 3:0.292312 
-0.05768488921641506 1:1.46322 2:0.450977 3:0.178497 
-0.05768488921641506 1:1.4531 2:0.402323 3:0.132171 
-0.05768488921641506 1:1.43755 2:0.344598 3:0.077951 
-0.05768488921641506 1:1.43344 2:0.311678 3:0.0597937 
-0.05768488921641506 1:1.42046 2:0.279947 3:0.0189826 
-0.05768488921641506 1:1.40548 2:0.281132 3:0.0296036 
-0.05768488921641506 1:1.40908 2:0.327507 3:0.0230276 
-0.05768488921641506 1:1.49541 2:0.428275 3:0.0803483 
-0.05768488921641506 1:1.51152 2:0.317954 3:0.0975443 
-0.05768488921641506 1:1.54766 2:0.308924 3:0.167327 
-0.05768488921641506 1:1.56673 2:0.323884 3:0.202891 
-0.05768488921641506 1:1.60708 2:0.400938 3:0.264831 
-0.05768488921641506 1:1.63402 2:0.457611 3:0.272987 
-0.05768488921641506 1:1.64653 2:0.486472 3:0.272667 
-0.05768488921641506 1:1.69012 2:0.509692 3:0.32425 
-0.05768488921641506 1:1.76465 2:0.560827 3:0.31035 
-0.05768488921641506 1:1.74256 2:0.362325 3:0.156788 
-0.05768488921641506 1:1.73498 2:0.330337 3:0.118585 
-0.05768488921641506 1:1.71593 2:0.286589 3:0.041439 
-0.05768488921641506 1:1.70963 2:0.335256 3:0.00821495 
-0.05768488921641506 1:1.74538 2:0.415304 3:0.0446207 
-0.05768488921641506 1:1.74907 2:0.411327 3:0.0374171 
-0.05768488921641506 1:1.75977 2:0.388406 3:0.0566515 
-0.05768488921641506 1:1.75666 2:0.37337 3:0.036765 
-0.05768488921641506 1:1.45596 2:0.0638205 3:1.26674 
-0.05768488921641506 1:1.7531 2:0.0706529 3:0.0444426 
-0.05768488921641506 1:1.74107 2:0.196914 3:0.0966103 
-0.05768488921641506 1:1.73085 2:0.250834 3:0.155577 
-0.05768488921641506 1:1.6917 2:0.37153 3:0.30485 
-0.05768488921641506 1:1.71156 2:0.453333 3:0.268523 
-0.05768488921641506 1:1.34555 2:0.580062 3:1.29236 
-0.05768488921641506 1:1.41126 2:0.761439 3:0.871984 
-0.05768488921641506 1:1.70916 2:0.542505 3:0.219099 
-0.05768488921641506 1:1.70684 2:0.48955 3:0.232812 
-0.05768488921641506 1:1.29083 2:0.618364 3:0.464299 
-0.05768488921641506 1:1.70387 2:0.239554 3:0.148676 
-0.05768488921641506 1:1.22107 2:0.605729 3:0.62824 
-0.05768488921641506 1:1.19708 2:0.552804 3:0.661814 
-0.05768488921641506 1:1.69307 2:0.0726247 3:0.0523826 
-0.05768488921641506 1:1.70317 2:0.0705844 3:0.00132191 
-0.05768488921641506 1:1.10503 2:0.252733 3:0.628829 
-0.05768488921641506 1:1.10551 2:0.279587 3:0.570779 
-0.05768488921641506 1:1.78976 2:0.496347 3:0.107657 
-0.05768488921641506 1:1.05467 2:0.273176 3:0.694409 
-0.05768488921641506 1:1.05094 2:0.312833 3:0.705616 
-0.05768488921641506 1:1.86839 2:0.696974 3:0.0546312 
-0.05768488921641506 1:1.04903 2:0.346305 3:0.697592 
-0.05768488921641506 1:1.22115 2:0.703684 3:0.963361 
-0.05768488921641506 1:1.87566 2:0.625818 3:0.100623 
-0.05768488921641506 1:1.88079 2:0.606758 3:0.101367 
-0.05768488921641506 1:1.88523 2:0.583684 3:0.102613 
-0.05768488921641506 1:1.89258 2:0.555525 3:0.119846 
-0.05768488921641506 1:1.08539 2:0.640302 3:0.786476 
-0.05768488921641506 1:1.89688 2:0.541074 3:0.124861 
-0.05768488921641506 1:1.08388 2:0.552902 3:0.812293 
-0.05768488921641506 1:1.07507 2:0.481644 3:0.827661 
-0.05768488921641506 1:1.06165 2:0.393803 3:0.860448 
-0.05768488921641506 1:1.06279 2:0.332855 3:0.872841 
-0.05768488921641506 1:1.11759 2:0.26798 3:0.807855 
-0.05768488921641506 1:1.08259 2:0.296512 3:0.954874 
-0.05768488921641506 1:1.06431 2:0.421196 3:1.14752 
-0.05448199297243941 1:0.89569 2:0.679864 3:2.16482 
-0.05768488921641506 1:0.866182 2:0.445374 3:2.21728 
-0.05768488921641506 1:1.27798 2:0.132543 3:1.2335 
-0.05768488921641506 1:1.504 2:0.129109 3:0.952368 
-0.05768488921641506 1:2.05242 2:0.302904 3:0.0161032 
-0.05768488921641506 1:1.54385 2:0.386735 3:0.919063 
-0.05768488921641506 1:2.06465 2:0.0243254 3:0.042456 
-0.05768488921641506 1:1.85474 2:0.152648 3:0.308789 
-0.05768488921641506 1:1.85665 2:0.140663 3:0.302918 
-0.05768488921641506 1:1.61638 2:0.190389 3:0.863653 
-0.05768488921641506 1:0.602447 2:0.13266 3:3.05158 
-0.05768488921641506 1:1.60326 2:0.287036 3:0.784519 
-0.05768488921641506 1:0.568517 2:0.114252 3:3.04436 
-0.05768488921641506 1:0.639225 2:0.0699191 3:2.91435 
-0.05768488921641506 1:1.87347 2:0.0767214 3:0.076689 
-0.05768488921641506 1:0.661918 2:0.0866406 3:2.81507 
-0.05768488921641506 1:0.750935 2:0.190325 3:2.53902 
-0.05768488921641506 1:1.53499 2:0.488029 3:0.46049 
-0.05768488921641506 1:0.783387 2:0.194503 3:2.37349 
-0.05768488921641506 1:1.51154 2:0.482698 3:0.377119 
-0.05768488921641506 1:1.06113 2:0.1582 3:1.85837 
-0.05768488921641506 1:0.873408 2:0.226057 3:2.07254 
-0.05768488921641506 1:1.94948 2:0.268332 3:0.0676798 
-0.05768488921641506 1:0.861001 2:0.332319 3:1.91068 
-0.05768488921641506 1:1.7226 2:0.0882931 3:0.390126 
-0.05768488921641506 1:1.71527 2:0.265336 3:0.344176 
-0.05768488921641506 1:1.81052 2:0.239345 3:0.442675 
-0.05768488921641506 1:1.7586 2:0.382579 3:0.558548 
-0.05768488921641506 1:0.949404 2:0.126852 3:2.19677 
-0.05768488921641506 1:1.74554 2:0.347305 3:0.558753 
-0.05768488921641506 1:1.19656 2:0.41851 3:0.132234 
-0.05768488921641506 1:1.2068 2:0.341266 3:0.177843 
-0.05768488921641506 1:1.22998 2:0.376572 3:0.299873 
-0.05768488921641506 1:1.50732 2:0.735015 3:0.29241 
-0.05768488921641506 1:1.24805 2:0.177075 3:0.274771 
-0.05768488921641506 1:1.46058 2:0.111563 3:0.119377 
-0.05768488921641506 1:1.46696 2:0.0978877 3:0.0427029 
-0.05768488921641506 1:1.36934 2:0.829783 3:0.717911 
-0.05768488921641506 1:1.33552 2:0.865805 3:0.75092 
-0.05768488921641506 1:1.3146 2:0.0947699 3:0.397422 
-0.05768488921641506 1:1.23415 2:0.806909 3:0.698875 
-0.05768488921641506 1:1.15833 2:0.624176 3:0.712891 
-0.05768488921641506 1:1.58245 2:0.0194703 3:0.304873 
-0.05768488921641506 1:1.32164 2:0.0217003 3:0.478452 
-0.05768488921641506 1:1.36041 2:0.123073 3:0.39249 
-0.05768488921641506 1:1.38751 2:0.206598 3:0.329876 
-0.05768488921641506 1:1.63988 2:0.218034 3:0.0583266 
-0.05768488921641506 1:1.4115 2:0.271874 3:0.279532 
-0.05768488921641506 1:1.23464 2:0.485664 3:0.275885 
-0.05768488921641506 1:1.30842 2:0.72343 3:0.381643 
-0.05768488921641506 1:1.43017 2:0.247585 3:0.237355 
-0.05768488921641506 1:1.32112 2:0.770929 3:0.459151 
-0.05768488921641506 1:1.12899 2:0.412748 3:1.53791 
-0.05768488921641506 1:1.13696 2:0.412909 3:1.48071 
-0.05768488921641506 1:1.35308 2:0.887173 3:0.611174 
-0.05768488921641506 1:1.38486 2:0.974708 3:0.804385 
-0.05768488921641506 1:1.37757 2:0.928532 3:0.870863 
-0.05768488921641506 1:1.37027 2:0.884791 3:0.91511 
-0.05768488921641506 1:1.43224 2:0.0676327 3:0.627735 
-0.05768488921641506 1:1.35643 2:0.801162 3:0.980066 
-0.05768488921641506 1:1.36736 2:0.805739 3:0.966815 
-0.05768488921641506 1:1.35865 2:0.0668727 3:0.244026 
-0.05768488921641506 1:1.38336 2:0.837002 3:0.933022 
-0.05768488921641506 1:1.39753 2:0.171986 3:0.483566 
-0.05768488921641506 1:1.21362 2:0.481205 3:1.41231 
-0.05768488921641506 1:1.38446 2:0.222634 3:0.363437 
-0.05768488921641506 1:1.33629 2:0.122724 3:0.0839431 
-0.05768488921641506 1:1.20614 2:0.42302 3:1.59519 
-0.05768488921641506 1:1.37685 2:0.166569 3:0.0753377 
-0.05768488921641506 1:1.35842 2:0.0297053 3:0.24737 
-0.05768488921641506 1:1.3608 2:0.0595833 3:0.378044 
-0.05768488921641506 1:1.26349 2:0.455058 3:1.49049 
-0.05768488921641506 1:1.46152 2:0.0900393 3:0.253511 
-0.05768488921641506 1:1.35952 2:0.0798896 3:0.507296 
-0.05768488921641506 1:1.48202 2:0.12618 3:0.307612 
-0.05768488921641506 1:1.34516 2:0.0443797 3:0.552475 
-0.05768488921641506 1:1.34551 2:0.0403626 3:0.562593 
-0.05768488921641506 1:1.53212 2:0.124093 3:0.386972 
-0.05768488921641506 1:1.33489 2:0.0154372 3:0.448677 
-0.05768488921641506 1:0.744057 2:0.705275 3:2.44916 
-0.05768488921641506 1:1.5218 2:0.028566 3:0.334376 
-0.05768488921641506 1:1.713 2:0.345222 3:0.403648 
-0.05768488921641506 1:1.32273 2:0.0355077 3:0.233459 
-0.05768488921641506 1:1.7177 2:0.298329 3:0.424401 
-0.05768488921641506 1:1.28211 2:0.180604 3:0.0169097 
-0.05768488921641506 1:1.74798 2:0.162001 3:0.549723 
-0.05768488921641506 1:1.74457 2:0.115867 3:0.650476 
-0.05768488921641506 1:1.38545 2:0.378586 3:0.147634 
-0.05768488921641506 1:1.30521 2:0.00211038 3:0.197184 
-0.05768488921641506 1:1.69863 2:0.132545 3:0.49624 
-0.05768488921641506 1:1.51618 2:0.584869 3:0.416647 
-0.05768488921641506 1:1.52097 2:0.435569 3:0.542489 
-0.05768488921641506 1:1.69593 2:0.251411 3:0.742532 
-0.05768488921641506 1:1.50577 2:0.295867 3:0.484745 
-0.05768488921641506 1:1.68278 2:0.265166 3:0.76482 
-0.05768488921641506 1:1.473 2:0.0340888 3:0.574531 
-0.05768488921641506 1:1.46306 2:0.0377766 3:0.592974 
-0.05768488921641506 1:1.65978 2:0.0691016 3:0.10949 
-0.05768488921641506 1:1.57689 2:0.255399 3:0.53329 
-0.05768488921641506 1:1.45267 2:0.104749 3:0.604631 
-0.05768488921641506 1:1.58528 2:0.199746 3:0.00629947 
-0.05768488921641506 1:1.51878 2:0.256585 3:0.787539 
-0.05768488921641506 1:1.49444 2:0.240547 3:0.864919 
-0.05768488921641506 1:1.62421 2:0.0153363 3:0.359485 
-0.05768488921641506 1:1.66213 2:0.158518 3:0.373824 
-0.05768488921641506 1:1.37586 2:0.372766 3:1.04079 
-0.05768488921641506 1:1.59228 2:0.00672729 3:0.385638 
-0.05768488921641506 1:1.40244 2:0.259356 3:1.15385 
-0.05768488921641506 1:1.5895 2:0.428359 3:0.0556379 
-0.05768488921641506 1:1.4557 2:0.391003 3:0.248698 
-0.05768488921641506 1:1.40083 2:0.268637 3:1.10977 
-0.05768488921641506 1:1.41618 2:0.233415 3:1.07965 
-0.05768488921641506 1:1.44719 2:0.37044 3:0.0244779 
-0.05768488921641506 1:1.72311 2:0.504487 3:0.319479 
-0.05768488921641506 1:1.41703 2:0.258813 3:1.04679 
-0.05768488921641506 1:1.6239 2:0.397471 3:0.158607 
-0.05768488921641506 1:1.62769 2:0.392245 3:0.177198 
-0.05768488921641506 1:1.42312 2:0.37875 3:0.422761 
-0.05768488921641506 1:1.29382 2:0.128138 3:0.512355 
-0.05768488921641506 1:1.46783 2:0.158198 3:0.454319 
-0.05768488921641506 1:1.65918 2:0.317201 3:0.235712 
-0.05768488921641506 1:1.2506 2:0.493179 3:0.92249 
-0.05768488921641506 1:1.46745 2:0.140042 3:0.325077 
-0.05768488921641506 1:1.70203 2:0.288171 3:0.578564 
-0.05768488921641506 1:1.24757 2:0.0573371 3:0.0257157 
-0.05768488921641506 1:1.42735 2:0.263485 3:0.312766 
-0.05768488921641506 1:1.21499 2:0.186948 3:0.147602 
-0.05768488921641506 1:1.20616 2:0.218405 3:0.188584 
-0.05768488921641506 1:1.37117 2:0.40152 3:0.288029 
-0.05768488921641506 1:1.36465 2:0.390399 3:0.295706 
-0.05768488921641506 1:1.35968 2:0.3782 3:0.306674 
-0.05768488921641506 1:0.835746 2:0.973747 3:0.653865 
-0.05768488921641506 1:0.865401 2:0.884377 3:0.98005 
-0.05768488921641506 1:1.35974 2:0.298216 3:0.373572 
-0.05768488921641506 1:1.3763 2:0.161325 3:0.442599 
-0.05768488921641506 1:0.909934 2:0.702697 3:2.1212 
-0.05768488921641506 1:0.888204 2:0.69719 3:2.14229 
-0.05768488921641506 1:0.757125 2:0.218375 3:2.45536 
-0.05768488921641506 1:0.861888 2:0.679672 3:2.20524 
-0.05768488921641506 1:0.764856 2:0.275456 3:2.25251 
-0.05768488921641506 1:1.13031 2:0.159912 3:0.106063 
-0.05768488921641506 1:1.1275 2:0.183802 3:0.0418925 
-0.05768488921641506 1:1.12109 2:0.192979 3:0.0460426 
-0.05768488921641506 1:1.41776 2:0.00844746 3:0.555407 
-0.05768488921641506 1:1.82029 2:0.663098 3:0.264988 
-0.05768488921641506 1:1.42745 2:0.0239917 3:0.480183 
-0.05768488921641506 1:0.774855 2:0.627039 3:2.3491 
-0.05768488921641506 1:0.802696 2:0.442458 3:1.54029 
-0.05768488921641506 1:1.09321 2:0.190808 3:0.131999 
-0.05768488921641506 1:0.771946 2:0.652552 3:2.33435 
-0.05768488921641506 1:0.788396 2:0.715234 3:2.30914 
-0.05768488921641506 1:1.02813 2:0.288038 3:0.281293 
-0.05768488921641506 1:1.36654 2:0.152297 3:0.140334 
-0.05768488921641506 1:1.36045 2:0.153657 3:0.0745281 
-0.05768488921641506 1:1.34772 2:0.165723 3:0.0182058 
-0.05768488921641506 1:0.842489 2:0.752498 3:2.20168 
-0.05768488921641506 1:0.950647 2:0.334762 3:0.671221 
-0.05768488921641506 1:1.3302 2:0.136772 3:0.117056 
-0.05768488921641506 1:0.867742 2:0.42395 3:0.730902 
-0.05768488921641506 1:1.29162 2:0.244133 3:0.0121175 
-0.05768488921641506 1:1.2645 2:0.18495 3:0.748326 
-0.05768488921641506 1:1.26707 2:0.132501 3:0.930556 
-0.05768488921641506 1:1.36248 2:0.869135 3:0.544161 
-0.05768488921641506 1:1.35706 2:0.760866 3:0.513212 
-0.05768488921641506 1:1.22567 2:0.450491 3:0.496451 
-0.05768488921641506 1:1.819 2:0.781803 3:0.109599 
-0.05768488921641506 1:0.739133 2:0.310694 3:2.70454 
-0.05768488921641506 1:0.679843 2:0.320627 3:2.67326 
-0.05768488921641506 1:0.698354 2:0.262833 3:2.67115 
-0.05768488921641506 1:0.71809 2:0.201543 3:2.68697 
-0.05768488921641506 1:1.00014 2:0.741373 3:1.22943 
-0.05768488921641506 1:1.06487 2:0.334124 3:1.53151 
-0.05768488921641506 1:0.966014 2:0.646537 3:1.14654 
-0.05768488921641506 1:1.08203 2:0.512131 3:1.53867 
-0.05768488921641506 1:1.16564 2:0.567044 3:1.46196 
-0.05768488921641506 1:1.14005 2:0.288851 3:0.909021 
-0.05768488921641506 1:1.02881 2:0.419329 3:1.38005 
-0.05768488921641506 1:1.88801 2:0.477092 3:0.147049 
-0.05768488921641506 1:1.90762 2:0.464047 3:0.0631914 
-0.05768488921641506 1:1.93019 2:0.428059 3:0.026856 
-0.05768488921641506 1:1.07549 2:0.515244 3:0.0520676 
-0.05768488921641506 1:1.67184 2:0.0130058 3:0.463024 
-0.05768488921641506 1:1.64717 2:0.143308 3:0.399017 
-0.05768488921641506 1:1.16481 2:0.773222 3:1.20745 
-0.05768488921641506 1:1.6294 2:0.211862 3:0.0864183 
-0.05768488921641506 1:1.25425 2:0.672104 3:0.776035 
-0.05768488921641506 1:1.60972 2:0.0092414 3:0.168574 
-0.05768488921641506 1:1.28897 2:0.746792 3:0.778189 
-0.05768488921641506 1:1.31421 2:0.823784 3:0.707312 
-0.05768488921641506 1:1.35022 2:0.915413 3:0.593023 
-0.05768488921641506 1:1.35648 2:0.862053 3:0.515888 
-0.05768488921641506 1:1.6722 2:0.32309 3:0.26954 
-0.05768488921641506 1:0.827757 2:0.314371 3:0.147243 
-0.05768488921641506 1:1.67683 2:0.332069 3:0.288998 
-0.05768488921641506 1:1.67985 2:0.340422 3:0.32444 
-0.05768488921641506 1:1.68485 2:0.366002 3:0.3786 
-0.05768488921641506 1:1.46288 2:0.771564 3:0.790256 
-0.05768488921641506 1:0.821621 2:0.381341 3:0.231574 
-0.05768488921641506 1:1.69302 2:0.398987 3:0.423975 
-0.05768488921641506 1:1.71009 2:0.444977 3:0.504196 
-0.05768488921641506 1:1.52941 2:0.694926 3:0.36584 
-0.05768488921641506 1:1.53519 2:0.695911 3:0.13549 
-0.05768488921641506 1:1.74259 2:0.345941 3:0.468318 
-0.05768488921641506 1:0.680922 2:0.7259 3:0.153417 
-0.05768488921641506 1:1.53858 2:0.402923 3:0.362943 
-0.05768488921641506 1:0.692532 2:0.56127 3:0.172708 
-0.05768488921641506 1:0.948283 2:0.910119 3:0.539135 
-0.05768488921641506 1:0.956111 2:0.862914 3:0.577668 
-0.05768488921641506 1:0.696678 2:0.54348 3:0.191931 
-0.05768488921641506 1:1.52715 2:0.276903 3:0.412072 
-0.05768488921641506 1:0.989039 2:0.849692 3:0.616654 
-0.05768488921641506 1:1.52977 2:0.253747 3:0.37415 
-0.05768488921641506 1:1.66526 2:0.0300972 3:0.591018 
-0.05768488921641506 1:1.66813 2:0.0573363 3:0.581934 
-0.05768488921641506 1:1.67021 2:0.081075 3:0.607997 
-0.05768488921641506 1:0.718567 2:0.801133 3:0.293403 
-0.05768488921641506 1:1.69565 2:0.181119 3:0.670559 
-0.05768488921641506 1:0.712369 2:0.957961 3:0.250319 
-0.05768488921641506 1:1.48914 2:0.0139148 3:0.529236 
-0.05768488921641506 1:1.42614 2:0.96658 3:0.705296 
-0.05768488921641506 1:0.732426 2:0.990429 3:0.0933141 
-0.05768488921641506 1:1.84328 2:0.2262 3:0.481379 
-0.05768488921641506 1:0.744984 2:0.960409 3:0.13012 
-0.05768488921641506 1:1.49464 2:0.880829 3:0.727975 
-0.05768488921641506 1:1.81587 2:0.26125 3:0.482165 
-0.05768488921641506 1:1.75525 2:0.0642588 3:0.718846 
-0.05768488921641506 1:0.617843 2:0.704942 3:2.35856 
-0.05768488921641506 1:1.73553 2:0.00242984 3:0.710992 
-0.05768488921641506 1:1.44351 2:0.0816431 3:0.594907 
-0.05768488921641506 1:1.41824 2:0.10497 3:0.597963 
-0.05768488921641506 1:1.41383 2:0.0776003 3:0.622539 
-0.05768488921641506 1:0.679422 2:0.245928 3:1.66239 
-0.05768488921641506 1:1.54831 2:0.201593 3:0.850843 
-0.05768488921641506 1:1.42036 2:0.0455573 3:1.10725 
-0.05768488921641506 1:0.622735 2:0.00382113 3:1.73681 
-0.05768488921641506 1:1.71558 2:0.00388831 3:0.657559 
-0.05768488921641506 1:1.45983 2:0.0377961 3:0.9156 
-0.05768488921641506 1:1.70673 2:0.0426684 3:0.670764 
-0.05768488921641506 1:1.42183 2:0.0391255 3:0.981911 
-0.05768488921641506 1:1.68051 2:0.138516 3:0.698144 
-0.05768488921641506 1:1.23636 2:0.188595 3:1.33262 
-0.05768488921641506 1:1.35785 2:0.146602 3:0.380409 
-0.05768488921641506 1:1.81841 2:0.297834 3:0.297965 
-0.05768488921641506 1:1.66116 2:0.197618 3:0.7016 
-0.05768488921641506 1:1.61651 2:0.30718 3:0.689934 
-0.05768488921641506 1:0.702872 2:0.0604668 3:2.51284 
-0.05768488921641506 1:1.33534 2:0.179547 3:0.354663 
-0.05768488921641506 1:0.964786 2:0.402862 3:2.0687 
-0.05768488921641506 1:0.757374 2:0.00115421 3:2.76327 
-0.05768488921641506 1:1.7994 2:0.201033 3:0.351542 
-0.05768488921641506 1:0.842121 2:0.365234 3:2.42665 
-0.05768488921641506 1:0.788642 2:0.344154 3:2.50469 
-0.05768488921641506 1:1.3021 2:0.164814 3:0.426155 
-0.05768488921641506 1:1.48766 2:0.476716 3:0.752811 
-0.05768488921641506 1:1.2035 2:0.362327 3:0.884318 
-0.05768488921641506 1:1.46368 2:0.471435 3:0.840159 
-0.05768488921641506 1:0.608277 2:0.146609 3:2.67955 
-0.05768488921641506 1:1.15853 2:0.360702 3:0.776833 
-0.05768488921641506 1:0.570402 2:0.135622 3:2.72659 
-0.05768488921641506 1:1.4005 2:0.466098 3:0.851213 
-0.05768488921641506 1:1.23518 2:0.0861727 3:0.800561 
-0.05768488921641506 1:0.38182 2:0.11595 3:3.11309 
-0.05768488921641506 1:1.01673 2:0.178564 3:0.951669 
-0.05768488921641506 1:0.946729 2:0.120685 3:1.15242 
-0.05768488921641506 1:1.8681 2:0.446267 3:0.198879 
-0.05768488921641506 1:0.98731 2:0.938068 3:0.391116 
-0.05768488921641506 1:1.27664 2:0.0386181 3:1.4008 
-0.05768488921641506 1:1.27141 2:0.0938205 3:1.07683 
-0.05768488921641506 1:0.796975 2:0.809251 3:2.0962 
-0.05768488921641506 1:1.42001 2:0.511947 3:1.0097 
-0.05768488921641506 1:0.799022 2:0.768256 3:1.81364 
-0.05768488921641506 1:0.80795 2:0.745636 3:1.76471 
-0.05768488921641506 1:0.803653 2:0.823347 3:1.8716 
-0.05768488921641506 1:0.631474 2:0.905257 3:2.15764 
-0.05768488921641506 1:1.05244 2:0.655898 3:0.942553 
-0.05768488921641506 1:0.629768 2:0.680973 3:2.63739 
-0.05768488921641506 1:0.653957 2:0.573343 3:2.6571 
-0.05768488921641506 1:1.0028 2:0.268031 3:0.60765 
-0.05768488921641506 1:1.65157 2:0.727485 3:0.134008 
-0.05768488921641506 1:1.06412 2:0.246275 3:0.0447076 
-0.05768488921641506 1:0.736533 2:0.876927 3:2.318 
-0.05768488921641506 1:1.27253 2:0.273389 3:0.74731 
-0.05768488921641506 1:1.89823 2:0.376714 3:0.0995332 
-0.05768488921641506 1:1.39681 2:0.357107 3:1.00519 
-0.05768488921641506 1:0.901918 2:0.821712 3:1.95619 
-0.05768488921641506 1:0.925132 2:0.832585 3:1.92749 
-0.05768488921641506 1:1.69824 2:0.26612 3:0.766466 
-0.05768488921641506 1:0.53193 2:0.646659 3:2.80008 
-0.05768488921641506 1:1.61483 2:0.352678 3:0.195905 
-0.05768488921641506 1:1.62054 2:0.28422 3:0.118621 
-0.05768488921641506 1:1.73412 2:0.266429 3:0.133631 
-0.05768488921641506 1:0.561765 2:0.0820995 3:2.79082 
-0.05768488921641506 1:1.6928 2:0.0771672 3:0.861283 
-0.05768488921641506 1:0.590674 2:0.459664 3:2.8796 
-0.05768488921641506 1:0.722941 2:0.708901 3:2.47792 
-0.05768488921641506 1:1.58189 2:0.926146 3:0.234787 
-0.05768488921641506 1:1.61836 2:0.848164 3:0.0399291 
-0.05768488921641506 1:1.10666 2:0.91073 3:0.36675 
-0.05768488921641506 1:0.995908 2:0.892387 3:0.475953 
-0.05768488921641506 1:0.9465 2:0.838433 3:0.590268 
-0.05768488921641506 1:0.893644 2:0.633375 3:0.834902 
-0.05768488921641506 1:0.647471 2:0.554655 3:1.41606 
-0.05768488921641506 1:0.555622 2:0.616857 3:1.49882 
-0.05768488921641506 1:0.692416 2:0.65603 3:1.50207 
-0.05768488921641506 1:0.638742 2:0.302682 3:1.55119 
-0.05768488921641506 1:0.615094 2:0.369759 3:1.9422 
-0.05768488921641506 1:0.649176 2:0.500922 3:1.96545 
-0.05768488921641506 1:0.717544 2:0.617015 3:1.90035 
-0.05768488921641506 1:0.767165 2:0.675892 3:2.08943 
-0.05768488921641506 1:1.95888 2:0.217044 3:0.242492 
-0.05768488921641506 1:1.94481 2:0.223293 3:0.173375 
-0.05768488921641506 1:1.95009 2:0.143518 3:0.0094366 
-0.05768488921641506 1:1.96459 2:0.0424093 3:0.00994145 
-0.05768488921641506 1:1.96934 2:0.00933596 3:0.0395305 
-0.05768488921641506 1:1.96492 2:0.0240466 3:0.0432731 
-0.05768488921641506 1:1.9574 2:0.0417153 3:0.0555226 
-0.05768488921641506 1:1.92358 2:0.146889 3:0.0927344 
-0.05768488921641506 1:1.88769 2:0.372007 3:0.107599 
-0.05768488921641506 1:1.89222 2:0.152287 3:0.104773 
-0.05768488921641506 1:1.76682 2:0.0737776 3:0.38161 
-0.05768488921641506 1:1.7663 2:0.0482574 3:0.393025 
-0.05768488921641506 1:1.62154 2:0.72072 3:0.509676 
-0.05768488921641506 1:1.63015 2:0.648586 3:0.564798 
-0.05768488921641506 1:1.07249 2:0.663862 3:0.632966 
-0.05768488921641506 1:1.2016 2:0.544933 3:1.5961 
-0.05768488921641506 1:1.18804 2:0.492677 3:1.60176 
-0.05768488921641506 1:1.17949 2:0.454092 3:1.57319 
-0.05768488921641506 1:1.17262 2:0.420484 3:1.50377 
-0.05768488921641506 1:1.17819 2:0.404519 3:1.47538 
-0.05768488921641506 1:1.04666 2:0.990583 3:0.881242 
-0.05768488921641506 1:1.69262 2:0.640447 3:0.472346 
-0.05768488921641506 1:1.03479 2:0.762734 3:0.907694 
-0.05768488921641506 1:1.03049 2:0.700594 3:0.92061 
-0.05768488921641506 1:1.67461 2:0.643363 3:0.385945 
-0.05768488921641506 1:1.64491 2:0.594684 3:0.479797 
-0.05768488921641506 1:1.03719 2:0.671698 3:1.05699 
-0.05768488921641506 1:1.17159 2:0.667251 3:1.36911 
-0.05768488921641506 1:1.5401 2:0.688462 3:0.0185936 
-0.05768488921641506 1:1.49844 2:0.455231 3:0.130527 
-0.05768488921641506 1:1.39441 2:0.424754 3:0.335507 
-0.05768488921641506 1:1.37387 2:0.411971 3:0.394986 
-0.05768488921641506 1:1.08527 2:0.440461 3:1.90521 
-0.05768488921641506 1:0.960886 2:0.0387838 3:0.087358 
-0.05768488921641506 1:1.257 2:0.439437 3:1.51848 
-0.05768488921641506 1:1.50752 2:0.51156 3:0.354044 
-0.05768488921641506 1:1.47109 2:0.248195 3:0.151182 
-0.05768488921641506 1:1.34886 2:0.18208 3:0.803766 
-0.05768488921641506 1:1.15072 2:0.73069 3:1.27472 
-0.05768488921641506 1:1.08612 2:0.743913 3:1.02086 
-0.05768488921641506 1:2.00459 2:0.17931 3:0.108967 
-0.05768488921641506 1:0.957392 2:0.858907 3:0.782466 
-0.05768488921641506 1:1.26298 2:0.429288 3:0.366745 
-0.05768488921641506 1:0.89014 2:0.791291 3:0.97045 
-0.05768488921641506 1:1.18665 2:0.196165 3:0.107162 
-0.05768488921641506 1:1.16834 2:0.202094 3:0.177792 
-0.05768488921641506 1:1.17403 2:0.158392 3:0.0742553 
-0.05768488921641506 1:0.885933 2:0.816255 3:0.860933 
-0.05768488921641506 1:1.17531 2:0.105905 3:0.00142747 
-0.05768488921641506 1:1.16575 2:0.105777 3:0.056427 
-0.05768488921641506 1:0.885229 2:0.620503 3:0.931225 
-0.05768488921641506 1:1.12947 2:0.179368 3:0.184292 
-0.05768488921641506 1:1.10985 2:0.173202 3:0.439256 
-0.05768488921641506 1:0.962901 2:0.70622 3:0.761201 
-0.05768488921641506 1:1.00686 2:0.705255 3:0.605274 
-0.05768488921641506 1:1.12355 2:0.138666 3:0.657166 
-0.05768488921641506 1:1.02348 2:0.657948 3:0.537988 
-0.05768488921641506 1:1.02632 2:0.626622 3:0.506605 
-0.05768488921641506 1:1.20548 2:0.151385 3:1.07095 
-0.05768488921641506 1:1.07578 2:0.588098 3:0.437353 
-0.05768488921641506 1:1.30072 2:0.14547 3:1.15239 
-0.05768488921641506 1:1.12522 2:0.620124 3:0.415665 
-0.05768488921641506 1:1.59305 2:0.0838981 3:0.78161 
-0.05768488921641506 1:1.5635 2:0.143244 3:0.71512 
-0.05768488921641506 1:1.2232 2:0.144597 3:0.301683 
-0.05768488921641506 1:1.49465 2:0.25684 3:0.284891 
