svm_type c_svc
kernel_type rbf
gamma 8
nr_class 2
total_sv 8337
rho 0.697828
label 1 -1
probA -1.76509
probB -0.0494194
nr_sv 4064 4273
SV
2048 1:0.957268 2:0.398175 3:0.243108 
2048 1:0.970197 2:0.437089 3:0.225115 
2048 1:0.988656 2:0.4885 3:0.214246 
2048 1:1.01287 2:0.545433 3:0.176332 
2048 1:1.03625 2:0.571097 3:0.114856 
2048 1:1.06769 2:0.607597 3:0.0207267 
2048 1:1.09673 2:0.614203 3:0.0857879 
2048 1:1.13265 2:0.648626 3:0.188592 
60.38472205592898 1:0.896438 2:0.126557 3:0.0492228 
2048 1:1.15909 2:0.638787 3:0.293238 
2048 1:0.892042 2:0.155635 3:0.0632546 
2048 1:1.18011 2:0.627675 3:0.34208 
2048 1:0.887691 2:0.189587 3:0.0930675 
2048 1:1.20161 2:0.60877 3:0.407335 
2048 1:0.884342 2:0.210722 3:0.117885 
2048 1:1.22035 2:0.580866 3:0.457872 
2035.648345862994 1:0.884287 2:0.218435 3:0.146389 
2048 1:1.23559 2:0.547326 3:0.48891 
2048 1:1.24772 2:0.511778 3:0.497464 
2048 1:1.26084 2:0.476052 3:0.515766 
2048 1:1.26799 2:0.430549 3:0.520021 
2048 1:1.2796 2:0.397121 3:0.542289 
363.0253546415439 1:1.28603 2:0.281748 3:0.569427 
2048 1:1.29108 2:0.240595 3:0.59039 
2048 1:1.29946 2:0.2192 3:0.608765 
2048 1:1.30759 2:0.193032 3:0.627746 
2048 1:1.3138 2:0.165158 3:0.640874 
2048 1:1.32569 2:0.163783 3:0.652645 
2048 1:1.33203 2:0.152136 3:0.62806 
2048 1:1.34498 2:0.161793 3:0.61909 
2048 1:1.35841 2:0.155701 3:0.6142 
2048 1:1.37125 2:0.140162 3:0.618783 
2048 1:1.38331 2:0.11705 3:0.62117 
2048 1:1.39532 2:0.0883466 3:0.623777 
2048 1:1.40621 2:0.0563971 3:0.629666 
2048 1:1.41107 2:0.047141 3:0.59113 
2048 1:1.41579 2:0.0310071 3:0.562018 
2048 1:1.41783 2:0.0361476 3:0.505607 
2048 1:1.40626 2:0.0379 3:0.390132 
2048 1:1.39711 2:0.0344236 3:0.301667 
2048 1:1.09174 2:0.161331 3:0.734886 
2048 1:1.1053 2:0.169778 3:0.741278 
2048 1:1.12139 2:0.172941 3:0.747392 
2048 1:1.35802 2:0.0371331 3:0.000309039 
2048 1:1.13621 2:0.193106 3:0.757619 
2048 1:1.15403 2:0.203596 3:0.771436 
2048 1:1.17019 2:0.196105 3:0.765952 
2048 1:1.18504 2:0.195768 3:0.754209 
2048 1:1.20172 2:0.166563 3:0.742878 
2048 1:1.21945 2:0.1562 3:0.751916 
2048 1:1.23708 2:0.115284 3:0.739542 
2048 1:1.30226 2:0.0356528 3:0.352601 
2048 1:1.24965 2:0.0884028 3:0.718536 
2048 1:1.29792 2:0.0367858 3:0.3623 
2048 1:1.26911 2:0.0555144 3:0.724202 
2048 1:1.30003 2:0.0443774 3:0.343542 
1954.320201697583 1:1.28147 2:0.0209265 3:0.700269 
2048 1:1.30795 2:0.0367493 3:0.669076 
2048 1:1.31889 2:0.0667597 3:0.646312 
2048 1:1.34256 2:0.147664 3:0.135301 
2048 1:1.32906 2:0.101867 3:0.620572 
2048 1:1.36025 2:0.175535 3:0.0605153 
2048 1:1.33881 2:0.111468 3:0.606136 
532.2746183670727 1:1.37804 2:0.203427 3:0.00108842 
2048 1:1.34491 2:0.138868 3:0.564177 
2048 1:1.38878 2:0.196326 3:0.0644274 
2048 1:1.35097 2:0.151774 3:0.537429 
2048 1:1.40206 2:0.201849 3:0.122095 
2048 1:1.3565 2:0.153889 3:0.505514 
2048 1:1.40888 2:0.189289 3:0.157194 
2048 1:1.36216 2:0.163885 3:0.474731 
2048 1:1.42149 2:0.197611 3:0.197337 
2048 1:1.36429 2:0.146101 3:0.438454 
2048 1:1.42608 2:0.176167 3:0.222998 
2048 1:1.36761 2:0.139631 3:0.408806 
2048 1:1.43229 2:0.168794 3:0.239295 
2048 1:1.36617 2:0.117597 3:0.360451 
2048 1:1.43565 2:0.146794 3:0.261989 
2048 1:1.36711 2:0.0855129 3:0.334334 
2048 1:1.43547 2:0.123726 3:0.263959 
2048 1:1.43028 2:0.0765298 3:0.278439 
2048 1:1.42441 2:0.0396316 3:0.283021 
2048 1:1.41913 2:0.00382805 3:0.301516 
2048 1:1.40889 2:0.0645877 3:0.321297 
2048 1:1.40191 2:0.115752 3:0.348472 
2048 1:1.38872 2:0.186381 3:0.35939 
2048 1:1.38318 2:0.221456 3:0.381199 
2048 1:1.37585 2:0.24847 3:0.383788 
2048 1:1.37267 2:0.243101 3:0.370818 
2048 1:1.36644 2:0.238253 3:0.348506 
2048 1:1.36763 2:0.203607 3:0.326969 
2048 1:1.36936 2:0.161097 3:0.286525 
2048 1:1.3702 2:0.129678 3:0.243386 
2048 1:1.39504 2:0.0312517 3:0.0880135 
2048 1:1.39878 2:0.0658512 3:0.00077648 
2048 1:1.39508 2:0.0699355 3:0.0821132 
2048 1:1.45688 2:0.0105734 3:0.312857 
2048 1:1.47695 2:0.0155529 3:0.357467 
2048 1:1.35321 2:0.000350598 3:0.357398 
2048 1:1.4909 2:0.00832286 3:0.384747 
2048 1:1.34123 2:0.0253149 3:0.380166 
2048 1:1.50767 2:0.0133165 3:0.410784 
2048 1:1.32626 2:0.0649657 3:0.387852 
2048 1:1.51691 2:0.00107864 3:0.407591 
2048 1:1.31433 2:0.0982521 3:0.368477 
2048 1:1.52672 2:0.000870571 3:0.403466 
2048 1:1.29696 2:0.14629 3:0.362824 
2048 1:1.53447 2:0.00352124 3:0.389573 
2048 1:1.27801 2:0.191342 3:0.349664 
2048 1:1.54029 2:0.0042198 3:0.37377 
2048 1:1.54603 2:0.000579368 3:0.356624 
2048 1:1.24612 2:0.276277 3:0.269644 
2048 1:1.54742 2:0.0246352 3:0.332501 
2048 1:1.22654 2:0.323171 3:0.250219 
2048 1:1.54286 2:0.0334902 3:0.278079 
2048 1:1.21362 2:0.349869 3:0.206771 
2048 1:1.533 2:0.0348781 3:0.205615 
2048 1:1.20373 2:0.360615 3:0.171999 
2048 1:1.52127 2:0.00849274 3:0.128332 
2048 1:1.19849 2:0.363131 3:0.115819 
2048 1:1.51154 2:0.0296904 3:0.0671874 
2048 1:1.19455 2:0.350396 3:0.088071 
2048 1:1.50023 2:0.0783396 3:0.0076208 
2048 1:1.19694 2:0.314493 3:0.0587752 
2048 1:1.49058 2:0.101811 3:0.0368783 
2048 1:1.48264 2:0.0905033 3:0.0653452 
2048 1:1.47654 2:0.0527391 3:0.0803913 
2048 1:1.46997 2:0.0186053 3:0.0958806 
2048 1:1.45994 2:0.025887 3:0.123193 
2048 1:0.723035 2:0.00446726 3:2.30963 
2048 1:1.4493 2:0.0430026 3:0.154434 
2048 1:1.43641 2:0.0726695 3:0.191942 
2048 1:1.42225 2:0.0892163 3:0.2318 
2048 1:1.40434 2:0.0649218 3:0.293151 
186.586590261971 1:0.741295 2:0.023182 3:2.00744 
2048 1:1.31656 2:0.020758 3:0.366196 
2048 1:1.38856 2:0.0735766 3:0.336904 
491.7854291834981 1:0.740079 2:0.0382145 3:0.0256092 
2048 1:1.31996 2:0.00344616 3:0.394481 
2048 1:1.37243 2:0.0491404 3:0.381242 
2048 1:1.31376 2:0.0571374 3:0.399948 
2048 1:1.35632 2:7.73862e-05 3:0.4206 
2048 1:1.31259 2:0.0788223 3:0.408879 
2048 1:1.33691 2:0.0830083 3:0.479781 
2048 1:1.30153 2:0.134877 3:0.401528 
2048 1:1.32338 2:0.149966 3:0.51187 
3.406388376722471 1:0.720331 2:0.0309327 3:0.249564 
2048 1:1.29717 2:0.144127 3:0.386756 
2048 1:1.3104 2:0.198523 3:0.540506 
1653.05367447671 1:0.713876 2:0.0166127 3:0.32597 
2048 1:1.28716 2:0.178631 3:0.369783 
2048 1:1.29988 2:0.242201 3:0.565277 
2048 1:1.28499 2:0.262735 3:0.607341 
2048 1:1.25784 2:0.277901 3:0.342885 
2048 1:1.27649 2:0.289559 3:0.621903 
2048 1:1.25141 2:0.281774 3:0.335989 
2048 1:1.26786 2:0.306152 3:0.633003 
2048 1:1.23927 2:0.30958 3:0.322344 
2048 1:1.26447 2:0.327392 3:0.628723 
2048 1:1.22825 2:0.321367 3:0.294146 
2048 1:1.25774 2:0.331213 3:0.628741 
2048 1:1.22243 2:0.308797 3:0.268951 
2048 1:1.25294 2:0.334673 3:0.621822 
2048 1:1.22533 2:0.267814 3:0.260763 
2048 1:1.25147 2:0.345456 3:0.61181 
2048 1:1.223 2:0.244262 3:0.230665 
2048 1:1.24404 2:0.335353 3:0.616709 
2048 1:1.24078 2:0.331743 3:0.605712 
2048 1:1.23962 2:0.332006 3:0.590219 
2048 1:1.27436 2:0.37708 3:0.362971 
2048 1:1.29426 2:0.410336 3:0.289943 
2048 1:1.32053 2:0.452499 3:0.199075 
2048 1:1.15416 2:0.301865 3:0.0582412 
2048 1:1.34981 2:0.496015 3:0.108557 
689.6396881887318 1:1.13903 2:0.339131 3:0.0386128 
2048 1:1.38275 2:0.543037 3:0.0197718 
2048 1:1.13173 2:0.368824 3:0.069616 
2048 1:1.41026 2:0.570317 3:0.049798 
2048 1:1.11628 2:0.39789 3:0.0523882 
2048 1:1.45685 2:0.636878 3:0.152015 
2048 1:1.1042 2:0.424211 3:0.0570987 
2048 1:1.50301 2:0.691407 3:0.248395 
2048 1:1.0942 2:0.431298 3:0.069731 
2048 1:1.54829 2:0.728709 3:0.337298 
748.7498764982387 1:0.662149 2:0.272842 3:0.569497 
2048 1:1.08263 2:0.450523 3:0.0823135 
2048 1:0.662486 2:0.278359 3:0.572558 
2048 1:1.05892 2:0.480652 3:0.0334781 
123.4126440605301 1:0.661878 2:0.282865 3:0.58924 
2048 1:1.03715 2:0.496738 3:0.0172008 
2048 1:1.01543 2:0.513605 3:0.0675376 
2048 1:0.99936 2:0.496227 3:0.120307 
2048 1:0.981007 2:0.499263 3:0.162564 
2048 1:0.966129 2:0.491349 3:0.198187 
1314.254241910032 1:0.956176 2:0.456281 3:0.24115 
2048 1:1.27606 2:0.849937 3:1.30408 
2048 1:1.23956 2:0.72355 3:1.29887 
2048 1:1.23358 2:0.607931 3:0.750924 
2048 1:1.21428 2:0.37159 3:0.821309 
2048 1:1.21608 2:0.305181 3:0.237255 
2048 1:1.18345 2:0.687088 3:0.384799 
1055.677275007812 1:1.17336 2:0.987807 3:0.39698 
2048 1:1.15984 2:0.687657 3:0.429216 
2048 1:1.14581 2:0.74616 3:0.45619 
2048 1:1.13551 2:0.550895 3:0.463632 
2048 1:1.13223 2:0.454495 3:0.431295 
2048 1:1.12523 2:0.365192 3:0.421438 
2048 1:1.12604 2:0.290308 3:0.376919 
2048 1:1.14151 2:0.26409 3:0.27517 
338.98115394532 1:0.818295 2:0.058403 3:0.478504 
2048 1:1.14291 2:0.231466 3:0.247795 
2048 1:1.15078 2:0.20883 3:0.19397 
2048 1:1.14607 2:0.18654 3:0.199352 
2048 1:1.14692 2:0.175957 3:0.183155 
1890.625108882208 1:1.15029 2:0.177087 3:0.165609 
6.756573758314066 1:0.804014 2:0.159052 3:0.189475 
1196.82933826396 1:0.798871 2:0.186804 3:0.275416 
1784.351922800931 1:0.794327 2:0.216725 3:0.351706 
2048 1:1.17979 2:0.647887 3:1.18389 
2048 1:1.23761 2:0.658304 3:1.52897 
2048 1:1.26297 2:0.612627 3:1.58411 
2048 1:1.28359 2:0.496105 3:0.88644 
2048 1:1.27534 2:0.476607 3:0.0583009 
2048 1:1.2616 2:0.488687 3:0.156229 
2048 1:1.26433 2:0.969721 3:0.104566 
807.9861064056074 1:1.33302 2:1.07401 3:0.124088 
2048 1:1.38601 2:0.952942 3:0.266276 
1201.199907012012 1:1.39185 2:0.975908 3:0.23762 
2048 1:1.42269 2:0.945844 3:0.253061 
2048 1:1.46647 2:0.880742 3:0.33097 
2048 1:1.44947 2:0.928209 3:0.235492 
2048 1:1.51498 2:0.437977 3:1.97462 
2048 1:1.52845 2:0.377783 3:2.02367 
2048 1:1.5404 2:0.339459 3:0.139927 
2048 1:1.55172 2:0.879779 3:0.0760981 
2048 1:1.54312 2:0.19848 3:2.08027 
2048 1:1.55021 2:0.459012 3:2.74407 
2048 1:1.55507 2:0.719919 3:2.74649 
2048 1:1.55087 2:0.678878 3:2.7859 
2048 1:1.55492 2:0.599017 3:2.62915 
2048 1:1.56605 2:0.477888 3:2.55429 
2048 1:1.56348 2:0.276942 3:2.51257 
2048 1:1.55781 2:0.102838 3:2.36937 
2048 1:1.55967 2:0.050055 3:2.21489 
2048 1:1.5644 2:0.165151 3:2.01804 
68.81900152624929 1:0.8132 2:0.301875 3:0.0967837 
2048 1:1.56484 2:0.260102 3:1.73733 
2048 1:0.825533 2:0.331959 3:0.111002 
2048 1:1.5658 2:0.298049 3:1.38642 
2048 1:0.842608 2:0.358523 3:0.0756004 
2048 1:1.57612 2:0.271058 3:1.07836 
2048 1:0.85757 2:0.37418 3:0.038264 
2048 1:1.5837 2:0.243918 3:0.841411 
2048 1:0.871727 2:0.374725 3:0.0249323 
2048 1:1.59139 2:0.206507 3:0.704558 
2048 1:1.59651 2:0.171458 3:0.592942 
2048 1:1.60448 2:0.126532 3:0.518797 
2048 1:1.61404 2:0.0862563 3:0.471487 
2048 1:1.61865 2:0.0578524 3:0.414352 
2048 1:1.62067 2:0.0242479 3:0.350709 
2048 1:1.6262 2:0.00155215 3:0.321173 
2048 1:1.6283 2:0.0148139 3:0.282313 
2048 1:1.62707 2:0.0192163 3:0.234518 
2048 1:1.62751 2:0.0319207 3:0.200479 
2048 1:1.62253 2:0.0281849 3:0.150895 
2048 1:1.61912 2:0.0364541 3:0.111324 
2048 1:1.61819 2:0.0342598 3:0.093116 
2048 1:1.61142 2:0.0407173 3:0.0478105 
2048 1:1.61158 2:0.0518881 3:0.0400527 
2048 1:1.6117 2:0.0495988 3:0.0348056 
346.1269971576793 1:0.92168 2:0.101842 3:0.0474929 
2048 1:1.6146 2:0.0463844 3:0.0429434 
1626.104391022193 1:0.927634 2:0.116717 3:0.0429129 
2048 1:1.61673 2:0.0319568 3:0.0493835 
2048 1:1.62092 2:0.0230231 3:0.0638686 
2048 1:1.63028 2:0.0120622 3:0.100899 
2048 1:1.63645 2:0.0165504 3:0.115912 
2048 1:1.6442 2:0.0155596 3:0.138328 
2048 1:1.65323 2:0.0109291 3:0.166664 
2048 1:1.65864 2:0.00867091 3:0.174274 
2048 1:1.66957 2:0.0126041 3:0.204278 
2048 1:1.67616 2:0.0314533 3:0.205774 
2048 1:1.68533 2:0.0452204 3:0.220095 
2048 1:1.69231 2:0.0678617 3:0.219621 
2048 1:1.68921 2:0.0738894 3:0.178829 
2048 1:1.68756 2:0.0812274 3:0.148341 
542.6635556212633 1:0.974434 2:0.221768 3:0.425899 
2048 1:1.6889 2:0.0842619 3:0.134479 
2048 1:0.970686 2:0.192749 3:0.449246 
2048 1:1.68787 2:0.0961019 3:0.106188 
2048 1:1.68686 2:0.102734 3:0.081334 
2048 1:1.68299 2:0.106198 3:0.0459386 
2048 1:1.67737 2:0.0998253 3:0.00849077 
2048 1:1.67252 2:0.0953965 3:0.0221019 
2048 1:1.66405 2:0.0855856 3:0.0656201 
2048 1:1.65578 2:0.0619198 3:0.0953659 
2048 1:1.6425 2:0.0424659 3:0.147365 
2048 1:1.6294 2:0.0127115 3:0.18619 
2048 1:1.61831 2:0.00733028 3:0.213912 
2048 1:1.60305 2:0.0277936 3:0.259831 
2048 1:1.5914 2:0.0434646 3:0.286228 
2048 1:1.57797 2:0.0543551 3:0.316358 
2048 1:1.57072 2:0.0449674 3:0.323442 
2048 1:1.56352 2:0.0445293 3:0.327376 
2048 1:1.55639 2:0.0346562 3:0.338162 
2048 1:1.55103 2:0.02169 3:0.339503 
2048 1:1.54321 2:0.00846819 3:0.356611 
2048 1:1.5411 2:0.0113925 3:0.343464 
2048 1:1.53696 2:0.0141672 3:0.33571 
2048 1:1.53621 2:0.0440249 3:0.325554 
2048 1:1.53466 2:0.0593958 3:0.317214 
2048 1:1.53302 2:0.065206 3:0.309029 
2048 1:1.53105 2:0.0796987 3:0.301796 
2048 1:1.52678 2:0.076299 3:0.299951 
2048 1:1.52014 2:0.0583143 3:0.304344 
2048 1:1.5153 2:0.0658701 3:0.310454 
2048 1:1.5111 2:0.0565708 3:0.300954 
2048 1:1.50671 2:0.0403 3:0.291001 
2048 1:1.50068 2:0.0299857 3:0.285816 
2048 1:1.49208 2:0.00482767 3:0.286792 
2048 1:1.4787 2:0.0410396 3:0.297349 
2048 1:1.46952 2:0.0836283 3:0.281457 
2048 1:1.4531 2:0.106935 3:0.312925 
2048 1:1.44242 2:0.0861208 3:0.330832 
2048 1:1.43317 2:0.0711947 3:0.33992 
2048 1:1.4291 2:0.0214739 3:0.334674 
2048 1:1.42886 2:0.0361053 3:0.313531 
2048 1:1.43266 2:0.117537 3:0.292838 
2048 1:1.43649 2:0.178432 3:0.275799 
2048 1:1.46043 2:0.280813 3:0.201965 
2048 1:1.94601 2:0.973238 3:1.46067 
1428.932902211139 1:1.86212 2:1.00765 3:1.51111 
2048 1:1.87867 2:0.978692 3:1.54537 
231.3749915249825 1:1.01207 2:0.000680229 3:0.496823 
2048 1:1.82276 2:0.717406 3:1.45685 
2048 1:1.79544 2:0.577762 3:1.47415 
2048 1:1.71741 2:0.0311702 3:1.43444 
2048 1:1.66825 2:0.135326 3:1.36754 
2048 1:1.63569 2:0.0691828 3:1.30079 
2048 1:1.60177 2:0.0652288 3:1.2494 
2048 1:1.57771 2:0.242411 3:1.16334 
2048 1:1.55961 2:0.338036 3:1.04815 
2048 1:1.29041 2:0.953908 3:2.3378 
580.997746635 1:1.30294 2:0.761219 3:0.0132842 
2048 1:1.3195 2:0.492558 3:0.0522319 
2048 1:1.33785 2:0.204444 3:0.0643141 
2048 1:1.36289 2:0.114548 3:0.11058 
2048 1:1.38445 2:0.37156 3:0.124082 
2048 1:1.39837 2:0.533665 3:0.128609 
2048 1:1.4064 2:0.579297 3:0.130069 
2048 1:1.42333 2:0.621584 3:0.180915 
2048 1:1.43786 2:0.606989 3:0.232339 
2048 1:1.44008 2:0.547545 3:0.228302 
2048 1:1.44731 2:0.499455 3:0.248908 
2048 1:1.45346 2:0.444524 3:0.268594 
2048 1:1.45998 2:0.385881 3:0.292127 
2048 1:1.46324 2:0.322945 3:0.285245 
2048 1:1.46327 2:0.274292 3:0.268859 
2048 1:1.46269 2:0.232841 3:0.25323 
2048 1:1.4617 2:0.199608 3:0.230806 
2048 1:1.45664 2:0.164757 3:0.187674 
2048 1:0.632415 2:0.0393179 3:3.07532 
2048 1:1.45351 2:0.150537 3:0.161667 
103.1222405682942 1:0.605221 2:0.113281 3:2.66778 
2048 1:1.44806 2:0.146989 3:0.132085 
2048 1:1.44503 2:0.155917 3:0.121517 
2048 1:1.4358 2:0.16586 3:0.0812507 
2048 1:1.42906 2:0.166102 3:0.0508291 
2048 1:1.42277 2:0.184656 3:0.0347816 
2048 1:1.41953 2:0.207368 3:0.038248 
2048 1:1.41498 2:0.231515 3:0.0392309 
2048 1:1.41367 2:0.256745 3:0.05809 
2048 1:1.41125 2:0.260529 3:0.0603022 
2048 1:1.41283 2:0.26405 3:0.0808696 
2048 1:0.952057 2:0.730886 3:2.18365 
2048 1:1.4162 2:0.275196 3:0.111737 
2048 1:1.41605 2:0.29619 3:0.130928 
2048 1:1.41475 2:0.301644 3:0.140826 
2048 1:1.4152 2:0.318796 3:0.164257 
2048 1:1.42105 2:0.324981 3:0.206393 
2048 1:1.42669 2:0.32423 3:0.242644 
2048 1:1.43275 2:0.314212 3:0.274348 
2048 1:1.43866 2:0.299069 3:0.299975 
189.5218014056745 1:0.47657 2:0.646745 3:2.91428 
2048 1:1.44303 2:0.277128 3:0.301238 
2048 1:0.462931 2:0.466217 3:0.383312 
2048 1:1.44355 2:0.250145 3:0.274292 
2048 1:1.44508 2:0.219104 3:0.253689 
2048 1:1.4479 2:0.183989 3:0.238242 
2048 1:1.44891 2:0.140439 3:0.20223 
2048 1:1.4413 2:0.101657 3:0.126204 
2048 1:1.42796 2:0.0777237 3:0.0319285 
1360.633742703775 1:0.609675 2:0.732556 3:0.583304 
2048 1:1.41798 2:0.049378 3:0.0410814 
558.8901772116609 1:1.40799 2:0.0164901 3:0.115553 
2048 1:1.37217 2:0.0224444 3:0.32207 
2048 1:1.35451 2:0.0320105 3:0.413736 
2048 1:1.33606 2:0.0316139 3:0.503011 
2048 1:1.32069 2:0.026196 3:0.564151 
2048 1:1.30271 2:0.0194585 3:0.631215 
2048 1:0.691679 2:0.429498 3:2.56877 
2048 1:1.28512 2:0.0236077 3:0.695427 
2048 1:0.692033 2:0.387793 3:2.56401 
2048 1:1.26993 2:0.0213612 3:0.733141 
2048 1:0.691803 2:0.348445 3:2.56151 
2048 1:1.25626 2:0.0124185 3:0.753978 
2048 1:0.691307 2:0.313495 3:2.55286 
2048 1:0.690038 2:0.279358 3:2.55356 
1717.763946486712 1:1.23319 2:0.00298964 3:0.768471 
2048 1:0.688472 2:0.247755 3:2.55421 
1268.824042530757 1:0.686525 2:0.218989 3:2.55492 
912.7643835108751 1:1.20926 2:0.0678339 3:0.675782 
2048 1:0.677594 2:0.114665 3:2.5497 
2048 1:1.20795 2:0.0863046 3:0.649234 
2048 1:1.20802 2:0.0994356 3:0.614923 
2048 1:1.21063 2:0.116173 3:0.539451 
2048 1:1.20861 2:0.124654 3:0.495101 
2048 1:1.20642 2:0.120966 3:0.450195 
2048 1:1.20771 2:0.123213 3:0.401957 
2048 1:1.20402 2:0.120078 3:0.382674 
2048 1:1.20748 2:0.134246 3:0.342083 
2048 1:1.23646 2:0.107144 3:0.0882307 
1837.826173720583 1:1.23591 2:0.0897789 3:0.0728904 
0.6167475036523932 1:1.27292 2:0.103759 3:0.0938672 
2048 1:1.31536 2:0.318835 3:0.102564 
2048 1:1.31499 2:0.369628 3:0.206896 
2048 1:1.31656 2:0.411622 3:0.286384 
2048 1:1.31798 2:0.475019 3:0.380389 
2048 1:1.32233 2:0.546789 3:0.459808 
2048 1:1.32292 2:0.585451 3:0.550146 
2048 1:1.3261 2:0.606569 3:0.582317 
2048 1:1.69775 2:0.58312 3:0.875028 
2048 1:1.6281 2:0.428383 3:2.41108 
2048 1:1.5995 2:0.3577 3:2.21409 
2048 1:1.58806 2:0.406193 3:1.68823 
2048 1:1.57653 2:0.319094 3:1.1306 
2048 1:1.54008 2:0.209433 3:1.32995 
1422.592198646156 1:1.37296 2:0.916367 3:2.00072 
2048 1:1.39545 2:0.853925 3:1.9319 
2048 1:1.42933 2:0.634911 3:0.690472 
2048 1:1.43255 2:0.416401 3:0.155097 
2048 1:1.44599 2:0.129121 3:0.311545 
2048 1:1.45584 2:0.0156245 3:0.365016 
2048 1:1.46149 2:0.157906 3:0.406181 
2048 1:1.46851 2:0.198477 3:0.432854 
2048 1:1.47423 2:0.196596 3:0.437934 
2048 1:1.48083 2:0.168156 3:0.439236 
2048 1:1.47822 2:0.151839 3:0.387294 
2048 1:1.47694 2:0.131399 3:0.342338 
2048 1:1.47527 2:0.115616 3:0.301252 
2048 1:1.47343 2:0.104476 3:0.263928 
2048 1:1.47116 2:0.0974545 3:0.231949 
2048 1:1.46902 2:0.091577 3:0.206358 
2048 1:1.4676 2:0.0848084 3:0.185148 
2048 1:1.4696 2:0.0659355 3:0.170325 
2048 1:1.48094 2:0.0133085 3:0.166882 
2048 1:1.49466 2:0.0429053 3:0.162918 
2048 1:1.51067 2:0.102131 3:0.158467 
2048 1:1.51679 2:0.125778 3:0.123242 
2048 1:1.524 2:0.149941 3:0.0936932 
2048 1:1.53218 2:0.174093 3:0.0692301 
2048 1:1.54324 2:0.205684 3:0.0501244 
2048 1:1.53732 2:0.177106 3:0.000306682 
2048 1:1.53206 2:0.152606 3:0.0425472 
2048 1:0.58974 2:0.0428617 3:2.78882 
2048 1:1.52822 2:0.134465 3:0.0776709 
2048 1:0.587608 2:0.0730191 3:2.78793 
2048 1:1.51869 2:0.0943173 3:0.107952 
2048 1:0.585705 2:0.0967527 3:2.7874 
2048 1:1.50983 2:0.0590466 3:0.130984 
2048 1:0.586035 2:0.0938652 3:2.7608 
2048 1:1.5033 2:0.0346362 3:0.146325 
2048 1:0.581733 2:0.128113 3:2.81061 
2048 1:1.49875 2:0.0249071 3:0.183527 
2048 1:0.578487 2:0.153158 3:2.84144 
2048 1:1.49923 2:0.0325326 3:0.208203 
2048 1:0.565605 2:0.19384 3:3.01236 
2048 1:1.50187 2:0.0452346 3:0.222737 
2048 1:0.554462 2:0.226829 3:3.11729 
2048 1:1.50839 2:0.0697233 3:0.228142 
2048 1:1.50852 2:0.0765314 3:0.266539 
2048 1:1.51285 2:0.0964421 3:0.291769 
2048 1:1.51901 2:0.118935 3:0.303391 
2048 1:1.52443 2:0.134262 3:0.30472 
2048 1:1.53327 2:0.15916 3:0.294776 
2048 1:1.57785 2:0.307701 3:0.249748 
2048 1:1.61857 2:0.429069 3:0.25548 
2048 1:1.64426 2:0.480485 3:0.260589 
2048 1:1.66419 2:0.504868 3:0.260113 
2048 1:1.67695 2:0.499909 3:0.25462 
2048 1:1.68059 2:0.461284 3:0.243762 
2048 1:0.783902 2:0.428046 3:2.43706 
2048 1:1.67863 2:0.40581 3:0.22922 
2048 1:0.816753 2:0.438651 3:2.35659 
2048 1:1.67327 2:0.34337 3:0.213626 
2048 1:1.65329 2:0.270874 3:0.404288 
2048 1:1.63343 2:0.222218 3:0.57141 
2048 1:1.61662 2:0.198321 3:0.704402 
2048 1:1.60124 2:0.184156 3:0.810989 
2048 1:1.5889 2:0.231658 3:0.95175 
41.8424972173742 1:0.426366 2:0.501112 3:0.964339 
2048 1:1.57933 2:0.277732 3:1.0445 
2048 1:1.57316 2:0.317418 3:1.10076 
2048 1:1.56787 2:0.340347 3:1.12956 
2048 1:1.56626 2:0.450086 3:1.22849 
2048 1:1.56642 2:0.528314 3:1.28657 
2048 1:1.56656 2:0.480284 3:1.23637 
2048 1:1.56711 2:0.426795 3:1.17477 
2048 1:1.56953 2:0.37671 3:1.10437 
2048 1:1.57455 2:0.333076 3:1.02011 
2048 1:1.57946 2:0.289468 3:0.925125 
2048 1:1.58486 2:0.250555 3:0.821376 
2048 1:1.59101 2:0.220687 3:0.717101 
2048 1:1.59912 2:0.269421 3:0.743697 
2048 1:1.6048 2:0.295232 3:0.752972 
2048 1:1.61143 2:0.312154 3:0.746963 
2048 1:1.61939 2:0.321991 3:0.725661 
900.5579674799615 1:0.670751 2:0.340314 3:1.48327 
2048 1:1.63361 2:0.358128 3:0.668575 
2048 1:1.63955 2:0.356526 3:0.628791 
1639.32238182051 1:0.685386 2:0.289532 3:1.5967 
2048 1:1.63976 2:0.330069 3:0.598743 
2048 1:0.69059 2:0.262433 3:1.64882 
2048 1:1.63844 2:0.29675 3:0.572233 
2048 1:0.693583 2:0.257953 3:1.83529 
2048 1:1.63574 2:0.258691 3:0.547973 
2048 1:0.696856 2:0.239445 3:2.49734 
2048 1:1.62853 2:0.205935 3:0.529511 
2048 1:0.699915 2:0.211586 3:2.48516 
2048 1:1.62067 2:0.1529 3:0.50834 
2048 1:0.701767 2:0.181841 3:2.47562 
2048 1:1.61282 2:0.103996 3:0.486878 
2048 1:1.61461 2:0.100866 3:0.474631 
2048 1:1.6141 2:0.087645 3:0.46237 
832.4835928642779 1:0.694391 2:0.0518319 3:2.46527 
2048 1:1.61614 2:0.0826731 3:0.441899 
2048 1:1.61649 2:0.0708081 3:0.420873 
2048 1:1.61555 2:0.0547204 3:0.398924 
2048 1:1.61733 2:0.0500228 3:0.371826 
2048 1:1.61732 2:0.0394488 3:0.346479 
2048 1:1.61634 2:0.0265741 3:0.320826 
2048 1:1.61721 2:0.0221467 3:0.290711 
2048 1:1.6164 2:0.0126778 3:0.263187 
2048 1:1.61462 2:0.000994385 3:0.235658 
2048 1:1.61248 2:0.0101807 3:0.208452 
2048 1:1.61081 2:0.0176772 3:0.181942 
2048 1:1.60725 2:0.0309398 3:0.158103 
2048 1:1.60332 2:0.0437961 3:0.135338 
2048 1:1.5968 2:0.0717308 3:0.149302 
2048 1:1.59732 2:0.0783316 3:0.189484 
2048 1:1.59636 2:0.0906909 3:0.217909 
2048 1:1.59023 2:0.121431 3:0.235158 
2048 1:1.58497 2:0.157461 3:0.273245 
2048 1:1.57795 2:0.19533 3:0.296004 
2048 1:1.56892 2:0.234656 3:0.30596 
2048 1:1.55943 2:0.268772 3:0.307621 
2048 1:1.54913 2:0.299526 3:0.302941 
2048 1:1.54285 2:0.296608 3:0.28136 
2048 1:1.53584 2:0.295396 3:0.258173 
2048 1:1.52692 2:0.312259 3:0.250339 
2048 1:1.52207 2:0.309203 3:0.241601 
2048 1:1.51891 2:0.297912 3:0.231888 
2048 1:1.51941 2:0.255817 3:0.198913 
2048 1:1.52239 2:0.209217 3:0.169669 
2048 1:1.52392 2:0.174146 3:0.142542 
2048 1:1.52922 2:0.11575 3:0.0900805 
2048 1:1.53409 2:0.0693 3:0.0411538 
2048 1:1.53527 2:0.0470894 3:0.0047226 
2048 1:1.53511 2:0.0366386 3:0.0269896 
2048 1:1.53483 2:0.0305681 3:0.0523302 
2048 1:1.5318 2:0.037517 3:0.0694739 
2048 1:1.52575 2:0.0561742 3:0.0780791 
2048 1:1.52102 2:0.0721223 3:0.0365888 
2048 1:1.51446 2:0.0920516 3:0.000638243 
2048 1:1.50484 2:0.121029 3:0.0325465 
2048 1:1.49348 2:0.15357 3:0.0624902 
2048 1:1.47868 2:0.196284 3:0.0912621 
2048 1:1.46538 2:0.229221 3:0.113766 
2048 1:1.44908 2:0.266744 3:0.104896 
2048 1:1.43747 2:0.288475 3:0.166498 
2048 1:1.42227 2:0.322016 3:0.175141 
2048 1:1.41591 2:0.319725 3:0.214632 
2048 1:1.41013 2:0.316172 3:0.243702 
2048 1:1.40493 2:0.311186 3:0.264452 
2048 1:1.40798 2:0.284159 3:0.301704 
2048 1:1.41153 2:0.258927 3:0.328531 
2048 1:1.41556 2:0.234679 3:0.346075 
2048 1:1.42101 2:0.206524 3:0.356209 
2048 1:1.42563 2:0.178579 3:0.314252 
2048 1:1.43289 2:0.139348 3:0.275849 
2048 1:1.43803 2:0.118476 3:0.289117 
2048 1:1.44286 2:0.0995033 3:0.2965 
2048 1:1.44626 2:0.086981 3:0.297568 
2048 1:1.45294 2:0.060747 3:0.293242 
2048 1:1.44759 2:0.084563 3:0.290778 
2048 1:1.46155 2:0.0156549 3:0.227407 
2048 1:1.47469 2:0.0446658 3:0.178692 
2048 1:1.48796 2:0.114187 3:0.104632 
2048 1:1.49466 2:0.164978 3:0.0158024 
2048 1:1.49698 2:0.188251 3:0.0522284 
2048 1:1.49369 2:0.182367 3:0.10466 
2048 1:1.4933 2:0.184204 3:0.140691 
2048 1:1.48734 2:0.16015 3:0.16817 
2048 1:1.48137 2:0.135281 3:0.187063 
2048 1:1.47367 2:0.103344 3:0.200123 
2048 1:1.46934 2:0.0939306 3:0.238536 
2048 1:1.47029 2:0.101701 3:0.26464 
2048 1:1.47396 2:0.115738 3:0.2817 
2048 1:1.48032 2:0.136111 3:0.291459 
1629.372062263378 1:1.05676 2:0.00391338 3:0 
1356.669970011336 1:1.0656 2:0.0358236 3:0 
2048 1:1.02265 2:0.398758 3:1.60249 
2048 1:0.946126 2:0.908944 3:0.919489 
1126.340740541863 1:0.890757 2:0.980348 3:1.00738 
2048 1:0.882988 2:0.862268 3:1.0821 
2048 1:0.880612 2:0.73326 3:1.12215 
2048 1:0.870104 2:0.667003 3:1.12214 
2048 1:0.863858 2:0.565616 3:1.21414 
2048 1:0.665296 2:0.206312 3:1.7632 
2048 1:0.637102 2:0.35689 3:1.71718 
2048 1:0.617381 2:0.411395 3:1.27545 
2048 1:0.60652 2:0.398672 3:1.27902 
1026.310506434497 1:0.599611 2:0.368389 3:1.27565 
2048 1:0.586774 2:0.380231 3:1.19654 
2048 1:0.627693 2:0.0513839 3:2.79307 
2048 1:0.635877 2:0.0755305 3:2.83788 
2048 1:0.613002 2:0.665132 3:2.64295 
2048 1:0.625612 2:0.623675 3:2.63523 
112.0286360560827 1:0.733085 2:0.198814 3:0.336295 
219.9365374161906 1:0.76082 2:0.15229 3:0.414671 
389.6514991828672 1:0.901292 2:0.00305716 3:0.685177 
2048 1:0.978182 2:0.975984 3:1.13797 
2048 1:0.984054 2:0.89855 3:1.12288 
2048 1:0.981442 2:0.687246 3:0.192456 
2048 1:0.992791 2:0.471723 3:0.388746 
1339.623201060147 1:0.989972 2:0.223425 3:0.340099 
2048 1:0.964528 2:0.387806 3:0.280218 
2048 1:0.966683 2:0.466231 3:0.290439 
40.55349599154459 1:0.953876 2:0.486264 3:0.225582 
1870.100122018943 1:0.94371 2:0.511643 3:0.177495 
2048 1:0.939034 2:0.523751 3:0.151595 
272.2333105005946 1:0.94386 2:0.502576 3:0.152713 
2043.68151737835 1:1.04862 2:0.00952065 3:0.198886 
2048 1:0.964353 2:0.358015 3:0.169172 
346.4016974098035 1:0.96242 2:0.324199 3:0.153141 
2048 1:0.971687 2:0.297235 3:0.176578 
2048 1:0.816035 2:0.166919 3:0.302969 
161.3946822167073 1:0.684677 2:0.888699 3:0.104187 
2048 1:0.666344 2:0.574671 3:0.282555 
2048 1:0.812974 2:0.165986 3:0.271586 
225.4899802111379 1:0.808185 2:0.139791 3:0.269058 
2048 1:0.64564 2:0.224255 3:0.00584386 
318.3887305765002 1:0.764478 2:0.0589785 3:0.221298 
408.449564163197 1:0.761088 2:0.0766796 3:0.209703 
754.8606746754609 1:0.756692 2:0.0985203 3:0.203711 
133.0196008715559 1:0.752108 2:0.120221 3:0.198645 
2048 1:0.952072 2:0.304507 3:0.00405909 
114.6979403911473 1:0.763273 2:0.066023 3:0.238538 
1.241545629355391 1:0.774809 2:0.0280382 3:0.0177144 
2048 1:0.732634 2:0.0716423 3:0.182913 
902.0742904192729 1:0.58089 2:0.0124498 3:0.586877 
2048 1:0.994169 2:0.0529216 3:0.250118 
2048 1:1.10124 2:0.25243 3:0.325544 
2048 1:1.09266 2:0.263356 3:0.262204 
1562.58743375286 1:1.10872 2:0.989823 3:2.71875 
2048 1:0.94375 2:0.0645743 3:0.059614 
2048 1:1.082 2:0.262259 3:0.1985 
2048 1:1.0659 2:0.780251 3:0.794307 
61.98866536471367 1:0.928992 2:0.0590436 3:0.132973 
2048 1:1.0727 2:0.21795 3:0.150399 
1371.62176998729 1:1.07793 2:0.714705 3:0.37923 
2048 1:0.908456 2:0.0797658 3:0.209558 
2048 1:1.0563 2:0.377145 3:0.626136 
2048 1:0.99403 2:0.25098 3:0.657106 
2048 1:0.912139 2:0.715273 3:0.722438 
2048 1:0.810605 2:0.538447 3:1.26098 
2048 1:0.746062 2:0.283183 3:1.37269 
2048 1:1.10303 2:0.0288893 3:0.175793 
2048 1:0.68751 2:0.105783 3:1.41471 
2048 1:1.09895 2:0.0332688 3:0.161236 
1763.837595702513 1:0.649121 2:0.254607 3:1.08855 
2048 1:0.806981 2:0.335814 3:0.0294353 
2048 1:0.824301 2:0.337378 3:0.0451214 
1748.211839437146 1:0.8294 2:0.305975 3:0.0606058 
2048 1:0.828526 2:0.309914 3:0.0411293 
2048 1:0.843403 2:0.215897 3:0.110142 
0.1170457916093546 1:0.854598 2:0.174155 3:0.15817 
2048 1:0.674746 2:0.311037 3:0.39838 
1264.080238591248 1:1.0427 2:0.102225 3:0.013348 
2048 1:1.03953 2:0.106535 3:0.0057615 
2048 1:1.03942 2:0.123849 3:0.0129171 
2048 1:0.71044 2:0.597319 3:1.79729 
382.0568733117765 1:1.02726 2:0.131175 3:0.010756 
599.8966092741055 1:0.765553 2:0.148093 3:0.416197 
24.1138178341885 1:0.818089 2:0.074931 3:0.49334 
178.2736282670756 1:0.836663 2:0.0416491 3:0.536174 
2048 1:0.862391 2:0.0195658 3:0.553317 
609.8683470514205 1:0.872998 2:0.0437936 3:0.544905 
2046.446904252344 1:0.876121 2:0.0553267 3:0.510052 
1073.683814763027 1:0.953914 2:0.197131 3:0.384622 
829.4052257726397 1:0.881069 2:0.168496 3:0.112495 
676.4172556671541 1:0.885915 2:0.174508 3:0.0818169 
2048 1:0.775444 2:0.196795 3:0.671056 
2048 1:0.886454 2:0.185894 3:0.0656904 
1032.829420002802 1:0.751669 2:0.242986 3:0.780414 
1281.404716954331 1:0.710113 2:0.127537 3:0.568218 
2048 1:0.73472 2:0.0590207 3:0.225846 
1896.287419480982 1:0.706282 2:0.0820856 3:0.731725 
2048 1:0.706813 2:0.218842 3:1.20293 
2048 1:0.712624 2:0.0690114 3:0.126363 
114.6715732004303 1:0.449841 2:0.915279 3:0.947631 
2048 1:0.712691 2:0.00858202 3:0.11535 
2048 1:0.717737 2:0.0561325 3:0.0925491 
2048 1:0.712684 2:0.0740642 3:0.101581 
178.9787343690465 1:0.716174 2:0.113977 3:0.0846153 
2048 1:0.801263 2:0.349494 3:0.063109 
517.7662229653516 1:0.717134 2:0.00334664 3:0.143148 
2048 1:0.488544 2:0.357257 3:2.14761 
256.5090086100217 1:0.586043 2:0.984969 3:1.8119 
2048 1:1.11534 2:0.887242 3:0.0251606 
2048 1:1.1251 2:0.695694 3:0.0993483 
2048 1:1.1416 2:0.292443 3:0.190625 
2048 1:1.16 2:0.351322 3:0.221206 
2048 1:1.09324 2:0.773118 3:1.17255 
2048 1:1.0753 2:0.537189 3:0.867695 
2048 1:1.06012 2:0.28188 3:0.77996 
2048 1:1.29983 2:0.152421 3:0.295102 
2048 1:1.27213 2:0.29508 3:0.365653 
2048 1:1.25362 2:0.732149 3:0.788364 
2048 1:1.02832 2:0.201023 3:0.594249 
2048 1:1.01059 2:0.282903 3:0.515465 
2048 1:0.979502 2:0.575322 3:0.506676 
2048 1:0.762438 2:0.706383 3:0.187269 
2048 1:0.994456 2:0.576794 3:0.552435 
2048 1:0.997394 2:0.590136 3:0.536859 
2048 1:0.990008 2:0.607056 3:0.470131 
2048 1:0.984335 2:0.675806 3:0.450741 
2048 1:0.979031 2:0.71585 3:0.396709 
2048 1:0.9756 2:0.702111 3:0.356017 
2048 1:0.974944 2:0.702372 3:0.315875 
2048 1:0.981904 2:0.654305 3:0.288566 
2048 1:0.977517 2:0.59975 3:0.231304 
2048 1:0.972884 2:0.541751 3:0.17602 
2048 1:0.958379 2:0.539232 3:0.0942054 
1.76474020372368 1:0.832282 2:0.239146 3:0.116028 
614.6035335529092 1:0.960684 2:0.48928 3:0.0944736 
2048 1:0.9426 2:0.37285 3:0.0099213 
25.84226889648573 1:0.831268 2:0.237856 3:0.103133 
2048 1:1.08373 2:0.203958 3:0.532242 
2048 1:1.07602 2:0.236305 3:0.646687 
2048 1:1.06805 2:0.326156 3:0.876066 
2048 1:1.05927 2:0.385066 3:0.974514 
2048 1:1.05465 2:0.400056 3:0.990088 
2048 1:1.0578 2:0.374301 3:1.03839 
2048 1:1.05943 2:0.351927 3:1.04192 
2048 1:1.06191 2:0.324323 3:1.02115 
854.2272327203219 1:1.02112 2:0.0608014 3:0.212002 
2048 1:1.05906 2:0.29609 3:0.962426 
1383.834442233762 1:1.03133 2:0.0730189 3:0.232507 
2048 1:1.06432 2:0.20767 3:0.867548 
2048 1:1.06329 2:0.167654 3:0.784777 
26.66185201490588 1:0.724988 2:0.0919594 3:0.212312 
2048 1:0.709142 2:0.0844393 3:0.125791 
2048 1:0.71393 2:0.0821216 3:0.102581 
2048 1:0.684087 2:0.0964796 3:2.71163 
2048 1:0.697216 2:0.151422 3:2.72491 
2048 1:0.714076 2:0.208675 3:2.67481 
2048 1:0.728859 2:0.252228 3:2.65714 
2048 1:0.742074 2:0.281839 3:2.63631 
415.4477468290391 1:0.82538 2:0.188441 3:0.363772 
2048 1:0.753766 2:0.302636 3:2.62367 
2048 1:0.758374 2:0.28815 3:2.60627 
2048 1:0.76758 2:0.28874 3:2.54463 
2048 1:0.770815 2:0.263687 3:2.47549 
2048 1:0.772824 2:0.238606 3:2.41432 
2048 1:0.773692 2:0.212896 3:2.35807 
2048 1:0.773724 2:0.186826 3:2.29926 
2048 1:0.971596 2:0.276185 3:0.274749 
2048 1:0.773819 2:0.165784 3:2.23992 
2048 1:0.977217 2:0.264695 3:0.259945 
2048 1:0.773924 2:0.147554 3:2.16901 
2048 1:0.983905 2:0.264712 3:0.245175 
2048 1:0.759796 2:0.0686086 3:0 
2048 1:0.754849 2:0.0546882 3:0 
2048 1:0.750335 2:0.0495833 3:0 
2048 1:0.746026 2:0.0497924 3:0 
2048 1:0.98523 2:0.00800207 3:0.0332576 
4.544286571675145 1:0.986542 2:0.0184446 3:0.0775846 
50.92005687852692 1:0.387618 2:0.0218373 3:0.670551 
1644.893788478352 1:0.69117 2:0.102349 3:0.924276 
798.573284096689 1:0.878257 2:0.676434 3:1.35798 
2048 1:0.895833 2:0.61291 3:0.327979 
2048 1:0.904312 2:0.487155 3:0.0250338 
2048 1:0.944068 2:0.408591 3:1.07464 
1148.671841209278 1:0.662742 2:0.155606 3:1.07417 
2048 1:1.15211 2:0.878084 3:0.102908 
2048 1:1.14296 2:0.599415 3:0.0242929 
2048 1:0.994618 2:0.513048 3:0.0817947 
2048 1:0.972076 2:0.584673 3:0.0825069 
2048 1:0.950517 2:0.637908 3:0.0865223 
2048 1:0.934834 2:0.653883 3:0.0883281 
2048 1:0.919107 2:0.671908 3:0.0909006 
2048 1:0.766036 2:0.241123 3:2.11729 
2048 1:0.905463 2:0.676584 3:0.0970607 
2048 1:0.778277 2:0.26324 3:2.16719 
2048 1:0.794808 2:0.303587 3:2.20732 
2048 1:0.798002 2:0.288784 3:2.29262 
2048 1:0.794133 2:0.251275 3:2.38033 
2048 1:0.78994 2:0.21854 3:2.47058 
2048 1:0.77883 2:0.161264 3:2.60466 
1470.96509215193 1:0.854263 2:0.490907 3:0.166015 
906.0906840878283 1:0.758001 2:0.0793716 3:0 
1928.284405577552 1:0.708183 2:0.138133 3:1.26754 
1433.0594558232 1:0.684053 2:0.195975 3:1.10852 
28.2672845156475 1:0.505718 2:1.23128 3:0.199093 
1888.179239077155 1:0.487737 2:0.966346 3:0.680371 
1420.900237540656 1:0.541621 2:0.909533 3:0.369639 
842.0632286055132 1:0.647751 2:0.947805 3:1.74203 
2048 1:0.689312 2:0.862859 3:0.554136 
2048 1:0.758477 2:0.725185 3:0.401702 
2048 1:0.758539 2:0.660015 3:0.288708 
1766.581324140446 1:0.770823 2:0.642412 3:0.277283 
2048 1:0.780863 2:0.619012 3:0.228949 
2048 1:0.777671 2:0.527047 3:0.142452 
2048 1:0.784417 2:0.504818 3:0.11517 
2048 1:0.791151 2:0.469439 3:0.117708 
2048 1:0.793833 2:0.437995 3:0.0773915 
2048 1:0.798725 2:0.427717 3:0.0504048 
2048 1:0.802353 2:0.410825 3:0.0306577 
2048 1:0.812399 2:0.425003 3:0.0156837 
2048 1:0.82014 2:0.430546 3:0.00341667 
2048 1:0.83159 2:0.446702 3:0.0095828 
2048 1:0.841284 2:0.45113 3:0.0149335 
2048 1:0.852338 2:0.474363 3:0.037267 
2048 1:0.877011 2:0.513933 3:0.00745986 
2048 1:0.911037 2:0.5766 3:0.0405286 
2048 1:0.939247 2:0.63439 3:0.0448313 
2048 1:0.961259 2:0.67293 3:0.0125913 
2048 1:1.00015 2:0.77061 3:0.000903092 
2048 1:1.01835 2:0.787125 3:0.051677 
2048 1:1.01477 2:0.72841 3:0.160598 
2048 1:1.01693 2:0.684272 3:0.251381 
2048 1:1.02143 2:0.616211 3:0.498084 
2048 1:1.02388 2:0.575977 3:0.649 
2048 1:1.01885 2:0.512057 3:0.819854 
2048 1:1.01144 2:0.454569 3:1.00782 
2048 1:0.999581 2:0.370319 3:1.19287 
2048 1:0.985555 2:0.263999 3:1.40334 
2048 1:0.961481 2:0.126776 3:1.46191 
2048 1:0.659598 2:0.683436 3:2.26521 
2048 1:0.700196 2:0.516274 3:0.198518 
2048 1:1.36325 2:0.40376 3:0.275035 
2048 1:1.31531 2:0.295806 3:2.06257 
2048 1:1.2733 2:0.0362778 3:2.26624 
2048 1:1.22315 2:0.489574 3:2.34627 
2048 1:0.882909 2:0.725985 3:0.47791 
2048 1:1.18112 2:0.964466 3:2.09295 
2048 1:0.916359 2:0.770276 3:0.827139 
2048 1:0.940802 2:0.735793 3:1.11759 
2048 1:0.937965 2:0.539039 3:1.25686 
2048 1:0.93534 2:0.393316 3:1.28084 
2048 1:0.938211 2:0.309468 3:1.23746 
2048 1:0.940205 2:0.248464 3:1.17267 
2048 1:0.938307 2:0.192917 3:1.07261 
2048 1:0.945041 2:0.144404 3:1.11114 
2048 1:1.33587 2:0.478544 3:0.833043 
1267.734214750162 1:0.951222 2:0.108565 3:1.12461 
2048 1:1.27437 2:0.630462 3:1.04838 
2048 1:1.20252 2:0.55886 3:2.63925 
2048 1:1.14526 2:0.356764 3:2.60484 
2048 1:1.13077 2:0.13994 3:2.63514 
2048 1:1.14061 2:0.27356 3:2.93191 
2048 1:1.18365 2:0.518019 3:2.60686 
2048 1:0.981131 2:0.109799 3:1.10295 
2048 1:1.21303 2:0.62269 3:1.27468 
2048 1:0.986665 2:0.133852 3:1.11093 
2048 1:1.25719 2:0.402534 3:0.731512 
2048 1:0.994701 2:0.177635 3:1.13417 
2048 1:0.988792 2:0.237356 3:0.985394 
2048 1:0.982608 2:0.274473 3:0.802502 
1866.594156929518 1:0.975728 2:0.264938 3:0.52368 
2048 1:0.654092 2:0.617693 3:1.94848 
2048 1:0.871311 2:0.573335 3:0.907472 
2048 1:0.916233 2:0.57068 3:1.43469 
2048 1:0.92521 2:0.445263 3:1.56217 
2048 1:0.935084 2:0.276154 3:1.7969 
2048 1:0.937958 2:0.220163 3:1.91498 
2048 1:0.891401 2:0.0482491 3:0.454824 
2048 1:0.932241 2:0.133855 3:2.07401 
2048 1:0.934302 2:0.0610897 3:2.37401 
2048 1:0.936416 2:0.00999361 3:2.65026 
2048 1:0.939211 2:0.0212 3:2.93504 
2048 1:0.942491 2:0.0324009 3:3.06595 
2048 1:0.950258 2:0.0517314 3:2.7627 
2048 1:0.942407 2:0.0388252 3:2.37091 
2048 1:0.935535 2:0.0180211 3:2.0583 
2048 1:0.93811 2:0.0264268 3:1.82096 
2048 1:0.929002 2:0.0344594 3:1.48753 
663.6833561066381 1:0.73211 2:0.041923 3:0.722589 
2048 1:0.664209 2:0.0904637 3:2.99501 
2048 1:0.641997 2:0.157834 3:2.66427 
2048 1:0.861463 2:0.193347 3:0.730926 
2048 1:0.84948 2:0.212146 3:0.813454 
2048 1:0.835818 2:0.256824 3:0.880203 
2048 1:0.824047 2:0.285085 3:0.927855 
2048 1:0.807599 2:0.316768 3:0.947222 
2048 1:0.793458 2:0.316744 3:0.962123 
2048 1:0.754619 2:0.329536 3:1.03335 
2048 1:0.838512 2:0.167958 3:2.74025 
345.3740363044359 1:0.84589 2:0.119616 3:0.848428 
2048 1:0.717354 2:0.203953 3:3.04582 
2048 1:0.69768 2:0.130985 3:2.89464 
2048 1:0.655846 2:0.062195 3:2.73558 
2048 1:0.857974 2:0.494078 3:2.39379 
2048 1:0.619153 2:0.00250663 3:2.69965 
2048 1:0.571764 2:0.107331 3:2.59697 
42.82768671857917 1:0.576598 2:0.0299318 3:2.3487 
2048 1:0.621225 2:0.176703 3:1.55631 
69.97569340197795 1:0.571398 2:0.720298 3:3.13376 
2048 1:0.790419 2:0.333512 3:1.71735 
2048 1:0.833357 2:0.185344 3:2.55809 
2048 1:0.87871 2:0.0203609 3:2.47601 
2048 1:0.906615 2:0.244262 3:2.36884 
182.700831188644 1:0.94936 2:0.0832629 3:1.28177 
2048 1:0.928358 2:0.417415 3:2.16999 
2048 1:0.970109 2:0.103962 3:1.24646 
2048 1:0.945242 2:0.541431 3:1.82055 
2048 1:0.920867 2:0.0377347 3:0.413892 
2048 1:0.684 2:0.474151 3:0.160426 
2048 1:0.687839 2:0.439516 3:0.329016 
2048 1:0.679521 2:0.289019 3:0.446871 
2048 1:0.70148 2:0.355514 3:1.6214 
2048 1:0.728104 2:0.467092 3:1.56967 
2048 1:0.69434 2:0.317438 3:2.74919 
2048 1:0.736971 2:0.435867 3:1.49608 
2048 1:0.695962 2:0.283582 3:2.75666 
2048 1:0.747603 2:0.373152 3:1.45385 
2048 1:0.756529 2:0.284925 3:1.39384 
972.2038075838568 1:0.699119 2:0.215536 3:1.47879 
1283.837882018102 1:0.705673 2:0.112696 3:1.80157 
2048 1:0.71059 2:0.00643731 3:2.00087 
1167.425924172486 1:0.682419 2:0.0389383 3:0.954785 
31.31935679853175 1:0.43795 2:0.873497 3:2.21912 
2048 1:0.659129 2:0.0211911 3:1.61133 
2048 1:0.721789 2:0.194353 3:2.26173 
2048 1:0.724608 2:0.237883 3:2.28408 
2048 1:0.482326 2:0.478688 3:0.339962 
2048 1:0.72662 2:0.272643 3:0.663498 
2048 1:0.72139 2:0.312683 3:0.662831 
5.152335851540673 1:0.716224 2:0.329337 3:0.666126 
2048 1:0.785232 2:0.122156 3:1.2121 
684.1823948970554 1:0.820133 2:0.0861112 3:1.27421 
2048 1:0.87575 2:0.125317 3:1.28313 
2048 1:0.884591 2:0.155921 3:1.25877 
2048 1:0.891458 2:0.185065 3:1.22461 
1728.772946403679 1:0.896677 2:0.21295 3:1.17965 
774.7286633078312 1:0.902037 2:0.364309 3:1.03404 
2048 1:0.907558 2:0.418781 3:0.980975 
2048 1:0.912112 2:0.462653 3:0.906429 
2048 1:0.915803 2:0.497397 3:0.80653 
2048 1:1.14122 2:0.953927 3:2.15663 
67.88550701999428 1:1.00132 2:0.536954 3:0.56667 
2048 1:1.16756 2:0.884599 3:2.11849 
2048 1:1.02281 2:0.478751 3:0.546778 
2048 1:1.14745 2:0.810499 3:0.188115 
2048 1:1.0463 2:0.43216 3:1.9662 
2048 1:1.11404 2:0.647615 3:0.708822 
2048 1:1.06228 2:0.373585 3:2.01121 
2048 1:1.08688 2:0.438546 3:0.756759 
2048 1:1.08166 2:0.341302 3:2.14638 
2048 1:1.04821 2:0.197185 3:0.796291 
2048 1:1.09002 2:0.342278 3:2.32273 
2048 1:1.04605 2:0.27929 3:0.608732 
2048 1:1.08794 2:0.389583 3:0.330263 
2048 1:1.03933 2:0.244884 3:0.522773 
2048 1:1.0743 2:0.345715 3:0.293354 
2048 1:1.07142 2:0.249646 3:1.51685 
2048 1:1.06856 2:0.169796 3:1.41027 
2048 1:1.06569 2:0.102922 3:1.34474 
2048 1:1.0655 2:0.0581756 3:1.30559 
2048 1:1.0157 2:0.0657145 3:0.265689 
2048 1:1.06764 2:0.0305288 3:1.25254 
275.4652184199825 1:1.01563 2:0.0310549 3:0.224992 
530.6963172818577 1:0.630806 2:0.0985647 3:1.50216 
2048 1:1.09864 2:0.0665983 3:0.927842 
2048 1:1.10586 2:0.103398 3:0.235691 
2048 1:1.10849 2:0.112498 3:0.275908 
2048 1:0.956802 2:0.0644106 3:0.180846 
1127.805169518913 1:1.1105 2:0.117383 3:0.325189 
979.8343177441736 1:0.612654 2:0.0879607 3:1.7545 
2048 1:1.10599 2:0.0379174 3:0 
2048 1:1.08973 2:0.0344399 3:2.10672 
2048 1:1.08492 2:0.0523777 3:2.22695 
2048 1:1.08032 2:0.0702737 3:2.28853 
2048 1:1.07634 2:0.0837643 3:2.32634 
2048 1:1.06589 2:0.130441 3:2.39239 
2048 1:1.05672 2:0.163926 3:2.43059 
2048 1:1.04826 2:0.199768 3:2.43428 
2048 1:1.04078 2:0.230463 3:2.43051 
2048 1:1.03429 2:0.253318 3:2.42049 
2048 1:1.02856 2:0.275721 3:2.40233 
2048 1:1.02356 2:0.296125 3:2.38013 
2048 1:1.01934 2:0.313423 3:2.35793 
2048 1:1.01578 2:0.328908 3:2.33405 
2048 1:1.01301 2:0.335818 3:2.31334 
2048 1:1.01095 2:0.335319 3:2.2951 
2048 1:1.00362 2:0.361141 3:2.30957 
2048 1:0.997397 2:0.381954 3:2.31324 
2048 1:0.99215 2:0.397094 3:2.31219 
2048 1:0.976512 2:0.395211 3:2.30694 
2048 1:0.962762 2:0.348718 3:2.30369 
2048 1:0.940505 2:0.26788 3:1.51251 
2048 1:0.920949 2:0.199528 3:1.53423 
135.665108383553 1:0.969891 2:0.0549891 3:0.0689606 
2048 1:0.823701 2:0.0936394 3:1.7931 
287.5865453915596 1:0.966266 2:0.0105974 3:0.0628709 
2048 1:0.579571 2:0.0779112 3:2.00884 
2048 1:0.967469 2:0.0308914 3:0.0447122 
2048 1:0.582912 2:0.0710967 3:2.27506 
1131.853551896432 1:0.583025 2:0.0732944 3:2.32016 
2048 1:0.61646 2:0.0443066 3:1.71128 
2048 1:0.628006 2:0.054866 3:1.84006 
2048 1:1.20382 2:0.131736 3:1.60282 
1249.033785841338 1:0.637479 2:0.0742215 3:1.88047 
2048 1:1.12481 2:0.149819 3:0.719934 
2048 1:0.651125 2:0.122427 3:1.8156 
1548.851677838872 1:0.658866 2:0.176203 3:1.59879 
2048 1:0.661128 2:0.200006 3:1.46161 
29.77558722549726 1:0.931465 2:0.0817771 3:0.0959373 
145.5238305369047 1:0.933389 2:0.097614 3:0.0871152 
2048 1:0.67099 2:0.257378 3:1.17008 
1753.130651464607 1:0.934679 2:0.11023 3:0.0690247 
39.32284247825914 1:0.928387 2:0.0772303 3:0.0786189 
0.8220462943940814 1:0.922341 2:0.0501602 3:0.0807986 
1907.944027156731 1:0.950008 2:0.00533167 3:0.039548 
2048 1:0.743733 2:0.0976001 3:0.722118 
487.4697195219191 1:0.74892 2:0.0657765 3:0.670621 
46.08413534901842 1:0.967044 2:0.0232357 3:0.0809588 
822.8264864589843 1:0.91137 2:0.087208 3:1.6588 
2048 1:0.912986 2:0.194153 3:1.65834 
1866.629521465638 1:0.936267 2:0.665841 3:1.49488 
2048 1:0.940894 2:0.548319 3:1.44835 
2048 1:0.95249 2:0.538317 3:1.35633 
2048 1:0.969652 2:0.568694 3:1.24731 
2048 1:0.981825 2:0.562664 3:1.19864 
2048 1:0.990203 2:0.538928 3:1.18243 
2048 1:0.981151 2:0.385468 3:1.19213 
2048 1:0.973742 2:0.282525 3:1.22274 
2048 1:0.96758 2:0.213506 3:1.2799 
2048 1:0.96244 2:0.163539 3:1.35719 
1610.682235188577 1:0.958019 2:0.131529 3:1.46696 
2048 1:0.954274 2:0.109712 3:1.59249 
2048 1:0.943626 2:0.122927 3:1.96917 
2048 1:0.946031 2:0.155241 3:1.88466 
2048 1:0.948062 2:0.185603 3:1.84567 
2048 1:0.949714 2:0.216945 3:1.82977 
2048 1:0.951202 2:0.242124 3:1.82371 
2048 1:0.952452 2:0.267193 3:1.82468 
2048 1:0.732543 2:0.176131 3:0.408188 
2048 1:0.95852 2:0.303332 3:1.77383 
325.5087263402483 1:0.964001 2:0.333062 3:1.74439 
1098.20308842583 1:0.991163 2:0.394224 3:1.72417 
2048 1:0.992489 2:0.394084 3:1.74259 
2011.288699403288 1:0.988699 2:0.383478 3:1.80635 
2048 1:0.97972 2:0.357468 3:1.912 
2048 1:0.971656 2:0.340238 3:2.00959 
2048 1:0.964531 2:0.328514 3:2.09503 
2048 1:0.720495 2:0.050059 3:0.178164 
2048 1:0.958191 2:0.318464 3:2.16728 
2048 1:0.95277 2:0.313835 3:2.22293 
2048 1:0.948217 2:0.310093 3:2.26532 
2048 1:0.939035 2:0.300733 3:2.36919 
2048 1:0.931066 2:0.293515 3:2.45182 
2048 1:0.924304 2:0.287428 3:2.51676 
2048 1:0.913478 2:0.287496 3:2.62977 
2048 1:0.908676 2:0.29334 3:2.63432 
2048 1:0.900921 2:0.29538 3:2.69785 
2048 1:0.888964 2:0.297345 3:2.81037 
2048 1:0.878904 2:0.299781 3:2.88381 
2048 1:0.870588 2:0.29451 3:2.94102 
2048 1:0.868265 2:0.285146 3:2.90767 
2048 1:0.858098 2:0.296885 3:2.94884 
2048 1:0.856335 2:0.303122 3:2.861 
2048 1:0.855766 2:0.309025 3:2.77833 
2048 1:0.77734 2:0.0782164 3:0.00203042 
2048 1:0.856158 2:0.310615 3:2.70713 
2048 1:0.853144 2:0.32502 3:2.67253 
2048 1:0.845718 2:0.33761 3:2.69845 
2048 1:0.839807 2:0.349002 3:2.70531 
2048 1:0.835281 2:0.351316 3:2.70723 
2048 1:0.821791 2:0.327421 3:2.71007 
2048 1:0.790392 2:0.164211 3:0.388826 
2048 1:0.811754 2:0.324791 3:2.72911 
1.006028591550431 1:0.772187 2:0.20085 3:0.306085 
2048 1:0.803547 2:0.320566 3:2.7347 
2048 1:0.798004 2:0.31445 3:2.72621 
2048 1:0.788616 2:0.30693 3:2.7764 
2048 1:0.773987 2:0.286357 3:2.80569 
2048 1:0.757972 2:0.245242 3:2.57561 
2048 1:0.74042 2:0.224082 3:2.54904 
2048 1:0.725588 2:0.202741 3:2.54828 
2048 1:0.713855 2:0.18442 3:2.54836 
2048 1:0.704543 2:0.168265 3:2.53663 
2048 1:0.697131 2:0.152381 3:2.52493 
682.075918317076 1:0.617067 2:0.476817 3:0.288308 
2048 1:0.699093 2:0.900283 3:2.0751 
2048 1:0.74148 2:0.868001 3:1.72775 
2048 1:0.603765 2:0.118961 3:3.08058 
2048 1:0.611105 2:0.138068 3:2.91679 
2048 1:0.622344 2:0.158805 3:2.76282 
2048 1:0.624818 2:0.155425 3:2.77508 
2048 1:0.627567 2:0.141263 3:2.76478 
2048 1:0.832275 2:0.173396 3:0.308444 
627.1783097286059 1:0.903674 2:0.0729843 3:0.216491 
146.45055510686 1:0.903165 2:0.0787764 3:0.182403 
2048 1:0.760581 2:0.218483 3:0.341126 
174.5729081190682 1:0.674324 2:0.0360204 3:0.464777 
127.5751906641594 1:0.716292 2:0.0184027 3:0.393437 
234.7866172880493 1:0.705736 2:0.0108134 3:0.392181 
130.7004299274683 1:0.705601 2:0.00238782 3:0.372625 
1852.683369033506 1:0.689485 2:0.0224999 3:0.412828 
2.009313872467259 1:0.686794 2:0.0239528 3:0.381801 
0.7236819477002255 1:0.731778 2:0.0406794 3:0.0448691 
2048 1:0.716292 2:0.850363 3:0.924272 
2048 1:0.700884 2:0.662548 3:0.154246 
2048 1:0.705228 2:0.546859 3:0.192028 
2048 1:1.1676 2:0.439903 3:2.97216 
153.3827405831462 1:0.976574 2:1.03388 3:1.5392 
2048 1:0.982122 2:0.847845 3:0.380386 
2048 1:0.939109 2:1.01137 3:1.42284 
2048 1:0.938783 2:0.872402 3:0.192506 
2048 1:0.910556 2:0.720003 3:0.471902 
881.357437823857 1:1.18306 2:1.01467 3:1.35468 
2048 1:1.17588 2:0.967107 3:1.3468 
2048 1:1.16746 2:0.851642 3:0.754475 
2048 1:1.15558 2:0.752722 3:0.946247 
2048 1:1.14775 2:0.728225 3:0.910033 
2048 1:1.14317 2:0.644974 3:0.654333 
2048 1:1.13228 2:0.544059 3:0.607301 
2048 1:1.09225 2:0.402609 3:0.897292 
2048 1:1.08863 2:0.471567 3:0.794852 
2048 1:1.03846 2:0.323564 3:0.961705 
2048 1:0.979423 2:0.197709 3:1.07618 
2048 1:0.950161 2:0.133167 3:1.03343 
2048 1:0.962906 2:0.199199 3:0.838116 
2048 1:0.914088 2:0.015815 3:0.49146 
225.7316781585066 1:0.519161 2:0.181504 3:0.759206 
274.2118780477629 1:0.422229 2:1.01674 3:1.46418 
2048 1:0.869857 2:0.98314 3:1.39083 
2048 1:0.837055 2:0.92557 3:1.38916 
2048 1:0.811567 2:0.845657 3:2.40945 
2048 1:0.730796 2:0.193686 3:2.25141 
599.6123316833729 1:0.727614 2:0.382506 3:2.0634 
1033.165494661421 1:0.728448 2:0.540848 3:1.82403 
2048 1:0.731797 2:0.660122 3:1.44185 
2048 1:0.74754 2:0.713373 3:0.254636 
2048 1:0.780034 2:0.52113 3:0.244562 
2048 1:0.78266 2:0.402462 3:0.184167 
112.9848240277565 1:0.842754 2:0.194936 3:0.110133 
424.5919752327456 1:0.737924 2:0.0385914 3:0.168401 
2048 1:0.744333 2:0.00277606 3:0.0316801 
910.2564650722068 1:0.718399 2:0.0885692 3:0.0552325 
206.8873987350755 1:0.711097 2:0.0663429 3:0.0664982 
2048 1:0.762747 2:0.0567323 3:0.00276013 
19.64045228305622 1:0.702583 2:0.0881912 3:0.153194 
1785.435486786187 1:0.707039 2:0.0723528 3:0.162223 
1400.453362604759 1:0.71654 2:0.0171797 3:0.191312 
654.8557585325531 1:0.709667 2:0.00732225 3:0.145841 
110.1235577197229 1:0.714957 2:0.0478706 3:0.092991 
2048 1:0.70398 2:0.897826 3:0.135159 
2048 1:0.706964 2:0.724236 3:0.130359 
2048 1:0.709346 2:0.576904 3:0.122912 
1.449381879392855 1:0.662101 2:1.26684 3:2.41132 
2048 1:0.69622 2:0.964479 3:0.178821 
2048 1:0.722956 2:0.685486 3:0.419915 
568.0272987735426 1:0.921584 2:0.0542154 3:0.0340324 
2048 1:1.52956 2:0.865203 3:1.00383 
2048 1:1.51474 2:0.971274 3:0.579058 
2048 1:1.53202 2:0.817817 3:0.535315 
2048 1:0.911766 2:0.179056 3:0.048441 
2048 1:1.54991 2:0.553066 3:0.578364 
2048 1:0.907117 2:0.184968 3:0.0619733 
2048 1:1.56259 2:0.495842 3:0.562617 
2028.076075420679 1:0.903281 2:0.194661 3:0.0727481 
2048 1:1.57243 2:0.384706 3:0.510843 
2048 1:0.899935 2:0.204303 3:0.0812005 
2048 1:1.59369 2:0.306535 3:0.558906 
2010.889025405299 1:0.896231 2:0.203752 3:0.0875568 
2048 1:1.60075 2:0.273363 3:0.509116 
2048 1:0.892877 2:0.200779 3:0.0921163 
2048 1:1.61223 2:0.21924 3:0.511699 
2048 1:0.889151 2:0.188693 3:0.095214 
2048 1:1.62018 2:0.187833 3:0.483238 
2048 1:1.61952 2:0.190061 3:0.419786 
2048 1:1.62439 2:0.164353 3:0.383694 
2048 1:1.62411 2:0.135541 3:0.320768 
2048 1:1.61112 2:0.119776 3:0.224072 
2048 1:1.61045 2:0.079907 3:0.189112 
2048 1:1.59306 2:0.0642161 3:0.097449 
2048 1:1.57442 2:0.0401032 3:0.00954926 
2048 1:1.56361 2:0.0545958 3:0.0325471 
2048 1:1.54738 2:0.0385104 3:0.0916186 
2048 1:1.53531 2:0.0132291 3:0.12905 
2048 1:1.51966 2:0.0173822 3:0.172531 
2048 1:1.50554 2:0.0131975 3:0.207313 
2048 1:1.50217 2:0.00843561 3:0.198867 
2048 1:1.49146 2:0.010976 3:0.217249 
2048 1:1.48343 2:0.00205399 3:0.226595 
2048 1:1.47854 2:0.00123445 3:0.226404 
2048 1:1.46777 2:0.0106756 3:0.246805 
2048 1:1.46362 2:0.00796389 3:0.23959 
2048 1:1.46021 2:0.00152649 3:0.22902 
2048 1:1.45849 2:0.00511327 3:0.21326 
2048 1:1.45898 2:1.41376e-05 3:0.189379 
2048 1:1.45734 2:0.0161786 3:0.179477 
2048 1:1.45409 2:0.0291605 3:0.173123 
2048 1:1.46305 2:0.0320993 3:0.120802 
2048 1:1.46657 2:0.0503156 3:0.0978868 
2048 1:1.46892 2:0.0792152 3:0.0857054 
2048 1:1.47188 2:0.0794813 3:0.0667215 
2048 1:1.47684 2:0.107218 3:0.0491976 
2048 1:1.48701 2:0.110108 3:0.00965232 
2048 1:1.48569 2:0.135754 3:0.0210763 
2048 1:1.48739 2:0.139928 3:0.0169032 
2048 1:1.49251 2:0.150046 3:0.00489515 
2048 1:1.49519 2:0.142619 3:0.00388003 
2048 1:1.5001 2:0.141072 3:0.0165312 
2048 1:1.50736 2:0.135257 3:0.0391884 
2048 1:1.51337 2:0.128423 3:0.0545534 
2048 1:1.51436 2:0.122572 3:0.0503502 
2048 1:1.51251 2:0.0847014 3:0.0462934 
2048 1:1.51431 2:0.0781792 3:0.0468097 
2048 1:1.50942 2:0.0575487 3:0.027152 
2048 1:1.50742 2:0.0363717 3:0.021224 
2048 1:1.50224 2:0.00744809 3:0.00664608 
2048 1:1.49644 2:0.0220735 3:0.00862061 
2048 1:1.49526 2:0.045406 3:0.00711224 
2048 1:1.49694 2:0.0626735 3:0.00279201 
2048 1:1.49938 2:0.0625883 3:0.0109477 
2048 1:1.50024 2:0.0677886 3:0.0133672 
2048 1:0.84919 2:0.363493 3:0.0969753 
2048 1:1.49731 2:0.0800061 3:0.00326721 
2048 1:0.852201 2:0.364667 3:0.0816299 
2048 1:1.50107 2:0.0871619 3:0.0165966 
2048 1:0.854779 2:0.372946 3:0.0713805 
2048 1:1.50225 2:0.0787163 3:0.0188467 
2048 1:1.50235 2:0.0605034 3:0.0161785 
2048 1:1.50088 2:0.0504818 3:0.00915738 
2048 1:1.50096 2:0.0629988 3:0.0100254 
2048 1:1.50094 2:0.0407534 3:0.00789247 
2048 1:1.49536 2:0.030173 3:0.0119613 
2048 1:1.49122 2:0.0291454 3:0.024524 
2048 1:1.48127 2:0.0250177 3:0.0563943 
2048 1:1.4738 2:0.00543535 3:0.0787466 
2048 1:1.47759 2:0.00366665 3:0.0589156 
1885.51714329046 1:0.900532 2:0.194699 3:0.0439825 
2048 1:1.46464 2:0.000405724 3:0.0973123 
2048 1:1.45823 2:6.46592e-05 3:0.110084 
2048 1:1.45103 2:0.00769293 3:0.123103 
2048 1:1.43642 2:0.00256231 3:0.159466 
2048 1:1.30031 2:0.869131 3:0.081771 
2048 1:1.31541 2:0.309425 3:0.0860645 
2048 1:1.10542 2:0.946093 3:0.165319 
2048 1:1.13637 2:0.864806 3:0.124532 
2048 1:1.13865 2:0.545971 3:0.0206304 
2048 1:1.14515 2:0.408878 3:0.00188414 
2048 1:1.14281 2:0.233488 3:0.00757381 
985.6944447987162 1:1.07317 2:0.0397239 3:0.187243 
7.971216262608734 1:1.0671 2:0.00432918 3:0.218623 
2048 1:0.961152 2:0.0133125 3:0.404276 
2048 1:0.728462 2:0.00626246 3:0.08881 
2048 1:0.944857 2:0.00130328 3:0.415004 
966.1082126736377 1:0.724723 2:0.0166923 3:0.0902627 
2048 1:0.929461 2:0.00495788 3:0.438645 
216.9261568907511 1:0.921908 2:0.00876547 3:0.409461 
460.2489827161613 1:0.718004 2:0.0427994 3:0.092262 
2048 1:0.715048 2:0.0449121 3:0.0928018 
402.7251167452106 1:0.650658 2:0.184499 3:0.0597727 
2048 1:0.658781 2:0.21185 3:0.0304245 
2048 1:0.6488 2:0.185178 3:0.0522694 
2048 1:0.651097 2:0.221557 3:0.044201 
2048 1:0.642872 2:0.218878 3:0.0447068 
1950.374097503095 1:0.821809 2:0.300339 3:0.0161902 
2048 1:0.810625 2:0.346984 3:0.00778337 
2048 1:0.804553 2:0.363241 3:0.00712114 
87.73325643484237 1:0.729226 2:0.0248302 3:0.171188 
2048 1:0.799357 2:0.371051 3:0.00910278 
2048 1:0.794202 2:0.364396 3:3.35689e-05 
1217.643104221284 1:0.793876 2:0.342911 3:0.00913798 
883.6531002111323 1:0.994587 2:0.0852156 3:0.342088 
899.8983668946955 1:0.996403 2:0.0935461 3:0.31143 
8.814634587440358 1:0.916589 2:0.10776 3:0.0886674 
2048 1:1.01757 2:0.249166 3:0.200269 
2048 1:1.01952 2:0.265262 3:0.18988 
2048 1:1.01368 2:0.264476 3:0.161953 
2048 1:1.01233 2:0.253036 3:0.147262 
2048 1:1.00557 2:0.264978 3:0.123142 
2048 1:1.03574 2:0.222779 3:0.172617 
2048 1:0.935032 2:0.10325 3:0.0385269 
2048 1:1.04566 2:0.213244 3:0.183733 
1694.823273682979 1:0.93687 2:0.0870044 3:0.0439185 
1119.743815752533 1:1.08184 2:0.182257 3:0.24915 
18.07688368474152 1:1.11318 2:0.151493 3:0.286097 
2048 1:1.22022 2:0.0300702 3:0.396853 
2048 1:1.23659 2:0.0324054 3:0.404748 
2048 1:1.24873 2:0.0253576 3:0.399281 
2048 1:1.25845 2:0.037285 3:0.392003 
2048 1:1.27057 2:0.0124103 3:0.387264 
2048 1:1.28167 2:0.00771251 3:0.381979 
2048 1:1.29065 2:0.0188912 3:0.369786 
650.1852792143162 1:1.29781 2:0.0229441 3:0.353277 
2048 1:1.18749 2:0.0692893 3:0.12465 
2048 1:1.15719 2:0.0993935 3:0.195214 
93.54046449006077 1:0.894801 2:0.164793 3:0.0712364 
2048 1:1.12373 2:0.134019 3:0.263303 
2048 1:1.08228 2:0.210412 3:0.306738 
2048 1:1.06293 2:0.231172 3:0.314844 
2048 1:1.06248 2:0.216087 3:0.280403 
2048 1:1.13986 2:0.0513683 3:0.137355 
2048 1:1.1537 2:0.0528379 3:0.163661 
2048 1:1.17209 2:0.00522924 3:0.176973 
2048 1:1.17505 2:0.00742436 3:0.169129 
2048 1:1.17997 2:0.00940941 3:0.168315 
2048 1:1.20084 2:0.00919639 3:0.128203 
2048 1:0.737482 2:0.0282452 3:0.255303 
57.03571596461126 1:1.16642 2:0.0104684 3:0.000191092 
2048 1:1.10008 2:0.0394757 3:0.178275 
1024.007336217729 1:1.07245 2:0.0382217 3:0.237908 
662.8027035219166 1:0.955895 2:0.0626966 3:0.404108 
2048 1:0.980443 2:0.0376065 3:0.245693 
2048 1:0.969362 2:0.055208 3:0.251177 
2048 1:0.957953 2:0.0671306 3:0.270755 
2048 1:0.968196 2:0.0665509 3:0.213323 
2048 1:0.957732 2:0.0710805 3:0.228997 
2048 1:0.722459 2:0.401962 3:0.20583 
2048 1:0.736933 2:0.440131 3:0.191154 
2048 1:0.742416 2:0.440676 3:0.178283 
2048 1:0.739235 2:0.408177 3:0.169104 
2048 1:0.97066 2:0.846506 3:0.104513 
2048 1:0.803264 2:0.314065 3:0.00547134 
2048 1:0.78789 2:0.810542 3:0.288355 
14.44516299402309 1:0.82957 2:0.293247 3:0.0768879 
1338.676987570403 1:0.769272 2:0.944585 3:1.84982 
2048 1:0.855491 2:0.865598 3:0.557949 
1653.967113896981 1:0.847311 2:0.713758 3:0.305061 
2048 1:0.984694 2:0.482999 3:0.0972353 
2048 1:0.99436 2:0.498762 3:0.0588888 
118.8221517399527 1:0.871097 2:0.140613 3:0.152769 
2048 1:1.00943 2:0.516115 3:0.0611272 
2048 1:1.02602 2:0.516864 3:0.0871203 
2048 1:1.03229 2:0.487964 3:0.0815447 
2048 1:1.03595 2:0.4485 3:0.0800752 
2048 1:1.04127 2:0.399329 3:0.103493 
2048 1:1.03655 2:0.327752 3:0.104689 
1.483883915578166 1:0.795406 2:0.170435 3:0.241734 
1749.369009242688 1:0.970962 2:0.00373656 3:0.0147363 
1082.339974164227 1:0.746458 2:0.159347 3:0.373874 
726.2728158839188 1:0.958383 2:0.0442009 3:0.0361679 
304.8192983099866 1:0.947144 2:0.077393 3:0.0518654 
407.4816510586143 1:0.598894 2:0.118854 3:0.598212 
170.8710681229124 1:0.567621 2:0.160733 3:0.619656 
1989.182561079827 1:0.976039 2:0.0200054 3:0.0205957 
2048 1:0.705605 2:0.474377 3:0.135382 
2048 1:0.748199 2:0.494157 3:0.221465 
1206.804336966202 1:1.05661 2:0.142951 3:0.339423 
2048 1:2.27729 2:0.619833 3:0.686184 
2048 1:2.30498 2:0.63353 3:0.646323 
2048 1:2.33672 2:0.593099 3:0.633931 
2015.433506962514 1:1.08042 2:0.186409 3:0.497104 
2048 1:2.37551 2:0.536416 3:2.23548 
2048 1:1.09259 2:0.17926 3:0.555048 
2048 1:2.41949 2:0.439225 3:2.2623 
1916.622150637714 1:1.09769 2:0.167415 3:0.560403 
2048 1:2.47296 2:0.322342 3:2.27194 
2048 1:2.51026 2:0.337896 3:2.16516 
2048 1:2.55595 2:0.291765 3:2.1619 
593.3947356663534 1:0.593517 2:0.705802 3:0.440127 
2048 1:2.60497 2:0.247908 3:2.20177 
2048 1:1.15108 2:0.131874 3:0.665425 
2048 1:2.65216 2:0.255063 3:2.17108 
2048 1:1.1544 2:0.128679 3:0.628214 
2048 1:2.70216 2:0.250425 3:2.1857 
1294.880012474731 1:0.650907 2:0.295624 3:0.427882 
2048 1:2.7445 2:0.188195 3:2.26389 
2048 1:2.78763 2:0.121934 3:2.34685 
2048 1:2.82429 2:0.0734535 3:2.393 
2048 1:2.85973 2:0.0220566 3:2.44685 
631.8282860649122 1:1.20582 2:0.0515624 3:0.545747 
2048 1:2.89459 2:0.0322943 3:2.50495 
2048 1:1.2174 2:0.0421487 3:0.535154 
2048 1:2.92759 2:0.0727092 3:2.56279 
2048 1:1.22814 2:0.0190572 3:0.515448 
2048 1:2.95881 2:0.117498 3:2.58598 
2048 1:1.23685 2:0.00930519 3:0.495734 
2048 1:2.99157 2:0.156711 3:2.61412 
2048 1:1.23724 2:0.000894586 3:0.445707 
914.1100358958703 1:3.02535 2:0.189041 3:2.6454 
2048 1:1.24274 2:0.00254962 3:0.434749 
2048 1:1.24156 2:0.0158919 3:0.407549 
2048 1:1.23958 2:0.0402974 3:0.38233 
2048 1:1.23725 2:0.0645579 3:0.357681 
2048 1:1.24339 2:0.0997243 3:0.401745 
2048 1:1.23229 2:0.157249 3:0.384199 
2048 1:1.19008 2:0.274327 3:0.267485 
2048 1:1.16161 2:0.32082 3:0.170137 
2048 1:1.14841 2:0.36273 3:0.185967 
2048 1:1.13778 2:0.389086 3:0.193118 
2048 1:1.1288 2:0.409933 3:0.196416 
2048 1:1.11106 2:0.451159 3:0.206012 
1.545504184037254 1:3.53473 2:0.219106 3:2.38665 
2048 1:1.09845 2:0.45656 3:0.184648 
2048 1:1.08937 2:0.443045 3:0.148426 
2048 1:1.07627 2:0.413905 3:0.0717202 
318.4668768687461 1:0.718929 2:0.107384 3:0.0943625 
2048 1:0.72033 2:0.0218593 3:0.0850583 
2048 1:1.07536 2:0.309446 3:0.0694161 
303.0915992531757 1:0.717046 2:0.0622179 3:0.0699102 
2048 1:1.08177 2:0.27039 3:0.0883265 
2048 1:1.08998 2:0.218459 3:0.0913624 
2048 1:0.697398 2:0.245102 3:0.0113531 
2048 1:1.12918 2:0.0527657 3:0.0112722 
656.1371406645297 1:0.676074 2:0.527884 3:0.144108 
2048 1:0.660847 2:0.504835 3:0.200494 
1.017617999142854 1:4.01931 2:0.00963138 3:2.19559 
0.1677299860907629 1:4.04041 2:0.223741 3:2.60334 
1.466984500164895 1:4.05366 2:0.313032 3:3.06299 
0.2020808408939841 1:4.05907 2:0.332175 3:2.76928 
0.8398610557769602 1:4.06001 2:0.34947 3:2.52323 
336.1370498596852 1:0.797918 2:0.142595 3:0.38066 
0.8177766429414215 1:4.05711 2:0.344051 3:2.03513 
1381.561072230817 1:0.851427 2:0.0533908 3:0.449365 
0.4542937856055868 1:4.05061 2:0.238073 3:1.7819 
103.9282138235638 1:0.822768 2:0.16628 3:0.166908 
0.5831560734253023 1:4.00928 2:0.0674626 3:1.602 
0.09538107684114372 1:4.009 2:0.0600548 3:1.585 
1.129184622381061 1:3.98528 2:0.0685413 3:1.26525 
83.79165683440583 1:0.691863 2:0.0886746 3:0.103975 
0.3724987902302122 1:3.84698 2:0.418405 3:1.38035 
0.7119867514335871 1:3.81535 2:0.492576 3:1.32936 
529.4231799667771 1:1.00726 2:0.0438741 3:0.199986 
2048 1:0.733242 2:0.203255 3:0.354281 
2048 1:0.728982 2:0.0407238 3:0.238083 
261.7006653490006 1:3.05997 2:0.859662 3:0.33783 
2048 1:3.03552 2:0.868685 3:0.350159 
2048 1:3.0053 2:0.895247 3:0.351727 
2048 1:2.97575 2:0.918374 3:0.351987 
2048 1:2.94402 2:0.944207 3:0.340167 
2048 1:2.9168 2:0.951191 3:0.326402 
2048 1:2.89116 2:0.952956 3:0.313542 
2048 1:2.86869 2:0.935554 3:0.355316 
2048 1:2.84861 2:0.911355 3:0.391834 
2048 1:2.82463 2:0.898639 3:0.394478 
2048 1:2.8011 2:0.889326 3:0.393338 
2048 1:2.7758 2:0.890771 3:0.394599 
2048 1:2.7526 2:0.887231 3:0.382916 
2048 1:1.00684 2:0.118604 3:0.404161 
2048 1:2.72689 2:0.893041 3:0.356825 
2048 1:2.69888 2:0.907312 3:0.311933 
2048 1:2.67114 2:0.911625 3:0.407331 
2048 1:2.64138 2:0.92171 3:0.462098 
2048 1:2.60756 2:0.947037 3:0.489016 
2048 1:2.57787 2:0.936302 3:0.582374 
2048 1:2.54729 2:0.933452 3:0.64238 
2048 1:2.51588 2:0.943673 3:0.71485 
2048 1:2.48305 2:0.964109 3:0.742827 
2048 1:2.46678 2:0.941168 3:0.752789 
2048 1:2.45208 2:0.891773 3:0.847866 
2048 1:2.43954 2:0.847006 3:0.91569 
2048 1:2.4314 2:0.782912 3:0.959757 
2048 1:2.42748 2:0.70469 3:1.00919 
2048 1:2.42793 2:0.623872 3:1.01906 
2048 1:2.42718 2:0.557105 3:1.03434 
2048 1:2.42178 2:0.517698 3:1.02283 
2048 1:2.4203 2:0.460568 3:1.02252 
2048 1:2.40944 2:0.444282 3:0.96362 
2048 1:2.3951 2:0.436589 3:0.947603 
2048 1:2.37501 2:0.455614 3:0.915009 
2048 1:2.35478 2:0.483868 3:0.881836 
2048 1:2.33728 2:0.515741 3:0.874719 
2048 1:2.31855 2:0.559175 3:0.868307 
2048 1:2.29351 2:0.618139 3:0.830816 
2048 1:2.27103 2:0.671107 3:0.776644 
2048 1:2.25585 2:0.661376 3:0.701851 
2048 1:2.24067 2:0.655764 3:0.63729 
2048 1:2.22326 2:0.654536 3:0.562466 
2048 1:2.20567 2:0.658122 3:0.495565 
2048 1:2.17981 2:0.691818 3:0.424825 
2048 1:2.15719 2:0.711643 3:0.356677 
2048 1:2.11924 2:0.782627 3:0.276734 
2048 1:2.11112 2:0.735794 3:0.246864 
2048 1:2.10403 2:0.69137 3:0.269729 
2048 1:2.09216 2:0.666702 3:0.273569 
2048 1:2.08188 2:0.641117 3:0.271113 
2048 1:2.07299 2:0.615235 3:0.262816 
2048 1:2.06498 2:0.583568 3:0.225395 
2048 1:2.05846 2:0.543086 3:0.168478 
2048 1:2.0541 2:0.500299 3:0.116162 
2048 1:2.04832 2:0.462517 3:0.0745219 
2048 1:2.02858 2:0.485046 3:0.064248 
2048 1:2.01785 2:0.471814 3:0.0432337 
2048 1:2.00538 2:0.469705 3:0.030728 
2048 1:1.99687 2:0.450886 3:0.00706262 
2048 1:1.98603 2:0.446776 3:0.0105783 
2048 1:1.96994 2:0.4624 3:0.0447312 
2048 1:1.95684 2:0.466631 3:0.0925569 
2048 1:1.95014 2:0.452207 3:0.18663 
2048 1:1.94869 2:0.426218 3:0.262999 
2048 1:1.95275 2:0.382009 3:0.341834 
2048 1:1.95442 2:0.355045 3:0.409533 
2048 1:1.94961 2:0.341046 3:0.417276 
2048 1:1.94465 2:0.326686 3:0.409696 
2048 1:1.93868 2:0.335629 3:0.435422 
2048 1:0.86404 2:0.728696 3:0.417346 
2048 1:1.92695 2:0.359202 3:0.432098 
2048 1:0.871679 2:0.549566 3:0.422382 
2048 1:1.9079 2:0.410723 3:0.425011 
2048 1:1.88997 2:0.451014 3:0.407571 
2048 1:1.86322 2:0.510244 3:0.361111 
2048 1:1.8322 2:0.57211 3:0.323142 
2048 1:1.8023 2:0.62085 3:0.272878 
2048 1:1.76968 2:0.678571 3:0.230488 
2048 1:1.73491 2:0.735516 3:0.1817 
2048 1:1.70177 2:0.7844 3:0.142411 
2048 1:1.67064 2:0.815675 3:0.0861975 
2048 1:1.64907 2:0.799825 3:0.00130702 
2048 1:1.63171 2:0.77069 3:0.0674304 
2048 1:1.61515 2:0.743181 3:0.11786 
2048 1:1.59814 2:0.717227 3:0.171805 
2048 1:1.58397 2:0.68051 3:0.233558 
2048 1:1.57132 2:0.650371 3:0.256056 
2048 1:1.55773 2:0.62805 3:0.26614 
2048 1:1.54548 2:0.615989 3:0.242595 
2048 1:1.02315 2:0.205255 3:0.4768 
2048 1:1.53064 2:0.61351 3:0.21314 
2048 1:1.51153 2:0.625232 3:0.196462 
2048 1:1.49035 2:0.643033 3:0.172612 
2048 1:1.46642 2:0.662033 3:0.193762 
2048 1:1.43723 2:0.698725 3:0.216398 
639.6039251866399 1:1.07508 2:0.363173 3:0.506065 
2048 1:1.40758 2:0.733125 3:0.226392 
2048 1:1.37772 2:0.76524 3:0.2267 
2048 1:1.34906 2:0.797559 3:0.196259 
2048 1:1.32031 2:0.827696 3:0.164949 
2048 1:1.11829 2:0.41072 3:0.441393 
2048 1:1.3 2:0.824442 3:0.129888 
2048 1:1.12377 2:0.417499 3:0.407753 
2048 1:1.27916 2:0.826967 3:0.0955493 
2048 1:1.1379 2:0.401335 3:0.40686 
1016.847851752896 1:1.26374 2:0.817647 3:0.0485514 
2048 1:1.15055 2:0.422765 3:0.398774 
2048 1:1.16203 2:0.464839 3:0.387459 
1111.038656877945 1:1.23515 2:0.785468 3:0.0103987 
2048 1:1.1722 2:0.510781 3:0.372404 
2048 1:1.18109 2:0.555608 3:0.352724 
2048 1:1.24281 2:0.649755 3:0.0908372 
2048 1:1.19998 2:0.584563 3:0.377891 
2048 1:1.23075 2:0.645698 3:0.0823835 
2048 1:1.21634 2:0.606314 3:0.390775 
2048 1:1.2227 2:0.618509 3:0.0614017 
2048 1:1.23003 2:0.615349 3:0.395198 
2048 1:1.24106 2:0.61266 3:0.391704 
1559.789139144729 1:1.18959 2:0.605934 3:0.0262349 
1145.196193809461 1:0.716542 2:0.894407 3:1.6455 
2048 1:1.24855 2:0.586161 3:0.379293 
2048 1:1.17787 2:0.597218 3:0.0378748 
410.1596306104342 1:0.722077 2:0.842295 3:1.66039 
2048 1:1.254 2:0.554094 3:0.365002 
2048 1:1.14918 2:0.609345 3:0.132737 
2048 1:0.735185 2:0.731732 3:0.42351 
2048 1:1.26738 2:0.49877 3:0.389892 
2048 1:1.11374 2:0.640115 3:0.21978 
2048 1:1.27802 2:0.445577 3:0.403013 
2048 1:1.08621 2:0.650858 3:0.265739 
2048 1:0.724386 2:0.779811 3:0.393993 
2048 1:1.28652 2:0.400889 3:0.405035 
2048 1:1.0619 2:0.652454 3:0.292459 
2048 1:1.30416 2:0.352946 3:0.450134 
2048 1:1.31872 2:0.31172 3:0.475811 
2048 1:1.00724 2:0.663338 3:0.352863 
2048 1:1.3295 2:0.264902 3:0.482956 
2048 1:0.982648 2:0.658848 3:0.375186 
2048 1:1.33817 2:0.232218 3:0.477331 
2048 1:0.971802 2:0.643748 3:0.322768 
2048 1:1.34549 2:0.215119 3:0.466806 
2048 1:0.959795 2:0.635433 3:0.275312 
2048 1:1.35151 2:0.217534 3:0.441164 
2048 1:1.36922 2:0.236275 3:0.473181 
1913.397132798254 1:0.93168 2:0.628715 3:0.213574 
2048 1:1.38347 2:0.251348 3:0.480124 
2048 1:1.40441 2:0.243232 3:0.507724 
2048 1:1.42214 2:0.241484 3:0.51621 
2048 1:1.43719 2:0.247524 3:0.512181 
2048 1:1.44997 2:0.262022 3:0.49773 
2048 1:0.884184 2:0.546019 3:0.0433187 
2048 1:1.45882 2:0.261765 3:0.47003 
2048 1:0.876952 2:0.532747 3:0.00873782 
2048 1:1.47691 2:0.256919 3:0.485299 
215.4793110165559 1:0.866725 2:0.534004 3:0.0889725 
2048 1:1.49206 2:0.256581 3:0.487872 
2048 1:1.5118 2:0.216511 3:0.507051 
2048 1:1.52826 2:0.184572 3:0.514896 
2048 1:1.54112 2:0.155499 3:0.51083 
2048 1:1.55043 2:0.128154 3:0.49407 
2048 1:1.55686 2:0.103367 3:0.470637 
2048 1:0.759088 2:0.703082 3:0.327611 
2048 1:1.56031 2:0.078213 3:0.438213 
2048 1:0.742884 2:0.725779 3:0.316102 
2048 1:1.57515 2:0.080453 3:0.446885 
2048 1:0.733535 2:0.742994 3:0.319305 
2048 1:1.58893 2:0.106937 3:0.44805 
2048 1:0.727753 2:0.741601 3:0.292113 
2048 1:1.60027 2:0.136288 3:0.439157 
2048 1:0.725765 2:0.716815 3:0.257616 
2048 1:1.60756 2:0.14271 3:0.422008 
2048 1:0.737627 2:0.654737 3:0.293171 
2048 1:1.61308 2:0.149987 3:0.401981 
2048 1:0.752653 2:0.574338 3:0.310233 
2048 1:1.61782 2:0.16676 3:0.380408 
2048 1:1.62805 2:0.148104 3:0.379812 
2048 1:1.57624 2:0.0112942 3:0.167875 
2048 1:1.52888 2:0.102666 3:0.0580844 
2048 1:1.48453 2:0.159788 3:0.28355 
2048 1:1.45492 2:0.191477 3:0.446663 
2048 1:1.40826 2:0.15349 3:0.663018 
2048 1:1.36689 2:0.104457 3:0.812677 
2048 1:1.33075 2:0.0614769 3:0.911403 
2048 1:1.30034 2:0.0277409 3:0.955218 
2048 1:0.722264 2:0.0291432 3:0.258102 
2048 1:1.28496 2:0.0238572 3:0.902364 
2048 1:1.27283 2:0.0245159 3:0.839901 
2048 1:1.26329 2:0.0267597 3:0.777594 
1628.525532284818 1:0.791066 2:0.0782228 3:0.00363625 
2048 1:1.25541 2:0.0363072 3:0.715554 
2048 1:1.13421 2:0.157664 3:0.557083 
2048 1:1.11899 2:0.291472 3:0.296762 
2048 1:1.12988 2:0.301317 3:0.217615 
2048 1:1.12498 2:0.298678 3:0.210106 
2048 1:1.12141 2:0.296271 3:0.201181 
2048 1:1.11991 2:0.301526 3:0.186306 
2048 1:1.12696 2:0.27897 3:0.138229 
2048 1:1.13287 2:0.252438 3:0.103884 
2048 1:1.13804 2:0.227382 3:0.0780819 
2048 1:1.15514 2:0.219332 3:0.000254415 
35.65844999888112 1:0.704685 2:0.10999 3:0.10199 
2046.171774294403 1:1.22116 2:0.0869971 3:0.166501 
2048 1:1.30563 2:0.108352 3:0.0980357 
661.4407009972219 1:0.706635 2:0.102525 3:0.0668111 
2048 1:1.28679 2:0.0154505 3:0.00191488 
595.7674356362967 1:0.741609 2:0.0735429 3:0.18918 
711.8842518440483 1:0.723854 2:0.046462 3:0.0669576 
392.0265012276261 1:0.729473 2:0.0422332 3:0.0890016 
2048 1:0.760592 2:0.0621725 3:0.0121586 
950.2897213936242 1:0.751738 2:0.0166854 3:0.0224935 
34.63210565243302 1:0.744696 2:0.0268984 3:0.0134864 
2048 1:1.35823 2:0.0278496 3:0.331183 
897.6835332984243 1:0.783418 2:0.346098 3:0.0864661 
2048 1:1.38012 2:0.00103023 3:0.403752 
2048 1:1.39052 2:0.0329411 3:0.415995 
2048 1:1.38198 2:0.0917676 3:0.33531 
2048 1:1.37477 2:0.151103 3:0.265993 
2048 1:1.36358 2:0.241757 3:0.180248 
2048 1:1.36049 2:0.292964 3:0.132446 
2048 1:0.82439 2:0.156478 3:0.216384 
2048 1:1.35955 2:0.345669 3:0.0942795 
1430.845414410845 1:0.833548 2:0.192475 3:0.210062 
2048 1:1.33644 2:0.409315 3:0.0509531 
1118.158610552229 1:0.842692 2:0.120558 3:0.186586 
37.97157603009511 1:0.857761 2:0.12589 3:0.204179 
1983.142058761804 1:0.84916 2:0.257984 3:0.0852002 
535.3677578273155 1:0.858305 2:0.259765 3:0.0796856 
259.9119262926021 1:1.46128 2:1.04086 3:1.72661 
2048 1:0.826769 2:0.741686 3:2.12539 
2048 1:1.44832 2:0.926701 3:2.09745 
2048 1:0.808242 2:0.66179 3:2.56761 
2048 1:1.43486 2:0.79335 3:2.61516 
2048 1:0.784397 2:0.284689 3:2.9557 
2048 1:1.43828 2:0.366671 3:3.0549 
2048 1:0.777242 2:0.369803 3:2.67489 
2048 1:1.42475 2:0.360967 3:2.86555 
2048 1:1.41412 2:0.412359 3:2.66923 
2048 1:1.41765 2:0.570934 3:2.69073 
2048 1:1.42275 2:0.68911 3:2.66717 
2048 1:1.4163 2:0.786719 3:1.94815 
2048 1:1.41253 2:0.763806 3:1.26057 
1076.442008636964 1:1.01517 2:0.926442 3:1.75176 
2048 1:0.487037 2:0.230154 3:2.6183 
2048 1:1.41776 2:0.696288 3:0.866535 
2048 1:1.03228 2:0.937617 3:1.77601 
2048 1:1.41894 2:0.653646 3:0.683419 
2048 1:1.049 2:0.938175 3:1.79908 
138.1636786648033 1:0.486217 2:0.330545 3:2.37642 
2048 1:1.41986 2:0.60763 3:0.577331 
2048 1:1.427 2:0.552769 3:0.471214 
2048 1:1.05311 2:0.523687 3:0.301284 
2048 1:1.44126 2:0.501659 3:0.288441 
2048 1:1.03 2:0.231404 3:0.461032 
2048 1:1.45515 2:0.46211 3:0.165025 
2048 1:1.47022 2:0.401482 3:0.0537324 
329.4152807160743 1:0.708185 2:0.0213887 3:0.107628 
194.4609580097741 1:0.709188 2:0.0160232 3:0.0944832 
22.18440056374932 1:0.705346 2:0.0800943 3:0.0847897 
2048 1:1.10608 2:0.948935 3:1.80749 
2048 1:1.64194 2:0.912346 3:1.35432 
2048 1:1.09135 2:0.940908 3:1.78176 
2048 1:1.64856 2:0.87565 3:1.42956 
2048 1:1.07763 2:0.859025 3:0.557752 
2048 1:1.65231 2:0.770771 3:0.820944 
2048 1:1.06023 2:0.840379 3:0.591588 
2048 1:1.67011 2:0.728329 3:0.708508 
2048 1:1.0446 2:0.770557 3:0.610227 
2048 1:1.68572 2:0.656056 3:0.600455 
2048 1:1.02787 2:0.611309 3:0.620442 
2048 1:1.69526 2:0.519283 3:0.501728 
2048 1:1.03628 2:0.642187 3:0.208581 
2048 1:1.73105 2:0.57914 3:0.00531695 
2048 1:1.0295 2:0.559457 3:0.139328 
2048 1:1.74957 2:0.546615 3:0.139431 
2048 1:1.01881 2:0.439135 3:0.223031 
2048 1:1.7597 2:0.481536 3:0.114021 
1035.347118799483 1:1.02642 2:0.383174 3:0.0818257 
2048 1:1.78577 2:0.46033 3:0.285587 
2048 1:1.01913 2:0.298013 3:0.12068 
2048 1:1.79087 2:0.38544 3:0.270755 
2048 1:1.78986 2:0.310535 3:0.200438 
2048 1:0.995919 2:0.0824598 3:0.284054 
2048 1:1.77829 2:0.238853 3:0.110177 
2048 1:1.7635 2:0.161974 3:0.0309376 
2048 1:0.9867 2:0.077154 3:0.309065 
2048 1:1.76487 2:0.13222 3:0.0388983 
2048 1:1.76174 2:0.0902018 3:0.0283923 
2048 1:1.74446 2:0.0143458 3:0.027258 
2048 1:1.7292 2:0.0369021 3:0.0727904 
2048 1:1.71471 2:0.0780069 3:0.110907 
2048 1:1.70642 2:0.0855762 3:0.129943 
2048 1:0.912661 2:0.11466 3:0.0712622 
2048 1:1.6969 2:0.100181 3:0.150965 
2048 1:1.68731 2:0.11507 3:0.170726 
2048 1:1.67716 2:0.133009 3:0.189726 
2048 1:1.64966 2:0.161416 3:0.274344 
2048 1:1.60684 2:0.193081 3:0.415499 
2048 1:0.944333 2:0.0788177 3:0.20858 
2048 1:1.57328 2:0.17429 3:0.518639 
2048 1:1.52403 2:0.150844 3:0.685201 
2048 1:1.82448 2:0.884525 3:1.79355 
2048 1:1.81627 2:0.857742 3:1.76426 
2048 1:1.83203 2:0.83901 3:0.571697 
2048 1:1.83315 2:0.71644 3:0.596526 
2048 1:1.83212 2:0.515758 3:0.432815 
2048 1:1.83138 2:0.297741 3:0.312891 
2048 1:1.82014 2:0.0433885 3:0.307637 
2048 1:1.13496 2:0.966549 3:0.238471 
2048 1:1.1333 2:0.793277 3:0.514393 
261.584020367158 1:0.373314 2:0.21116 3:1.8907 
627.053389524629 1:1.39194 2:1.00444 3:1.37631 
2048 1:1.16366 2:0.417953 3:0.0400192 
2048 1:0.364011 2:0.283255 3:0.00829215 
2048 1:1.41645 2:0.701209 3:0.0483113 
2048 1:0.338751 2:0.387335 3:0.219688 
2048 1:1.42336 2:0.572494 3:0.0939257 
1757.412179129466 1:0.363523 2:0.0867025 3:0.0941376 
2048 1:1.42861 2:0.356153 3:0.113246 
2048 1:1.17724 2:0.320378 3:0.131892 
974.8422997454206 1:0.382858 2:0.0752194 3:0.00125204 
2048 1:1.43246 2:0.245158 3:0.13064 
2048 1:1.17547 2:0.343197 3:0.215346 
2048 1:1.46902 2:0.0946504 3:0.149255 
2048 1:1.17252 2:0.332869 3:0.2825 
2048 1:0.418472 2:0.18409 3:0.188062 
2048 1:1.44711 2:0.148779 3:0.094438 
2048 1:1.17012 2:0.310204 3:0.325181 
2048 1:1.49567 2:0.0120953 3:0.225401 
2048 1:1.17467 2:0.261288 3:0.269245 
2048 1:1.54794 2:0.107126 3:0.461243 
2048 1:1.17676 2:0.211851 3:0.232975 
2048 1:1.5716 2:0.107546 3:0.527986 
2048 1:1.59698 2:0.0906498 3:0.609522 
2048 1:1.62797 2:0.140548 3:0.675888 
2048 1:1.18269 2:0.0760252 3:0.112356 
2048 1:1.62239 2:0.0764031 3:0.601526 
2048 1:1.6198 2:0.084705 3:0.528144 
2048 1:1.61976 2:0.0814496 3:0.488888 
2048 1:1.62395 2:0.129491 3:0.452741 
2048 1:1.17119 2:0.0902837 3:0.0401921 
2048 1:1.63036 2:0.195163 3:0.431306 
2048 1:1.17042 2:0.122111 3:0.0116491 
2048 1:1.64251 2:0.254674 3:0.43945 
2048 1:1.16749 2:0.15461 3:0.00573723 
2048 1:1.66127 2:0.296847 3:0.472764 
2048 1:1.16092 2:0.197604 3:0.0123436 
2048 1:1.67935 2:0.356692 3:0.496415 
1638.157846437679 1:1.15884 2:0.211894 3:0.0176814 
2048 1:1.68829 2:0.381012 3:0.473356 
2048 1:1.70266 2:0.401753 3:0.474697 
1405.287440855964 1:1.14794 2:0.256482 3:0.00876912 
2048 1:1.71229 2:0.416773 3:0.464216 
2048 1:1.13949 2:0.285588 3:0.00225546 
2048 1:1.71953 2:0.418053 3:0.452029 
2048 1:1.72465 2:0.409716 3:0.438469 
2048 1:1.11879 2:0.31368 3:0.053709 
2048 1:1.7303 2:0.386591 3:0.413878 
2048 1:1.11477 2:0.308677 3:0.0582152 
2048 1:1.73871 2:0.380456 3:0.401382 
2048 1:1.10999 2:0.306085 3:0.0638552 
2048 1:1.74465 2:0.368001 3:0.386781 
2048 1:1.74809 2:0.352089 3:0.368525 
244.3430591217969 1:0.712062 2:0.0240074 3:0.377591 
2048 1:1.74901 2:0.337784 3:0.345615 
367.5190783305612 1:0.716834 2:0.00672241 3:0.370824 
2048 1:1.75508 2:0.332684 3:0.344557 
67.66883523933839 1:0.719089 2:0.00311991 3:0.348189 
2048 1:1.75739 2:0.32673 3:0.329388 
2048 1:1.76048 2:0.358662 3:0.314794 
2048 1:1.10209 2:0.338586 3:0.00113235 
2048 1:1.76885 2:0.391918 3:0.323701 
2048 1:1.07061 2:0.276862 3:0.223528 
2048 1:1.73622 2:0.355918 3:0.0722011 
1.762943144001268 1:1.04527 2:0.186863 3:0.360021 
2048 1:1.7065 2:0.288738 3:0.096155 
447.7464439323329 1:1.03326 2:0.123349 3:0.390914 
2048 1:1.68299 2:0.246384 3:0.202134 
2048 1:1.66035 2:0.210987 3:0.284156 
2048 1:0.994304 2:0.013314 3:0.477435 
2048 1:1.62038 2:0.124037 3:0.407489 
2048 1:1.56494 2:0.00703163 3:0.542361 
2048 1:1.49868 2:0.213756 3:0.629836 
2048 1:1.43687 2:0.367529 3:0.695442 
2048 1:1.38035 2:0.478045 3:0.752056 
5.738393047892396 1:0.693183 2:0.114658 3:0.0865647 
2048 1:1.33022 2:0.550406 3:0.798649 
2048 1:1.29109 2:0.572964 3:0.82085 
2048 1:1.2593 2:0.593826 3:0.817264 
2048 1:1.23253 2:0.591128 3:0.816034 
2048 1:1.2124 2:0.575728 3:0.805929 
2048 1:1.20213 2:0.53366 3:0.774236 
2048 1:1.18841 2:0.502523 3:0.758654 
2048 1:1.1852 2:0.455948 3:0.713808 
2048 1:1.18603 2:0.409169 3:0.662856 
2048 1:1.18068 2:0.377305 3:0.639661 
1906.132988258391 1:0.637853 2:0.276357 3:0.559897 
2048 1:1.17963 2:0.345185 3:0.603207 
2048 1:0.7306 2:0.0117325 3:0.0556243 
2048 1:1.29255 2:0.0966909 3:0.0954017 
2048 1:1.34124 2:0.128981 3:0.297365 
2048 1:1.35529 2:0.157356 3:0.335296 
2048 1:1.37076 2:0.160528 3:0.371305 
2048 1:1.39245 2:0.16026 3:0.443553 
2048 1:1.41257 2:0.173573 3:0.495772 
2048 1:1.43199 2:0.161464 3:0.532513 
2048 1:1.43795 2:0.122366 3:0.512914 
2048 1:1.45458 2:0.112357 3:0.544637 
2048 1:1.46777 2:0.103333 3:0.558033 
2048 1:1.47636 2:0.121388 3:0.537589 
2048 1:1.47904 2:0.102923 3:0.493854 
2048 1:1.482 2:0.102329 3:0.453223 
2048 1:1.48345 2:0.102654 3:0.412592 
2048 1:1.47321 2:0.108547 3:0.319215 
2048 1:1.47396 2:0.126546 3:0.29185 
2048 1:1.47206 2:0.167849 3:0.249468 
2048 1:1.47554 2:0.191731 3:0.240285 
327.0760068944193 1:0.797792 2:0.0450198 3:0.00320762 
2048 1:1.47199 2:0.209446 3:0.20229 
2048 1:1.46538 2:0.242596 3:0.15068 
2048 1:1.45963 2:0.272454 3:0.104561 
2048 1:1.44782 2:0.28336 3:0.0524253 
2048 1:1.43411 2:0.312017 3:0.00692167 
2048 1:1.41488 2:0.336976 3:0.0884033 
2048 1:1.39007 2:0.357496 3:0.192826 
2048 1:1.37361 2:0.359311 3:0.247637 
2048 1:1.35903 2:0.353451 3:0.297344 
2048 1:1.33835 2:0.34384 3:0.373173 
2048 1:1.32247 2:0.334101 3:0.425479 
2048 1:1.30973 2:0.319787 3:0.463919 
384.359739376328 1:0.780343 2:0.0719464 3:0.0113271 
2048 1:0.784733 2:0.0127055 3:0.0042392 
2048 1:1.28882 2:0.227552 3:0.411514 
2048 1:1.28701 2:0.250914 3:0.388792 
2048 1:1.29134 2:0.284476 3:0.344224 
2048 1:1.30039 2:0.296049 3:0.270794 
2048 1:1.31315 2:0.316173 3:0.191241 
2048 1:1.31765 2:0.352924 3:0.162917 
2048 1:1.32509 2:0.388473 3:0.131384 
2048 1:1.34384 2:0.426763 3:0.0316264 
2048 1:1.36441 2:0.464563 3:0.0628873 
2048 1:1.38287 2:0.512219 3:0.130403 
2048 1:1.40406 2:0.533338 3:0.214049 
2048 1:1.42133 2:0.559428 3:0.260818 
2048 1:1.43144 2:0.575704 3:0.265016 
2048 1:1.44715 2:0.571942 3:0.326595 
2048 1:1.46218 2:0.567243 3:0.367971 
2048 1:1.46899 2:0.554229 3:0.362712 
2048 1:1.47334 2:0.554832 3:0.327612 
2048 1:1.48396 2:0.540432 3:0.354619 
2048 1:1.49571 2:0.50556 3:0.384422 
2048 1:1.50301 2:0.463843 3:0.381964 
2048 1:1.51712 2:0.435234 3:0.43367 
2048 1:1.52489 2:0.3989 3:0.431088 
2048 1:1.52314 2:0.357973 3:0.380107 
2048 1:1.53162 2:0.294366 3:0.409379 
2044.768508896198 1:0.925807 2:0.147463 3:0.057791 
2048 1:1.54558 2:0.270505 3:0.436075 
2048 1:1.55847 2:0.258119 3:0.446336 
2048 1:1.56797 2:0.263527 3:0.427639 
2048 1:1.57787 2:0.226315 3:0.439649 
20.3692755408603 1:0.916112 2:0.109844 3:0.040805 
2048 1:1.58505 2:0.196822 3:0.430366 
2048 1:1.58452 2:0.160884 3:0.381864 
2048 1:1.58537 2:0.140186 3:0.344378 
2048 1:1.58165 2:0.134348 3:0.280784 
2048 1:1.57804 2:0.116815 3:0.235127 
2048 1:1.56731 2:0.102469 3:0.15859 
2048 1:1.54684 2:0.0793022 3:0.0423963 
2048 1:1.53218 2:0.0752404 3:0.0363029 
2048 1:1.52289 2:0.0771208 3:0.0775596 
2048 1:1.51134 2:0.0903407 3:0.128093 
2048 1:1.50463 2:0.0835493 3:0.140837 
2048 1:1.49958 2:0.0786821 3:0.148437 
2048 1:1.49099 2:0.0841872 3:0.174465 
2048 1:1.48215 2:0.104029 3:0.202154 
1179.362517418675 1:0.592258 2:0.850198 3:1.4758 
778.9174899066993 1:0.890338 2:0.740036 3:1.66363 
2048 1:1.48135 2:0.110162 3:0.187829 
2048 1:1.47467 2:0.116765 3:0.198127 
2048 1:1.46961 2:0.120691 3:0.204218 
2048 1:1.46895 2:0.126342 3:0.186116 
2048 1:1.46462 2:0.116628 3:0.184802 
2048 1:1.45679 2:0.0967891 3:0.204035 
2048 1:1.45011 2:0.0960819 3:0.2123 
2048 1:1.44261 2:0.0669462 3:0.222519 
2048 1:1.4349 2:0.0375646 3:0.235617 
1887.928987505088 1:1.42178 2:0.0171004 3:0.272642 
2048 1:1.40916 2:0.00793323 3:0.297288 
2048 1:1.3978 2:0.03304 3:0.313929 
2048 1:1.38997 2:0.0508997 3:0.310264 
2048 1:1.38425 2:0.0850773 3:0.290559 
2048 1:1.3787 2:0.115166 3:0.271581 
2048 1:0.828671 2:0.733785 3:1.68933 
1474.474872440678 1:0.582698 2:0.857826 3:1.9207 
2048 1:1.37928 2:0.124042 3:0.231376 
2048 1:0.86121 2:0.774512 3:1.75332 
2048 1:1.37993 2:0.110245 3:0.201649 
1609.053597796621 1:0.87514 2:0.683168 3:0.0267238 
2048 1:1.39151 2:0.103063 3:0.121012 
2048 1:1.40595 2:0.0810109 3:0.0432393 
2048 1:1.41707 2:0.0698642 3:0.0139695 
2048 1:1.43141 2:0.0272981 3:0.064255 
2048 1:1.44857 2:0.00245573 3:0.127559 
2048 1:1.47791 2:0.0508249 3:0.231792 
2048 1:0.992464 2:0.321826 3:0.678007 
2048 1:1.49787 2:0.0885078 3:0.282736 
2048 1:1.02061 2:0.3518 3:0.743028 
2048 1:1.51592 2:0.137025 3:0.310633 
2048 1:1.04323 2:0.3119 3:0.765658 
2048 1:1.53775 2:0.160909 3:0.364462 
2048 1:1.06134 2:0.287846 3:0.78484 
2048 1:1.55158 2:0.161942 3:0.391247 
2048 1:1.06319 2:0.244591 3:0.695834 
2048 1:1.55562 2:0.16723 3:0.364469 
2048 1:1.06877 2:0.193514 3:0.661209 
2048 1:1.56204 2:0.156054 3:0.364125 
2048 1:1.56421 2:0.128297 3:0.351318 
2048 1:1.56752 2:0.119821 3:0.330405 
2048 1:1.56378 2:0.0980144 3:0.287173 
2048 1:1.05148 2:0.798756 3:1.86975 
2048 1:1.55373 2:0.0661622 3:0.222594 
2048 1:1.54918 2:0.043323 3:0.181426 
2048 1:1.54004 2:0.0158176 3:0.125315 
2048 1:1.53275 2:0.00664892 3:0.0809667 
2048 1:1.04449 2:0.687923 3:1.68064 
1459.273428213564 1:0.51096 2:0.719199 3:1.65738 
2048 1:1.52177 2:0.0312757 3:0.0232675 
1169.662385268991 1:0.510844 2:0.750347 3:1.68221 
2048 1:1.50813 2:0.0605767 3:0.0421107 
2048 1:1.02111 2:0.485654 3:0.146729 
2048 1:1.48594 2:0.0850277 3:0.14841 
2048 1:1.46541 2:0.106591 3:0.233604 
2048 1:0.476924 2:0.390762 3:0.291402 
2048 1:1.44316 2:0.132667 3:0.316988 
2048 1:1.42859 2:0.144021 3:0.354899 
2048 1:0.953333 2:0.0103537 3:0.561683 
2048 1:1.40997 2:0.186072 3:0.399923 
2048 1:0.898635 2:0.295083 3:0.738546 
2048 1:1.39263 2:0.241885 3:0.429476 
2048 1:0.840696 2:0.507824 3:0.839789 
2048 1:1.36878 2:0.282161 3:0.491584 
2048 1:0.822932 2:0.491509 3:0.814515 
2048 1:1.34105 2:0.300765 3:0.581176 
2048 1:0.72605 2:0.857155 3:0.939774 
2048 1:1.32792 2:0.321455 3:0.569231 
2048 1:1.31752 2:0.37101 3:0.540518 
2048 1:1.30175 2:0.399294 3:0.555285 
404.5279588049774 1:0.59304 2:1.09986 3:0.926383 
2048 1:0.701352 2:0.692248 3:0.397909 
2048 1:1.29377 2:0.407609 3:0.528474 
2048 1:0.75357 2:0.792135 3:0.443785 
2048 1:1.28881 2:0.426139 3:0.49041 
2048 1:0.778946 2:0.789843 3:0.450919 
2048 1:1.2839 2:0.436335 3:0.468066 
2048 1:0.814113 2:0.83992 3:0.466027 
2048 1:1.27872 2:0.400999 3:0.455728 
2048 1:0.849091 2:0.840899 3:0.501578 
2048 1:1.27786 2:0.399896 3:0.421326 
2048 1:0.874284 2:0.839301 3:0.508125 
2048 1:1.27153 2:0.383845 3:0.427861 
2048 1:0.901093 2:0.81733 3:0.540604 
2048 1:1.27573 2:0.349983 3:0.373882 
2048 1:0.917878 2:0.765381 3:0.548698 
2048 1:1.27688 2:0.345479 3:0.336235 
2048 1:0.931293 2:0.715554 3:0.547866 
2048 1:1.27658 2:0.340087 3:0.310078 
1233.129615741583 1:0.941317 2:0.643028 3:0.550475 
2048 1:1.27732 2:0.331947 3:0.282755 
2048 1:1.28348 2:0.332759 3:0.234456 
2048 1:1.27911 2:0.32591 3:0.245351 
706.8097749671193 1:0.354375 2:0.723902 3:0.75155 
2048 1:1.27479 2:0.320102 3:0.23798 
2048 1:1.27022 2:0.311939 3:0.231835 
2048 1:1.26486 2:0.306828 3:0.228577 
2048 1:1.2596 2:0.299954 3:0.230666 
1019.148871268761 1:0.413753 2:0.206713 3:0.327177 
2048 1:1.25871 2:0.284214 3:0.204235 
1155.867642123909 1:0.747513 2:0.237345 3:1.13183 
2048 1:0.797865 2:0.313868 3:1.16506 
2048 1:0.835915 2:0.336141 3:1.18498 
40.04701496631549 1:0.419717 2:0.262055 3:1.38337 
2048 1:0.86996 2:0.373964 3:1.15286 
2048 1:0.895734 2:0.397805 3:1.09704 
2048 1:0.927434 2:0.374927 3:0.962056 
2048 1:0.918677 2:0.299563 3:0.852172 
466.9142659969656 1:0.339489 2:0.223922 3:0.838511 
164.8714717337766 1:1.17415 2:0.108467 3:0.252554 
1005.774397467548 1:1.18061 2:0.114545 3:0.19451 
120.4121639129051 1:0.730132 2:0.0651517 3:0.0544065 
2048 1:1.18717 2:0.0976255 3:0.146267 
2048 1:0.842364 2:0.569475 3:0.847453 
2048 1:1.31128 2:0.0618746 3:0.345837 
273.5931636432106 1:0.469183 2:0.643576 3:0.508616 
2048 1:0.870773 2:0.577239 3:0.84163 
2048 1:1.31673 2:0.0663372 3:0.333014 
2048 1:0.882474 2:0.521001 3:0.800538 
2048 1:1.32231 2:0.0939762 3:0.313028 
2048 1:0.906299 2:0.488019 3:0.794822 
2048 1:1.33149 2:0.112871 3:0.312659 
2048 1:0.930369 2:0.467133 3:0.798248 
2048 1:1.3392 2:0.109021 3:0.313703 
2048 1:0.930949 2:0.389413 3:0.74759 
2048 1:1.34559 2:0.12107 3:0.307997 
1584.092083131033 1:0.455511 2:0.423335 3:0.39197 
2048 1:0.926089 2:0.304956 3:0.685562 
2048 1:1.35008 2:0.118378 3:0.293591 
2048 1:0.931169 2:0.267576 3:0.666974 
2048 1:1.35251 2:0.0780909 3:0.285259 
1936.74260884633 1:0.387162 2:0.834387 3:1.51345 
2048 1:1.11205 2:0.743629 3:1.42801 
2048 1:1.33255 2:0.0907584 3:0.0854477 
2048 1:0.357615 2:0.245879 3:0.28258 
2048 1:1.33111 2:0.0909991 3:0.0706502 
2048 1:0.592756 2:0.597747 3:1.75888 
2048 1:0.847089 2:0.721595 3:1.67528 
2048 1:1.33429 2:0.123848 3:0.0836027 
2048 1:1.34354 2:0.115508 3:0.117313 
2048 1:1.35118 2:0.0906383 3:0.137284 
2048 1:1.3955 2:0.108191 3:0.247145 
4.57224167572195 1:0.56422 2:1.34386 3:0.0639423 
2048 1:1.40321 2:0.169438 3:0.242404 
2048 1:0.879292 2:0.913377 3:0.203135 
2048 1:1.40827 2:0.217776 3:0.228657 
2048 1:1.41339 2:0.243869 3:0.215499 
2048 1:1.42096 2:0.296284 3:0.210037 
2048 1:1.41656 2:0.326589 3:0.157886 
2048 1:1.40775 2:0.316437 3:0.103794 
2048 1:1.40342 2:0.338689 3:0.0701315 
2048 1:1.39353 2:0.343954 3:0.0197655 
2048 1:1.3857 2:0.329898 3:0.0132375 
2048 1:0.831361 2:0.539325 3:0.382064 
2048 1:1.36015 2:0.262269 3:0.117856 
2048 1:0.800673 2:0.650671 3:1.02078 
2048 1:0.780858 2:0.594627 3:1.55226 
2048 1:1.30266 2:0.16648 3:0.282378 
2048 1:0.723181 2:0.348081 3:1.4985 
2048 1:1.2734 2:0.102697 3:0.349757 
1014.647670506671 1:0.779649 2:0.251902 3:1.58491 
2048 1:0.765583 2:0.309949 3:1.95676 
2048 1:1.25606 2:0.0580474 3:0.371847 
2048 1:0.823472 2:0.21794 3:1.62993 
2048 1:0.764991 2:0.237412 3:2.04368 
2048 1:1.23251 2:0.0194711 3:0.413759 
2048 1:0.857165 2:0.212708 3:1.66293 
1133.537752244403 1:0.767219 2:0.202157 3:2.09172 
2048 1:1.2178 2:0.0105505 3:0.428788 
2048 1:0.881385 2:0.224858 3:1.65843 
2048 1:0.781094 2:0.168464 3:2.02858 
2048 1:0.911965 2:0.222856 3:1.65605 
2048 1:0.782211 2:0.152712 3:2.00831 
2048 1:0.925291 2:0.280731 3:1.63764 
2048 1:0.789842 2:0.20003 3:1.95238 
2048 1:0.791109 2:0.238246 3:1.88005 
2048 1:0.975122 2:0.381044 3:1.55229 
1109.473290710646 1:0.852809 2:0.544572 3:0.0378656 
2048 1:1.39492 2:0.925617 3:1.59015 
2048 1:1.00366 2:0.362159 3:1.52896 
2048 1:1.01711 2:0.385189 3:1.44877 
2048 1:1.01622 2:0.434833 3:1.27862 
2048 1:1.24677 2:0.875352 3:1.76967 
2048 1:1.03101 2:0.433682 3:1.18822 
2048 1:1.04623 2:0.417025 3:1.10745 
2048 1:1.05271 2:0.40158 3:0.983804 
2048 1:1.06673 2:0.375537 3:0.941465 
2048 1:1.06834 2:0.344389 3:0.817624 
2048 1:1.07232 2:0.295516 3:0.76013 
2048 1:1.07177 2:0.2483 3:0.683126 
1690.027161529825 1:0.810816 2:0.558653 3:1.16333 
2048 1:1.36505 2:0.806953 3:1.84645 
2048 1:1.06201 2:0.19396 3:0.557913 
2048 1:1.36304 2:0.748781 3:1.84069 
2048 1:0.780032 2:0.527049 3:1.3391 
2048 1:1.35347 2:0.661503 3:1.82099 
2048 1:1.34532 2:0.521531 3:0.399643 
2048 1:1.34228 2:0.322345 3:0.0250706 
2048 1:1.31445 2:0.143878 3:0.0781588 
2048 1:1.31214 2:0.138334 3:0.0689404 
1985.179383506551 1:0.576559 2:0.117754 3:0.672224 
2048 1:0.89193 2:0.884813 3:1.86483 
2048 1:1.18983 2:0.737893 3:1.51076 
2048 1:0.912885 2:0.764238 3:0.925272 
2048 1:1.23586 2:0.608404 3:0.720333 
1772.93212921129 1:0.719682 2:0.137715 3:0.495859 
2048 1:0.741305 2:0.107092 3:0.55284 
737.5839264695993 1:0.757882 2:0.0978123 3:0.585357 
626.5527801738566 1:0.725396 2:0.0257701 3:0.245662 
102.9987432461162 1:0.678339 2:0.0165796 3:0.392078 
20.89852260080285 1:0.793358 2:0.177703 3:0.275649 
2048 1:0.803454 2:0.171654 3:0.291574 
2048 1:0.742196 2:0.73581 3:1.54935 
2048 1:1.28215 2:0.907464 3:1.84092 
1672.500928098379 1:0.817733 2:0.762006 3:1.58634 
2048 1:1.37429 2:0.88403 3:1.8859 
2048 1:0.79101 2:0.787207 3:1.6203 
2048 1:1.35577 2:0.847245 3:1.91643 
2048 1:0.656605 2:0.773381 3:1.89631 
2048 1:1.36722 2:0.710262 3:1.95457 
265.1975265387447 1:0.731984 2:0.0670552 3:0.0859091 
2048 1:0.779234 2:0.412931 3:1.48102 
2048 1:1.49034 2:0.345876 3:1.56693 
2048 1:1.47329 2:0.514064 3:0.857503 
2048 1:0.870632 2:0.454194 3:1.2455 
2048 1:1.59232 2:0.505446 3:1.38798 
2048 1:0.711579 2:0.803527 3:1.7542 
2048 1:1.46606 2:0.777433 3:1.98558 
1340.950756560993 1:0.785078 2:0.568531 3:1.31709 
2048 1:1.55383 2:0.56927 3:1.59035 
2048 1:0.81271 2:0.415673 3:1.14537 
2048 1:1.58974 2:0.427021 3:1.42055 
2048 1:1.55006 2:0.615681 3:0.37526 
2048 1:1.55353 2:0.566606 3:0.366498 
2048 1:1.54567 2:0.461482 3:0.448566 
2048 1:1.48752 2:0.0952738 3:0.936514 
2048 1:1.44337 2:0.126872 3:1.02306 
2048 1:1.41781 2:0.162608 3:1.05309 
2048 1:1.39267 2:0.157399 3:1.11413 
2048 1:0.552903 2:0.25728 3:1.23822 
2048 1:1.36775 2:0.165399 3:1.14348 
391.9824116206269 1:0.540349 2:0.245474 3:1.17308 
2048 1:1.3527 2:0.141997 3:1.11467 
2048 1:1.34138 2:0.0959375 3:1.10858 
2048 1:1.32624 2:0.077739 3:1.1022 
2048 1:1.32386 2:0.0100981 3:1.07189 
967.3661139171002 1:1.31275 2:0.0198029 3:1.06021 
81.68067042133974 1:1.30348 2:0.0546072 3:1.06124 
2048 1:1.29185 2:0.0755678 3:1.05734 
2048 1:1.28809 2:0.12433 3:1.0281 
2048 1:1.2812 2:0.153481 3:0.988568 
2048 1:1.28602 2:0.190375 3:0.87514 
2048 1:1.27606 2:0.182617 3:0.846144 
2048 1:1.27995 2:0.192407 3:0.729355 
2048 1:1.27544 2:0.184561 3:0.660237 
2048 1:1.24881 2:0.136284 3:0.751778 
2048 1:1.23417 2:0.116767 3:0.739329 
2048 1:1.23324 2:0.118379 3:0.650579 
2048 1:1.21578 2:0.0982597 3:0.669722 
2048 1:1.20877 2:0.0893925 3:0.626694 
2048 1:0.674834 2:0.675168 3:2.35668 
2048 1:0.995636 2:0.593804 3:1.25315 
2048 1:0.702483 2:0.582418 3:2.33793 
2048 1:1.01237 2:0.509066 3:1.25255 
2048 1:0.731397 2:0.36414 3:1.79418 
2048 1:1.04238 2:0.327632 3:0.802019 
2048 1:1.01642 2:0.345422 3:0.708259 
625.0502800036238 1:0.478207 2:0.144236 3:0.673175 
2048 1:1.02001 2:0.304926 3:0.519273 
2048 1:1.03986 2:0.362744 3:0.416991 
2048 1:1.05106 2:0.36264 3:0.17442 
2048 1:1.08554 2:0.341257 3:0.154414 
2048 1:1.11718 2:0.304903 3:0.368561 
2048 1:0.76214 2:0.0905768 3:0.685956 
717.6569907390731 1:0.777685 2:0.105345 3:0.527142 
2048 1:0.780172 2:0.0933419 3:0.488279 
2048 1:0.604795 2:0.230232 3:0.0293824 
2048 1:0.604432 2:0.205164 3:0.0251293 
2048 1:1.18171 2:0.194137 3:0.184606 
1972.589104898776 1:1.19052 2:0.127555 3:0.137876 
2048 1:1.18323 2:0.123237 3:0.0712675 
2048 1:1.17989 2:0.126943 3:0.0336093 
2048 1:1.18435 2:0.127823 3:0.0556296 
2048 1:1.19065 2:0.120408 3:0.0972436 
2048 1:1.19019 2:0.117199 3:0.0833476 
2048 1:1.18945 2:0.112697 3:0.0654846 
2048 1:1.19374 2:0.105526 3:0.0858437 
2048 1:1.21429 2:0.0405498 3:0.117767 
2048 1:1.17283 2:0.0261676 3:0.146414 
2048 1:1.16523 2:0.0164664 3:0.175117 
2048 1:1.16099 2:0.002749 3:0.176508 
398.8670260240393 1:0.734753 2:0.0273857 3:0.360888 
2048 1:1.09608 2:0.22203 3:0.235836 
2048 1:1.1142 2:0.263111 3:0.129674 
2048 1:1.14666 2:0.308773 3:0.0711568 
2048 1:0.708751 2:0.113834 3:0.110868 
2048 1:1.16704 2:0.311248 3:0.196968 
2048 1:1.1851 2:0.307074 3:0.294575 
513.7343703466222 1:0.708647 2:0.205041 3:0.473405 
2048 1:1.29604 2:0.262723 3:0.591606 
124.0410501291049 1:0.730643 2:0.0313673 3:0.0697552 
2048 1:1.30973 2:0.252645 3:0.602382 
2048 1:1.3235 2:0.241505 3:0.613004 
618.0890690201671 1:0.731045 2:0.0100446 3:0.0444975 
2048 1:1.32852 2:0.235123 3:0.572194 
1307.295566659453 1:0.731671 2:0.0110328 3:0.0460545 
2048 1:1.3378 2:0.2424 3:0.551352 
2048 1:1.35 2:0.259384 3:0.54429 
2048 1:1.36134 2:0.255616 3:0.549226 
2048 1:0.731964 2:0.0186892 3:0.0462989 
2048 1:1.37663 2:0.260948 3:0.570634 
2048 1:1.37621 2:0.280745 3:0.486908 
24.77837636772969 1:0.702 2:0.0666718 3:0.130449 
2048 1:1.37588 2:0.282729 3:0.419328 
2048 1:1.37484 2:0.284748 3:0.35416 
2048 1:1.38209 2:0.297621 3:0.334456 
2048 1:1.38823 2:0.309178 3:0.312723 
2048 1:1.39379 2:0.311969 3:0.299022 
2048 1:1.39845 2:0.317215 3:0.283152 
2048 1:1.38954 2:0.324022 3:0.16292 
2048 1:1.39024 2:0.33558 3:0.106267 
2048 1:1.38697 2:0.317046 3:0.0601637 
2048 1:1.38415 2:0.319141 3:0.0061274 
2048 1:1.38159 2:0.324964 3:0.060136 
2048 1:1.37961 2:0.327812 3:0.0955539 
2048 1:1.38742 2:0.328393 3:0.0622413 
2048 1:1.38263 2:0.303689 3:0.114086 
2048 1:1.37882 2:0.283073 3:0.142546 
2048 1:1.37043 2:0.247594 3:0.177628 
191.6537526975921 1:0.72238 2:0.0496836 3:0.0889441 
2048 1:1.36287 2:0.196634 3:0.178902 
2048 1:1.35333 2:0.112881 3:0.158819 
2048 1:0.752347 2:0.0350754 3:0.00448802 
23.1878639718439 1:0.727082 2:0.0292262 3:0.13452 
2048 1:0.719312 2:0.0374197 3:0.171041 
80.68486000141426 1:0.714316 2:0.0409808 3:0.185578 
92.35163357582121 1:1.33256 2:0.0937454 3:0.128983 
2048 1:1.33831 2:0.122465 3:0.12654 
2048 1:1.35003 2:0.158953 3:0.0904101 
2048 1:1.36136 2:0.18964 3:0.0527544 
2048 1:1.37148 2:0.220257 3:0.0421235 
2048 1:1.38137 2:0.244824 3:0.0229004 
1793.927025004185 1:0.95286 2:0.186493 3:0.363628 
2048 1:1.38956 2:0.265991 3:0.0325972 
2048 1:0.973759 2:0.208407 3:0.436734 
2048 1:1.40323 2:0.298049 3:0.0150748 
2048 1:0.9928 2:0.223353 3:0.490895 
2048 1:1.41587 2:0.320113 3:0.0088022 
2048 1:1.01484 2:0.242473 3:0.550798 
2048 1:1.43318 2:0.35137 3:0.0510802 
2048 1:1.03899 2:0.262741 3:0.618103 
2048 1:1.45449 2:0.385991 3:0.109472 
2048 1:1.05576 2:0.257954 3:0.656515 
2048 1:1.46894 2:0.39111 3:0.157698 
2048 1:1.07746 2:0.271033 3:0.700184 
2048 1:1.4891 2:0.406749 3:0.229814 
2048 1:1.09668 2:0.276282 3:0.728183 
2048 1:1.50715 2:0.410578 3:0.296522 
2048 1:1.10769 2:0.257576 3:0.730102 
2048 1:1.51718 2:0.384161 3:0.342924 
2048 1:1.13044 2:0.277265 3:0.772903 
2048 1:1.53391 2:0.403047 3:0.358807 
2048 1:1.15402 2:0.302693 3:0.805545 
2048 1:1.55177 2:0.42606 3:0.375758 
2048 1:1.17481 2:0.320636 3:0.825802 
2048 1:1.5675 2:0.433941 3:0.397128 
2048 1:1.19235 2:0.32617 3:0.838367 
2048 1:1.58109 2:0.428042 3:0.422391 
2048 1:1.20173 2:0.319917 3:0.802417 
2048 1:1.59288 2:0.412933 3:0.447991 
2048 1:1.20991 2:0.312817 3:0.761206 
2048 1:1.60321 2:0.390965 3:0.471513 
2048 1:1.21749 2:0.327957 3:0.699927 
2048 1:1.61804 2:0.369835 3:0.522641 
2048 1:1.22462 2:0.341535 3:0.632698 
2048 1:1.62483 2:0.359744 3:0.495276 
2048 1:1.63394 2:0.352404 3:0.484031 
2048 1:1.64141 2:0.32797 3:0.48551 
2048 1:1.64779 2:0.293861 3:0.491803 
1263.041430515092 1:1.25343 2:0.356089 3:0.424848 
2048 1:1.65335 2:0.254715 3:0.49713 
2048 1:1.25896 2:0.351195 3:0.377468 
2048 1:1.65851 2:0.221038 3:0.492219 
2048 1:1.25765 2:0.321349 3:0.324461 
2048 1:1.65121 2:0.173483 3:0.418376 
2048 1:1.2603 2:0.294407 3:0.319268 
2048 1:1.65054 2:0.125857 3:0.398149 
2048 1:1.25967 2:0.2834 3:0.233891 
2048 1:1.65036 2:0.0832011 3:0.377088 
2048 1:1.25911 2:0.277958 3:0.127453 
2048 1:1.64896 2:0.0786189 3:0.322904 
2048 1:1.64774 2:0.0592435 3:0.286938 
2048 1:1.64701 2:0.0319589 3:0.263399 
2048 1:1.65325 2:0.0102369 3:0.281063 
2048 1:1.66513 2:0.0100319 3:0.333648 
2048 1:1.66963 2:0.0179318 3:0.331753 
2048 1:1.6742 2:0.017191 3:0.323119 
2048 1:1.67863 2:0.0108686 3:0.310337 
2048 1:1.6763 2:0.00412011 3:0.256657 
2048 1:1.67483 2:0.0155824 3:0.211805 
2048 1:1.67972 2:0.0260139 3:0.212328 
2048 1:1.69058 2:0.0366477 3:0.248362 
2048 1:1.69407 2:0.069725 3:0.21959 
2048 1:1.69109 2:0.0929094 3:0.152812 
657.7622779722864 1:0.734158 2:0.0431901 3:0.173779 
2048 1:1.68889 2:0.114029 3:0.0919649 
2048 1:1.68748 2:0.132979 3:0.0398958 
2048 1:0.723516 2:0.029815 3:0.0917601 
2048 1:1.69232 2:0.1506 3:0.0317921 
2048 1:1.29011 2:0.0986465 3:0.0866869 
1414.246031398176 1:0.726812 2:0.0696105 3:0.108947 
2048 1:1.69712 2:0.168257 3:0.0222605 
283.3447686921257 1:0.7238 2:0.0927482 3:0.0772648 
2048 1:1.6957 2:0.173586 3:0.0250631 
2048 1:1.69477 2:0.176538 3:0.0614397 
2048 1:1.70095 2:0.195645 3:0.0622282 
2048 1:1.70735 2:0.214672 3:0.0588451 
2048 1:1.71348 2:0.228389 3:0.0491331 
2048 1:1.71972 2:0.245208 3:0.0413576 
2048 1:1.71989 2:0.251267 3:0.0750252 
2048 1:1.7143 2:0.255101 3:0.160749 
2048 1:1.7218 2:0.27055 3:0.167446 
2048 1:1.73019 2:0.295376 3:0.171531 
1829.884812551746 1:1.32498 2:0.18102 3:0.102585 
2048 1:1.73809 2:0.316338 3:0.176532 
2048 1:1.33355 2:0.191165 3:0.0620994 
2048 1:1.74533 2:0.329716 3:0.173993 
2048 1:1.33866 2:0.197931 3:0.0684769 
2048 1:1.74683 2:0.336933 3:0.224351 
2048 1:1.35156 2:0.228139 3:0.0476383 
2048 1:1.75621 2:0.362334 3:0.221367 
2048 1:1.77072 2:0.385753 3:0.185126 
2048 1:1.36786 2:0.229163 3:0.0141272 
2048 1:1.77758 2:0.390031 3:0.214675 
2048 1:1.37272 2:0.214296 3:0.0498956 
2048 1:1.78291 2:0.376873 3:0.207235 
2048 1:1.37197 2:0.187531 3:0.0492601 
2048 1:1.78809 2:0.368615 3:0.20872 
2048 1:1.37119 2:0.162284 3:0.05404 
2048 1:1.79343 2:0.367582 3:0.222295 
2048 1:1.37001 2:0.135611 3:0.0660829 
2048 1:1.79911 2:0.373433 3:0.244038 
2048 1:1.369 2:0.11092 3:0.0791001 
2048 1:1.80493 2:0.3815 3:0.26122 
2048 1:1.36849 2:0.0922563 3:0.0858504 
2048 1:1.80364 2:0.361373 3:0.294047 
2048 1:1.37406 2:0.109091 3:0.0697588 
2048 1:1.81285 2:0.396225 3:0.352527 
2048 1:1.3681 2:0.0777836 3:0.0481195 
2048 1:1.81051 2:0.353328 3:0.331674 
2048 1:1.36202 2:0.0464379 3:0.0365685 
2048 1:1.80983 2:0.333486 3:0.384211 
2048 1:1.35144 2:0.00921449 3:0.00256608 
2048 1:1.80922 2:0.313439 3:0.420608 
2048 1:1.34278 2:0.0174926 3:0.0346036 
2048 1:1.80978 2:0.304308 3:0.457137 
505.5367645804383 1:0.647021 2:0.337354 3:0.422098 
2048 1:1.8109 2:0.298981 3:0.480729 
2048 1:0.654256 2:0.360933 3:0.379793 
2048 1:1.8131 2:0.302 3:0.490065 
2048 1:1.80477 2:0.255755 3:0.498229 
2048 1:1.79745 2:0.217481 3:0.492467 
2048 1:1.79128 2:0.185945 3:0.459879 
2048 1:1.78624 2:0.15812 3:0.402595 
2048 1:1.78246 2:0.131883 3:0.328231 
2048 1:1.77571 2:0.137382 3:0.415519 
2048 1:1.75873 2:0.13885 3:0.59012 
2048 1:1.21078 2:0.168537 3:0.544217 
2048 1:1.74522 2:0.154239 3:0.715831 
2048 1:1.20156 2:0.142118 3:0.570325 
2048 1:1.73533 2:0.182474 3:0.797277 
2048 1:1.19873 2:0.0904294 3:0.584251 
2048 1:1.72871 2:0.21791 3:0.833482 
2048 1:1.72441 2:0.251574 3:0.831776 
2048 1:1.72213 2:0.281838 3:0.799047 
2048 1:1.71652 2:0.301642 3:0.80912 
2048 1:1.71269 2:0.315393 3:0.772103 
2048 1:1.70021 2:0.299695 3:0.77232 
2048 1:1.16097 2:0.0699762 3:0.75076 
2048 1:1.68544 2:0.284996 3:0.816693 
2048 1:1.15225 2:0.0780789 3:0.788076 
2048 1:0.683018 2:0.190471 3:0.0402324 
2048 1:1.67295 2:0.26855 3:0.828308 
2048 1:1.14167 2:0.0760312 3:0.837689 
2048 1:1.66339 2:0.258293 3:0.821716 
2048 1:1.13458 2:0.0806615 3:0.860637 
2048 1:1.65585 2:0.245103 3:0.779901 
2048 1:1.13066 2:0.0911383 3:0.873316 
2048 1:1.64444 2:0.221835 3:0.780322 
2048 1:1.12105 2:0.103246 3:0.926984 
32.68641760056425 1:0.709261 2:0.108183 3:0.148809 
2048 1:1.62963 2:0.211429 3:0.778175 
2048 1:1.10933 2:0.098302 3:0.980201 
2048 1:1.61189 2:0.191568 3:0.801585 
2048 1:1.0971 2:0.0831764 3:1.03489 
2048 1:1.59695 2:0.170889 3:0.794213 
2048 1:1.57883 2:0.139461 3:0.80385 
644.8255658778178 1:0.741387 2:0.0410176 3:0.273805 
2048 1:1.56335 2:0.10952 3:0.797833 
2048 1:1.5446 2:0.0696144 3:0.804352 
2048 1:1.52502 2:0.039558 3:0.840178 
2048 1:1.50276 2:0.00101531 3:0.87626 
2048 1:1.48428 2:0.0322659 3:0.890629 
2048 1:1.46941 2:0.0532167 3:0.880847 
2048 1:0.723379 2:0.0586841 3:0.096631 
2048 1:1.45315 2:0.0727332 3:0.892026 
2048 1:1.43471 2:0.125061 3:0.901144 
285.7502404245082 1:1.0244 2:0.0625484 3:0.906314 
2048 1:1.4148 2:0.16886 3:0.912131 
2048 1:1.39975 2:0.189451 3:0.909413 
2048 1:1.38972 2:0.186303 3:0.894173 
2048 1:1.38288 2:0.172937 3:0.86928 
2048 1:1.37868 2:0.151623 3:0.828896 
2048 1:1.37709 2:0.123171 3:0.780032 
2048 1:1.37752 2:0.0917246 3:0.725678 
2048 1:1.36714 2:0.0967869 3:0.71735 
2048 1:1.35996 2:0.0899382 3:0.702652 
2048 1:1.35487 2:0.0782356 3:0.678392 
2048 1:1.35089 2:0.0677805 3:0.641435 
2048 1:1.3475 2:0.0614663 3:0.596499 
2048 1:1.34515 2:0.0557953 3:0.542428 
2048 1:1.33086 2:0.0865822 3:0.539919 
169.1518731501068 1:1.03115 2:0.0635042 3:0.307882 
2048 1:1.31866 2:0.109765 3:0.524614 
2048 1:1.03041 2:0.0536813 3:0.255038 
2048 1:1.30778 2:0.130512 3:0.498633 
2048 1:1.02881 2:0.0396297 3:0.204408 
2048 1:1.29874 2:0.145428 3:0.466309 
2048 1:1.28465 2:0.173794 3:0.456664 
459.5345402333775 1:1.26738 2:0.203059 3:0.469279 
2048 1:1.18533 2:0.234367 3:0.274513 
2048 1:1.18952 2:0.205901 3:0.220538 
2048 1:1.20605 2:0.122052 3:0.0876066 
2048 1:1.18485 2:0.28206 3:0.071908 
2048 1:1.18015 2:0.307488 3:0.090691 
2048 1:1.16996 2:0.327046 3:0.0779697 
2048 1:1.15819 2:0.366881 3:0.0751289 
2048 1:1.13616 2:0.392276 3:0.00218664 
283.5852974309228 1:0.985171 2:0.04185 3:0.204678 
2048 1:1.11544 2:0.418654 3:0.0617334 
2048 1:1.10639 2:0.414672 3:0.0665763 
2037.970473973386 1:0.977812 2:0.0589889 3:0.19598 
2048 1:1.09726 2:0.421238 3:0.0648772 
2048 1:1.08902 2:0.428307 3:0.0598991 
2048 1:1.07871 2:0.459084 3:0.0261593 
2048 1:1.06954 2:0.484141 3:0.0110562 
2048 1:1.05139 2:0.485357 3:0.0479893 
2048 1:1.03565 2:0.480388 3:0.0955007 
1.061143317175177 1:1.41595 2:2.81883 3:2.25903 
0.8242491740612878 1:1.60719 2:2.65024 3:2.26935 
0.9043514998970995 1:1.61681 2:2.45374 3:1.43473 
1.008422988356365 1:1.64919 2:2.63482 3:1.84065 
1.029937844765117 1:1.6919 2:2.57 3:1.17311 
0.9748431308054396 1:1.73402 2:2.42462 3:0.036939 
0.7807801887572104 1:1.7485 2:1.93658 3:0.168833 
225.8762861812615 1:1.74342 2:1.05626 3:0.265953 
2048 1:1.74862 2:0.698939 3:0.309819 
2048 1:1.7516 2:0.504776 3:0.297931 
2048 1:1.75144 2:0.330826 3:0.282585 
2048 1:1.74535 2:0.167924 3:0.261869 
2048 1:1.76535 2:0.118614 3:0.276885 
2048 1:1.80333 2:0.168513 3:0.303312 
2048 1:1.84747 2:0.170907 3:0.344306 
2048 1:1.8888 2:0.265662 3:0.346709 
2048 1:1.93427 2:0.293054 3:0.369295 
2048 1:1.97549 2:0.305487 3:0.381678 
2048 1:2.02088 2:0.355277 3:0.389596 
2048 1:2.04506 2:0.317758 3:0.390181 
2048 1:2.0593 2:0.282444 3:0.376514 
2048 1:2.06861 2:0.282692 3:0.349591 
