%YAML:1.0
detector_type: adaboost
used_feature_dimensions:
   - "Throw a coin."
   - "Number of laser end points."
   - "Mean of difference in range of consecutive beams."
   - "Variance of difference in range of consecutive beams."
   - "Variance from center of gravity."
   - "Mean average deviation from median."
   - "Width."
   - "Min distance between points."
   - "Max distance between points."
   - "Ratio between min and max distance between points."
   - "Circularity."
   - "Radius of fitted circle."
   - "Variance of distance from points to center of circle."
   - "Minimal difference to radius."
   - "Maximal difference to radius."
   - "Ratio between min and max difference."
   - "Area of rectangles to fitted circle center."
   - "Boundary length."
   - "Perimeter."
   - "Contour regularity."
   - "Mean curvature."
   - "Mean angular difference."
   - "Aspect ratio."
   - "Linearity."
   - "Linearity mean error."
   - "Linearity min error."
   - "Linearity max error."
   - "Linearity ratio of min and max error."
   - "Error of fitted quadratic b-spline."
   - "Error of fitted cubic b-spline."
   - "Distance."
   - "Polygon Area."
   - "Difference of longest and shortest beam."
   - "Number of local minima (noise 0.01)."
   - "Number of local minima (noise 0.02)."
   - "Number of local minima (noise 0.03)."
   - "Number of local minima (noise 0.04)."
   - "Number of local minima (noise 0.05)."
   - "Number of local minima (noise 0.06)."
   - "Number of local minima (noise 0.07)."
   - "Number of local minima (noise 0.08)."
   - "Number of local minima (noise 0.09)."
   - "Number of local minima (noise 0.10)."
   - "Number of local minima (noise 0.11)."
   - "Number of local minima (noise 0.12)."
   - "Number of local minima (noise 0.13)."
   - "Number of local minima (noise 0.14)."
   - "Ratio between shortest and longest beam."
   - "Jump distance to previous segment."
   - "Jump distance to next segment."
classifier: !!opencv-ml-boost-tree
   boosting_type: DiscreteAdaboost
   splitting_criteria: 3
   ntrees: 500
   weight_trimming_rate: 1.
   is_classifier: 1
   var_all: 50
   var_count: 50
   ord_var_count: 50
   cat_var_count: 0
   training_params:
      use_surrogates: 1
      max_categories: 10
      max_depth: 1
      min_sample_count: 10
      cross_validation_folds: 0
      priors: !!opencv-matrix
         rows: 1
         cols: 2
         dt: d
         data: [ 1., 1. ]
   var_type: [ 0, 0, 0, 0, 0, 0, 0, 0, 0, 0, 0, 0, 0, 0, 0, 0, 0, 0, 0,
       0, 0, 0, 0, 0, 0, 0, 0, 0, 0, 0, 0, 0, 0, 0, 0, 0, 0, 0, 0, 0, 0,
       0, 0, 0, 0, 0, 0, 0, 0, 0 ]
   cat_count: !!opencv-matrix
      rows: 1
      cols: 1
      dt: i
      data: [ 2 ]
   cat_map: !!opencv-matrix
      rows: 1
      cols: 2
      dt: i
      data: [ 0, 1 ]
   trees:
      -
         best_tree_idx: -1
         nodes:
            -
               depth: 0
               sample_count: 203166
               value: -1.4539020047424012e+00
               norm_class_idx: 0
               Tn: 0
               complexity: 0
               alpha: 0.
               node_risk: 0.
               tree_risk: 0.
               tree_error: 0.
               splits:
                  - { var:7, quality:8.1059825420379639e-01,
                      le:1.0685665160417557e-01 }
                  - { var:30, quality:7.9165053367614746e-01,
                      le:1.2089080810546875e+01 }
                  - { var:19, quality:7.5388675928115845e-01,
                      le:5.3496921062469482e-01 }
                  - { var:20, quality:7.0582127571105957e-01,
                      gt:2.6120467185974121e+00 }
                  - { var:9, quality:6.1468154191970825e-01,
                      le:3.4648406505584717e-01 }
                  - { var:47, quality:6.1098694801330566e-01,
                      le:9.7633922100067139e-01 }
                  - { var:11, quality:6.1036449670791626e-01,
                      le:3.0597037076950073e-01 }
                  - { var:13, quality:6.0698914527893066e-01,
                      le:2.7998626232147217e-01 }
                  - { var:14, quality:5.9608495235443115e-01,
                      le:3.3598750829696655e-01 }
                  - { var:8, quality:5.9561014175415039e-01,
                      le:1.4059574902057648e-01 }
                  - { var:1, quality:5.9243422746658325e-01,
                      gt:6.5000000000000000e+00 }
                  - { var:24, quality:5.6937700510025024e-01,
                      le:6.1462955474853516e+01 }
                  - { var:2, quality:5.6460517644882202e-01,
                      le:5.4899208247661591e-02 }
                  - { var:48, quality:5.5625039339065552e-01,
                      gt:4.4371070861816406e+00 }
                  - { var:49, quality:5.5353736877441406e-01,
                      gt:6.1209239959716797e+00 }
                  - { var:15, quality:5.4354679584503174e-01,
                      le:7.8698670864105225e-01 }
                  - { var:33, quality:5.2561247348785400e-01,
                      gt:5.5000000000000000e+00 }
                  - { var:3, quality:5.2396869659423828e-01,
                      gt:1.1646391823887825e-02 }
                  - { var:21, quality:5.1239019632339478e-01,
                      gt:5.6833994388580322e-01 }
                  - { var:4, quality:5.1216280460357666e-01,
                      le:1.9523048400878906e-01 }
                  - { var:29, quality:5.1089805364608765e-01,
                      gt:4.8476667143404484e-03 }
                  - { var:35, quality:5.1081418991088867e-01,
                      gt:5.5000000000000000e+00 }
                  - { var:5, quality:5.0718748569488525e-01,
                      le:1.9541132450103760e-01 }
                  - { var:23, quality:4.9757197499275208e-01,
                      le:4.1233786010742188e+02 }
                  - { var:34, quality:4.9716499447822571e-01,
                      gt:4.5000000000000000e+00 }
                  - { var:10, quality:4.9476709961891174e-01,
                      gt:1.5234677994158119e-04 }
                  - { var:28, quality:4.9042615294456482e-01,
                      le:1.4525083824992180e-02 }
                  - { var:6, quality:4.8722633719444275e-01,
                      le:2.4268767237663269e-01 }
                  - { var:36, quality:4.8609322309494019e-01,
                      gt:5.5000000000000000e+00 }
                  - { var:18, quality:4.8572218418121338e-01,
                      le:4.8252642154693604e-01 }
                  - { var:26, quality:4.8548677563667297e-01,
                      le:8.1029434204101562e+00 }
                  - { var:17, quality:4.8476064205169678e-01,
                      le:2.4903959035873413e-01 }
                  - { var:25, quality:4.8428183794021606e-01,
                      le:7.6100559234619141e+00 }
                  - { var:37, quality:4.8371529579162598e-01,
                      gt:6.5000000000000000e+00 }
                  - { var:31, quality:4.7755497694015503e-01,
                      gt:1.5689233317971230e-02 }
                  - { var:39, quality:4.7593510150909424e-01,
                      gt:5.5000000000000000e+00 }
                  - { var:27, quality:4.7084406018257141e-01,
                      le:-7.8393769264221191e-01 }
                  - { var:22, quality:4.7014987468719482e-01,
                      gt:9.3247938156127930e-01 }
                  - { var:32, quality:4.6859782934188843e-01,
                      gt:5.9999895095825195e-01 }
                  - { var:40, quality:4.6794745326042175e-01,
                      gt:6.5000000000000000e+00 }
                  - { var:41, quality:4.6787962317466736e-01,
                      gt:7.5000000000000000e+00 }
                  - { var:43, quality:4.6787166595458984e-01,
                      gt:6.5000000000000000e+00 }
                  - { var:44, quality:4.6785169839859009e-01,
                      gt:6.5000000000000000e+00 }
                  - { var:38, quality:4.6785169839859009e-01,
                      gt:9.5000000000000000e+00 }
            -
               depth: 1
               sample_count: 85917
               value: 1.4539020047424012e+00
               norm_class_idx: 1
               Tn: 0
               complexity: 0
               alpha: 0.
               node_risk: 0.
               tree_risk: 0.
               tree_error: 0.
            -
               depth: 1
               sample_count: 117249
               value: -1.4539020047424012e+00
               norm_class_idx: 0
               Tn: 0
               complexity: 0
               alpha: 0.
               node_risk: 0.
               tree_risk: 0.
               tree_error: 0.
      -
         best_tree_idx: -1
         nodes:
            -
               depth: 0
               sample_count: 203166
               value: -8.7260743029286725e-01
               norm_class_idx: 0
               Tn: 0
               complexity: 0
               alpha: 0.
               node_risk: 0.
               tree_risk: 0.
               tree_error: 0.
               splits:
                  - { var:21, quality:7.0528793334960938e-01,
                      le:5.5821752548217773e-01 }
                  - { var:13, quality:5.7531410455703735e-01,
                      gt:2.2385436296463013e-01 }
                  - { var:11, quality:5.4559427499771118e-01,
                      gt:2.3510217666625977e-01 }
                  - { var:14, quality:5.2665978670120239e-01,
                      gt:2.4473041296005249e-01 }
                  - { var:15, quality:5.2407854795455933e-01,
                      gt:5.5096012353897095e-01 }
                  - { var:20, quality:5.0703960657119751e-01,
                      le:5.2829556465148926e+00 }
                  - { var:9, quality:4.9401658773422241e-01,
                      gt:2.2773453593254089e-01 }
                  - { var:30, quality:4.8152789473533630e-01,
                      gt:5.2997522354125977e+00 }
                  - { var:12, quality:4.8027035593986511e-01,
                      le:5.0144148990511894e-03 }
                  - { var:7, quality:4.7798779606819153e-01,
                      gt:3.7700712680816650e-02 }
                  - { var:10, quality:4.7659191489219666e-01,
                      le:5.0903089344501495e-02 }
                  - { var:45, quality:4.7559702396392822e-01,
                      le:1.5000000000000000e+00 }
                  - { var:47, quality:4.7499302029609680e-01,
                      gt:9.2638587951660156e-01 }
                  - { var:1, quality:4.7243636846542358e-01,
                      le:1.4500000000000000e+01 }
                  - { var:19, quality:4.7145143151283264e-01,
                      gt:3.1439298391342163e-01 }
                  - { var:44, quality:4.6998512744903564e-01,
                      le:1.5000000000000000e+00 }
                  - { var:3, quality:4.6860888600349426e-01,
                      le:9.4376601278781891e-02 }
                  - { var:28, quality:4.6845713257789612e-01,
                      le:3.5677298903465271e-02 }
                  - { var:8, quality:4.6708032488822937e-01,
                      le:3.5040065646171570e-01 }
                  - { var:49, quality:4.6554005146026611e-01,
                      gt:4.0190649032592773e-01 }
                  - { var:29, quality:4.6399646997451782e-01,
                      le:6.1962619423866272e-02 }
                  - { var:24, quality:4.6276316046714783e-01,
                      gt:1.0420553684234619e+00 }
                  - { var:23, quality:4.6211597323417664e-01,
                      gt:1.5422986984252930e+01 }
                  - { var:27, quality:4.6152549982070923e-01,
                      le:9.8895382881164551e-01 }
                  - { var:6, quality:4.6142753958702087e-01,
                      gt:3.0198287963867188e-01 }
                  - { var:48, quality:4.6101933717727661e-01,
                      le:1.5615348815917969e+01 }
                  - { var:2, quality:4.6068036556243896e-01,
                      le:1.2250065803527832e-01 }
                  - { var:22, quality:4.6045053005218506e-01,
                      le:9.9432075023651123e-01 }
                  - { var:46, quality:4.6040320396423340e-01,
                      le:3.5000000000000000e+00 }
                  - { var:25, quality:4.5966246724128723e-01,
                      gt:-1.4316192626953125e+01 }
                  - { var:33, quality:4.5928838849067688e-01,
                      le:1.2500000000000000e+01 }
                  - { var:4, quality:4.5840713381767273e-01,
                      gt:4.2757865041494370e-02 }
                  - { var:37, quality:4.5840656757354736e-01,
                      le:7.5000000000000000e+00 }
                  - { var:36, quality:4.5838394761085510e-01,
                      le:8.5000000000000000e+00 }
                  - { var:5, quality:4.5837625861167908e-01,
                      gt:3.4442994743585587e-02 }
                  - { var:34, quality:4.5831012725830078e-01,
                      le:1.1500000000000000e+01 }
                  - { var:18, quality:4.5822790265083313e-01,
                      gt:1.6700568795204163e-01 }
                  - { var:35, quality:4.5821231603622437e-01,
                      le:1.1500000000000000e+01 }
                  - { var:38, quality:4.5816674828529358e-01,
                      le:7.5000000000000000e+00 }
                  - { var:17, quality:4.5815080404281616e-01,
                      gt:8.4445334970951080e-02 }
                  - { var:39, quality:4.5814225077629089e-01,
                      le:7.5000000000000000e+00 }
                  - { var:40, quality:4.5814073085784912e-01,
                      le:6.5000000000000000e+00 }
                  - { var:41, quality:4.5811289548873901e-01,
                      le:7.5000000000000000e+00 }
                  - { var:43, quality:4.5811012387275696e-01,
                      le:6.5000000000000000e+00 }
                  - { var:26, quality:4.5809885859489441e-01,
                      le:1.8494804382324219e+01 }
                  - { var:32, quality:4.5808812975883484e-01,
                      le:1.8999996185302734e+00 }
            -
               depth: 1
               sample_count: 129233
               value: -8.7260743029286725e-01
               norm_class_idx: 0
               Tn: 0
               complexity: 0
               alpha: 0.
               node_risk: 0.
               tree_risk: 0.
               tree_error: 0.
            -
               depth: 1
               sample_count: 73933
               value: 8.7260743029286725e-01
               norm_class_idx: 1
               Tn: 0
               complexity: 0
               alpha: 0.
               node_risk: 0.
               tree_risk: 0.
               tree_error: 0.
      -
         best_tree_idx: -1
         nodes:
            -
               depth: 0
               sample_count: 203166
               value: -6.7656580907592490e-01
               norm_class_idx: 0
               Tn: 0
               complexity: 0
               alpha: 0.
               node_risk: 0.
               tree_risk: 0.
               tree_error: 0.
               splits:
                  - { var:25, quality:6.6297179460525513e-01,
                      le:-5.8136148452758789e+00 }
                  - { var:49, quality:5.3512209653854370e-01,
                      le:-2.9998236894607544e-01 }
                  - { var:30, quality:5.3083610534667969e-01,
                      gt:1.9063468933105469e+01 }
                  - { var:48, quality:5.2159333229064941e-01,
                      gt:2.1995656967163086e+01 }
                  - { var:7, quality:5.2018630504608154e-01,
                      gt:1.6822525858879089e-01 }
                  - { var:47, quality:5.1908177137374878e-01,
                      gt:9.9878859519958496e-01 }
                  - { var:32, quality:5.1863390207290649e-01,
                      le:9.9995136260986328e-03 }
                  - { var:44, quality:5.1862102746963501e-01,
                      gt:4.5000000000000000e+00 }
                  - { var:21, quality:5.1858848333358765e-01,
                      le:8.7682865560054779e-03 }
                  - { var:2, quality:5.1858776807785034e-01,
                      le:5.3571974858641624e-03 }
                  - { var:9, quality:5.1857733726501465e-01,
                      gt:9.9999839067459106e-01 }
                  - { var:22, quality:5.1857721805572510e-01,
                      gt:9.9998998641967773e-01 }
                  - { var:13, quality:5.1857227087020874e-01,
                      le:9.8048034124076366e-04 }
                  - { var:31, quality:5.1857167482376099e-01,
                      le:2.8611107154574711e-06 }
                  - { var:19, quality:5.1857060194015503e-01,
                      gt:1.1722089052200317e+00 }
            -
               depth: 1
               sample_count: 38075
               value: 6.7656580907592490e-01
               norm_class_idx: 1
               Tn: 0
               complexity: 0
               alpha: 0.
               node_risk: 0.
               tree_risk: 0.
               tree_error: 0.
            -
               depth: 1
               sample_count: 165091
               value: -6.7656580907592490e-01
               norm_class_idx: 0
               Tn: 0
               complexity: 0
               alpha: 0.
               node_risk: 0.
               tree_risk: 0.
               tree_error: 0.
      -
         best_tree_idx: -1
         nodes:
            -
               depth: 0
               sample_count: 203166
               value: 6.0781952130103933e-01
               norm_class_idx: 1
               Tn: 0
               complexity: 0
               alpha: 0.
               node_risk: 0.
               tree_risk: 0.
               tree_error: 0.
               splits:
                  - { var:30, quality:6.4744323492050171e-01,
                      le:1.6074825286865234e+01 }
                  - { var:7, quality:6.2539744377136230e-01,
                      le:1.4085124433040619e-01 }
                  - { var:19, quality:5.4455691576004028e-01,
                      le:7.7156019210815430e-01 }
                  - { var:24, quality:5.3525954484939575e-01,
                      le:2.0771463012695312e+02 }
                  - { var:25, quality:5.1892411708831787e-01,
                      gt:-1.4299512863159180e+01 }
                  - { var:26, quality:5.1106464862823486e-01,
                      le:1.5506217002868652e+01 }
                  - { var:1, quality:5.1007956266403198e-01,
                      gt:3.5000000000000000e+00 }
                  - { var:29, quality:5.1001638174057007e-01,
                      gt:6.5961806103587151e-04 }
                  - { var:15, quality:5.0997239351272583e-01,
                      le:9.9999916553497314e-01 }
                  - { var:3, quality:5.0974524021148682e-01,
                      gt:1.7683821497485042e-03 }
                  - { var:47, quality:5.0892883539199829e-01,
                      le:9.9236166477203369e-01 }
                  - { var:23, quality:5.0511324405670166e-01,
                      le:7.0240924072265625e+02 }
                  - { var:9, quality:5.0188100337982178e-01,
                      le:8.5975539684295654e-01 }
                  - { var:20, quality:4.9805295467376709e-01,
                      gt:6.0136246681213379e-01 }
                  - { var:28, quality:4.9643486738204956e-01,
                      gt:3.2354015856981277e-03 }
                  - { var:22, quality:4.9592775106430054e-01,
                      gt:7.8833425045013428e-01 }
                  - { var:49, quality:4.9505656957626343e-01,
                      gt:-2.9998236894607544e-01 }
                  - { var:14, quality:4.9500286579132080e-01,
                      le:8.5573530197143555e-01 }
                  - { var:6, quality:4.9496030807495117e-01,
                      le:1.6687006950378418e+00 }
                  - { var:4, quality:4.9478054046630859e-01,
                      le:5.4728317260742188e-01 }
                  - { var:5, quality:4.9456170201301575e-01,
                      le:5.6043809652328491e-01 }
                  - { var:13, quality:4.9432525038719177e-01,
                      le:1.5417815208435059e+01 }
                  - { var:11, quality:4.9432525038719177e-01,
                      le:1.5417815208435059e+01 }
                  - { var:8, quality:4.9389520287513733e-01,
                      le:3.9976313710212708e-01 }
                  - { var:12, quality:4.9321863055229187e-01,
                      le:4.1907869279384613e-02 }
                  - { var:21, quality:4.9310117959976196e-01,
                      gt:1.1277234181761742e-02 }
                  - { var:18, quality:4.9261173605918884e-01,
                      le:5.0671186447143555e+00 }
                  - { var:17, quality:4.9252483248710632e-01,
                      le:2.7158122062683105e+00 }
                  - { var:10, quality:4.9234229326248169e-01,
                      le:7.0198249816894531e-01 }
                  - { var:2, quality:4.9216914176940918e-01,
                      le:3.4749972820281982e-01 }
                  - { var:31, quality:4.9216425418853760e-01,
                      gt:1.3575928505815682e-06 }
            -
               depth: 1
               sample_count: 123862
               value: 6.0781952130103933e-01
               norm_class_idx: 1
               Tn: 0
               complexity: 0
               alpha: 0.
               node_risk: 0.
               tree_risk: 0.
               tree_error: 0.
            -
               depth: 1
               sample_count: 79304
               value: -6.0781952130103933e-01
               norm_class_idx: 0
               Tn: 0
               complexity: 0
               alpha: 0.
               node_risk: 0.
               tree_risk: 0.
               tree_error: 0.
      -
         best_tree_idx: -1
         nodes:
            -
               depth: 0
               sample_count: 203166
               value: -5.4543967487144440e-01
               norm_class_idx: 0
               Tn: 0
               complexity: 0
               alpha: 0.
               node_risk: 0.
               tree_risk: 0.
               tree_error: 0.
               splits:
                  - { var:24, quality:6.3307690620422363e-01,
                      le:7.8486242294311523e+00 }
                  - { var:23, quality:6.0987967252731323e-01,
                      le:3.1569160461425781e+01 }
                  - { var:30, quality:5.6176024675369263e-01,
                      le:4.0537872314453125e+00 }
                  - { var:7, quality:5.6148731708526611e-01,
                      le:3.5343814641237259e-02 }
                  - { var:19, quality:5.5683994293212891e-01,
                      le:3.1058686971664429e-01 }
                  - { var:20, quality:5.5604130029678345e-01,
                      gt:1.0703743934631348e+01 }
                  - { var:27, quality:5.5555331707000732e-01,
                      le:-4.8271394916810095e-05 }
                  - { var:22, quality:5.5437427759170532e-01,
                      le:7.7738642692565918e-01 }
                  - { var:9, quality:5.5214166641235352e-01,
                      le:1.0272638499736786e-01 }
                  - { var:6, quality:5.5103784799575806e-01,
                      gt:1.7183694839477539e+00 }
                  - { var:1, quality:5.5091434717178345e-01,
                      gt:2.3500000000000000e+01 }
                  - { var:4, quality:5.5061835050582886e-01,
                      gt:5.5637723207473755e-01 }
                  - { var:5, quality:5.5055826902389526e-01,
                      gt:5.6151294708251953e-01 }
                  - { var:47, quality:5.5016040802001953e-01,
                      le:8.5156679153442383e-01 }
                  - { var:18, quality:5.4881340265274048e-01,
                      gt:3.5958352088928223e+00 }
                  - { var:17, quality:5.4786473512649536e-01,
                      gt:2.2200331687927246e+00 }
                  - { var:41, quality:5.4746729135513306e-01,
                      gt:5.5000000000000000e+00 }
                  - { var:8, quality:5.4745876789093018e-01,
                      le:4.7783847898244858e-02 }
                  - { var:11, quality:5.4717850685119629e-01,
                      le:6.2841266393661499e-02 }
                  - { var:31, quality:5.4712325334548950e-01,
                      gt:4.8573112487792969e-01 }
                  - { var:14, quality:5.4706346988677979e-01,
                      le:6.5329805016517639e-02 }
                  - { var:33, quality:5.4681801795959473e-01,
                      gt:1.2500000000000000e+01 }
                  - { var:12, quality:5.4679733514785767e-01,
                      gt:4.2361523956060410e-02 }
                  - { var:10, quality:5.4670739173889160e-01,
                      gt:4.2362508177757263e-01 }
                  - { var:36, quality:5.4646396636962891e-01,
                      gt:8.5000000000000000e+00 }
                  - { var:43, quality:5.4645961523056030e-01,
                      gt:5.5000000000000000e+00 }
                  - { var:49, quality:5.4645043611526489e-01,
                      gt:3.7340312957763672e+01 }
                  - { var:39, quality:5.4644012451171875e-01,
                      gt:7.5000000000000000e+00 }
                  - { var:38, quality:5.4643058776855469e-01,
                      gt:7.5000000000000000e+00 }
                  - { var:37, quality:5.4639947414398193e-01,
                      gt:9.5000000000000000e+00 }
                  - { var:48, quality:5.4639708995819092e-01,
                      gt:3.5785205841064453e+01 }
                  - { var:34, quality:5.4638719558715820e-01,
                      gt:1.3500000000000000e+01 }
                  - { var:28, quality:5.4636591672897339e-01,
                      le:3.3423155400669202e-05 }
                  - { var:44, quality:5.4635590314865112e-01,
                      gt:6.5000000000000000e+00 }
                  - { var:35, quality:5.4633980989456177e-01,
                      gt:1.1500000000000000e+01 }
                  - { var:21, quality:5.4633802175521851e-01,
                      gt:2.7269740104675293e+00 }
                  - { var:32, quality:5.4633665084838867e-01,
                      gt:1.8549997806549072e+00 }
                  - { var:3, quality:5.4633134603500366e-01,
                      gt:2.1391484141349792e-01 }
            -
               depth: 1
               sample_count: 37007
               value: 5.4543967487144440e-01
               norm_class_idx: 1
               Tn: 0
               complexity: 0
               alpha: 0.
               node_risk: 0.
               tree_risk: 0.
               tree_error: 0.
            -
               depth: 1
               sample_count: 166159
               value: -5.4543967487144440e-01
               norm_class_idx: 0
               Tn: 0
               complexity: 0
               alpha: 0.
               node_risk: 0.
               tree_risk: 0.
               tree_error: 0.
      -
         best_tree_idx: -1
         nodes:
            -
               depth: 0
               sample_count: 203166
               value: 5.4757394422313221e-01
               norm_class_idx: 1
               Tn: 0
               complexity: 0
               alpha: 0.
               node_risk: 0.
               tree_risk: 0.
               tree_error: 0.
               splits:
                  - { var:18, quality:6.3357251882553101e-01,
                      le:1.1449239253997803e+00 }
                  - { var:17, quality:6.0913324356079102e-01,
                      le:6.1926853656768799e-01 }
                  - { var:6, quality:5.9319132566452026e-01,
                      le:5.2589881420135498e-01 }
                  - { var:5, quality:5.6941127777099609e-01,
                      le:1.8996100127696991e-01 }
                  - { var:4, quality:5.6597298383712769e-01,
                      le:1.8080067634582520e-01 }
                  - { var:29, quality:5.5466347932815552e-01,
                      le:1.9451521337032318e-02 }
                  - { var:32, quality:5.1144641637802124e-01,
                      le:2.4000120162963867e-01 }
                  - { var:28, quality:5.0821107625961304e-01,
                      le:1.4394778758287430e-02 }
                  - { var:10, quality:5.0563728809356689e-01,
                      le:5.3152083419263363e-03 }
                  - { var:34, quality:4.9397820234298706e-01,
                      le:3.5000000000000000e+00 }
                  - { var:1, quality:4.9382930994033813e-01,
                      le:5.5000000000000000e+00 }
                  - { var:31, quality:4.9017965793609619e-01,
                      le:2.5457926094532013e-02 }
                  - { var:35, quality:4.8963689804077148e-01,
                      le:3.5000000000000000e+00 }
                  - { var:12, quality:4.8917689919471741e-01,
                      le:8.0197054194286466e-04 }
                  - { var:33, quality:4.8652479052543640e-01,
                      le:3.5000000000000000e+00 }
                  - { var:36, quality:4.7808954119682312e-01,
                      le:2.5000000000000000e+00 }
                  - { var:8, quality:4.7474870085716248e-01,
                      le:2.0503482222557068e-01 }
                  - { var:37, quality:4.7283807396888733e-01,
                      le:2.5000000000000000e+00 }
                  - { var:47, quality:4.7205337882041931e-01,
                      gt:9.7499322891235352e-01 }
                  - { var:3, quality:4.7140035033226013e-01,
                      le:5.0776723772287369e-02 }
                  - { var:14, quality:4.5329326391220093e-01,
                      le:2.8026533126831055e-01 }
                  - { var:9, quality:4.5162147283554077e-01,
                      gt:5.6335169076919556e-01 }
                  - { var:38, quality:4.5090585947036743e-01,
                      le:2.5000000000000000e+00 }
                  - { var:15, quality:4.4462755322456360e-01,
                      gt:7.3301154375076294e-01 }
                  - { var:39, quality:4.4297280907630920e-01,
                      le:2.5000000000000000e+00 }
                  - { var:11, quality:4.3287697434425354e-01,
                      le:2.7108335494995117e-01 }
                  - { var:43, quality:4.2895418405532837e-01,
                      le:1.5000000000000000e+00 }
                  - { var:40, quality:4.2894762754440308e-01,
                      le:2.5000000000000000e+00 }
                  - { var:44, quality:4.2781704664230347e-01,
                      le:1.5000000000000000e+00 }
                  - { var:41, quality:4.2745405435562134e-01,
                      le:2.5000000000000000e+00 }
                  - { var:42, quality:4.0710285305976868e-01,
                      le:2.5000000000000000e+00 }
                  - { var:19, quality:3.9599010348320007e-01,
                      gt:6.5777492523193359e-01 }
                  - { var:2, quality:3.9219024777412415e-01,
                      le:6.5093323588371277e-02 }
                  - { var:7, quality:3.8959378004074097e-01,
                      gt:8.0034896731376648e-02 }
                  - { var:22, quality:3.8820210099220276e-01,
                      gt:8.9858496189117432e-01 }
                  - { var:27, quality:3.8563096523284912e-01,
                      gt:9.5202898979187012e-01 }
                  - { var:30, quality:3.8525813817977905e-01,
                      gt:9.1356964111328125e+00 }
                  - { var:24, quality:3.8436737656593323e-01,
                      gt:4.4199501037597656e+01 }
                  - { var:20, quality:3.8064929842948914e-01,
                      le:1.8294143676757812e+00 }
                  - { var:23, quality:3.7483498454093933e-01,
                      le:3.6588491821289062e+02 }
                  - { var:13, quality:3.7002888321876526e-01,
                      le:2.6186841726303101e-01 }
                  - { var:25, quality:3.6458382010459900e-01,
                      le:-3.9476747512817383e+00 }
                  - { var:48, quality:3.6231759190559387e-01,
                      gt:5.2324563264846802e-01 }
                  - { var:26, quality:3.5294339060783386e-01,
                      le:5.4478726387023926e+00 }
                  - { var:49, quality:3.4565877914428711e-01,
                      gt:7.6167356967926025e-01 }
                  - { var:21, quality:3.4144884347915649e-01,
                      gt:3.5565954167395830e-03 }
            -
               depth: 1
               sample_count: 100636
               value: 5.4757394422313221e-01
               norm_class_idx: 1
               Tn: 0
               complexity: 0
               alpha: 0.
               node_risk: 0.
               tree_risk: 0.
               tree_error: 0.
            -
               depth: 1
               sample_count: 102530
               value: -5.4757394422313221e-01
               norm_class_idx: 0
               Tn: 0
               complexity: 0
               alpha: 0.
               node_risk: 0.
               tree_risk: 0.
               tree_error: 0.
      -
         best_tree_idx: -1
         nodes:
            -
               depth: 0
               sample_count: 203166
               value: 4.5809526842786580e-01
               norm_class_idx: 1
               Tn: 0
               complexity: 0
               alpha: 0.
               node_risk: 0.
               tree_risk: 0.
               tree_error: 0.
               splits:
                  - { var:49, quality:6.1256223917007446e-01,
                      le:1.3009376525878906e+00 }
                  - { var:25, quality:4.4690966606140137e-01,
                      le:-1.5159442901611328e+01 }
                  - { var:24, quality:4.4214394688606262e-01,
                      gt:2.2831210327148438e+02 }
                  - { var:8, quality:4.4202104210853577e-01,
                      le:7.7148422598838806e-02 }
                  - { var:34, quality:4.4155329465866089e-01,
                      gt:7.5000000000000000e+00 }
                  - { var:35, quality:4.4133344292640686e-01,
                      gt:7.5000000000000000e+00 }
                  - { var:33, quality:4.4108036160469055e-01,
                      gt:1.0500000000000000e+01 }
                  - { var:22, quality:4.3701475858688354e-01,
                      le:7.5743281841278076e-01 }
                  - { var:7, quality:4.3629845976829529e-01,
                      le:4.6426229178905487e-02 }
                  - { var:6, quality:4.3629112839698792e-01,
                      gt:1.7070960998535156e+00 }
                  - { var:4, quality:4.3613705039024353e-01,
                      gt:5.5674409866333008e-01 }
                  - { var:5, quality:4.3588188290596008e-01,
                      gt:5.6121999025344849e-01 }
                  - { var:19, quality:4.3472072482109070e-01,
                      le:3.5278174281120300e-01 }
                  - { var:18, quality:4.3426603078842163e-01,
                      gt:3.5910592079162598e+00 }
                  - { var:13, quality:4.3363174796104431e-01,
                      le:1.6345236450433731e-02 }
                  - { var:15, quality:4.3335458636283875e-01,
                      le:6.7732006311416626e-02 }
                  - { var:30, quality:4.3323945999145508e-01,
                      le:5.3302946090698242e+00 }
                  - { var:27, quality:4.3269741535186768e-01,
                      le:-4.7397136222571135e-04 }
                  - { var:17, quality:4.3265125155448914e-01,
                      gt:2.2408328056335449e+00 }
                  - { var:26, quality:4.3231073021888733e-01,
                      gt:1.6883125305175781e+01 }
                  - { var:31, quality:4.3224415183067322e-01,
                      gt:4.7476288676261902e-01 }
                  - { var:14, quality:4.3199786543846130e-01,
                      le:1.2745273113250732e-01 }
                  - { var:2, quality:4.3198177218437195e-01,
                      gt:1.8499898910522461e-01 }
                  - { var:11, quality:4.3158909678459167e-01,
                      le:8.6772665381431580e-02 }
                  - { var:21, quality:4.3155452609062195e-01,
                      gt:1.7147097587585449e+00 }
                  - { var:23, quality:4.3142136931419373e-01,
                      gt:2.3776770019531250e+03 }
                  - { var:20, quality:4.3141841888427734e-01,
                      le:1.9378587603569031e-02 }
                  - { var:10, quality:4.3140983581542969e-01,
                      gt:2.2695873677730560e-01 }
                  - { var:12, quality:4.3131145834922791e-01,
                      gt:6.3768580555915833e-02 }
                  - { var:28, quality:4.3120738863945007e-01,
                      gt:5.7369790971279144e-02 }
                  - { var:36, quality:4.3120560050010681e-01,
                      gt:1.1500000000000000e+01 }
                  - { var:47, quality:4.3120285868644714e-01,
                      le:5.3696489334106445e-01 }
                  - { var:48, quality:4.3119239807128906e-01,
                      gt:4.5985084533691406e+01 }
            -
               depth: 1
               sample_count: 66836
               value: -4.5809526842786580e-01
               norm_class_idx: 0
               Tn: 0
               complexity: 0
               alpha: 0.
               node_risk: 0.
               tree_risk: 0.
               tree_error: 0.
            -
               depth: 1
               sample_count: 136330
               value: 4.5809526842786580e-01
               norm_class_idx: 1
               Tn: 0
               complexity: 0
               alpha: 0.
               node_risk: 0.
               tree_risk: 0.
               tree_error: 0.
      -
         best_tree_idx: -1
         nodes:
            -
               depth: 0
               sample_count: 203166
               value: -3.5015009576329209e-01
               norm_class_idx: 0
               Tn: 0
               complexity: 0
               alpha: 0.
               node_risk: 0.
               tree_risk: 0.
               tree_error: 0.
               splits:
                  - { var:20, quality:5.8665394783020020e-01,
                      le:2.8105130195617676e+00 }
                  - { var:30, quality:5.0988399982452393e-01,
                      gt:7.4107837677001953e+00 }
                  - { var:7, quality:5.0931334495544434e-01,
                      gt:6.4229741692543030e-02 }
                  - { var:19, quality:5.0542181730270386e-01,
                      gt:4.8799437284469604e-01 }
                  - { var:1, quality:4.5458036661148071e-01,
                      le:6.5000000000000000e+00 }
                  - { var:47, quality:4.4761759042739868e-01,
                      gt:9.6868544816970825e-01 }
                  - { var:13, quality:4.4443446397781372e-01,
                      gt:1.7874071002006531e-01 }
                  - { var:9, quality:4.4388738274574280e-01,
                      gt:3.4657591581344604e-01 }
                  - { var:15, quality:4.3646588921546936e-01,
                      gt:7.7357792854309082e-01 }
                  - { var:10, quality:4.2116299271583557e-01,
                      le:4.0634572505950928e-03 }
                  - { var:33, quality:4.1680812835693359e-01,
                      le:5.5000000000000000e+00 }
                  - { var:8, quality:4.1185894608497620e-01,
                      gt:1.1119285225868225e-01 }
                  - { var:11, quality:4.0909430384635925e-01,
                      gt:2.2025191783905029e-01 }
                  - { var:34, quality:4.0113714337348938e-01,
                      le:4.5000000000000000e+00 }
                  - { var:24, quality:3.9995348453521729e-01,
                      gt:3.9595153808593750e+01 }
                  - { var:12, quality:3.9925113320350647e-01,
                      le:7.5573683716356754e-04 }
                  - { var:21, quality:3.9853817224502563e-01,
                      le:6.9209992885589600e-01 }
                  - { var:49, quality:3.9170131087303162e-01,
                      le:1.0880977630615234e+01 }
                  - { var:35, quality:3.9035886526107788e-01,
                      le:3.5000000000000000e+00 }
                  - { var:2, quality:3.8967815041542053e-01,
                      gt:4.4913351535797119e-02 }
                  - { var:48, quality:3.8922071456909180e-01,
                      gt:4.0319722890853882e-01 }
                  - { var:14, quality:3.8375425338745117e-01,
                      gt:1.2868316471576691e-01 }
                  - { var:29, quality:3.8265398144721985e-01,
                      le:1.9896369427442551e-02 }
                  - { var:4, quality:3.7867078185081482e-01,
                      gt:7.1347519755363464e-02 }
                  - { var:5, quality:3.7845134735107422e-01,
                      gt:7.2311505675315857e-02 }
                  - { var:6, quality:3.7828531861305237e-01,
                      gt:1.5919400751590729e-01 }
                  - { var:17, quality:3.7788745760917664e-01,
                      le:6.9790303707122803e-01 }
                  - { var:18, quality:3.7765151262283325e-01,
                      gt:3.0141341686248779e-01 }
                  - { var:27, quality:3.7731087207794189e-01,
                      gt:-7.8940469026565552e-01 }
                  - { var:37, quality:3.7708058953285217e-01,
                      le:7.5000000000000000e+00 }
                  - { var:36, quality:3.7700146436691284e-01,
                      le:8.5000000000000000e+00 }
                  - { var:22, quality:3.7681496143341064e-01,
                      le:9.9995183944702148e-01 }
                  - { var:38, quality:3.7676888704299927e-01,
                      le:7.5000000000000000e+00 }
                  - { var:28, quality:3.7676823139190674e-01,
                      le:4.9146566540002823e-02 }
                  - { var:40, quality:3.7676584720611572e-01,
                      le:6.5000000000000000e+00 }
                  - { var:39, quality:3.7672975659370422e-01,
                      le:7.5000000000000000e+00 }
                  - { var:23, quality:3.7671411037445068e-01,
                      gt:1.5380734577775002e-02 }
                  - { var:41, quality:3.7669864296913147e-01,
                      le:6.5000000000000000e+00 }
                  - { var:44, quality:3.7668049335479736e-01,
                      le:6.5000000000000000e+00 }
                  - { var:46, quality:3.7667980790138245e-01,
                      le:7.5000000000000000e+00 }
                  - { var:45, quality:3.7667980790138245e-01,
                      le:8.5000000000000000e+00 }
                  - { var:32, quality:3.7667852640151978e-01,
                      le:1.8999996185302734e+00 }
                  - { var:43, quality:3.7667793035507202e-01,
                      le:6.5000000000000000e+00 }
            -
               depth: 1
               sample_count: 138163
               value: -3.5015009576329209e-01
               norm_class_idx: 0
               Tn: 0
               complexity: 0
               alpha: 0.
               node_risk: 0.
               tree_risk: 0.
               tree_error: 0.
            -
               depth: 1
               sample_count: 65003
               value: 3.5015009576329209e-01
               norm_class_idx: 1
               Tn: 0
               complexity: 0
               alpha: 0.
               node_risk: 0.
               tree_risk: 0.
               tree_error: 0.
      -
         best_tree_idx: -1
         nodes:
            -
               depth: 0
               sample_count: 203166
               value: -4.4731238334221696e-01
               norm_class_idx: 0
               Tn: 0
               complexity: 0
               alpha: 0.
               node_risk: 0.
               tree_risk: 0.
               tree_error: 0.
               splits:
                  - { var:24, quality:6.1000001430511475e-01,
                      le:4.4265499114990234e+01 }
                  - { var:23, quality:4.8439112305641174e-01,
                      le:4.0060034179687500e+02 }
                  - { var:25, quality:4.8204421997070312e-01,
                      le:6.5449447631835938e+00 }
                  - { var:26, quality:4.8107463121414185e-01,
                      le:6.8791437149047852e+00 }
                  - { var:7, quality:4.6732863783836365e-01,
                      le:8.9044600725173950e-02 }
                  - { var:30, quality:4.6497631072998047e-01,
                      le:1.0047126770019531e+01 }
                  - { var:19, quality:4.6323698759078979e-01,
                      le:5.1608455181121826e-01 }
                  - { var:1, quality:4.5139053463935852e-01,
                      gt:5.5000000000000000e+00 }
                  - { var:47, quality:4.4024118781089783e-01,
                      le:9.8709332942962646e-01 }
                  - { var:20, quality:4.3900591135025024e-01,
                      gt:2.0417332649230957e+00 }
                  - { var:9, quality:4.3462315201759338e-01,
                      le:6.9710588455200195e-01 }
                  - { var:27, quality:4.1976350545883179e-01,
                      le:9.5596027374267578e-01 }
                  - { var:33, quality:4.1375797986984253e-01,
                      gt:2.5000000000000000e+00 }
                  - { var:15, quality:4.1230329871177673e-01,
                      le:9.7275578975677490e-01 }
                  - { var:34, quality:4.0926560759544373e-01,
                      gt:2.5000000000000000e+00 }
                  - { var:35, quality:4.0861529111862183e-01,
                      gt:2.5000000000000000e+00 }
                  - { var:3, quality:4.0576267242431641e-01,
                      gt:1.1646391823887825e-02 }
                  - { var:29, quality:4.0469592809677124e-01,
                      gt:1.4797700569033623e-02 }
                  - { var:32, quality:4.0289154648780823e-01,
                      gt:1.3500022888183594e-01 }
                  - { var:31, quality:3.9396548271179199e-01,
                      gt:1.7384370788931847e-02 }
                  - { var:10, quality:3.8924890756607056e-01,
                      gt:1.5234677994158119e-04 }
                  - { var:13, quality:3.8618499040603638e-01,
                      le:3.2910513877868652e-01 }
                  - { var:17, quality:3.8424590229988098e-01,
                      gt:5.0386673212051392e-01 }
                  - { var:18, quality:3.7554195523262024e-01,
                      gt:9.5915699005126953e-01 }
                  - { var:6, quality:3.7437507510185242e-01,
                      gt:3.5066556930541992e-01 }
                  - { var:11, quality:3.7343826889991760e-01,
                      le:3.8584846258163452e-01 }
                  - { var:21, quality:3.7288230657577515e-01,
                      gt:2.3315060138702393e-01 }
                  - { var:36, quality:3.7255927920341492e-01,
                      gt:1.5000000000000000e+00 }
                  - { var:14, quality:3.6856922507286072e-01,
                      le:8.2149052619934082e-01 }
                  - { var:4, quality:3.6020925641059875e-01,
                      gt:1.3825638592243195e-01 }
                  - { var:5, quality:3.5907611250877380e-01,
                      gt:1.3978517055511475e-01 }
                  - { var:39, quality:3.5797166824340820e-01,
                      gt:1.5000000000000000e+00 }
                  - { var:2, quality:3.5786050558090210e-01,
                      le:1.5449504554271698e-01 }
                  - { var:28, quality:3.5456183552742004e-01,
                      gt:4.0639573708176613e-03 }
                  - { var:12, quality:3.5295304656028748e-01,
                      gt:7.5573683716356754e-04 }
                  - { var:49, quality:3.5137739777565002e-01,
                      gt:-2.9998236894607544e-01 }
                  - { var:41, quality:3.5117706656455994e-01,
                      gt:1.5000000000000000e+00 }
                  - { var:8, quality:3.5019636154174805e-01,
                      le:1.4963781833648682e-01 }
                  - { var:48, quality:3.4812748432159424e-01,
                      le:2.1995656967163086e+01 }
                  - { var:44, quality:3.4698581695556641e-01,
                      le:4.5000000000000000e+00 }
                  - { var:22, quality:3.4670618176460266e-01,
                      le:9.9958074092864990e-01 }
            -
               depth: 1
               sample_count: 116977
               value: -4.4731238334221696e-01
               norm_class_idx: 0
               Tn: 0
               complexity: 0
               alpha: 0.
               node_risk: 0.
               tree_risk: 0.
               tree_error: 0.
            -
               depth: 1
               sample_count: 86189
               value: 4.4731238334221696e-01
               norm_class_idx: 1
               Tn: 0
               complexity: 0
               alpha: 0.
               node_risk: 0.
               tree_risk: 0.
               tree_error: 0.
      -
         best_tree_idx: -1
         nodes:
            -
               depth: 0
               sample_count: 203166
               value: 4.8093265547538194e-01
               norm_class_idx: 1
               Tn: 0
               complexity: 0
               alpha: 0.
               node_risk: 0.
               tree_risk: 0.
               tree_error: 0.
               splits:
                  - { var:25, quality:6.1796808242797852e-01,
                      le:4.7632479667663574e+00 }
                  - { var:26, quality:6.1221778392791748e-01,
                      le:5.0103502273559570e+00 }
                  - { var:27, quality:5.8067858219146729e-01,
                      le:8.9200782775878906e-01 }
                  - { var:23, quality:4.4928035140037537e-01,
                      le:2.4724693298339844e+02 }
                  - { var:24, quality:4.2508292198181152e-01,
                      le:2.3976596832275391e+01 }
                  - { var:48, quality:3.8975864648818970e-01,
                      gt:2.2841706275939941e+00 }
                  - { var:30, quality:3.8642078638076782e-01,
                      gt:8.7108573913574219e+00 }
                  - { var:19, quality:3.8285538554191589e-01,
                      gt:4.2091748118400574e-01 }
                  - { var:7, quality:3.8182300329208374e-01,
                      gt:7.6364472508430481e-02 }
                  - { var:13, quality:3.8018706440925598e-01,
                      gt:1.5323798358440399e-01 }
                  - { var:11, quality:3.7874361872673035e-01,
                      gt:1.6565191745758057e-01 }
                  - { var:8, quality:3.7790817022323608e-01,
                      gt:8.5159413516521454e-02 }
                  - { var:35, quality:3.7607896327972412e-01,
                      le:7.5000000000000000e+00 }
                  - { var:34, quality:3.7572580575942993e-01,
                      le:7.5000000000000000e+00 }
                  - { var:20, quality:3.7504482269287109e-01,
                      le:3.1318893432617188e+00 }
                  - { var:15, quality:3.7426814436912537e-01,
                      gt:3.0674290657043457e-01 }
                  - { var:33, quality:3.7414839863777161e-01,
                      le:9.5000000000000000e+00 }
                  - { var:14, quality:3.7292808294296265e-01,
                      gt:1.5061306953430176e-01 }
                  - { var:32, quality:3.7231221795082092e-01,
                      le:1.1349999904632568e+00 }
                  - { var:47, quality:3.7071850895881653e-01,
                      gt:9.3005907535552979e-01 }
                  - { var:28, quality:3.7053608894348145e-01,
                      gt:7.2677596472203732e-04 }
                  - { var:4, quality:3.7049546837806702e-01,
                      le:6.2422686815261841e-01 }
                  - { var:5, quality:3.7047517299652100e-01,
                      le:6.2601119279861450e-01 }
                  - { var:6, quality:3.7037152051925659e-01,
                      le:2.0278878211975098e+00 }
                  - { var:9, quality:3.7036070227622986e-01,
                      le:9.9711763858795166e-01 }
                  - { var:21, quality:3.7030515074729919e-01,
                      le:1.3759316205978394e+00 }
                  - { var:2, quality:3.7011089920997620e-01,
                      le:2.0333370566368103e-01 }
                  - { var:18, quality:3.6974188685417175e-01,
                      le:4.2132806777954102e+00 }
                  - { var:31, quality:3.6954826116561890e-01,
                      le:4.0130817890167236e-01 }
                  - { var:17, quality:3.6954763531684875e-01,
                      le:3.7470841407775879e+00 }
                  - { var:22, quality:3.6953911185264587e-01,
                      le:9.9950301647186279e-01 }
                  - { var:29, quality:3.6948025226593018e-01,
                      le:8.5465759038925171e-02 }
                  - { var:3, quality:3.6946019530296326e-01,
                      le:1.9222313165664673e-01 }
                  - { var:12, quality:3.6943930387496948e-01,
                      le:7.6452121138572693e-02 }
                  - { var:10, quality:3.6942118406295776e-01,
                      le:1.2792677879333496e+00 }
            -
               depth: 1
               sample_count: 119875
               value: 4.8093265547538194e-01
               norm_class_idx: 1
               Tn: 0
               complexity: 0
               alpha: 0.
               node_risk: 0.
               tree_risk: 0.
               tree_error: 0.
            -
               depth: 1
               sample_count: 83291
               value: -4.8093265547538194e-01
               norm_class_idx: 0
               Tn: 0
               complexity: 0
               alpha: 0.
               node_risk: 0.
               tree_risk: 0.
               tree_error: 0.
      -
         best_tree_idx: -1
         nodes:
            -
               depth: 0
               sample_count: 203166
               value: -3.3400404895214003e-01
               norm_class_idx: 0
               Tn: 0
               complexity: 0
               alpha: 0.
               node_risk: 0.
               tree_risk: 0.
               tree_error: 0.
               splits:
                  - { var:15, quality:5.8273333311080933e-01,
                      le:9.0868389606475830e-01 }
                  - { var:10, quality:5.4483717679977417e-01,
                      gt:6.3042895635589957e-04 }
                  - { var:29, quality:4.8308753967285156e-01,
                      gt:9.0734949335455894e-03 }
                  - { var:12, quality:4.7736582159996033e-01,
                      gt:8.9301884872838855e-04 }
                  - { var:3, quality:4.7707420587539673e-01,
                      gt:1.1553874239325523e-02 }
                  - { var:1, quality:4.6811234951019287e-01,
                      gt:3.5000000000000000e+00 }
                  - { var:20, quality:4.4792342185974121e-01,
                      gt:1.7212114334106445e+00 }
                  - { var:17, quality:4.4542297720909119e-01,
                      gt:5.7781702280044556e-01 }
                  - { var:18, quality:4.4006678462028503e-01,
                      gt:7.8838884830474854e-01 }
                  - { var:19, quality:4.3908831477165222e-01,
                      le:7.0606976747512817e-01 }
                  - { var:47, quality:4.3742153048515320e-01,
                      le:9.8407554626464844e-01 }
                  - { var:6, quality:4.2759394645690918e-01,
                      gt:3.7027677893638611e-01 }
                  - { var:32, quality:4.2544141411781311e-01,
                      gt:2.0999932289123535e-01 }
                  - { var:9, quality:4.2445299029350281e-01,
                      le:6.8967163562774658e-01 }
                  - { var:31, quality:4.2247480154037476e-01,
                      gt:1.5698103234171867e-02 }
                  - { var:28, quality:4.1953068971633911e-01,
                      gt:9.1205043718218803e-03 }
                  - { var:33, quality:4.1537493467330933e-01,
                      gt:2.5000000000000000e+00 }
                  - { var:4, quality:4.0972155332565308e-01,
                      gt:1.6317789256572723e-01 }
                  - { var:21, quality:4.0781655907630920e-01,
                      gt:2.8108102083206177e-01 }
                  - { var:5, quality:4.0631291270256042e-01,
                      gt:1.5118294954299927e-01 }
                  - { var:34, quality:4.0531942248344421e-01,
                      gt:2.5000000000000000e+00 }
                  - { var:13, quality:4.0124425292015076e-01,
                      le:4.3995043635368347e-01 }
                  - { var:35, quality:4.0024724602699280e-01,
                      gt:2.5000000000000000e+00 }
                  - { var:25, quality:3.9621925354003906e-01,
                      gt:-5.6914215087890625e+00 }
                  - { var:24, quality:3.9442229270935059e-01,
                      le:1.1433317565917969e+02 }
                  - { var:36, quality:3.9332228899002075e-01,
                      gt:1.5000000000000000e+00 }
                  - { var:11, quality:3.8939225673675537e-01,
                      le:6.6631758213043213e-01 }
                  - { var:7, quality:3.8502565026283264e-01,
                      le:8.6340889334678650e-02 }
                  - { var:37, quality:3.8061884045600891e-01,
                      gt:2.5000000000000000e+00 }
                  - { var:14, quality:3.8009080290794373e-01,
                      le:7.6100289821624756e-01 }
                  - { var:30, quality:3.7851366400718689e-01,
                      le:9.9392395019531250e+00 }
                  - { var:8, quality:3.6624693870544434e-01,
                      gt:1.9177266955375671e-01 }
                  - { var:39, quality:3.6453014612197876e-01,
                      gt:1.5000000000000000e+00 }
                  - { var:38, quality:3.6132872104644775e-01,
                      gt:2.5000000000000000e+00 }
                  - { var:22, quality:3.5196718573570251e-01,
                      le:9.8352348804473877e-01 }
                  - { var:2, quality:3.5174745321273804e-01,
                      gt:2.0139113068580627e-02 }
                  - { var:23, quality:3.5026600956916809e-01,
                      le:6.9628076171875000e+02 }
                  - { var:27, quality:3.4933477640151978e-01,
                      le:9.7862327098846436e-01 }
                  - { var:41, quality:3.4767287969589233e-01,
                      gt:1.5000000000000000e+00 }
                  - { var:26, quality:3.4643357992172241e-01,
                      le:1.0216381072998047e+01 }
                  - { var:49, quality:3.4082391858100891e-01,
                      gt:4.0009769797325134e-01 }
                  - { var:43, quality:3.4043309092521667e-01,
                      gt:1.5000000000000000e+00 }
                  - { var:44, quality:3.3937895298004150e-01,
                      gt:1.5000000000000000e+00 }
                  - { var:48, quality:3.3914238214492798e-01,
                      le:1.5470501899719238e+01 }
            -
               depth: 1
               sample_count: 122478
               value: 3.3400404895214003e-01
               norm_class_idx: 1
               Tn: 0
               complexity: 0
               alpha: 0.
               node_risk: 0.
               tree_risk: 0.
               tree_error: 0.
            -
               depth: 1
               sample_count: 80688
               value: -3.3400404895214003e-01
               norm_class_idx: 0
               Tn: 0
               complexity: 0
               alpha: 0.
               node_risk: 0.
               tree_risk: 0.
               tree_error: 0.
      -
         best_tree_idx: -1
         nodes:
            -
               depth: 0
               sample_count: 203166
               value: -3.0928277457785197e-01
               norm_class_idx: 0
               Tn: 0
               complexity: 0
               alpha: 0.
               node_risk: 0.
               tree_risk: 0.
               tree_error: 0.
               splits:
                  - { var:26, quality:5.7671016454696655e-01,
                      le:6.9686675071716309e+00 }
                  - { var:25, quality:5.7334232330322266e-01,
                      le:6.7519025802612305e+00 }
                  - { var:27, quality:5.1524388790130615e-01,
                      le:9.5659625530242920e-01 }
                  - { var:23, quality:4.6494355797767639e-01,
                      le:7.7745788574218750e+02 }
                  - { var:24, quality:4.6075409650802612e-01,
                      le:7.8754463195800781e+01 }
                  - { var:19, quality:4.4837605953216553e-01,
                      le:9.6636307239532471e-01 }
                  - { var:32, quality:4.4614461064338684e-01,
                      le:1.1349999904632568e+00 }
                  - { var:4, quality:4.4527319073677063e-01,
                      le:6.2422686815261841e-01 }
                  - { var:5, quality:4.4524136185646057e-01,
                      le:6.2601119279861450e-01 }
                  - { var:6, quality:4.4514572620391846e-01,
                      le:2.0278878211975098e+00 }
                  - { var:8, quality:4.4488659501075745e-01,
                      le:3.9976313710212708e-01 }
                  - { var:9, quality:4.4476366043090820e-01,
                      le:9.9998462200164795e-01 }
                  - { var:14, quality:4.4468954205513000e-01,
                      le:5.2670969963073730e+00 }
                  - { var:11, quality:4.4468221068382263e-01,
                      le:5.2460556030273438e+00 }
                  - { var:21, quality:4.4467344880104065e-01,
                      le:1.3818557262420654e+00 }
                  - { var:13, quality:4.4467279314994812e-01,
                      le:5.2450995445251465e+00 }
                  - { var:20, quality:4.4452166557312012e-01,
                      gt:1.9795700907707214e-02 }
                  - { var:18, quality:4.4429460167884827e-01,
                      le:5.9700365066528320e+00 }
                  - { var:17, quality:4.4428062438964844e-01,
                      le:3.7470841407775879e+00 }
                  - { var:2, quality:4.4423693418502808e-01,
                      le:2.1100063621997833e-01 }
                  - { var:29, quality:4.4421899318695068e-01,
                      le:8.6314141750335693e-02 }
                  - { var:28, quality:4.4418194890022278e-01,
                      le:5.4345648735761642e-02 }
                  - { var:10, quality:4.4416171312332153e-01,
                      le:3.0902268886566162e+00 }
                  - { var:12, quality:4.4416132569313049e-01,
                      le:1.6189238429069519e-01 }
            -
               depth: 1
               sample_count: 148692
               value: -3.0928277457785197e-01
               norm_class_idx: 0
               Tn: 0
               complexity: 0
               alpha: 0.
               node_risk: 0.
               tree_risk: 0.
               tree_error: 0.
            -
               depth: 1
               sample_count: 54474
               value: 3.0928277457785197e-01
               norm_class_idx: 1
               Tn: 0
               complexity: 0
               alpha: 0.
               node_risk: 0.
               tree_risk: 0.
               tree_error: 0.
      -
         best_tree_idx: -1
         nodes:
            -
               depth: 0
               sample_count: 203166
               value: 3.2448534579521249e-01
               norm_class_idx: 1
               Tn: 0
               complexity: 0
               alpha: 0.
               node_risk: 0.
               tree_risk: 0.
               tree_error: 0.
               splits:
                  - { var:7, quality:5.8041697740554810e-01,
                      le:1.5219657123088837e-01 }
                  - { var:30, quality:5.4599952697753906e-01,
                      le:1.6958850860595703e+01 }
                  - { var:19, quality:5.1491296291351318e-01,
                      le:7.8240120410919189e-01 }
                  - { var:25, quality:4.9590080976486206e-01,
                      gt:-1.1910692214965820e+01 }
                  - { var:24, quality:4.9408313632011414e-01,
                      le:1.8491996765136719e+02 }
                  - { var:2, quality:4.7956281900405884e-01,
                      le:1.7316645383834839e-01 }
                  - { var:20, quality:4.7652685642242432e-01,
                      gt:4.7644090652465820e-01 }
                  - { var:26, quality:4.7465330362319946e-01,
                      le:1.6301811218261719e+01 }
                  - { var:14, quality:4.7009867429733276e-01,
                      le:1.4728990554809570e+01 }
                  - { var:13, quality:4.7009867429733276e-01,
                      le:1.4726612091064453e+01 }
                  - { var:11, quality:4.7009867429733276e-01,
                      le:1.4728078842163086e+01 }
                  - { var:44, quality:4.6942809224128723e-01,
                      le:4.5000000000000000e+00 }
                  - { var:8, quality:4.6938145160675049e-01,
                      le:3.9976313710212708e-01 }
                  - { var:23, quality:4.6927121281623840e-01,
                      le:1.9149921875000000e+03 }
                  - { var:21, quality:4.6916678547859192e-01,
                      gt:5.4769076406955719e-02 }
                  - { var:28, quality:4.6883022785186768e-01,
                      gt:7.2387472027912736e-04 }
                  - { var:47, quality:4.6870145201683044e-01,
                      le:9.9942004680633545e-01 }
                  - { var:9, quality:4.6859088540077209e-01,
                      le:9.9736404418945312e-01 }
                  - { var:22, quality:4.6855351328849792e-01,
                      le:9.9990761280059814e-01 }
                  - { var:31, quality:4.6846184134483337e-01,
                      gt:2.2930323666514596e-06 }
            -
               depth: 1
               sample_count: 133662
               value: 3.2448534579521249e-01
               norm_class_idx: 1
               Tn: 0
               complexity: 0
               alpha: 0.
               node_risk: 0.
               tree_risk: 0.
               tree_error: 0.
            -
               depth: 1
               sample_count: 69504
               value: -3.2448534579521249e-01
               norm_class_idx: 0
               Tn: 0
               complexity: 0
               alpha: 0.
               node_risk: 0.
               tree_risk: 0.
               tree_error: 0.
      -
         best_tree_idx: -1
         nodes:
            -
               depth: 0
               sample_count: 203166
               value: -3.0726758824845285e-01
               norm_class_idx: 0
               Tn: 0
               complexity: 0
               alpha: 0.
               node_risk: 0.
               tree_risk: 0.
               tree_error: 0.
               splits:
                  - { var:28, quality:5.7621818780899048e-01,
                      le:1.1065064929425716e-02 }
                  - { var:17, quality:4.8452913761138916e-01,
                      le:4.7139859199523926e-01 }
                  - { var:18, quality:4.8255756497383118e-01,
                      le:9.3292844295501709e-01 }
                  - { var:5, quality:4.8171958327293396e-01,
                      le:1.5118467807769775e-01 }
                  - { var:29, quality:4.7873100638389587e-01,
                      le:1.4232786372303963e-02 }
                  - { var:4, quality:4.7846516966819763e-01,
                      le:1.4727777242660522e-01 }
                  - { var:6, quality:4.6939119696617126e-01,
                      le:4.3593946099281311e-01 }
                  - { var:31, quality:4.5116835832595825e-01,
                      le:8.6179915815591812e-03 }
                  - { var:10, quality:4.3887606263160706e-01,
                      le:1.5234677994158119e-04 }
                  - { var:32, quality:4.3785500526428223e-01,
                      le:1.3999962806701660e-01 }
                  - { var:15, quality:4.3094429373741150e-01,
                      gt:9.7461241483688354e-01 }
                  - { var:3, quality:4.3058374524116516e-01,
                      le:2.6510745286941528e-02 }
                  - { var:12, quality:4.2366781830787659e-01,
                      le:4.1633151704445481e-04 }
                  - { var:9, quality:4.2290595173835754e-01,
                      gt:7.9245126247406006e-01 }
                  - { var:47, quality:4.2260664701461792e-01,
                      gt:9.8910588026046753e-01 }
                  - { var:20, quality:4.1714525222778320e-01,
                      le:1.1879539489746094e+00 }
                  - { var:35, quality:4.1686689853668213e-01,
                      le:1.5000000000000000e+00 }
                  - { var:2, quality:4.1549247503280640e-01,
                      le:3.0444674193859100e-02 }
                  - { var:34, quality:4.1450476646423340e-01,
                      le:1.5000000000000000e+00 }
                  - { var:33, quality:4.1318845748901367e-01,
                      le:1.5000000000000000e+00 }
                  - { var:39, quality:4.1196116805076599e-01,
                      le:1.5000000000000000e+00 }
                  - { var:1, quality:4.1185238957405090e-01,
                      le:5.5000000000000000e+00 }
                  - { var:8, quality:4.0836977958679199e-01,
                      le:1.7426672577857971e-01 }
                  - { var:41, quality:4.0226754546165466e-01,
                      le:1.5000000000000000e+00 }
                  - { var:21, quality:4.0189084410667419e-01,
                      le:2.5582069158554077e-01 }
                  - { var:27, quality:4.0152823925018311e-01,
                      gt:9.7485375404357910e-01 }
                  - { var:19, quality:3.9182221889495850e-01,
                      le:3.4190666675567627e-01 }
                  - { var:13, quality:3.9104059338569641e-01,
                      gt:8.5313200950622559e-01 }
                  - { var:14, quality:3.8863924145698547e-01,
                      le:1.5185102820396423e-01 }
                  - { var:11, quality:3.8828873634338379e-01,
                      gt:1.1944290399551392e+00 }
                  - { var:30, quality:3.8672947883605957e-01,
                      le:4.7363872528076172e+00 }
                  - { var:24, quality:3.8649275898933411e-01,
                      gt:2.3562121582031250e+02 }
                  - { var:25, quality:3.8573727011680603e-01,
                      le:-1.5428449630737305e+01 }
                  - { var:7, quality:3.8349631428718567e-01,
                      le:3.9800651371479034e-02 }
                  - { var:22, quality:3.8271152973175049e-01,
                      gt:9.9958121776580811e-01 }
                  - { var:26, quality:3.8265588879585266e-01,
                      gt:1.5474845886230469e+01 }
                  - { var:23, quality:3.8221082091331482e-01,
                      le:1.1839498579502106e-01 }
                  - { var:49, quality:3.8203090429306030e-01,
                      gt:4.4365158081054688e+01 }
            -
               depth: 1
               sample_count: 63938
               value: 3.0726758824845285e-01
               norm_class_idx: 1
               Tn: 0
               complexity: 0
               alpha: 0.
               node_risk: 0.
               tree_risk: 0.
               tree_error: 0.
            -
               depth: 1
               sample_count: 139228
               value: -3.0726758824845285e-01
               norm_class_idx: 0
               Tn: 0
               complexity: 0
               alpha: 0.
               node_risk: 0.
               tree_risk: 0.
               tree_error: 0.
      -
         best_tree_idx: -1
         nodes:
            -
               depth: 0
               sample_count: 203166
               value: -2.7053391875684935e-01
               norm_class_idx: 0
               Tn: 0
               complexity: 0
               alpha: 0.
               node_risk: 0.
               tree_risk: 0.
               tree_error: 0.
               splits:
                  - { var:22, quality:5.6722396612167358e-01,
                      le:9.5631229877471924e-01 }
                  - { var:21, quality:3.4554407000541687e-01,
                      gt:3.3126184344291687e-01 }
                  - { var:8, quality:3.4215253591537476e-01,
                      gt:1.5550999343395233e-01 }
                  - { var:47, quality:3.4093874692916870e-01,
                      le:9.8956465721130371e-01 }
                  - { var:9, quality:3.3995050191879272e-01,
                      le:9.2354381084442139e-01 }
                  - { var:6, quality:3.3994373679161072e-01,
                      gt:2.7138856053352356e-01 }
                  - { var:32, quality:3.3910664916038513e-01,
                      gt:1.6000127792358398e-01 }
                  - { var:4, quality:3.3739447593688965e-01,
                      gt:1.0801425576210022e-01 }
                  - { var:25, quality:3.3737656474113464e-01,
                      gt:-3.3413591384887695e+00 }
                  - { var:18, quality:3.3622244000434875e-01,
                      gt:5.3599476814270020e-01 }
                  - { var:17, quality:3.3585461974143982e-01,
                      gt:3.0600798130035400e-01 }
                  - { var:35, quality:3.3572068810462952e-01,
                      le:6.5000000000000000e+00 }
                  - { var:5, quality:3.3557298779487610e-01,
                      gt:1.1290780454874039e-01 }
                  - { var:28, quality:3.3483177423477173e-01,
                      gt:7.4266269803047180e-03 }
                  - { var:10, quality:3.3424034714698792e-01,
                      gt:6.7720888182520866e-04 }
                  - { var:37, quality:3.3414041996002197e-01,
                      le:6.5000000000000000e+00 }
                  - { var:36, quality:3.3363804221153259e-01,
                      le:6.5000000000000000e+00 }
                  - { var:31, quality:3.3360895514488220e-01,
                      gt:5.8925896883010864e-03 }
                  - { var:34, quality:3.3262830972671509e-01,
                      le:6.5000000000000000e+00 }
                  - { var:38, quality:3.3260104060173035e-01,
                      le:5.5000000000000000e+00 }
                  - { var:19, quality:3.3151385188102722e-01,
                      gt:5.3747951984405518e-01 }
                  - { var:2, quality:3.3143725991249084e-01,
                      gt:2.0139113068580627e-02 }
                  - { var:48, quality:3.3122408390045166e-01,
                      le:1.2400323867797852e+01 }
                  - { var:3, quality:3.3004063367843628e-01,
                      gt:1.6140364110469818e-02 }
                  - { var:39, quality:3.2958385348320007e-01,
                      le:5.5000000000000000e+00 }
                  - { var:14, quality:3.2917219400405884e-01,
                      gt:2.6393854618072510e-01 }
                  - { var:11, quality:3.2804641127586365e-01,
                      gt:1.3159671425819397e-01 }
                  - { var:33, quality:3.2653304934501648e-01,
                      gt:1.5000000000000000e+00 }
                  - { var:15, quality:3.2573658227920532e-01,
                      le:9.0846341848373413e-01 }
                  - { var:30, quality:3.2490378618240356e-01,
                      le:1.8081586837768555e+01 }
                  - { var:20, quality:3.2474717497825623e-01,
                      gt:7.6208245754241943e-01 }
                  - { var:26, quality:3.2351109385490417e-01,
                      gt:6.5980013459920883e-03 }
                  - { var:7, quality:3.2311126589775085e-01,
                      gt:1.1511169373989105e-01 }
                  - { var:13, quality:3.2217785716056824e-01,
                      le:1.1451973915100098e+00 }
                  - { var:29, quality:3.2200363278388977e-01,
                      gt:4.5404052361845970e-03 }
                  - { var:23, quality:3.2080647349357605e-01,
                      gt:3.0293804407119751e-01 }
                  - { var:49, quality:3.2065960764884949e-01,
                      le:1.9110774993896484e+01 }
                  - { var:24, quality:3.2040637731552124e-01,
                      gt:4.3360792100429535e-02 }
                  - { var:27, quality:3.2009369134902954e-01,
                      gt:-8.6138801574707031e+01 }
                  - { var:46, quality:3.2008141279220581e-01,
                      le:5.5000000000000000e+00 }
            -
               depth: 1
               sample_count: 119290
               value: 2.7053391875684935e-01
               norm_class_idx: 1
               Tn: 0
               complexity: 0
               alpha: 0.
               node_risk: 0.
               tree_risk: 0.
               tree_error: 0.
            -
               depth: 1
               sample_count: 83876
               value: -2.7053391875684935e-01
               norm_class_idx: 0
               Tn: 0
               complexity: 0
               alpha: 0.
               node_risk: 0.
               tree_risk: 0.
               tree_error: 0.
      -
         best_tree_idx: -1
         nodes:
            -
               depth: 0
               sample_count: 203166
               value: -2.6860671800886043e-01
               norm_class_idx: 0
               Tn: 0
               complexity: 0
               alpha: 0.
               node_risk: 0.
               tree_risk: 0.
               tree_error: 0.
               splits:
                  - { var:25, quality:5.6675082445144653e-01,
                      le:-3.9467062950134277e+00 }
                  - { var:49, quality:4.0386915206909180e-01,
                      le:4.0009769797325134e-01 }
                  - { var:7, quality:4.0383723378181458e-01,
                      gt:1.5455073118209839e-01 }
                  - { var:47, quality:4.0273848176002502e-01,
                      gt:9.8505926132202148e-01 }
                  - { var:30, quality:4.0022242069244385e-01,
                      gt:1.6616722106933594e+01 }
                  - { var:9, quality:3.9112386107444763e-01,
                      gt:7.7715665102005005e-01 }
                  - { var:48, quality:3.8752770423889160e-01,
                      gt:1.5380718231201172e+01 }
                  - { var:19, quality:3.8440734148025513e-01,
                      gt:7.8650021553039551e-01 }
                  - { var:24, quality:3.8394829630851746e-01,
                      gt:1.8508752441406250e+02 }
                  - { var:20, quality:3.7976849079132080e-01,
                      le:1.4923365116119385e+00 }
                  - { var:22, quality:3.7936991453170776e-01,
                      gt:9.8405265808105469e-01 }
                  - { var:2, quality:3.7905946373939514e-01,
                      le:1.7290253192186356e-02 }
                  - { var:44, quality:3.7842369079589844e-01,
                      gt:4.5000000000000000e+00 }
                  - { var:31, quality:3.7810614705085754e-01,
                      le:6.5446205553598702e-05 }
                  - { var:14, quality:3.7780427932739258e-01,
                      gt:1.7645286560058594e+01 }
                  - { var:13, quality:3.7780427932739258e-01,
                      gt:1.7645286560058594e+01 }
                  - { var:11, quality:3.7780427932739258e-01,
                      gt:1.7645286560058594e+01 }
                  - { var:8, quality:3.7776619195938110e-01,
                      gt:3.9991444349288940e-01 }
                  - { var:32, quality:3.7775114178657532e-01,
                      le:9.9995136260986328e-03 }
                  - { var:3, quality:3.7772688269615173e-01,
                      gt:2.1003590524196625e-01 }
                  - { var:15, quality:3.7771606445312500e-01,
                      le:7.3103345930576324e-03 }
            -
               depth: 1
               sample_count: 48203
               value: 2.6860671800886043e-01
               norm_class_idx: 1
               Tn: 0
               complexity: 0
               alpha: 0.
               node_risk: 0.
               tree_risk: 0.
               tree_error: 0.
            -
               depth: 1
               sample_count: 154963
               value: -2.6860671800886043e-01
               norm_class_idx: 0
               Tn: 0
               complexity: 0
               alpha: 0.
               node_risk: 0.
               tree_risk: 0.
               tree_error: 0.
      -
         best_tree_idx: -1
         nodes:
            -
               depth: 0
               sample_count: 203166
               value: -2.5518203924302196e-01
               norm_class_idx: 0
               Tn: 0
               complexity: 0
               alpha: 0.
               node_risk: 0.
               tree_risk: 0.
               tree_error: 0.
               splits:
                  - { var:48, quality:5.6345158815383911e-01,
                      le:3.9510078430175781e+00 }
                  - { var:19, quality:3.4546062350273132e-01,
                      gt:6.1316525936126709e-01 }
                  - { var:49, quality:3.4025341272354126e-01,
                      le:5.8101806640625000e+00 }
                  - { var:8, quality:3.3566674590110779e-01,
                      gt:1.4059574902057648e-01 }
                  - { var:7, quality:3.3397230505943298e-01,
                      gt:1.2358623743057251e-01 }
                  - { var:30, quality:3.3189523220062256e-01,
                      gt:1.4234321594238281e+01 }
                  - { var:23, quality:3.3156383037567139e-01,
                      gt:2.8044979858398438e+02 }
                  - { var:21, quality:3.2666417956352234e-01,
                      gt:4.8491337895393372e-01 }
                  - { var:24, quality:3.2561740279197693e-01,
                      gt:8.6805791854858398e+00 }
                  - { var:35, quality:3.1885129213333130e-01,
                      le:6.5000000000000000e+00 }
                  - { var:34, quality:3.1804493069648743e-01,
                      le:6.5000000000000000e+00 }
                  - { var:2, quality:3.1742787361145020e-01,
                      gt:5.4202027618885040e-02 }
                  - { var:31, quality:3.1711888313293457e-01,
                      le:3.0009370297193527e-02 }
                  - { var:20, quality:3.1616178154945374e-01,
                      le:2.1592063903808594e+00 }
                  - { var:37, quality:3.1500327587127686e-01,
                      le:5.5000000000000000e+00 }
                  - { var:39, quality:3.1391063332557678e-01,
                      le:4.5000000000000000e+00 }
                  - { var:29, quality:3.1358328461647034e-01,
                      le:8.5511552169919014e-03 }
                  - { var:38, quality:3.1232890486717224e-01,
                      le:6.5000000000000000e+00 }
                  - { var:1, quality:3.1075841188430786e-01,
                      le:1.3500000000000000e+01 }
                  - { var:47, quality:3.0984658002853394e-01,
                      gt:9.3874144554138184e-01 }
                  - { var:40, quality:3.0965533852577209e-01,
                      le:4.5000000000000000e+00 }
                  - { var:27, quality:3.0893024802207947e-01,
                      gt:-4.7397136222571135e-04 }
                  - { var:22, quality:3.0856400728225708e-01,
                      gt:7.4230527877807617e-01 }
                  - { var:15, quality:3.0831286311149597e-01,
                      gt:9.9068409204483032e-01 }
                  - { var:9, quality:3.0823463201522827e-01,
                      gt:1.0346613079309464e-01 }
                  - { var:18, quality:3.0746036767959595e-01,
                      le:8.9317733049392700e-01 }
                  - { var:41, quality:3.0743691325187683e-01,
                      le:4.5000000000000000e+00 }
                  - { var:6, quality:3.0703809857368469e-01,
                      le:4.2239034175872803e-01 }
                  - { var:17, quality:3.0672425031661987e-01,
                      le:2.2549331188201904e+00 }
                  - { var:4, quality:3.0664166808128357e-01,
                      le:5.7485687732696533e-01 }
                  - { var:5, quality:3.0663502216339111e-01,
                      le:5.7789379358291626e-01 }
                  - { var:10, quality:3.0607572197914124e-01,
                      le:4.2653325200080872e-01 }
                  - { var:36, quality:3.0605956912040710e-01,
                      le:4.5000000000000000e+00 }
                  - { var:3, quality:3.0601787567138672e-01,
                      le:4.3337866663932800e-03 }
                  - { var:32, quality:3.0587509274482727e-01,
                      gt:1.4999389648437500e-02 }
                  - { var:25, quality:3.0587276816368103e-01,
                      gt:5.1320991516113281e+00 }
                  - { var:28, quality:3.0581834912300110e-01,
                      gt:1.1120883573312312e-04 }
                  - { var:33, quality:3.0569392442703247e-01,
                      le:1.5500000000000000e+01 }
                  - { var:12, quality:3.0562508106231689e-01,
                      le:8.7051570415496826e-02 }
                  - { var:43, quality:3.0562222003936768e-01,
                      le:6.5000000000000000e+00 }
                  - { var:44, quality:3.0561861395835876e-01,
                      le:6.5000000000000000e+00 }
                  - { var:45, quality:3.0561637878417969e-01,
                      le:6.5000000000000000e+00 }
                  - { var:11, quality:3.0561569333076477e-01,
                      gt:3.9329238235950470e-02 }
                  - { var:14, quality:3.0561470985412598e-01,
                      gt:3.9850950241088867e-02 }
                  - { var:13, quality:3.0560535192489624e-01,
                      gt:1.7231621313840151e-03 }
                  - { var:46, quality:3.0560463666915894e-01,
                      le:7.5000000000000000e+00 }
                  - { var:26, quality:3.0560183525085449e-01,
                      le:1.8494804382324219e+01 }
            -
               depth: 1
               sample_count: 119848
               value: -2.5518203924302196e-01
               norm_class_idx: 0
               Tn: 0
               complexity: 0
               alpha: 0.
               node_risk: 0.
               tree_risk: 0.
               tree_error: 0.
            -
               depth: 1
               sample_count: 83318
               value: 2.5518203924302196e-01
               norm_class_idx: 1
               Tn: 0
               complexity: 0
               alpha: 0.
               node_risk: 0.
               tree_risk: 0.
               tree_error: 0.
      -
         best_tree_idx: -1
         nodes:
            -
               depth: 0
               sample_count: 203166
               value: -2.2394609155909270e-01
               norm_class_idx: 0
               Tn: 0
               complexity: 0
               alpha: 0.
               node_risk: 0.
               tree_risk: 0.
               tree_error: 0.
               splits:
                  - { var:23, quality:5.5575370788574219e-01,
                      le:3.7557043457031250e+02 }
                  - { var:24, quality:4.8367482423782349e-01,
                      le:9.2310279846191406e+01 }
                  - { var:25, quality:4.2246270179748535e-01,
                      gt:-9.8895797729492188e+00 }
                  - { var:26, quality:4.2237114906311035e-01,
                      le:8.7554082870483398e+00 }
                  - { var:47, quality:3.7558388710021973e-01,
                      le:9.9295222759246826e-01 }
                  - { var:27, quality:3.7454807758331299e-01,
                      le:9.7971558570861816e-01 }
                  - { var:7, quality:3.7384173274040222e-01,
                      le:1.5991556644439697e-01 }
                  - { var:9, quality:3.7021413445472717e-01,
                      le:9.5187079906463623e-01 }
                  - { var:30, quality:3.6994838714599609e-01,
                      le:1.6126838684082031e+01 }
                  - { var:13, quality:3.6707431077957153e-01,
                      le:8.9191555976867676e-01 }
                  - { var:11, quality:3.6625838279724121e-01,
                      le:9.7577708959579468e-01 }
                  - { var:21, quality:3.6594542860984802e-01,
                      gt:1.9072937965393066e-01 }
                  - { var:14, quality:3.6590719223022461e-01,
                      le:1.2683506011962891e+00 }
                  - { var:6, quality:3.6467376351356506e-01,
                      le:8.3523339033126831e-01 }
                  - { var:32, quality:3.6331257224082947e-01,
                      le:7.0000052452087402e-01 }
                  - { var:2, quality:3.6322721838951111e-01,
                      gt:1.8332798033952713e-02 }
                  - { var:34, quality:3.6292737722396851e-01,
                      le:7.5000000000000000e+00 }
                  - { var:35, quality:3.6286410689353943e-01,
                      le:7.5000000000000000e+00 }
                  - { var:19, quality:3.6243993043899536e-01,
                      le:6.9946360588073730e-01 }
                  - { var:33, quality:3.6189922690391541e-01,
                      le:9.5000000000000000e+00 }
                  - { var:48, quality:3.5972464084625244e-01,
                      gt:-2.9999166727066040e-01 }
                  - { var:5, quality:3.5930898785591125e-01,
                      le:6.2580001354217529e-01 }
                  - { var:4, quality:3.5929533839225769e-01,
                      le:6.2096166610717773e-01 }
                  - { var:20, quality:3.5896876454353333e-01,
                      gt:6.2996542453765869e-01 }
                  - { var:44, quality:3.5880011320114136e-01,
                      le:4.5000000000000000e+00 }
                  - { var:49, quality:3.5876879096031189e-01,
                      le:2.2220611572265625e+01 }
                  - { var:8, quality:3.5849839448928833e-01,
                      le:3.8224124908447266e-01 }
                  - { var:18, quality:3.5831058025360107e-01,
                      le:4.2132806777954102e+00 }
                  - { var:31, quality:3.5826817154884338e-01,
                      gt:3.2601383281871676e-05 }
                  - { var:17, quality:3.5817402601242065e-01,
                      le:3.3722579479217529e+00 }
                  - { var:10, quality:3.5809099674224854e-01,
                      le:8.7955546379089355e-01 }
                  - { var:29, quality:3.5805711150169373e-01,
                      le:7.6248958706855774e-02 }
                  - { var:22, quality:3.5800680518150330e-01,
                      le:9.9973368644714355e-01 }
                  - { var:12, quality:3.5800236463546753e-01,
                      le:7.6452121138572693e-02 }
                  - { var:28, quality:3.5799354314804077e-01,
                      le:5.4345648735761642e-02 }
                  - { var:36, quality:3.5798332095146179e-01, le:14. }
                  - { var:1, quality:3.5797959566116333e-01,
                      le:4.8500000000000000e+01 }
            -
               depth: 1
               sample_count: 135600
               value: 2.2394609155909270e-01
               norm_class_idx: 1
               Tn: 0
               complexity: 0
               alpha: 0.
               node_risk: 0.
               tree_risk: 0.
               tree_error: 0.
            -
               depth: 1
               sample_count: 67566
               value: -2.2394609155909270e-01
               norm_class_idx: 0
               Tn: 0
               complexity: 0
               alpha: 0.
               node_risk: 0.
               tree_risk: 0.
               tree_error: 0.
      -
         best_tree_idx: -1
         nodes:
            -
               depth: 0
               sample_count: 203166
               value: -2.2154597597040668e-01
               norm_class_idx: 0
               Tn: 0
               complexity: 0
               alpha: 0.
               node_risk: 0.
               tree_risk: 0.
               tree_error: 0.
               splits:
                  - { var:24, quality:5.5516105890274048e-01,
                      le:4.4658325195312500e+01 }
                  - { var:23, quality:4.6393999457359314e-01,
                      le:2.9130627441406250e+02 }
                  - { var:25, quality:4.4230371713638306e-01,
                      le:6.5748009681701660e+00 }
                  - { var:26, quality:4.4093129038810730e-01,
                      le:6.8787717819213867e+00 }
                  - { var:7, quality:4.1515058279037476e-01,
                      le:9.1829359531402588e-02 }
                  - { var:30, quality:4.1457772254943848e-01,
                      le:1.0047126770019531e+01 }
                  - { var:19, quality:4.0883043408393860e-01,
                      le:5.2551233768463135e-01 }
                  - { var:1, quality:4.0187788009643555e-01,
                      gt:5.5000000000000000e+00 }
                  - { var:47, quality:3.9719572663307190e-01,
                      le:9.8709332942962646e-01 }
                  - { var:20, quality:3.9207795262336731e-01,
                      gt:1.9601095914840698e+00 }
                  - { var:9, quality:3.9067339897155762e-01,
                      le:6.9710588455200195e-01 }
                  - { var:27, quality:3.8202953338623047e-01,
                      le:9.5659625530242920e-01 }
                  - { var:33, quality:3.7644967436790466e-01,
                      gt:2.5000000000000000e+00 }
                  - { var:34, quality:3.7064090371131897e-01,
                      gt:2.5000000000000000e+00 }
                  - { var:15, quality:3.7015768885612488e-01,
                      le:9.7275578975677490e-01 }
                  - { var:35, quality:3.6711093783378601e-01,
                      gt:2.5000000000000000e+00 }
                  - { var:3, quality:3.6584371328353882e-01,
                      gt:1.1646391823887825e-02 }
                  - { var:32, quality:3.6261388659477234e-01,
                      gt:1.2999939918518066e-01 }
                  - { var:29, quality:3.5841855406761169e-01,
                      gt:4.0272865444421768e-03 }
                  - { var:31, quality:3.5503855347633362e-01,
                      gt:1.6420111060142517e-02 }
                  - { var:10, quality:3.4897011518478394e-01,
                      gt:1.5234677994158119e-04 }
                  - { var:13, quality:3.4406521916389465e-01,
                      le:3.3501917123794556e-01 }
                  - { var:17, quality:3.4101992845535278e-01,
                      gt:4.9275416135787964e-01 }
                  - { var:21, quality:3.3981922268867493e-01,
                      gt:2.5332850217819214e-01 }
                  - { var:18, quality:3.3716267347335815e-01,
                      gt:7.2977435588836670e-01 }
                  - { var:36, quality:3.3681046962738037e-01,
                      gt:1.5000000000000000e+00 }
                  - { var:6, quality:3.3668541908264160e-01,
                      gt:3.5062280297279358e-01 }
                  - { var:11, quality:3.3645674586296082e-01,
                      le:6.6488015651702881e-01 }
                  - { var:14, quality:3.3274918794631958e-01,
                      le:8.2161796092987061e-01 }
                  - { var:39, quality:3.2485789060592651e-01,
                      gt:1.5000000000000000e+00 }
                  - { var:2, quality:3.2373204827308655e-01,
                      le:1.5449504554271698e-01 }
                  - { var:4, quality:3.2363122701644897e-01,
                      gt:1.3825638592243195e-01 }
                  - { var:5, quality:3.2296162843704224e-01,
                      gt:1.3814024627208710e-01 }
                  - { var:41, quality:3.1888839602470398e-01,
                      gt:1.5000000000000000e+00 }
                  - { var:12, quality:3.1865012645721436e-01,
                      gt:7.5573683716356754e-04 }
                  - { var:28, quality:3.1789892911911011e-01,
                      gt:2.4001393467187881e-03 }
                  - { var:49, quality:3.1586870551109314e-01,
                      le:1.9860469818115234e+01 }
                  - { var:8, quality:3.1411978602409363e-01,
                      le:3.8586428761482239e-01 }
                  - { var:48, quality:3.1320589780807495e-01,
                      le:2.1995656967163086e+01 }
                  - { var:22, quality:3.1302377581596375e-01,
                      le:9.9617075920104980e-01 }
                  - { var:44, quality:3.1289583444595337e-01,
                      le:4.5000000000000000e+00 }
            -
               depth: 1
               sample_count: 117360
               value: -2.2154597597040668e-01
               norm_class_idx: 0
               Tn: 0
               complexity: 0
               alpha: 0.
               node_risk: 0.
               tree_risk: 0.
               tree_error: 0.
            -
               depth: 1
               sample_count: 85806
               value: 2.2154597597040668e-01
               norm_class_idx: 1
               Tn: 0
               complexity: 0
               alpha: 0.
               node_risk: 0.
               tree_risk: 0.
               tree_error: 0.
      -
         best_tree_idx: -1
         nodes:
            -
               depth: 0
               sample_count: 203166
               value: -2.5296768339019687e-01
               norm_class_idx: 0
               Tn: 0
               complexity: 0
               alpha: 0.
               node_risk: 0.
               tree_risk: 0.
               tree_error: 0.
               splits:
                  - { var:24, quality:5.6290680170059204e-01,
                      le:2.6764696121215820e+01 }
                  - { var:23, quality:5.0501805543899536e-01,
                      le:1.1442034912109375e+02 }
                  - { var:30, quality:4.1687253117561340e-01,
                      le:4.7712593078613281e+00 }
                  - { var:7, quality:4.1332924365997314e-01,
                      le:4.2238041758537292e-02 }
                  - { var:19, quality:4.0614098310470581e-01,
                      le:3.4848624467849731e-01 }
                  - { var:1, quality:4.0611475706100464e-01,
                      gt:9.5000000000000000e+00 }
                  - { var:31, quality:4.0101012587547302e-01,
                      gt:1.0477544367313385e-01 }
                  - { var:17, quality:3.9948698878288269e-01,
                      gt:1.3896418809890747e+00 }
                  - { var:38, quality:3.9948126673698425e-01,
