%YAML:1.0
detector_type: adaboost
used_feature_dimensions:
   - "Throw a coin."
   - "Number of laser end points."
   - "Mean of difference in range of consecutive beams."
   - "Variance of difference in range of consecutive beams."
   - "Variance from center of gravity."
   - "Mean average deviation from median."
   - "Width."
   - "Min distance between points."
   - "Max distance between points."
   - "Ratio between min and max distance between points."
   - "Circularity."
   - "Radius of fitted circle."
   - "Variance of distance from points to center of circle."
   - "Minimal difference to radius."
   - "Maximal difference to radius."
   - "Ratio between min and max difference."
   - "Area of rectangles to fitted circle center."
   - "Boundary length."
   - "Perimeter."
   - "Contour regularity."
   - "Mean curvature."
   - "Mean angular difference."
   - "Aspect ratio."
   - "Linearity."
   - "Linearity mean error."
   - "Linearity min error."
   - "Linearity max error."
   - "Linearity ratio of min and max error."
   - "Error of fitted quadratic b-spline."
   - "Error of fitted cubic b-spline."
   - "Distance."
   - "Polygon Area."
   - "Difference of longest and shortest beam."
   - "Number of local minima (noise 0.01)."
   - "Number of local minima (noise 0.02)."
   - "Number of local minima (noise 0.03)."
   - "Number of local minima (noise 0.04)."
   - "Number of local minima (noise 0.05)."
   - "Number of local minima (noise 0.06)."
   - "Number of local minima (noise 0.07)."
   - "Number of local minima (noise 0.08)."
   - "Number of local minima (noise 0.09)."
   - "Number of local minima (noise 0.10)."
   - "Number of local minima (noise 0.11)."
   - "Number of local minima (noise 0.12)."
   - "Number of local minima (noise 0.13)."
   - "Number of local minima (noise 0.14)."
   - "Ratio between shortest and longest beam."
   - "Jump distance to previous segment."
   - "Jump distance to next segment."
classifier: !!opencv-ml-boost-tree
   boosting_type: DiscreteAdaboost
   splitting_criteria: 3
   ntrees: 500
   weight_trimming_rate: 1.
   is_classifier: 1
   var_all: 50
   var_count: 50
   ord_var_count: 50
   cat_var_count: 0
   training_params:
      use_surrogates: 1
      max_categories: 10
      max_depth: 1
      min_sample_count: 10
      cross_validation_folds: 0
      priors: !!opencv-matrix
         rows: 1
         cols: 2
         dt: d
         data: [ 1., 1. ]
   var_type: [ 0, 0, 0, 0, 0, 0, 0, 0, 0, 0, 0, 0, 0, 0, 0, 0, 0, 0, 0,
       0, 0, 0, 0, 0, 0, 0, 0, 0, 0, 0, 0, 0, 0, 0, 0, 0, 0, 0, 0, 0, 0,
       0, 0, 0, 0, 0, 0, 0, 0, 0 ]
   cat_count: !!opencv-matrix
      rows: 1
      cols: 1
      dt: i
      data: [ 2 ]
   cat_map: !!opencv-matrix
      rows: 1
      cols: 2
      dt: i
      data: [ 0, 1 ]
   trees:
      -
         best_tree_idx: -1
         nodes:
            -
               depth: 0
               sample_count: 104862
               value: -2.1241786915469398e+00
               norm_class_idx: 0
               Tn: 0
               complexity: 0
               alpha: 0.
               node_risk: 0.
               tree_risk: 0.
               tree_error: 0.
               splits:
                  - { var:20, quality:8.9323109388351440e-01,
                      le:2.8079771995544434e+00 }
                  - { var:30, quality:8.3382546901702881e-01,
                      gt:5.7798991203308105e+00 }
                  - { var:1, quality:8.1063902378082275e-01,
                      le:6.5000000000000000e+00 }
                  - { var:33, quality:8.0592852830886841e-01,
                      le:7.5000000000000000e+00 }
                  - { var:35, quality:7.9702705144882202e-01,
                      le:7.5000000000000000e+00 }
                  - { var:34, quality:7.9413938522338867e-01,
                      le:6.5000000000000000e+00 }
                  - { var:36, quality:7.9091101884841919e-01,
                      le:7.5000000000000000e+00 }
                  - { var:37, quality:7.9070657491683960e-01,
                      le:7.5000000000000000e+00 }
                  - { var:38, quality:7.9060435295104980e-01,
                      le:7.5000000000000000e+00 }
                  - { var:8, quality:7.9058730602264404e-01,
                      le:6.6718721389770508e-01 }
                  - { var:39, quality:7.9056173563003540e-01,
                      le:7.5000000000000000e+00 }
                  - { var:49, quality:7.9051911830902100e-01,
                      le:4.4305149078369141e+01 }
                  - { var:48, quality:7.9051065444946289e-01,
                      le:3.8420097351074219e+01 }
                  - { var:46, quality:7.9050213098526001e-01,
                      le:6.5000000000000000e+00 }
                  - { var:44, quality:7.9050213098526001e-01,
                      le:5.5000000000000000e+00 }
                  - { var:41, quality:7.9050213098526001e-01,
                      le:9.5000000000000000e+00 }
                  - { var:40, quality:7.9050213098526001e-01,
                      le:9.5000000000000000e+00 }
                  - { var:31, quality:7.9050213098526001e-01,
                      le:7.9935610294342041e-01 }
                  - { var:29, quality:7.9050213098526001e-01,
                      le:1.1618329584598541e-01 }
                  - { var:27, quality:7.9050213098526001e-01,
                      gt:-2.5010717773437500e+02 }
                  - { var:22, quality:7.9050213098526001e-01,
                      le:9.9998617172241211e-01 }
                  - { var:17, quality:7.9050213098526001e-01,
                      le:4.8261709213256836e+00 }
                  - { var:3, quality:7.9050213098526001e-01,
                      le:3.3672618865966797e-01 }
            -
               depth: 1
               sample_count: 92801
               value: -2.1241786915469398e+00
               norm_class_idx: 0
               Tn: 0
               complexity: 0
               alpha: 0.
               node_risk: 0.
               tree_risk: 0.
               tree_error: 0.
            -
               depth: 1
               sample_count: 12061
               value: 2.1241786915469398e+00
               norm_class_idx: 1
               Tn: 0
               complexity: 0
               alpha: 0.
               node_risk: 0.
               tree_risk: 0.
               tree_error: 0.
      -
         best_tree_idx: -1
         nodes:
            -
               depth: 0
               sample_count: 104862
               value: -8.1669777086991702e-01
               norm_class_idx: 0
               Tn: 0
               complexity: 0
               alpha: 0.
               node_risk: 0.
               tree_risk: 0.
               tree_error: 0.
               splits:
                  - { var:30, quality:6.9353491067886353e-01,
                      le:1.4056537628173828e+01 }
                  - { var:7, quality:5.1293843984603882e-01,
                      le:1.2199950218200684e-01 }
                  - { var:20, quality:5.1140558719635010e-01,
                      gt:1.9498636722564697e+00 }
                  - { var:1, quality:4.7608387470245361e-01,
                      gt:4.5000000000000000e+00 }
                  - { var:29, quality:4.7245898842811584e-01,
                      gt:5.1978098781546578e-05 }
                  - { var:3, quality:4.7231993079185486e-01,
                      gt:4.4715986587107182e-03 }
                  - { var:10, quality:4.6851465106010437e-01,
                      gt:1.8131195247406140e-05 }
                  - { var:22, quality:4.6330234408378601e-01,
                      gt:8.6393749713897705e-01 }
                  - { var:25, quality:4.6023941040039062e-01,
                      gt:1.8489890499040484e-04 }
                  - { var:27, quality:4.5951369404792786e-01,
                      gt:7.5006556510925293e-01 }
                  - { var:26, quality:4.5919468998908997e-01,
                      gt:3.4934794530272484e-04 }
                  - { var:28, quality:4.5703470706939697e-01,
                      gt:4.0776636451482773e-03 }
                  - { var:33, quality:4.4950023293495178e-01,
                      gt:2.5000000000000000e+00 }
                  - { var:15, quality:4.4860395789146423e-01,
                      gt:2.1603740751743317e-02 }
                  - { var:31, quality:4.4859382510185242e-01,
                      gt:3.9395440580847207e-06 }
                  - { var:24, quality:4.4858643412590027e-01,
                      gt:9.1538287233561277e-04 }
                  - { var:23, quality:4.4858643412590027e-01,
                      gt:2.7461485005915165e-03 }
                  - { var:21, quality:4.4858643412590027e-01,
                      gt:7.8539818525314331e-01 }
                  - { var:19, quality:4.4858643412590027e-01,
                      gt:7.3009431362152100e-02 }
                  - { var:18, quality:4.4858643412590027e-01,
                      gt:2.7037290856242180e-02 }
                  - { var:17, quality:4.4858643412590027e-01,
                      gt:1.5517987310886383e-02 }
                  - { var:11, quality:4.4858643412590027e-01,
                      gt:5.7738074101507664e-03 }
                  - { var:13, quality:4.4854801893234253e-01,
                      gt:2.9645864851772785e-03 }
                  - { var:14, quality:4.4307669997215271e-01,
                      gt:1.2513551115989685e-01 }
                  - { var:12, quality:4.4303339719772339e-01,
                      gt:7.3041541327256709e-05 }
                  - { var:34, quality:4.3884477019309998e-01,
                      gt:2.5000000000000000e+00 }
                  - { var:32, quality:4.3059873580932617e-01,
                      gt:1.1999940872192383e-01 }
                  - { var:35, quality:4.2879334092140198e-01,
                      gt:2.5000000000000000e+00 }
                  - { var:48, quality:4.1990578174591064e-01,
                      gt:3.4995346069335938e+00 }
                  - { var:2, quality:4.1879370808601379e-01,
                      gt:9.9990367889404297e-03 }
                  - { var:37, quality:4.1841745376586914e-01,
                      gt:5.0000000000000000e-01 }
                  - { var:36, quality:4.1841745376586914e-01,
                      gt:5.0000000000000000e-01 }
                  - { var:8, quality:4.1841745376586914e-01,
                      gt:-4.9079963564872742e-01 }
                  - { var:6, quality:4.1841745376586914e-01,
                      gt:-4.8856773972511292e-01 }
                  - { var:5, quality:4.1841745376586914e-01,
                      gt:5.4811327718198299e-03 }
                  - { var:4, quality:4.1841745376586914e-01,
                      gt:5.3463741205632687e-03 }
                  - { var:49, quality:4.0008199214935303e-01,
                      gt:3.7098469734191895e+00 }
                  - { var:47, quality:3.9320656657218933e-01,
                      gt:9.1429185867309570e-01 }
                  - { var:9, quality:3.9176422357559204e-01,
                      gt:1.8497201800346375e-01 }
                  - { var:38, quality:3.8128876686096191e-01,
                      gt:6.5000000000000000e+00 }
                  - { var:39, quality:3.8057380914688110e-01,
                      gt:5.5000000000000000e+00 }
                  - { var:40, quality:3.7897828221321106e-01,
                      gt:6.5000000000000000e+00 }
                  - { var:41, quality:3.7891766428947449e-01,
                      gt:6.5000000000000000e+00 }
                  - { var:42, quality:3.7887558341026306e-01,
                      gt:6.5000000000000000e+00 }
                  - { var:44, quality:3.7883955240249634e-01,
                      gt:5.5000000000000000e+00 }
                  - { var:45, quality:3.7882846593856812e-01,
                      gt:5.5000000000000000e+00 }
                  - { var:43, quality:3.7879008054733276e-01,
                      gt:6.5000000000000000e+00 }
                  - { var:46, quality:3.7875542044639587e-01,
                      gt:5.5000000000000000e+00 }
            -
               depth: 1
               sample_count: 29371
               value: 8.1669777086991702e-01
               norm_class_idx: 1
               Tn: 0
               complexity: 0
               alpha: 0.
               node_risk: 0.
               tree_risk: 0.
               tree_error: 0.
            -
               depth: 1
               sample_count: 75491
               value: -8.1669777086991702e-01
               norm_class_idx: 0
               Tn: 0
               complexity: 0
               alpha: 0.
               node_risk: 0.
               tree_risk: 0.
               tree_error: 0.
      -
         best_tree_idx: -1
         nodes:
            -
               depth: 0
               sample_count: 104862
               value: -7.4774763853406467e-01
               norm_class_idx: 0
               Tn: 0
               complexity: 0
               alpha: 0.
               node_risk: 0.
               tree_risk: 0.
               tree_error: 0.
               splits:
                  - { var:7, quality:6.7868775129318237e-01,
                      le:7.8181207180023193e-02 }
                  - { var:47, quality:6.1557209491729736e-01,
                      le:9.5926105976104736e-01 }
                  - { var:8, quality:5.8266854286193848e-01,
                      le:8.5419803857803345e-02 }
                  - { var:9, quality:5.8236074447631836e-01,
                      le:3.3949211239814758e-01 }
                  - { var:19, quality:5.5919229984283447e-01,
                      le:4.7856327891349792e-01 }
                  - { var:4, quality:5.4496616125106812e-01,
                      le:3.8963176310062408e-02 }
                  - { var:5, quality:5.4495573043823242e-01,
                      le:3.9021186530590057e-02 }
                  - { var:6, quality:5.4478359222412109e-01,
                      le:7.8094586730003357e-02 }
                  - { var:46, quality:5.3515326976776123e-01,
                      le:5.0000000000000000e-01 }
                  - { var:45, quality:5.3515326976776123e-01,
                      le:5.0000000000000000e-01 }
                  - { var:44, quality:5.3515326976776123e-01,
                      le:5.0000000000000000e-01 }
                  - { var:43, quality:5.3515326976776123e-01,
                      le:5.0000000000000000e-01 }
                  - { var:42, quality:5.3515326976776123e-01,
                      le:5.0000000000000000e-01 }
                  - { var:41, quality:5.3515326976776123e-01,
                      le:5.0000000000000000e-01 }
                  - { var:40, quality:5.3515326976776123e-01,
                      le:5.0000000000000000e-01 }
                  - { var:39, quality:5.3515326976776123e-01,
                      le:5.0000000000000000e-01 }
                  - { var:38, quality:5.3515326976776123e-01,
                      le:5.0000000000000000e-01 }
                  - { var:37, quality:5.3515326976776123e-01,
                      le:5.0000000000000000e-01 }
                  - { var:36, quality:5.3515326976776123e-01,
                      le:5.0000000000000000e-01 }
                  - { var:35, quality:5.3515326976776123e-01,
                      le:5.0000000000000000e-01 }
                  - { var:34, quality:5.3515326976776123e-01,
                      le:5.0000000000000000e-01 }
                  - { var:33, quality:5.3515326976776123e-01,
                      le:5.0000000000000000e-01 }
                  - { var:26, quality:5.3515326976776123e-01,
                      le:-5.0000000000000000e-01 }
                  - { var:24, quality:5.3515326976776123e-01,
                      le:-5.0000000000000000e-01 }
                  - { var:23, quality:5.3515326976776123e-01,
                      le:-5.0000000000000000e-01 }
                  - { var:3, quality:5.3515326976776123e-01,
                      le:-5.0000000000000000e-01 }
                  - { var:2, quality:5.3515326976776123e-01,
                      le:-5.0000000000000000e-01 }
                  - { var:1, quality:5.3515326976776123e-01,
                      le:1.5000000000000000e+00 }
                  - { var:32, quality:5.3295910358428955e-01,
                      le:4.9991607666015625e-03 }
                  - { var:27, quality:5.2704405784606934e-01,
                      le:-9.1337347030639648e-01 }
                  - { var:30, quality:5.1471400260925293e-01,
                      le:8.4401988983154297e+00 }
                  - { var:29, quality:4.8525881767272949e-01,
                      gt:-5.0000000000000000e-01 }
                  - { var:15, quality:4.5942410826683044e-01,
                      le:3.3602344989776611e-01 }
                  - { var:13, quality:4.5776680111885071e-01,
                      le:1.5437483787536621e-01 }
                  - { var:20, quality:4.5640525221824646e-01,
                      gt:3.1749339103698730e+00 }
                  - { var:11, quality:4.5046919584274292e-01,
                      le:1.4297696948051453e-01 }
                  - { var:25, quality:4.4980677962303162e-01,
                      gt:-2.5908145904541016e+00 }
                  - { var:14, quality:4.4856762886047363e-01,
                      le:1.2722995877265930e-01 }
                  - { var:18, quality:4.4844242930412292e-01,
                      le:3.3051341772079468e-01 }
                  - { var:17, quality:4.4842466711997986e-01,
                      le:1.6770184040069580e-01 }
                  - { var:28, quality:4.4561445713043213e-01,
                      le:5.9018006140831858e-05 }
                  - { var:31, quality:4.4544938206672668e-01,
                      le:1.7262711480725557e-05 }
                  - { var:22, quality:4.4537228345870972e-01,
                      le:3.1379997730255127e-01 }
                  - { var:21, quality:4.4537228345870972e-01,
                      le:7.8539818525314331e-01 }
                  - { var:49, quality:4.2312198877334595e-01,
                      le:9.6338963508605957e-01 }
                  - { var:48, quality:4.1099512577056885e-01,
                      le:1.0229998826980591e+00 }
                  - { var:10, quality:3.8031578063964844e-01,
                      gt:6.0448031872510910e-03 }
            -
               depth: 1
               sample_count: 55879
               value: -7.4774763853406467e-01
               norm_class_idx: 0
               Tn: 0
               complexity: 0
               alpha: 0.
               node_risk: 0.
               tree_risk: 0.
               tree_error: 0.
            -
               depth: 1
               sample_count: 48983
               value: 7.4774763853406467e-01
               norm_class_idx: 1
               Tn: 0
               complexity: 0
               alpha: 0.
               node_risk: 0.
               tree_risk: 0.
               tree_error: 0.
      -
         best_tree_idx: -1
         nodes:
            -
               depth: 0
               sample_count: 104862
               value: -5.9780414712949637e-01
               norm_class_idx: 0
               Tn: 0
               complexity: 0
               alpha: 0.
               node_risk: 0.
               tree_risk: 0.
               tree_error: 0.
               splits:
                  - { var:25, quality:6.4515376091003418e-01,
                      le:-4.7474112510681152e+00 }
                  - { var:19, quality:5.4632437229156494e-01,
                      gt:6.9247394800186157e-01 }
                  - { var:24, quality:5.3723621368408203e-01,
                      gt:2.0004634094238281e+02 }
                  - { var:15, quality:5.3484702110290527e-01,
                      gt:9.9935823678970337e-01 }
                  - { var:49, quality:5.3095310926437378e-01,
                      gt:1.9341663360595703e+01 }
                  - { var:14, quality:5.2977836132049561e-01,
                      gt:1.7721050262451172e+01 }
                  - { var:13, quality:5.2977836132049561e-01,
                      gt:1.7721050262451172e+01 }
                  - { var:11, quality:5.2977836132049561e-01,
                      gt:1.7721050262451172e+01 }
                  - { var:22, quality:5.2955895662307739e-01,
                      gt:9.9978685379028320e-01 }
                  - { var:48, quality:5.2946913242340088e-01,
                      gt:2.3091211318969727e+01 }
            -
               depth: 1
               sample_count: 10799
               value: 5.9780414712949637e-01
               norm_class_idx: 1
               Tn: 0
               complexity: 0
               alpha: 0.
               node_risk: 0.
               tree_risk: 0.
               tree_error: 0.
            -
               depth: 1
               sample_count: 94063
               value: -5.9780414712949637e-01
               norm_class_idx: 0
               Tn: 0
               complexity: 0
               alpha: 0.
               node_risk: 0.
               tree_risk: 0.
               tree_error: 0.
      -
         best_tree_idx: -1
         nodes:
            -
               depth: 0
               sample_count: 104862
               value: 5.1414761714780766e-01
               norm_class_idx: 1
               Tn: 0
               complexity: 0
               alpha: 0.
               node_risk: 0.
               tree_risk: 0.
               tree_error: 0.
               splits:
                  - { var:23, quality:6.2577825784683228e-01,
                      le:4.0725701904296875e+02 }
                  - { var:24, quality:5.5767625570297241e-01,
                      le:8.8428672790527344e+01 }
                  - { var:26, quality:5.2472913265228271e-01,
                      le:6.4174089431762695e+00 }
                  - { var:25, quality:5.2399921417236328e-01,
                      le:6.0717172622680664e+00 }
                  - { var:6, quality:5.0183224678039551e-01,
                      le:5.2626770734786987e-01 }
                  - { var:4, quality:5.0079447031021118e-01,
                      le:1.9539469480514526e-01 }
                  - { var:5, quality:4.9999183416366577e-01,
                      le:1.8989410996437073e-01 }
                  - { var:18, quality:4.9819782376289368e-01,
                      le:1.1449904441833496e+00 }
                  - { var:17, quality:4.9397054314613342e-01,
                      le:5.7318329811096191e-01 }
                  - { var:27, quality:4.9248969554901123e-01,
                      le:9.0675216913223267e-01 }
                  - { var:14, quality:4.8948994278907776e-01,
                      le:4.6576783061027527e-01 }
                  - { var:19, quality:4.8708260059356689e-01,
                      le:7.1027433872222900e-01 }
                  - { var:13, quality:4.8571240901947021e-01,
                      le:5.4841572046279907e-01 }
                  - { var:11, quality:4.8525869846343994e-01,
                      le:5.8731693029403687e-01 }
                  - { var:29, quality:4.8501676321029663e-01,
                      le:1.9371431320905685e-02 }
                  - { var:1, quality:4.8415660858154297e-01,
                      le:1.2500000000000000e+01 }
                  - { var:33, quality:4.8321074247360229e-01,
                      le:7.5000000000000000e+00 }
                  - { var:34, quality:4.8050576448440552e-01,
                      le:7.5000000000000000e+00 }
                  - { var:35, quality:4.7857141494750977e-01,
                      le:6.5000000000000000e+00 }
                  - { var:32, quality:4.7788083553314209e-01,
                      le:3.8999962806701660e-01 }
                  - { var:28, quality:4.7751802206039429e-01,
                      le:1.1164432391524315e-02 }
                  - { var:10, quality:4.7573226690292358e-01,
                      le:6.2724230810999870e-03 }
                  - { var:12, quality:4.7231063246726990e-01,
                      le:4.8300479538738728e-03 }
                  - { var:8, quality:4.6940594911575317e-01,
                      le:4.0860813856124878e-01 }
                  - { var:30, quality:4.6687206625938416e-01,
                      gt:5.3295669555664062e+00 }
                  - { var:22, quality:4.6652370691299438e-01,
                      le:9.9328672885894775e-01 }
                  - { var:20, quality:4.6508121490478516e-01,
                      le:3.1777820587158203e+00 }
                  - { var:3, quality:4.6473103761672974e-01,
                      le:1.9151806831359863e-01 }
                  - { var:45, quality:4.6277299523353577e-01,
                      le:4.5000000000000000e+00 }
                  - { var:2, quality:4.6268203854560852e-01,
                      le:3.8249921798706055e-01 }
            -
               depth: 1
               sample_count: 86093
               value: 5.1414761714780766e-01
               norm_class_idx: 1
               Tn: 0
               complexity: 0
               alpha: 0.
               node_risk: 0.
               tree_risk: 0.
               tree_error: 0.
            -
               depth: 1
               sample_count: 18769
               value: -5.1414761714780766e-01
               norm_class_idx: 0
               Tn: 0
               complexity: 0
               alpha: 0.
               node_risk: 0.
               tree_risk: 0.
               tree_error: 0.
      -
         best_tree_idx: -1
         nodes:
            -
               depth: 0
               sample_count: 104862
               value: -4.8064872454645879e-01
               norm_class_idx: 0
               Tn: 0
               complexity: 0
               alpha: 0.
               node_risk: 0.
               tree_risk: 0.
               tree_error: 0.
               splits:
                  - { var:49, quality:6.1790102720260620e-01,
                      le:6.0910434722900391e+00 }
                  - { var:24, quality:4.4227057695388794e-01,
                      le:3.4557293701171875e+02 }
                  - { var:25, quality:4.4220241904258728e-01,
                      gt:-1.6231571197509766e+01 }
                  - { var:23, quality:4.4131758809089661e-01,
                      le:1.3551369628906250e+03 }
                  - { var:26, quality:4.4071117043495178e-01,
                      le:1.8448341369628906e+01 }
                  - { var:48, quality:4.4045338034629822e-01,
                      le:2.1566085815429688e+01 }
                  - { var:36, quality:4.3972244858741760e-01,
                      le:6.5000000000000000e+00 }
                  - { var:38, quality:4.3963775038719177e-01,
                      le:6.5000000000000000e+00 }
                  - { var:1, quality:4.3924471735954285e-01,
                      le:2.6500000000000000e+01 }
                  - { var:30, quality:4.3922036886215210e-01,
                      gt:2.2162771224975586e+00 }
                  - { var:20, quality:4.3910214304924011e-01,
                      le:1.7803581237792969e+01 }
                  - { var:28, quality:4.3875494599342346e-01,
                      le:6.3887208700180054e-02 }
                  - { var:29, quality:4.3874794244766235e-01,
                      le:8.9241556823253632e-02 }
                  - { var:33, quality:4.3874695897102356e-01,
                      le:1.4500000000000000e+01 }
                  - { var:14, quality:4.3874308466911316e-01,
                      le:2.5987518310546875e+01 }
                  - { var:13, quality:4.3874308466911316e-01,
                      le:2.5987518310546875e+01 }
                  - { var:7, quality:4.3873155117034912e-01,
                      le:3.9981210231781006e-01 }
                  - { var:39, quality:4.3872550129890442e-01,
                      le:6.5000000000000000e+00 }
                  - { var:11, quality:4.3872219324111938e-01,
                      le:2.5830856323242188e+01 }
                  - { var:42, quality:4.3870201706886292e-01,
                      le:8.5000000000000000e+00 }
                  - { var:2, quality:4.3869420886039734e-01,
                      le:5.2499914169311523e-01 }
                  - { var:27, quality:4.3868967890739441e-01,
                      gt:-2.5010717773437500e+02 }
            -
               depth: 1
               sample_count: 80563
               value: -4.8064872454645879e-01
               norm_class_idx: 0
               Tn: 0
               complexity: 0
               alpha: 0.
               node_risk: 0.
               tree_risk: 0.
               tree_error: 0.
            -
               depth: 1
               sample_count: 24299
               value: 4.8064872454645879e-01
               norm_class_idx: 1
               Tn: 0
               complexity: 0
               alpha: 0.
               node_risk: 0.
               tree_risk: 0.
               tree_error: 0.
      -
         best_tree_idx: -1
         nodes:
            -
               depth: 0
               sample_count: 104862
               value: 4.4136712821117208e-01
               norm_class_idx: 1
               Tn: 0
               complexity: 0
               alpha: 0.
               node_risk: 0.
               tree_risk: 0.
               tree_error: 0.
               splits:
                  - { var:30, quality:6.0858476161956787e-01,
                      le:1.6082841873168945e+01 }
                  - { var:7, quality:4.9424427747726440e-01,
                      le:1.4084930717945099e-01 }
                  - { var:19, quality:4.0988859534263611e-01,
                      le:6.8254840373992920e-01 }
                  - { var:20, quality:4.0566182136535645e-01,
                      gt:1.8684231042861938e+00 }
                  - { var:24, quality:3.9566588401794434e-01,
                      le:1.7354618835449219e+02 }
                  - { var:25, quality:3.9436230063438416e-01,
                      gt:-9.6680812835693359e+00 }
                  - { var:47, quality:3.9264211058616638e-01,
                      le:9.9169349670410156e-01 }
                  - { var:29, quality:3.9002811908721924e-01,
                      gt:5.1978098781546578e-05 }
                  - { var:1, quality:3.9002811908721924e-01,
                      gt:3.5000000000000000e+00 }
                  - { var:8, quality:3.8979256153106689e-01,
                      le:1.6519607603549957e-01 }
                  - { var:3, quality:3.8977032899856567e-01,
                      gt:4.4715986587107182e-03 }
                  - { var:10, quality:3.8560226559638977e-01,
                      gt:1.8131195247406140e-05 }
                  - { var:28, quality:3.8127517700195312e-01,
                      gt:3.2354015856981277e-03 }
                  - { var:31, quality:3.7745586037635803e-01,
                      gt:2.1066857698315289e-06 }
                  - { var:23, quality:3.7745279073715210e-01,
                      gt:2.7461485005915165e-03 }
                  - { var:22, quality:3.7745279073715210e-01,
                      gt:3.1379997730255127e-01 }
                  - { var:21, quality:3.7745279073715210e-01,
                      gt:7.8539818525314331e-01 }
                  - { var:18, quality:3.7745279073715210e-01,
                      gt:2.7037290856242180e-02 }
                  - { var:17, quality:3.7745279073715210e-01,
                      gt:1.5517987310886383e-02 }
                  - { var:15, quality:3.7745279073715210e-01,
                      gt:2.2548295091837645e-03 }
                  - { var:11, quality:3.7745279073715210e-01,
                      gt:5.7738074101507664e-03 }
                  - { var:13, quality:3.7740054726600647e-01,
                      gt:2.9645864851772785e-03 }
                  - { var:9, quality:3.7664780020713806e-01,
                      le:8.7478995323181152e-01 }
                  - { var:49, quality:3.7658092379570007e-01,
                      le:1.2400184631347656e+01 }
                  - { var:27, quality:3.7084650993347168e-01,
                      gt:-5.8596301078796387e-01 }
                  - { var:32, quality:3.6886343359947205e-01,
                      gt:9.9987983703613281e-03 }
                  - { var:48, quality:3.6860924959182739e-01,
                      le:1.5600144386291504e+01 }
                  - { var:2, quality:3.6859652400016785e-01,
                      gt:9.9990367889404297e-03 }
                  - { var:37, quality:3.6843660473823547e-01,
                      gt:5.0000000000000000e-01 }
                  - { var:36, quality:3.6843660473823547e-01,
                      gt:5.0000000000000000e-01 }
                  - { var:34, quality:3.6843660473823547e-01,
                      gt:5.0000000000000000e-01 }
                  - { var:33, quality:3.6843660473823547e-01,
                      gt:5.0000000000000000e-01 }
                  - { var:6, quality:3.6843660473823547e-01,
                      gt:-4.8856773972511292e-01 }
                  - { var:5, quality:3.6843660473823547e-01,
                      gt:5.4811327718198299e-03 }
                  - { var:4, quality:3.6843660473823547e-01,
                      gt:5.3463741205632687e-03 }
                  - { var:14, quality:3.6728072166442871e-01,
                      gt:1.4322392642498016e-01 }
                  - { var:26, quality:3.6562800407409668e-01,
                      le:1.5506331443786621e+01 }
                  - { var:12, quality:3.5706546902656555e-01,
                      le:5.9273160994052887e-02 }
            -
               depth: 1
               sample_count: 37513
               value: 4.4136712821117208e-01
               norm_class_idx: 1
               Tn: 0
               complexity: 0
               alpha: 0.
               node_risk: 0.
               tree_risk: 0.
               tree_error: 0.
            -
               depth: 1
               sample_count: 67349
               value: -4.4136712821117208e-01
               norm_class_idx: 0
               Tn: 0
               complexity: 0
               alpha: 0.
               node_risk: 0.
               tree_risk: 0.
               tree_error: 0.
      -
         best_tree_idx: -1
         nodes:
            -
               depth: 0
               sample_count: 104862
               value: -3.3547488933543168e-01
               norm_class_idx: 0
               Tn: 0
               complexity: 0
               alpha: 0.
               node_risk: 0.
               tree_risk: 0.
               tree_error: 0.
               splits:
                  - { var:1, quality:5.8309090137481689e-01,
                      le:5.5000000000000000e+00 }
                  - { var:29, quality:5.2374482154846191e-01,
                      le:1.4934876933693886e-02 }
                  - { var:33, quality:5.1327073574066162e-01,
                      le:3.5000000000000000e+00 }
                  - { var:20, quality:5.1023274660110474e-01,
                      le:2.4810986518859863e+00 }
                  - { var:17, quality:5.0858533382415771e-01,
                      le:5.2536654472351074e-01 }
                  - { var:34, quality:5.0430607795715332e-01,
                      le:3.5000000000000000e+00 }
                  - { var:18, quality:5.0295448303222656e-01,
                      le:9.6401453018188477e-01 }
                  - { var:10, quality:5.0220477581024170e-01,
                      le:5.4960213601589203e-03 }
                  - { var:31, quality:5.0010806322097778e-01,
                      le:2.3003255948424339e-02 }
                  - { var:35, quality:4.9988946318626404e-01,
                      le:3.5000000000000000e+00 }
                  - { var:6, quality:4.9462893605232239e-01,
                      le:7.1167051792144775e-01 }
                  - { var:32, quality:4.8807990550994873e-01,
                      le:3.4999895095825195e-01 }
                  - { var:12, quality:4.8628985881805420e-01,
                      le:4.5057889656163752e-04 }
                  - { var:36, quality:4.8487731814384460e-01,
                      le:2.5000000000000000e+00 }
                  - { var:3, quality:4.8374819755554199e-01,
                      le:8.2099037244915962e-03 }
                  - { var:4, quality:4.8370474576950073e-01,
                      le:2.2509935498237610e-01 }
                  - { var:28, quality:4.8327538371086121e-01,
                      le:1.1087318882346153e-02 }
                  - { var:5, quality:4.8213750123977661e-01,
                      le:2.2721928358078003e-01 }
                  - { var:37, quality:4.8146426677703857e-01,
                      le:2.5000000000000000e+00 }
                  - { var:30, quality:4.7200545668601990e-01,
                      gt:5.3396420478820801e+00 }
                  - { var:38, quality:4.5831283926963806e-01,
                      le:2.5000000000000000e+00 }
                  - { var:41, quality:4.5152431726455688e-01,
                      le:2.5000000000000000e+00 }
                  - { var:40, quality:4.4955664873123169e-01,
                      le:3.5000000000000000e+00 }
                  - { var:42, quality:4.4741395115852356e-01,
                      le:2.5000000000000000e+00 }
                  - { var:14, quality:4.4730097055435181e-01,
                      le:4.3898344039916992e-01 }
                  - { var:26, quality:4.4427996873855591e-01,
                      le:7.2761666961014271e-03 }
                  - { var:8, quality:4.4183710217475891e-01,
                      le:3.2965338230133057e-01 }
                  - { var:25, quality:4.4174215197563171e-01,
                      le:2.9428941011428833e-01 }
                  - { var:44, quality:4.4094550609588623e-01,
                      le:2.5000000000000000e+00 }
                  - { var:45, quality:4.4026321172714233e-01,
                      le:2.5000000000000000e+00 }
                  - { var:43, quality:4.3902555108070374e-01,
                      le:3.5000000000000000e+00 }
                  - { var:46, quality:4.3313503265380859e-01,
                      le:3.5000000000000000e+00 }
                  - { var:23, quality:4.3282333016395569e-01,
                      le:2.1655561523437500e+03 }
                  - { var:11, quality:4.3222045898437500e-01,
                      le:2.3656766116619110e-01 }
                  - { var:27, quality:4.3154025077819824e-01,
                      gt:-2.2185987472534180e+01 }
                  - { var:48, quality:4.3150222301483154e-01,
                      le:3.7200313568115234e+01 }
                  - { var:49, quality:4.3149235844612122e-01,
                      le:3.4215270996093750e+01 }
                  - { var:22, quality:4.3143120408058167e-01,
                      le:9.9998366832733154e-01 }
            -
               depth: 1
               sample_count: 84685
               value: 3.3547488933543168e-01
               norm_class_idx: 1
               Tn: 0
               complexity: 0
               alpha: 0.
               node_risk: 0.
               tree_risk: 0.
               tree_error: 0.
            -
               depth: 1
               sample_count: 20177
               value: -3.3547488933543168e-01
               norm_class_idx: 0
               Tn: 0
               complexity: 0
               alpha: 0.
               node_risk: 0.
               tree_risk: 0.
               tree_error: 0.
      -
         best_tree_idx: -1
         nodes:
            -
               depth: 0
               sample_count: 104862
               value: -3.8246749329905727e-01
               norm_class_idx: 0
               Tn: 0
               complexity: 0
               alpha: 0.
               node_risk: 0.
               tree_risk: 0.
               tree_error: 0.
               splits:
                  - { var:30, quality:5.9446811676025391e-01,
                      le:2.4382266998291016e+01 }
                  - { var:25, quality:5.5694222450256348e-01,
                      gt:-1.6817003250122070e+01 }
                  - { var:24, quality:5.5128717422485352e-01,
                      le:3.2708270263671875e+02 }
                  - { var:7, quality:5.4972624778747559e-01,
                      le:2.2293037176132202e-01 }
                  - { var:19, quality:5.4873055219650269e-01,
                      le:9.4054198265075684e-01 }
                  - { var:23, quality:5.4596197605133057e-01,
                      le:1.6297482910156250e+03 }
                  - { var:14, quality:5.4514265060424805e-01,
                      le:2.5987518310546875e+01 }
                  - { var:13, quality:5.4514265060424805e-01,
                      le:2.5987518310546875e+01 }
                  - { var:11, quality:5.4514265060424805e-01,
                      le:2.5987518310546875e+01 }
                  - { var:49, quality:5.4507762193679810e-01,
                      le:3.7250312805175781e+01 }
                  - { var:48, quality:5.4505336284637451e-01,
                      le:4.4305149078369141e+01 }
            -
               depth: 1
               sample_count: 97653
               value: -3.8246749329905727e-01
               norm_class_idx: 0
               Tn: 0
               complexity: 0
               alpha: 0.
               node_risk: 0.
               tree_risk: 0.
               tree_error: 0.
            -
               depth: 1
               sample_count: 7209
               value: 3.8246749329905727e-01
               norm_class_idx: 1
               Tn: 0
               complexity: 0
               alpha: 0.
               node_risk: 0.
               tree_risk: 0.
               tree_error: 0.
      -
         best_tree_idx: -1
         nodes:
            -
               depth: 0
               sample_count: 104862
               value: 3.5859332157673129e-01
               norm_class_idx: 1
               Tn: 0
               complexity: 0
               alpha: 0.
               node_risk: 0.
               tree_risk: 0.
               tree_error: 0.
               splits:
                  - { var:48, quality:5.8869987726211548e-01,
                      le:1.5323536396026611e+00 }
                  - { var:49, quality:3.9782196283340454e-01,
                      le:4.6214711666107178e-01 }
                  - { var:32, quality:3.9548310637474060e-01,
                      gt:1.0600001811981201e+00 }
                  - { var:2, quality:3.9546093344688416e-01,
                      gt:3.0166691541671753e-01 }
                  - { var:7, quality:3.9515000581741333e-01,
                      gt:3.4593749046325684e-01 }
                  - { var:3, quality:3.9483231306076050e-01,
                      gt:2.1134459972381592e-01 }
                  - { var:28, quality:3.9457511901855469e-01,
                      gt:5.1230680197477341e-02 }
                  - { var:23, quality:3.9430212974548340e-01,
                      gt:2.4216938476562500e+03 }
                  - { var:22, quality:3.9410004019737244e-01,
                      gt:9.9973142147064209e-01 }
                  - { var:30, quality:3.9409291744232178e-01,
                      gt:4.0329811096191406e+01 }
                  - { var:25, quality:3.9404690265655518e-01,
                      le:-2.9261323928833008e+01 }
                  - { var:24, quality:3.9404064416885376e-01,
                      gt:7.9246533203125000e+02 }
                  - { var:45, quality:3.9403313398361206e-01,
                      gt:4.5000000000000000e+00 }
                  - { var:19, quality:3.9402675628662109e-01,
                      gt:1.1965312957763672e+00 }
                  - { var:29, quality:3.9397644996643066e-01,
                      gt:7.7743187546730042e-02 }
                  - { var:46, quality:3.9397513866424561e-01,
                      gt:4.5000000000000000e+00 }
                  - { var:18, quality:3.9392167329788208e-01,
                      gt:7.9452066421508789e+00 }
                  - { var:6, quality:3.9392066001892090e-01,
                      gt:3.6274290084838867e+00 }
                  - { var:17, quality:3.9391538500785828e-01,
                      gt:4.3448729515075684e+00 }
                  - { var:5, quality:3.9391332864761353e-01,
                      gt:1.0834653377532959e+00 }
                  - { var:4, quality:3.9391332864761353e-01,
                      gt:1.0824317932128906e+00 }
                  - { var:41, quality:3.9390835165977478e-01,
                      gt:8.5000000000000000e+00 }
                  - { var:14, quality:3.9390623569488525e-01,
                      gt:1.4707070922851562e+02 }
                  - { var:13, quality:3.9390623569488525e-01,
                      gt:1.4707070922851562e+02 }
                  - { var:11, quality:3.9390623569488525e-01,
                      gt:1.4707070922851562e+02 }
                  - { var:12, quality:3.9390569925308228e-01,
                      gt:7.8793033957481384e-02 }
                  - { var:34, quality:3.9390182495117188e-01,
                      gt:1.6500000000000000e+01 }
            -
               depth: 1
               sample_count: 47307
               value: -3.5859332157673129e-01
               norm_class_idx: 0
               Tn: 0
               complexity: 0
               alpha: 0.
               node_risk: 0.
               tree_risk: 0.
               tree_error: 0.
            -
               depth: 1
               sample_count: 57555
               value: 3.5859332157673129e-01
               norm_class_idx: 1
               Tn: 0
               complexity: 0
               alpha: 0.
               node_risk: 0.
               tree_risk: 0.
               tree_error: 0.
      -
         best_tree_idx: -1
         nodes:
            -
               depth: 0
               sample_count: 104862
               value: -2.2315819764032876e-01
               norm_class_idx: 0
               Tn: 0
               complexity: 0
               alpha: 0.
               node_risk: 0.
               tree_risk: 0.
               tree_error: 0.
               splits:
                  - { var:49, quality:5.5555915832519531e-01,
                      le:1.2799853086471558e+00 }
                  - { var:33, quality:3.8783037662506104e-01,
                      gt:8.5000000000000000e+00 }
                  - { var:1, quality:3.8670966029167175e-01,
                      gt:1.3500000000000000e+01 }
                  - { var:35, quality:3.8622632622718811e-01,
                      gt:7.5000000000000000e+00 }
                  - { var:34, quality:3.8525557518005371e-01,
                      gt:9.5000000000000000e+00 }
                  - { var:30, quality:3.8364908099174500e-01,
                      le:6.6918354034423828e+00 }
                  - { var:2, quality:3.7911421060562134e-01,
                      gt:2.1291741728782654e-01 }
                  - { var:17, quality:3.7854123115539551e-01,
                      gt:1.7864863872528076e+00 }
                  - { var:4, quality:3.7831065058708191e-01,
                      gt:5.5667591094970703e-01 }
                  - { var:5, quality:3.7821415066719055e-01,
                      gt:5.6031489372253418e-01 }
                  - { var:6, quality:3.7812566757202148e-01,
                      gt:1.7065447568893433e+00 }
                  - { var:10, quality:3.7801739573478699e-01,
                      gt:1.8713849782943726e-01 }
                  - { var:18, quality:3.7749692797660828e-01,
                      gt:4.0946745872497559e+00 }
                  - { var:8, quality:3.7734553217887878e-01,
                      gt:4.1227012872695923e-01 }
                  - { var:7, quality:3.7702399492263794e-01,
                      gt:3.0010354518890381e-01 }
                  - { var:31, quality:3.7647229433059692e-01,
                      gt:3.4490555524826050e-01 }
                  - { var:27, quality:3.7625688314437866e-01,
                      le:-1.5560610294342041e+00 }
                  - { var:14, quality:3.7622722983360291e-01,
                      gt:1.7127693176269531e+01 }
                  - { var:13, quality:3.7622722983360291e-01,
                      gt:1.7127693176269531e+01 }
                  - { var:11, quality:3.7622722983360291e-01,
                      gt:1.7127693176269531e+01 }
                  - { var:19, quality:3.7613996863365173e-01,
                      gt:1.2444592714309692e+00 }
                  - { var:22, quality:3.7605011463165283e-01,
                      gt:9.9989062547683716e-01 }
                  - { var:23, quality:3.7600106000900269e-01,
                      gt:2.9570273437500000e+03 }
                  - { var:12, quality:3.7599417567253113e-01,
                      gt:6.8519130349159241e-02 }
                  - { var:25, quality:3.7596565485000610e-01,
                      gt:1.6723907470703125e+01 }
                  - { var:36, quality:3.7591701745986938e-01,
                      gt:1.3500000000000000e+01 }
                  - { var:48, quality:3.7590721249580383e-01,
                      gt:4.4160163879394531e+01 }
            -
               depth: 1
               sample_count: 42947
               value: -2.2315819764032876e-01
               norm_class_idx: 0
               Tn: 0
               complexity: 0
               alpha: 0.
               node_risk: 0.
               tree_risk: 0.
               tree_error: 0.
            -
               depth: 1
               sample_count: 61915
               value: 2.2315819764032876e-01
               norm_class_idx: 1
               Tn: 0
               complexity: 0
               alpha: 0.
               node_risk: 0.
               tree_risk: 0.
               tree_error: 0.
      -
         best_tree_idx: -1
         nodes:
            -
               depth: 0
               sample_count: 104862
               value: -2.7046244959791499e-01
               norm_class_idx: 0
               Tn: 0
               complexity: 0
               alpha: 0.
               node_risk: 0.
               tree_risk: 0.
               tree_error: 0.
               splits:
                  - { var:25, quality:5.6720644235610962e-01,
                      le:-4.6378140449523926e+00 }
                  - { var:19, quality:4.8641836643218994e-01,
                      gt:6.9247394800186157e-01 }
                  - { var:24, quality:4.7849020361900330e-01,
                      gt:1.7386833190917969e+02 }
                  - { var:15, quality:4.7311863303184509e-01,
                      gt:9.9604082107543945e-01 }
                  - { var:23, quality:4.6459314227104187e-01,
                      gt:9.6518853759765625e+02 }
                  - { var:14, quality:4.6360871195793152e-01,
                      gt:1.7721050262451172e+01 }
                  - { var:13, quality:4.6360871195793152e-01,
                      gt:1.7721050262451172e+01 }
                  - { var:11, quality:4.6360871195793152e-01,
                      gt:1.7721050262451172e+01 }
                  - { var:22, quality:4.6324691176414490e-01,
                      gt:9.9988031387329102e-01 }
            -
               depth: 1
               sample_count: 10905
               value: 2.7046244959791499e-01
               norm_class_idx: 1
               Tn: 0
               complexity: 0
               alpha: 0.
               node_risk: 0.
               tree_risk: 0.
               tree_error: 0.
            -
               depth: 1
               sample_count: 93957
               value: -2.7046244959791499e-01
               norm_class_idx: 0
               Tn: 0
               complexity: 0
               alpha: 0.
               node_risk: 0.
               tree_risk: 0.
               tree_error: 0.
      -
         best_tree_idx: -1
         nodes:
            -
               depth: 0
               sample_count: 104862
               value: 2.9902205318874198e-01
               norm_class_idx: 1
               Tn: 0
               complexity: 0
               alpha: 0.
               node_risk: 0.
               tree_risk: 0.
               tree_error: 0.
               splits:
                  - { var:14, quality:5.7420343160629272e-01,
                      le:4.4717973470687866e-01 }
                  - { var:11, quality:5.4920053482055664e-01,
                      le:3.6421900987625122e-01 }
                  - { var:13, quality:5.3347301483154297e-01,
                      le:4.0990287065505981e-01 }
                  - { var:6, quality:5.0417298078536987e-01,
                      le:7.0656567811965942e-01 }
                  - { var:4, quality:4.9786335229873657e-01,
                      le:2.6837691664695740e-01 }
                  - { var:5, quality:4.9556523561477661e-01,
                      le:2.7954062819480896e-01 }
                  - { var:18, quality:4.9126276373863220e-01,
                      le:1.7394275665283203e+00 }
                  - { var:17, quality:4.8289480805397034e-01,
                      le:9.0467178821563721e-01 }
                  - { var:32, quality:4.7712144255638123e-01,
                      le:3.7000060081481934e-01 }
                  - { var:36, quality:4.7630816698074341e-01,
                      le:3.5000000000000000e+00 }
                  - { var:29, quality:4.7471693158149719e-01,
                      le:3.9539247751235962e-02 }
                  - { var:10, quality:4.7126668691635132e-01,
                      le:3.5281751304864883e-02 }
                  - { var:35, quality:4.7096601128578186e-01,
                      le:3.5000000000000000e+00 }
                  - { var:38, quality:4.7045972943305969e-01,
                      le:3.5000000000000000e+00 }
                  - { var:28, quality:4.6982583403587341e-01,
                      le:2.6029501110315323e-02 }
                  - { var:41, quality:4.6865481138229370e-01,
                      le:2.5000000000000000e+00 }
                  - { var:12, quality:4.6848422288894653e-01,
                      le:8.6242668330669403e-03 }
                  - { var:33, quality:4.6836775541305542e-01,
                      le:6.5000000000000000e+00 }
                  - { var:40, quality:4.6759322285652161e-01,
                      le:2.5000000000000000e+00 }
                  - { var:42, quality:4.6716627478599548e-01,
                      le:2.5000000000000000e+00 }
                  - { var:1, quality:4.6602907776832581e-01,
                      le:1.0500000000000000e+01 }
                  - { var:39, quality:4.6586099267005920e-01,
                      le:2.5000000000000000e+00 }
                  - { var:34, quality:4.6570956707000732e-01,
                      le:3.5000000000000000e+00 }
                  - { var:23, quality:4.6477049589157104e-01,
                      le:8.3155981445312500e+02 }
                  - { var:31, quality:4.6382084488868713e-01,
                      le:1.0391573607921600e-01 }
                  - { var:44, quality:4.6335211396217346e-01,
                      le:2.5000000000000000e+00 }
                  - { var:45, quality:4.6178308129310608e-01,
                      le:2.5000000000000000e+00 }
                  - { var:46, quality:4.5895656943321228e-01,
                      le:2.5000000000000000e+00 }
                  - { var:19, quality:4.5826455950737000e-01,
                      le:7.6973921060562134e-01 }
                  - { var:25, quality:4.5634999871253967e-01,
                      gt:-1.5707590103149414e+01 }
                  - { var:24, quality:4.5626989006996155e-01,
                      le:3.2845690917968750e+02 }
                  - { var:8, quality:4.5494821667671204e-01,
                      le:3.2900035381317139e-01 }
                  - { var:37, quality:4.5215702056884766e-01,
                      le:2.5000000000000000e+00 }
                  - { var:26, quality:4.5201262831687927e-01,
                      le:1.8873016357421875e+01 }
                  - { var:2, quality:4.4985559582710266e-01,
                      le:5.2499914169311523e-01 }
                  - { var:3, quality:4.4984850287437439e-01,
                      le:3.3672618865966797e-01 }
                  - { var:27, quality:4.4984745979309082e-01,
                      gt:-2.7321918487548828e+01 }
                  - { var:49, quality:4.4984528422355652e-01,
                      le:4.5230091094970703e+01 }
            -
               depth: 1
               sample_count: 84289
               value: 2.9902205318874198e-01
               norm_class_idx: 1
               Tn: 0
               complexity: 0
               alpha: 0.
               node_risk: 0.
               tree_risk: 0.
               tree_error: 0.
            -
               depth: 1
               sample_count: 20573
               value: -2.9902205318874198e-01
               norm_class_idx: 0
               Tn: 0
               complexity: 0
               alpha: 0.
               node_risk: 0.
               tree_risk: 0.
               tree_error: 0.
      -
         best_tree_idx: -1
         nodes:
            -
               depth: 0
               sample_count: 104862
               value: -2.4309609200158375e-01
               norm_class_idx: 0
               Tn: 0
               complexity: 0
               alpha: 0.
               node_risk: 0.
               tree_risk: 0.
               tree_error: 0.
               splits:
                  - { var:30, quality:5.6047648191452026e-01,
                      le:1.2329647064208984e+01 }
                  - { var:7, quality:4.4072577357292175e-01,
                      le:1.0785994678735733e-01 }
                  - { var:20, quality:4.2678987979888916e-01,
                      gt:2.3508813381195068e+00 }
                  - { var:1, quality:4.0124091506004333e-01,
                      gt:5.5000000000000000e+00 }
                  - { var:33, quality:3.7719511985778809e-01,
                      gt:3.5000000000000000e+00 }
                  - { var:3, quality:3.7587463855743408e-01,
                      gt:1.1556568555533886e-02 }
                  - { var:26, quality:3.7218952178955078e-01,
                      gt:3.4934794530272484e-04 }
                  - { var:25, quality:3.7213215231895447e-01,
                      gt:1.9240237772464752e-01 }
                  - { var:29, quality:3.7176117300987244e-01,
                      gt:4.0143374353647232e-03 }
                  - { var:10, quality:3.7052604556083679e-01,
                      gt:1.8131195247406140e-05 }
                  - { var:34, quality:3.7046819925308228e-01,
                      gt:2.5000000000000000e+00 }
                  - { var:27, quality:3.6959853768348694e-01,
                      gt:7.5024849176406860e-01 }
                  - { var:35, quality:3.6662113666534424e-01,
                      gt:2.5000000000000000e+00 }
                  - { var:31, quality:3.6121284961700439e-01,
                      gt:1.7596017569303513e-02 }
                  - { var:8, quality:3.5626098513603210e-01,
                      le:1.4057144522666931e-01 }
                  - { var:32, quality:3.5542947053909302e-01,
                      gt:3.8999962806701660e-01 }
                  - { var:22, quality:3.5400158166885376e-01,
                      gt:9.0775483846664429e-01 }
                  - { var:12, quality:3.5279864072799683e-01,
                      gt:7.3041541327256709e-05 }
                  - { var:36, quality:3.5155680775642395e-01,
                      gt:2.5000000000000000e+00 }
                  - { var:37, quality:3.4985363483428955e-01,
                      gt:2.5000000000000000e+00 }
                  - { var:47, quality:3.4877583384513855e-01,
                      le:9.7768616676330566e-01 }
                  - { var:9, quality:3.4592422842979431e-01,
                      le:6.6910076141357422e-01 }
                  - { var:19, quality:3.4150415658950806e-01,
                      le:5.3504759073257446e-01 }
                  - { var:17, quality:3.4135624766349792e-01,
                      gt:1.3964059352874756e+00 }
                  - { var:38, quality:3.4085831046104431e-01,
                      gt:5.5000000000000000e+00 }
                  - { var:48, quality:3.4061908721923828e-01,
                      gt:1.1570179939270020e+01 }
                  - { var:39, quality:3.4027141332626343e-01,
                      gt:5.5000000000000000e+00 }
                  - { var:49, quality:3.3785650134086609e-01,
                      le:4.0089413523674011e-01 }
                  - { var:28, quality:3.3761742711067200e-01,
                      gt:4.9243117682635784e-03 }
                  - { var:40, quality:3.3739441633224487e-01,
                      gt:6.5000000000000000e+00 }
                  - { var:41, quality:3.3728951215744019e-01,
                      gt:6.5000000000000000e+00 }
                  - { var:42, quality:3.3721852302551270e-01,
                      gt:6.5000000000000000e+00 }
                  - { var:44, quality:3.3721348643302917e-01,
                      gt:5.5000000000000000e+00 }
                  - { var:45, quality:3.3718508481979370e-01,
                      gt:5.5000000000000000e+00 }
                  - { var:43, quality:3.3714780211448669e-01,
                      gt:5.5000000000000000e+00 }
                  - { var:46, quality:3.3710896968841553e-01,
                      gt:5.5000000000000000e+00 }
                  - { var:2, quality:3.3707553148269653e-01,
                      gt:5.2499914169311523e-01 }
            -
               depth: 1
               sample_count: 24596
               value: 2.4309609200158375e-01
               norm_class_idx: 1
               Tn: 0
               complexity: 0
               alpha: 0.
               node_risk: 0.
               tree_risk: 0.
               tree_error: 0.
            -
               depth: 1
               sample_count: 80266
               value: -2.4309609200158375e-01
               norm_class_idx: 0
               Tn: 0
               complexity: 0
               alpha: 0.
               node_risk: 0.
               tree_risk: 0.
               tree_error: 0.
      -
         best_tree_idx: -1
         nodes:
            -
               depth: 0
               sample_count: 104862
               value: -2.3195297181707841e-01
               norm_class_idx: 0
               Tn: 0
               complexity: 0
               alpha: 0.
               node_risk: 0.
               tree_risk: 0.
               tree_error: 0.
               splits:
                  - { var:47, quality:5.5772966146469116e-01,
                      le:9.9039268493652344e-01 }
                  - { var:9, quality:4.9723878502845764e-01,
                      le:8.2000184059143066e-01 }
                  - { var:28, quality:4.4635584950447083e-01,
                      gt:-5.0000000000000000e-01 }
                  - { var:7, quality:4.2869114875793457e-01,
                      le:1.6270595788955688e-01 }
                  - { var:25, quality:4.1475173830986023e-01,
                      gt:-9.1508426666259766e+00 }
                  - { var:24, quality:4.1050386428833008e-01,
                      le:1.7086520385742188e+02 }
                  - { var:15, quality:4.0681689977645874e-01,
                      le:9.7421789169311523e-01 }
                  - { var:19, quality:4.0446427464485168e-01,
                      le:7.6596683263778687e-01 }
                  - { var:13, quality:3.9892002940177917e-01,
                      le:8.1443309783935547e-01 }
                  - { var:27, quality:3.9842996001243591e-01,
                      le:9.9395579099655151e-01 }
                  - { var:30, quality:3.9833709597587585e-01,
                      le:2.5622379302978516e+01 }
                  - { var:11, quality:3.9792883396148682e-01,
                      le:9.5748889446258545e-01 }
                  - { var:14, quality:3.9713922142982483e-01,
                      le:1.2705476284027100e+00 }
                  - { var:49, quality:3.9547485113143921e-01,
                      le:1.9330980300903320e+01 }
                  - { var:48, quality:3.9527711272239685e-01,
                      le:1.8870368957519531e+01 }
                  - { var:23, quality:3.9520347118377686e-01,
                      le:1.3859245605468750e+03 }
                  - { var:26, quality:3.9474347233772278e-01,
                      le:1.8873016357421875e+01 }
                  - { var:22, quality:3.9430546760559082e-01,
                      le:9.9988031387329102e-01 }
            -
               depth: 1
               sample_count: 81179
               value: -2.3195297181707841e-01
               norm_class_idx: 0
               Tn: 0
               complexity: 0
               alpha: 0.
               node_risk: 0.
               tree_risk: 0.
               tree_error: 0.
            -
               depth: 1
               sample_count: 23683
               value: 2.3195297181707841e-01
               norm_class_idx: 1
               Tn: 0
               complexity: 0
               alpha: 0.
               node_risk: 0.
               tree_risk: 0.
               tree_error: 0.
      -
         best_tree_idx: -1
         nodes:
            -
               depth: 0
               sample_count: 104862
               value: 1.9599048008033823e-01
               norm_class_idx: 1
               Tn: 0
               complexity: 0
               alpha: 0.
               node_risk: 0.
               tree_risk: 0.
               tree_error: 0.
               splits:
                  - { var:20, quality:5.4884135723114014e-01,
                      le:2.8073995113372803e+00 }
                  - { var:30, quality:4.8680809140205383e-01,
                      gt:5.7798991203308105e+00 }
                  - { var:1, quality:4.8198592662811279e-01,
                      le:6.5000000000000000e+00 }
                  - { var:33, quality:4.7067001461982727e-01,
                      le:5.5000000000000000e+00 }
                  - { var:34, quality:4.6510130167007446e-01,
                      le:4.5000000000000000e+00 }
                  - { var:35, quality:4.6152213215827942e-01,
                      le:5.5000000000000000e+00 }
                  - { var:10, quality:4.5863884687423706e-01,
                      le:5.7117519900202751e-03 }
                  - { var:17, quality:4.5553851127624512e-01,
                      le:1.4836485385894775e+00 }
                  - { var:18, quality:4.5356547832489014e-01,
                      le:2.4877748489379883e+00 }
                  - { var:8, quality:4.5322915911674500e-01,
                      le:3.9990133047103882e-01 }
                  - { var:36, quality:4.5303326845169067e-01,
                      le:4.5000000000000000e+00 }
                  - { var:12, quality:4.5193305611610413e-01,
                      le:4.4249355792999268e-02 }
                  - { var:42, quality:4.5186406373977661e-01,
                      le:4.5000000000000000e+00 }
                  - { var:32, quality:4.5176750421524048e-01,
                      le:7.3500013351440430e-01 }
                  - { var:48, quality:4.5175391435623169e-01,
                      le:3.8985153198242188e+01 }
                  - { var:37, quality:4.5174911618232727e-01,
                      le:7.5000000000000000e+00 }
                  - { var:4, quality:4.5173397660255432e-01,
                      le:7.2272610664367676e-01 }
                  - { var:6, quality:4.5173311233520508e-01,
                      le:2.3859739303588867e+00 }
                  - { var:5, quality:4.5172861218452454e-01,
                      le:7.2284823656082153e-01 }
                  - { var:49, quality:4.5172858238220215e-01,
                      le:4.4305149078369141e+01 }
                  - { var:31, quality:4.5172643661499023e-01,
                      le:7.9935610294342041e-01 }
                  - { var:22, quality:4.5172443985939026e-01,
                      le:9.9998617172241211e-01 }
                  - { var:29, quality:4.5172363519668579e-01,
                      le:1.1618329584598541e-01 }
                  - { var:3, quality:4.5172363519668579e-01,
                      le:3.3672618865966797e-01 }
                  - { var:46, quality:4.5172166824340820e-01,
                      le:6.5000000000000000e+00 }
                  - { var:41, quality:4.5172166824340820e-01,
                      le:9.5000000000000000e+00 }
                  - { var:40, quality:4.5172166824340820e-01,
                      le:9.5000000000000000e+00 }
                  - { var:27, quality:4.5172157883644104e-01,
                      gt:-2.5010717773437500e+02 }
                  - { var:44, quality:4.5171967148780823e-01,
                      le:6.5000000000000000e+00 }
            -
               depth: 1
               sample_count: 92793
               value: 1.9599048008033823e-01
               norm_class_idx: 1
               Tn: 0
               complexity: 0
               alpha: 0.
               node_risk: 0.
               tree_risk: 0.
               tree_error: 0.
            -
               depth: 1
               sample_count: 12069
               value: -1.9599048008033823e-01
               norm_class_idx: 0
               Tn: 0
               complexity: 0
               alpha: 0.
               node_risk: 0.
               tree_risk: 0.
               tree_error: 0.
      -
         best_tree_idx: -1
         nodes:
            -
               depth: 0
               sample_count: 104862
               value: -2.2497335005275904e-01
               norm_class_idx: 0
               Tn: 0
               complexity: 0
               alpha: 0.
               node_risk: 0.
               tree_risk: 0.
               tree_error: 0.
               splits:
                  - { var:9, quality:5.5600732564926147e-01,
                      le:5.2301299571990967e-01 }
                  - { var:47, quality:5.0711405277252197e-01,
                      le:9.7479975223541260e-01 }
                  - { var:7, quality:4.7641995549201965e-01,
                      le:6.7022383213043213e-02 }
                  - { var:46, quality:4.5050129294395447e-01,
                      le:5.0000000000000000e-01 }
                  - { var:45, quality:4.5050129294395447e-01,
                      le:5.0000000000000000e-01 }
                  - { var:44, quality:4.5050129294395447e-01,
                      le:5.0000000000000000e-01 }
                  - { var:43, quality:4.5050129294395447e-01,
                      le:5.0000000000000000e-01 }
                  - { var:42, quality:4.5050129294395447e-01,
                      le:5.0000000000000000e-01 }
                  - { var:41, quality:4.5050129294395447e-01,
                      le:5.0000000000000000e-01 }
                  - { var:40, quality:4.5050129294395447e-01,
                      le:5.0000000000000000e-01 }
                  - { var:39, quality:4.5050129294395447e-01,
                      le:5.0000000000000000e-01 }
                  - { var:38, quality:4.5050129294395447e-01,
                      le:5.0000000000000000e-01 }
                  - { var:37, quality:4.5050129294395447e-01,
                      le:5.0000000000000000e-01 }
                  - { var:36, quality:4.5050129294395447e-01,
                      le:5.0000000000000000e-01 }
                  - { var:35, quality:4.5050129294395447e-01,
                      le:5.0000000000000000e-01 }
                  - { var:34, quality:4.5050129294395447e-01,
                      le:5.0000000000000000e-01 }
                  - { var:33, quality:4.5050129294395447e-01,
                      le:5.0000000000000000e-01 }
                  - { var:26, quality:4.5050129294395447e-01,
                      le:-5.0000000000000000e-01 }
                  - { var:24, quality:4.5050129294395447e-01,
                      le:-5.0000000000000000e-01 }
                  - { var:23, quality:4.5050129294395447e-01,
                      le:-5.0000000000000000e-01 }
                  - { var:8, quality:4.5050129294395447e-01,
                      le:-4.9079963564872742e-01 }
                  - { var:6, quality:4.5050129294395447e-01,
                      le:-4.8856773972511292e-01 }
                  - { var:5, quality:4.5050129294395447e-01,
                      le:5.4811327718198299e-03 }
                  - { var:4, quality:4.5050129294395447e-01,
                      le:5.3463741205632687e-03 }
                  - { var:3, quality:4.5050129294395447e-01,
                      le:-5.0000000000000000e-01 }
                  - { var:2, quality:4.5050129294395447e-01,
                      le:-5.0000000000000000e-01 }
                  - { var:1, quality:4.5050129294395447e-01,
                      le:1.5000000000000000e+00 }
                  - { var:32, quality:4.4603994488716125e-01,
                      le:4.9991607666015625e-03 }
                  - { var:27, quality:4.4534960389137268e-01,
                      le:-9.4704484939575195e-01 }
                  - { var:29, quality:4.1513985395431519e-01,
                      gt:-5.0000000000000000e-01 }
                  - { var:25, quality:3.7333959341049194e-01,
                      le:-4.7023373190313578e-04 }
                  - { var:15, quality:3.7147644162178040e-01,
                      le:6.7406725883483887e-01 }
                  - { var:19, quality:3.6603692173957825e-01,
                      le:4.7987520694732666e-01 }
                  - { var:28, quality:3.5369896888732910e-01,
                      gt:-5.0000000000000000e-01 }
                  - { var:30, quality:3.5070359706878662e-01,
                      le:8.3943367004394531e+00 }
                  - { var:13, quality:3.4893393516540527e-01,
                      le:1.5431573987007141e-01 }
                  - { var:22, quality:3.4297373890876770e-01,
                      le:7.7366340160369873e-01 }
                  - { var:11, quality:3.4278291463851929e-01,
                      le:4.3765038251876831e-02 }
                  - { var:14, quality:3.4276449680328369e-01,
                      le:5.1497943699359894e-02 }
                  - { var:31, quality:3.4273928403854370e-01,
                      le:2.1066857698315289e-06 }
                  - { var:21, quality:3.4273806214332581e-01,
                      le:7.8539818525314331e-01 }
                  - { var:20, quality:3.4273806214332581e-01,
                      le:9.9761458113789558e-04 }
                  - { var:18, quality:3.4273806214332581e-01,
                      le:2.7037290856242180e-02 }
                  - { var:17, quality:3.4273806214332581e-01,
                      le:1.5517987310886383e-02 }
                  - { var:10, quality:3.3710619807243347e-01,
                      gt:1.5947353094816208e-02 }
                  - { var:12, quality:3.2933568954467773e-01,
                      gt:1.4151071663945913e-03 }
                  - { var:49, quality:3.2111307978630066e-01,
                      le:5.6146335601806641e-01 }
                  - { var:48, quality:3.1984034180641174e-01,
                      le:1.0226984024047852e+00 }
            -
               depth: 1
               sample_count: 59878
               value: 2.2497335005275904e-01
               norm_class_idx: 1
               Tn: 0
               complexity: 0
               alpha: 0.
               node_risk: 0.
               tree_risk: 0.
               tree_error: 0.
            -
               depth: 1
               sample_count: 44984
               value: -2.2497335005275904e-01
               norm_class_idx: 0
               Tn: 0
               complexity: 0
               alpha: 0.
               node_risk: 0.
               tree_risk: 0.
               tree_error: 0.
      -
         best_tree_idx: -1
         nodes:
            -
               depth: 0
               sample_count: 104862
               value: -2.3045396123423378e-01
               norm_class_idx: 0
               Tn: 0
               complexity: 0
               alpha: 0.
               node_risk: 0.
               tree_risk: 0.
               tree_error: 0.
               splits:
                  - { var:24, quality:5.5735987424850464e-01,
                      le:6.1983940124511719e+01 }
                  - { var:23, quality:5.1142072677612305e-01,
                      le:3.0797131347656250e+02 }
                  - { var:25, quality:4.8921510577201843e-01,
                      gt:-8.0538578033447266e+00 }
                  - { var:26, quality:4.8156473040580750e-01,
                      le:8.1089992523193359e+00 }
                  - { var:19, quality:4.7829350829124451e-01,
                      le:5.3406482934951782e-01 }
                  - { var:15, quality:4.5479348301887512e-01,
                      le:9.7274988889694214e-01 }
                  - { var:27, quality:4.4596993923187256e-01,
                      le:9.6066445112228394e-01 }
                  - { var:13, quality:4.3969863653182983e-01,
                      le:3.0102246999740601e-01 }
                  - { var:11, quality:4.3447202444076538e-01,
                      le:4.2083507776260376e-01 }
                  - { var:14, quality:4.3254628777503967e-01,
                      le:8.1534385681152344e-01 }
                  - { var:22, quality:4.1860774159431458e-01,
                      le:9.9327945709228516e-01 }
                  - { var:28, quality:4.1609528660774231e-01,
                      le:4.8002369701862335e-02 }
                  - { var:3, quality:4.1591700911521912e-01,
                      le:2.0177204906940460e-01 }
                  - { var:32, quality:4.1572520136833191e-01,
                      le:1.1950001716613770e+00 }
                  - { var:29, quality:4.1524213552474976e-01,
                      le:7.5108937919139862e-02 }
                  - { var:2, quality:4.1492661833763123e-01,
                      le:3.9249944686889648e-01 }
                  - { var:6, quality:4.1489306092262268e-01,
                      le:2.5235228538513184e+00 }
                  - { var:4, quality:4.1488826274871826e-01,
                      le:7.7693969011306763e-01 }
                  - { var:5, quality:4.1488444805145264e-01,
                      le:7.7786993980407715e-01 }
                  - { var:17, quality:4.1487175226211548e-01,
                      le:3.8024940490722656e+00 }
                  - { var:18, quality:4.1487133502960205e-01,
                      le:6.1987705230712891e+00 }
                  - { var:12, quality:4.1483044624328613e-01,
                      le:8.5377693176269531e-02 }
                  - { var:8, quality:4.1482990980148315e-01,
                      le:1.1744214296340942e+00 }
                  - { var:10, quality:4.1482582688331604e-01,
                      le:2.9311294555664062e+00 }
            -
               depth: 1
               sample_count: 85471
               value: -2.3045396123423378e-01
               norm_class_idx: 0
               Tn: 0
               complexity: 0
               alpha: 0.
               node_risk: 0.
               tree_risk: 0.
               tree_error: 0.
            -
               depth: 1
               sample_count: 19391
               value: 2.3045396123423378e-01
               norm_class_idx: 1
               Tn: 0
               complexity: 0
               alpha: 0.
               node_risk: 0.
               tree_risk: 0.
               tree_error: 0.
      -
         best_tree_idx: -1
         nodes:
            -
               depth: 0
               sample_count: 104862
               value: 1.7988065963820105e-01
               norm_class_idx: 1
               Tn: 0
               complexity: 0
               alpha: 0.
               node_risk: 0.
               tree_risk: 0.
               tree_error: 0.
               splits:
                  - { var:30, quality:5.4484927654266357e-01,
                      le:1.6082841873168945e+01 }
                  - { var:7, quality:4.4031390547752380e-01,
                      le:1.4084930717945099e-01 }
                  - { var:19, quality:3.7111678719520569e-01,
                      le:7.5893467664718628e-01 }
                  - { var:24, quality:3.6376935243606567e-01,
                      le:1.6147201538085938e+02 }
                  - { var:25, quality:3.6373171210289001e-01,
                      gt:-1.1906879425048828e+01 }
                  - { var:47, quality:3.5865297913551331e-01,
                      le:9.9149274826049805e-01 }
                  - { var:20, quality:3.5517877340316772e-01,
                      gt:1.7059986591339111e+00 }
                  - { var:49, quality:3.4988993406295776e-01,
                      le:1.2190319061279297e+01 }
                  - { var:8, quality:3.4749105572700500e-01,
                      le:1.6703009605407715e-01 }
                  - { var:29, quality:3.4593325853347778e-01,
                      gt:5.1978098781546578e-05 }
                  - { var:1, quality:3.4593325853347778e-01,
                      gt:3.5000000000000000e+00 }
                  - { var:3, quality:3.4573867917060852e-01,
                      gt:4.4715986587107182e-03 }
                  - { var:23, quality:3.4466925263404846e-01,
                      le:7.0276647949218750e+02 }
                  - { var:48, quality:3.4320154786109924e-01,
                      le:1.5600144386291504e+01 }
                  - { var:10, quality:3.4225431084632874e-01,
                      gt:1.8131195247406140e-05 }
                  - { var:28, quality:3.4200060367584229e-01,
                      gt:1.5712366439402103e-03 }
                  - { var:27, quality:3.4083014726638794e-01,
                      gt:-5.8596301078796387e-01 }
                  - { var:32, quality:3.4044954180717468e-01,
                      gt:9.9987983703613281e-03 }
                  - { var:31, quality:3.4036862850189209e-01,
                      gt:2.1066857698315289e-06 }
                  - { var:22, quality:3.4036737680435181e-01,
                      gt:3.1379997730255127e-01 }
                  - { var:21, quality:3.4036737680435181e-01,
                      gt:7.8539818525314331e-01 }
                  - { var:18, quality:3.4036737680435181e-01,
                      gt:2.7037290856242180e-02 }
                  - { var:17, quality:3.4036737680435181e-01,
                      gt:1.5517987310886383e-02 }
                  - { var:15, quality:3.4036737680435181e-01,
                      gt:2.2548295091837645e-03 }
                  - { var:11, quality:3.4036737680435181e-01,
                      gt:5.7738074101507664e-03 }
                  - { var:2, quality:3.4034055471420288e-01,
                      gt:9.9990367889404297e-03 }
                  - { var:13, quality:3.4032890200614929e-01,
                      gt:2.9645864851772785e-03 }
                  - { var:37, quality:3.4008875489234924e-01,
                      gt:5.0000000000000000e-01 }
                  - { var:36, quality:3.4008875489234924e-01,
                      gt:5.0000000000000000e-01 }
                  - { var:34, quality:3.4008875489234924e-01,
                      gt:5.0000000000000000e-01 }
                  - { var:33, quality:3.4008875489234924e-01,
                      gt:5.0000000000000000e-01 }
                  - { var:6, quality:3.4008875489234924e-01,
                      gt:-4.8856773972511292e-01 }
                  - { var:5, quality:3.4008875489234924e-01,
                      gt:5.4811327718198299e-03 }
                  - { var:4, quality:3.4008875489234924e-01,
                      gt:5.3463741205632687e-03 }
                  - { var:26, quality:3.3709993958473206e-01,
                      le:1.5506331443786621e+01 }
                  - { var:9, quality:3.3586129546165466e-01,
                      le:8.7478995323181152e-01 }
                  - { var:14, quality:3.3137544989585876e-01,
                      le:1.5352923393249512e+01 }
                  - { var:12, quality:3.3009415864944458e-01,
                      le:5.9273160994052887e-02 }
            -
               depth: 1
               sample_count: 37513
               value: 1.7988065963820105e-01
               norm_class_idx: 1
               Tn: 0
               complexity: 0
               alpha: 0.
               node_risk: 0.
               tree_risk: 0.
               tree_error: 0.
            -
               depth: 1
               sample_count: 67349
               value: -1.7988065963820105e-01
               norm_class_idx: 0
               Tn: 0
               complexity: 0
               alpha: 0.
               node_risk: 0.
               tree_risk: 0.
               tree_error: 0.
      -
         best_tree_idx: -1
         nodes:
            -
               depth: 0
               sample_count: 104862
               value: -1.8249815244142417e-01
               norm_class_idx: 0
               Tn: 0
               complexity: 0
               alpha: 0.
               node_risk: 0.
               tree_risk: 0.
               tree_error: 0.
               splits:
                  - { var:22, quality:5.4549831151962280e-01,
                      le:9.5515078306198120e-01 }
                  - { var:15, quality:4.2242735624313354e-01,
                      le:8.6810064315795898e-01 }
                  - { var:25, quality:4.1814288496971130e-01,
                      gt:-2.1039664745330811e+00 }
                  - { var:13, quality:4.0918517112731934e-01,
                      le:2.2278632223606110e-01 }
                  - { var:35, quality:4.0760138630867004e-01,
                      le:6.5000000000000000e+00 }
                  - { var:11, quality:4.0709215402603149e-01,
                      le:1.1451807022094727e+00 }
                  - { var:14, quality:4.0659666061401367e-01,
                      le:1.2731664180755615e+00 }
                  - { var:34, quality:4.0644150972366333e-01,
                      le:9.5000000000000000e+00 }
                  - { var:33, quality:4.0611210465431213e-01,
                      le:1.0500000000000000e+01 }
                  - { var:31, quality:4.0577456355094910e-01,
                      le:2.4045479297637939e-01 }
                  - { var:38, quality:4.0536025166511536e-01,
                      le:6.5000000000000000e+00 }
                  - { var:39, quality:4.0469795465469360e-01,
                      le:5.5000000000000000e+00 }
                  - { var:37, quality:4.0375268459320068e-01,
                      le:5.5000000000000000e+00 }
                  - { var:24, quality:4.0363210439682007e-01,
                      le:4.2142929077148438e+01 }
                  - { var:26, quality:4.0334680676460266e-01,
                      le:1.8873016357421875e+01 }
                  - { var:36, quality:4.0311068296432495e-01,
                      le:5.5000000000000000e+00 }
                  - { var:3, quality:4.0262982249259949e-01,
                      le:2.3158827424049377e-01 }
                  - { var:30, quality:4.0243986248970032e-01,
                      gt:1.8073072433471680e+00 }
                  - { var:20, quality:4.0232601761817932e-01,
                      le:4.8083808898925781e+01 }
                  - { var:1, quality:4.0228036046028137e-01,
                      le:4.4500000000000000e+01 }
                  - { var:27, quality:4.0224879980087280e-01,
                      gt:-8.9034912109375000e+01 }
                  - { var:48, quality:4.0222704410552979e-01,
                      le:4.5785064697265625e+01 }
            -
               depth: 1
               sample_count: 85002
               value: 1.8249815244142417e-01
               norm_class_idx: 1
               Tn: 0
               complexity: 0
               alpha: 0.
               node_risk: 0.
               tree_risk: 0.
               tree_error: 0.
            -
               depth: 1
               sample_count: 19860
               value: -1.8249815244142417e-01
               norm_class_idx: 0
               Tn: 0
               complexity: 0
               alpha: 0.
               node_risk: 0.
               tree_risk: 0.
               tree_error: 0.
      -
         best_tree_idx: -1
         nodes:
            -
               depth: 0
               sample_count: 104862
               value: -1.8657928015772751e-01
               norm_class_idx: 0
               Tn: 0
               complexity: 0
               alpha: 0.
               node_risk: 0.
               tree_risk: 0.
               tree_error: 0.
               splits:
                  - { var:30, quality:5.4650998115539551e-01,
                      le:2.3842386245727539e+01 }
                  - { var:25, quality:5.0647211074829102e-01,
                      gt:-1.6817003250122070e+01 }
                  - { var:7, quality:5.0365328788757324e-01,
                      le:2.2341120243072510e-01 }
                  - { var:24, quality:5.0175303220748901e-01,
                      le:3.2708270263671875e+02 }
                  - { var:19, quality:4.9962052702903748e-01,
                      le:9.3957555294036865e-01 }
                  - { var:23, quality:4.9765348434448242e-01,
                      le:1.6297482910156250e+03 }
                  - { var:48, quality:4.9715045094490051e-01,
                      le:2.7030235290527344e+01 }
                  - { var:49, quality:4.9692079424858093e-01,
                      le:3.7215312957763672e+01 }
                  - { var:14, quality:4.9690607190132141e-01,
                      le:2.5987518310546875e+01 }
                  - { var:13, quality:4.9690607190132141e-01,
                      le:2.5987518310546875e+01 }
                  - { var:11, quality:4.9690607190132141e-01,
                      le:2.5987518310546875e+01 }
            -
               depth: 1
               sample_count: 96109
               value: -1.8657928015772751e-01
               norm_class_idx: 0
               Tn: 0
               complexity: 0
               alpha: 0.
               node_risk: 0.
               tree_risk: 0.
               tree_error: 0.
            -
               depth: 1
               sample_count: 8753
               value: 1.8657928015772751e-01
               norm_class_idx: 1
               Tn: 0
               complexity: 0
               alpha: 0.
               node_risk: 0.
               tree_risk: 0.
               tree_error: 0.
      -
         best_tree_idx: -1
         nodes:
            -
               depth: 0
               sample_count: 104862
               value: 1.9554537746394005e-01
               norm_class_idx: 1
               Tn: 0
               complexity: 0
               alpha: 0.
               node_risk: 0.
               tree_risk: 0.
               tree_error: 0.
               splits:
                  - { var:8, quality:5.4873114824295044e-01,
                      le:3.0917596817016602e-01 }
                  - { var:3, quality:5.0653755664825439e-01,
                      le:8.5065200924873352e-02 }
                  - { var:32, quality:5.0457084178924561e-01,
                      le:5.6000089645385742e-01 }
                  - { var:7, quality:5.0258088111877441e-01,
                      le:3.0781406164169312e-01 }
                  - { var:17, quality:5.0151580572128296e-01,
                      le:1.3456450700759888e+00 }
                  - { var:28, quality:5.0055611133575439e-01,
                      le:3.2426971942186356e-02 }
                  - { var:18, quality:4.9860838055610657e-01,
                      le:2.2360239028930664e+00 }
                  - { var:2, quality:4.9846252799034119e-01,
                      le:2.3999992012977600e-01 }
                  - { var:31, quality:4.9827709794044495e-01,
                      le:9.6095532178878784e-02 }
                  - { var:29, quality:4.9799859523773193e-01,
                      le:4.7279089689254761e-02 }
                  - { var:5, quality:4.9724566936492920e-01,
                      le:2.8098505735397339e-01 }
                  - { var:4, quality:4.9713444709777832e-01,
                      le:2.8012055158615112e-01 }
                  - { var:37, quality:4.9671706557273865e-01,
                      le:5.5000000000000000e+00 }
                  - { var:38, quality:4.9598327279090881e-01,
                      le:5.5000000000000000e+00 }
                  - { var:36, quality:4.9580836296081543e-01,
                      le:6.5000000000000000e+00 }
                  - { var:10, quality:4.9560332298278809e-01,
                      le:1.7543244361877441e-01 }
                  - { var:39, quality:4.9429497122764587e-01,
                      le:5.5000000000000000e+00 }
                  - { var:35, quality:4.9414047598838806e-01,
                      le:6.5000000000000000e+00 }
                  - { var:26, quality:4.9389103055000305e-01,
                      le:1.7819389343261719e+01 }
                  - { var:25, quality:4.9386543035507202e-01,
                      le:1.7626209259033203e+01 }
                  - { var:19, quality:4.9369883537292480e-01,
                      le:1.0312378406524658e+00 }
                  - { var:23, quality:4.9326983094215393e-01,
                      le:1.3769508056640625e+03 }
                  - { var:12, quality:4.9311193823814392e-01,
                      le:2.6405543088912964e-02 }
                  - { var:24, quality:4.9305537343025208e-01,
                      le:3.5960235595703125e+02 }
                  - { var:6, quality:4.9290916323661804e-01,
                      le:8.2365274429321289e-01 }
                  - { var:46, quality:4.9279111623764038e-01,
                      le:2.5000000000000000e+00 }
                  - { var:1, quality:4.9192422628402710e-01,
                      le:1.9500000000000000e+01 }
                  - { var:40, quality:4.9152970314025879e-01,
                      le:6.5000000000000000e+00 }
                  - { var:34, quality:4.9147519469261169e-01,
                      le:5.5000000000000000e+00 }
                  - { var:41, quality:4.9145856499671936e-01,
                      le:6.5000000000000000e+00 }
                  - { var:14, quality:4.9136671423912048e-01,
                      le:2.2784181594848633e+01 }
                  - { var:13, quality:4.9136671423912048e-01,
                      le:2.2782730102539062e+01 }
                  - { var:11, quality:4.9136671423912048e-01,
                      le:2.2783592224121094e+01 }
                  - { var:43, quality:4.9136409163475037e-01,
                      le:6.5000000000000000e+00 }
                  - { var:44, quality:4.9135714769363403e-01,
                      le:5.5000000000000000e+00 }
                  - { var:45, quality:4.9134901165962219e-01,
                      le:5.5000000000000000e+00 }
                  - { var:33, quality:4.9131438136100769e-01,
                      le:2.0500000000000000e+01 }
                  - { var:30, quality:4.9129951000213623e-01,
                      gt:8.6150789260864258e-01 }
                  - { var:48, quality:4.9129864573478699e-01,
                      le:4.5080120086669922e+01 }
            -
               depth: 1
               sample_count: 92297
               value: 1.9554537746394005e-01
               norm_class_idx: 1
               Tn: 0
               complexity: 0
               alpha: 0.
               node_risk: 0.
               tree_risk: 0.
               tree_error: 0.
            -
               depth: 1
               sample_count: 12565
               value: -1.9554537746394005e-01
               norm_class_idx: 0
               Tn: 0
               complexity: 0
               alpha: 0.
               node_risk: 0.
               tree_risk: 0.
               tree_error: 0.
      -
         best_tree_idx: -1
         nodes:
            -
               depth: 0
               sample_count: 104862
               value: -2.1062054626479215e-01
               norm_class_idx: 0
               Tn: 0
               complexity: 0
               alpha: 0.
               node_risk: 0.
               tree_risk: 0.
               tree_error: 0.
               splits:
                  - { var:31, quality:5.5246132612228394e-01,
                      le:4.8693409189581871e-03 }
                  - { var:28, quality:5.1373213529586792e-01,
                      le:6.7507396452128887e-03 }
                  - { var:17, quality:5.0399994850158691e-01,
                      le:3.0912458896636963e-01 }
                  - { var:20, quality:5.0106161832809448e-01,
                      le:5.3314363956451416e-01 }
                  - { var:18, quality:5.0088113546371460e-01,
                      le:6.1678183078765869e-01 }
                  - { var:3, quality:4.8744016885757446e-01,
                      le:1.1548096314072609e-02 }
                  - { var:11, quality:4.8739224672317505e-01,
                      le:8.7897710502147675e-02 }
                  - { var:14, quality:4.8717272281646729e-01,
                      le:8.7897710502147675e-02 }
                  - { var:29, quality:4.8625603318214417e-01,
                      le:4.5863799750804901e-03 }
                  - { var:23, quality:4.8606401681900024e-01,
                      le:8.7040282785892487e-02 }
                  - { var:24, quality:4.8606365919113159e-01,
                      le:2.8957664035260677e-03 }
                  - { var:13, quality:4.8603478074073792e-01,
                      le:5.8673997409641743e-03 }
                  - { var:15, quality:4.8600479960441589e-01,
                      le:1.7419233918190002e-02 }
                  - { var:22, quality:4.8597517609596252e-01,
                      le:3.1379997730255127e-01 }
                  - { var:21, quality:4.8597517609596252e-01,
                      le:7.8539818525314331e-01 }
                  - { var:19, quality:4.8597517609596252e-01,
                      le:7.3009431362152100e-02 }
                  - { var:1, quality:4.8597517609596252e-01,
                      le:2.5000000000000000e+00 }
                  - { var:6, quality:4.8473516106605530e-01,
                      le:2.9634052515029907e-01 }
                  - { var:5, quality:4.7992616891860962e-01,
                      le:1.2922731041908264e-01 }
                  - { var:10, quality:4.7799897193908691e-01,
                      le:2.8808586648665369e-05 }
                  - { var:4, quality:4.7687733173370361e-01,
                      le:1.2585282325744629e-01 }
                  - { var:32, quality:4.6162909269332886e-01,
                      le:1.2000060081481934e-01 }
                  - { var:35, quality:4.5229884982109070e-01,
                      le:1.5000000000000000e+00 }
                  - { var:34, quality:4.5138892531394958e-01,
                      le:1.5000000000000000e+00 }
                  - { var:36, quality:4.4937846064567566e-01,
                      le:1.5000000000000000e+00 }
                  - { var:37, quality:4.4891333580017090e-01,
                      le:1.5000000000000000e+00 }
                  - { var:38, quality:4.3781611323356628e-01,
                      le:1.5000000000000000e+00 }
                  - { var:12, quality:4.3259793519973755e-01,
                      le:2.3989297915250063e-04 }
                  - { var:2, quality:4.2569723725318909e-01,
                      le:3.0144162476062775e-02 }
                  - { var:26, quality:4.0785440802574158e-01,
                      le:3.4934794530272484e-04 }
                  - { var:25, quality:4.0566584467887878e-01,
                      le:1.2210323475301266e-03 }
