%YAML:1.0
detector_type: svm
used_feature_dimensions:
   - "Throw a coin."
   - "Number of laser end points."
   - "Mean of difference in range of consecutive beams."
   - "Variance of difference in range of consecutive beams."
   - "Variance from center of gravity."
   - "Mean average deviation from median."
   - "Width."
   - "Min distance between points."
   - "Max distance between points."
   - "Ratio between min and max distance between points."
   - "Circularity."
   - "Radius of fitted circle."
   - "Variance of distance from points to center of circle."
   - "Minimal difference to radius."
   - "Maximal difference to radius."
   - "Ratio between min and max difference."
   - "Area of rectangles to fitted circle center."
   - "Boundary length."
   - "Perimeter."
   - "Contour regularity."
   - "Mean curvature."
   - "Mean angular difference."
   - "Aspect ratio."
   - "Linearity."
   - "Linearity mean error."
   - "Linearity min error."
   - "Linearity max error."
   - "Linearity ratio of min and max error."
   - "Error of fitted quadratic b-spline."
   - "Error of fitted cubic b-spline."
   - "Distance."
   - "Polygon Area."
   - "Difference of longest and shortest beam."
   - "Number of local minima (noise 0.01)."
   - "Number of local minima (noise 0.02)."
   - "Number of local minima (noise 0.03)."
   - "Number of local minima (noise 0.04)."
   - "Number of local minima (noise 0.05)."
   - "Number of local minima (noise 0.06)."
   - "Number of local minima (noise 0.07)."
   - "Number of local minima (noise 0.08)."
   - "Number of local minima (noise 0.09)."
   - "Number of local minima (noise 0.10)."
   - "Number of local minima (noise 0.11)."
   - "Number of local minima (noise 0.12)."
   - "Number of local minima (noise 0.13)."
   - "Number of local minima (noise 0.14)."
   - "Ratio between shortest and longest beam."
   - "Jump distance to previous segment."
   - "Jump distance to next segment."
classifier: !!opencv-ml-svm
   svm_type: NU_SVC
   kernel: { type:RBF, gamma:3.3750000000000002e-02 }
   nu: 8.9999999999999997e-02
   term_criteria: { epsilon:1.1920928955078125e-07, iterations:1000 }
   var_all: 50
   var_count: 50
   class_count: 2
   class_labels: !!opencv-matrix
      rows: 1
      cols: 2
      dt: i
      data: [ 0, 1 ]
   sv_total: 4384
   support_vectors:
      - [ 0., 4., 4.39999886e-02, 4.41367142e-02, 1.65803835e-01,
          1.66058809e-01, 4.37947333e-01, 1.38923422e-01, 1.65687963e-01,
          8.38464141e-01, 3.18328175e-03, 3.30912530e-01, 1.06109399e-03,
          2.85529345e-01, 3.59434873e-01, 7.94384122e-01, 0.,
          4.49633688e-01, 8.87581050e-01, 6.66176021e-01, 1.37939727e+00,
          1.57079637e+00, 9.01159883e-01, 1.59936590e+01, 3.99841475e+00,
          1.78412759e+00, 2.20341921e+00, 8.09708655e-01, 1.17512029e-02,
          8.94486997e-03, 3.19301205e+01, 5.08280750e-03, 1.31999969e-01,
          1., 1., 1., 1., 1., 1., 1., 1., 1., 1., 1., 1., 1., 1.,
          9.95875776e-01, 3.18740005e+01, 2.06371670e+01 ]
      - [ 1., 14., 8.70000422e-02, 7.64819831e-02, 3.87720764e-01,
          4.54424441e-01, 1.02658463e+00, 4.12664749e-02, 2.14727029e-01,
          1.92181110e-01, 9.30964872e-02, 5.23817122e-01, 7.16126803e-03,
          3.63686055e-01, 6.42893255e-01, 5.65702140e-01, 0.,
          1.34439933e+00, 2.37098408e+00, 4.44501966e-01, 5.90066719e+00,
          1.57079637e+00, 7.85836339e-01, 2.87653473e+02, 2.05466747e+01,
          4.44667244e+00, 4.73934507e+00, 9.38246131e-01, 2.41795201e-02,
          4.46883552e-02, 9.73611832e+00, 1.39941230e-01, 9.89000320e-01,
          9., 9., 8., 8., 6., 6., 6., 6., 6., 6., 6., 6., 5., 5.,
          9.05040801e-01, 1.58175063e+00, 1.14566624e+00 ]
      - [ 1., 15., 7.92142302e-02, 1.25149861e-01, 4.11272049e-01,
          5.08100748e-01, 1.05474579e+00, 2.56028417e-02, 3.65069956e-01,
          7.01313317e-02, 5.54710589e-02, 7.03583717e-01, 3.96221876e-03,
          5.95173061e-01, 7.76175320e-01, 7.66802371e-01, 0.,
          1.29359567e+00, 2.34834146e+00, 4.25019592e-01, 9.34256172e+00,
          1.57079637e+00, 7.50157177e-01, 1.03396095e+02, 6.89307308e+00,
          2.54036784e+00, 2.75512052e+00, 9.22053218e-01, 2.36951727e-02,
          4.43022437e-02, 6.18481588e+00, 6.34136274e-02, 1.02199984e+00,
          8., 6., 5., 5., 5., 5., 4., 4., 4., 4., 4., 4., 4., 4.,
          8.51518273e-01, 6.88714206e-01, 8.07351053e-01 ]
      - [ 1., 24., 1.69563703e-02, 1.71795338e-02, 3.91356707e-01,
          3.91817689e-01, 1.30365264e+00, 5.34833260e-02, 9.68499258e-02,
          5.52228868e-01, 1.61977764e-03, 2.09352469e+00, 7.04251142e-05,
          2.06696510e+00, 2.10823607e+00, 9.80423868e-01, 0.,
          1.34087336e+00, 2.64452600e+00, 3.46706986e-01, 2.72439218e+00,
          1.57079637e+00, 7.38903046e-01, 6.37197876e+02, 2.65499115e+01,
          4.51033831e+00, 5.81398869e+00, 7.75773406e-01, 1.29759014e-02,
          2.52236910e-02, 1.23746443e+01, 8.03485662e-02, 3.77999306e-01,
          1., 1., 1., 1., 1., 1., 1., 1., 1., 1., 1., 1., 1., 1.,
          9.70102072e-01, 7.55307293e+00, 7.58332062e+00 ]
      - [ 0., 11., 8.60000215e-03, 5.39958244e-03, 9.04770102e-03,
          9.20049008e-03, 2.02133227e-02, 2.70229904e-03, 2.00823247e-02,
          1.34561077e-01, 1.66810438e-04, 9.31858271e-03, 1.66810441e-05,
          1.59741880e-03, 1.32023040e-02, 1.20995454e-01, 0.,
          8.88783708e-02, 1.09091692e-01, 1.10096775e-01, 1.01905258e+02,
          1.57079637e+00, 9.98219490e-01, 1.93783245e+01, 1.76166582e+00,
          1.31308949e+00, 1.33666563e+00, 9.82362032e-01, 2.46536196e-03,
          3.57655762e-03, 4.18596417e-01, 1.47455314e-04, 2.30000019e-02,
          4., 1., 1., 1., 1., 1., 1., 1., 1., 1., 1., 1., 1., 1.,
          9.46511626e-01, 4.70200443e+00, 5.11000443e+00 ]
      - [ 1., 1., -1., -1., 0., 0., -1., -1., -1., -1., 0., 0., 0., 0.,
          0., 0., 0., 0., 0., 0., 0., 0., 0., -1., -1., -1., -1., -1.,
          0., 0., 2.98719997e+01, 0., 0., 0., 0., 0., 0., 0., 0., 0., 0.,
          0., 0., 0., 0., 0., 0., 0., 3.02308655e+00, 6.31284654e-01 ]
      - [ 0., 1., -1., -1., 0., 0., -1., -1., -1., -1., 0., 0., 0., 0.,
          0., 0., 0., 0., 0., 0., 0., 0., 0., -1., -1., -1., -1., -1.,
          0., 0., 2.67399998e+01, 0., 0., 0., 0., 0., 0., 0., 0., 0., 0.,
          0., 0., 0., 0., 0., 0., 0., 2.67399998e+01, 2.67399998e+01 ]
      - [ 0., 3., 9.99999046e-03, 0., 3.41062322e-02, 3.54067981e-02,
          8.19035470e-02, 3.04195955e-02, 5.32500930e-02, 5.71259022e-01,
          5.00741786e-33, 9.86347124e-02, 2.50370893e-33, 9.86347124e-02,
          9.86347124e-02, 1., 0., 8.36696848e-02, 1.65573224e-01,
          4.06906903e-01, 3.37956357e+00, 1.57079637e+00, 9.70673740e-01,
          1.08829994e+02, 3.62766647e+01, -6.03081417e+00, 0., 0.,
          2.37705698e-03, -1., 6.07657671e+00, 3.36268917e-04,
          1.99999809e-02, 2., 1., 1., 1., 1., 1., 1., 1., 1., 1., 1., 1.,
          1., 1., 9.96713221e-01, 2.65307498e+00, 2.18710208e+00 ]
      - [ 0., 13., 2.90000830e-02, 1.18704783e-02, 1.21149503e-01,
          1.37023851e-01, 3.47943574e-01, 3.04226913e-02, 6.21652454e-02,
          4.89384264e-01, 3.51955974e-03, 1.52072594e-01, 2.93296645e-04,
          1.29688486e-01, 1.80696443e-01, 7.17714667e-01, 0.,
          4.98247147e-01, 8.46190691e-01, 2.77356148e-01, 7.82770205e+00,
          1.57079637e+00, 9.80346322e-01, 1.58961838e+02, 1.22278337e+01,
          -3.65928102e+00, 0., 0., 8.83221813e-03, 1.63972992e-02,
          6.58511829e+00, 2.49051582e-02, 1.73000336e-01, 8., 5., 4., 2.,
          1., 1., 1., 1., 1., 1., 1., 1., 1., 1., 9.74086225e-01,
          3.67105150e+00, 2.62722301e+00 ]
      - [ 0., 44., 1.07906982e-02, 6.18009679e-02, 1.63922027e-01,
          1.83786377e-01, 4.05999988e-01, 0., 4.05999988e-01, 0.,
          2.39290108e-04, 2.04727024e-01, 5.56488612e-06, 1.96750462e-01,
          2.12182552e-01, 9.27269816e-01, 0., 4.66643512e-01,
          8.72643471e-01, 1.44143075e-01, 7.72955156e+04, 2.99199313e-01,
          9.69732344e-01, 5.77125740e+00, 1.31164938e-01, 2.99199313e-01,
          5.49085796e-01, 5.44904470e-01, 3.78375384e-03, 6.97200652e-03,
          8.31083730e-02, 2.87861773e-03, 4.14000005e-01, 2., 1., 1., 1.,
          1., 1., 1., 1., 1., 1., 1., 1., 1., 1., 0., 4.96199989e+00,
          4.05999988e-01 ]
      - [ 0., 12., 2.53636185e-02, 1.56989023e-02, 9.65623930e-02,
          9.74878073e-02, 2.98903018e-01, 2.76695658e-02, 6.49584606e-02,
          4.25957859e-01, 2.21323539e-02, 1.05597891e-01, 2.01203232e-03,
          1.20334653e-02, 1.53694749e-01, 7.82945752e-02, 0.,
          4.24098790e-01, 7.23001778e-01, 2.68886924e-01, 1.45083208e+01,
          1.57079637e+00, 9.62376952e-01, 5.82663513e+02, 4.85552902e+01,
          6.90638638e+00, 7.05238962e+00, 9.79297280e-01, 8.25492758e-03,
          1.41395675e-02, 6.22062874e+00, 4.25623963e-03, 7.29999542e-02,
          6., 3., 3., 2., 2., 1., 1., 1., 1., 1., 1., 1., 1., 1.,
          9.88349855e-01, 2.26322246e+00, 2.04523969e+00 ]
      - [ 0., 10., 7.88888708e-03, 6.31356798e-03, 1.03069125e-02,
          1.03707332e-02, 2.21752692e-02, 1.81730674e-03, 1.70929115e-02,
          1.06319323e-01, 2.15587643e-04, 1.13353571e-02, 2.39541823e-05,
          2.52559688e-03, 1.68019440e-02, 1.50315747e-01, 0.,
          7.49132484e-02, 9.70885158e-02, 1.10163808e-01, 1.30738876e+02,
          1.57079637e+00, 9.93965447e-01, 1.76257420e+01, 1.76257420e+00,
          1.32255936e+00, 1.33668697e+00, 9.89430845e-01, 2.13934621e-03,
          3.12372833e-03, 4.16867197e-01, 9.86673695e-06, 3.20000052e-02,
          2., 1., 1., 1., 1., 1., 1., 1., 1., 1., 1., 1., 1., 1.,
          9.25925910e-01, 8.40300465e+00, 8.18700409e+00 ]
      - [ 1., 2., 3.99999619e-02, 0., 3.78570557e-02, 3.78570557e-02,
          7.57141113e-02, 7.57141113e-02, 7.57141113e-02, 1., 0., 0., 0.,
          0., 0., 0., 0., 0., 0., 0., 0., 0., 0., 2.38630424e-29,
          1.19315212e-29, -4.88498131e-15, 0., 0., -1., -1.,
          1.47509651e+01, 0., 3.99999619e-02, 1., 1., 1., 1., 1., 1., 1.,
          1., 1., 1., 1., 1., 1., 1., 9.97291982e-01, 3.67242122e+00,
          3.37847328e+00 ]
      - [ 1., 14., 9.43077505e-02, 7.76878297e-02, 2.02692151e-01,
          2.04743788e-01, 6.62736297e-01, 2.78816856e-02, 2.71878272e-01,
          1.02552094e-01, 1.37092754e-01, 2.05224246e-01, 1.05455965e-02,
          9.72190872e-03, 3.77806306e-01, 2.57325210e-02, 0.,
          1.28248262e+00, 1.94521892e+00, 4.02618408e-01, 5.26825523e+00,
          1.57079637e+00, 8.71885657e-01, 1.92698689e+01, 1.37641931e+00,
          -1.24470544e+00, 0., 0., 2.15804577e-02, 3.54743041e-02,
          5.11635113e+00, 2.16132682e-02, 6.17000103e-01, 4., 3., 3., 3.,
          3., 3., 3., 3., 3., 3., 3., 3., 2., 2., 8.87695670e-01,
          4.48000431e+00, 1.13120127e+00 ]
      - [ 1., 6., 5.41999824e-02, 3.08659840e-02, 1.15685433e-01,
          1.15792237e-01, 2.99950331e-01, 6.00587465e-02, 1.02169998e-01,
          5.87831557e-01, 1.64211425e-03, 1.38492659e-01, 3.28422844e-04,
          1.08706787e-01, 1.54312894e-01, 7.04456925e-01, 0.,
          4.18129355e-01, 7.18079686e-01, 4.23697919e-01, 4.60505581e+00,
          1.57079637e+00, 9.52769876e-01, 9.81030846e+00, 1.63505137e+00,
          1.12321126e+00, 1.42312765e+00, 7.89255440e-01, 1.17009161e-02,
          1.50003331e-02, 1.36929531e+01, 2.24937741e-02, 1.40999794e-01,
          3., 3., 3., 3., 3., 3., 2., 1., 1., 1., 1., 1., 1., 1.,
          9.89754438e-01, 4.39244002e-01, 2.67480087e+00 ]
      - [ 0., 1., -1., -1., 0., 0., -1., -1., -1., -1., 0., 0., 0., 0.,
          0., 0., 0., 0., 0., 0., 0., 0., 0., -1., -1., -1., -1., -1.,
          0., 0., 4.91930008e+01, 0., 0., 0., 0., 0., 0., 0., 0., 0., 0.,
          0., 0., 0., 0., 0., 0., 0., 4.22842860e-01, 4.91930008e+01 ]
      - [ 1., 31., 6.72333390e-02, 1.20249959e-02, 7.22298563e-01,
          7.23268986e-01, 2.43760037e+00, 6.15740530e-02, 1.10041864e-01,
          5.59551120e-01, 3.73244262e-03, 2.05644665e+01, 1.24414757e-04,
          2.05494251e+01, 2.05884380e+01, 9.98105109e-01, 0.,
          2.44085288e+00, 4.87845325e+00, 4.10149395e-01, 8.74326348e-01,
          1.57079637e+00, 6.08490229e-01, 1.36289258e+03, 4.39642754e+01,
          -7.88293600e+00, 0., 0., 1.82784665e-02, 3.60305123e-02,
          1.04394197e+01, 2.14388315e-03, 2.01700020e+00, 31., 31., 31.,
          31., 28., 24., 15., 4., 2., 1., 1., 1., 1., 1., 8.25125694e-01,
          3.89621520e+00, 5.72414279e-01 ]
      - [ 1., 9., 5.29998541e-02, 3.10391746e-02, 1.17206380e-01,
          1.31413952e-01, 3.43956620e-01, 3.32880504e-02, 8.92362073e-02,
          3.73032987e-01, 1.10139586e-02, 1.32328212e-01, 1.37674483e-03,
          8.08637366e-02, 1.75763130e-01, 4.60072219e-01, 0.,
          5.19591331e-01, 8.63547981e-01, 3.51232111e-01, 7.63200235e+00,
          1.57079637e+00, 9.61679518e-01, 1.36339426e+01, 1.51488256e+00,
          -1.28311956e+00, 0., 0., 1.24545489e-02, 2.11803503e-02,
          7.44775343e+00, 1.80103779e-02, 2.87999630e-01, 3., 2., 2., 2.,
          2., 2., 2., 2., 1., 1., 1., 1., 1., 1., 9.61914897e-01,
          4.94603252e+00, 7.50199986e+00 ]
      - [ 1., 2., 6.29997253e-02, 0., 1.34511217e-01, 1.34511217e-01,
          2.69022435e-01, 2.69022435e-01, 2.69022435e-01, 1., 0., 0., 0.,
          0., 0., 0., 0., 0., 0., 0., 0., 0., 0., 2.30284275e-26,
          1.15142138e-26, 9.41469125e-14, 1.19015908e-13, 7.91044772e-01,
          -1., -1., 6.00133553e+01, 0., 6.29997253e-02, 1., 1., 1., 1.,
          1., 1., 1., 1., 1., 1., 1., 1., 1., 1., 9.98950779e-01,
          2.00791321e+01, 2.65697155e+01 ]
      - [ 1., 25., 2.92081833e-02, 4.57011163e-02, 5.31508088e-01,
          5.32240689e-01, 1.75756848e+00, 7.17596486e-02, 2.22289145e-01,
          3.22821170e-01, 3.09003238e-02, 1.40513301e+00, 1.28751353e-03,
          1.31171060e+00, 1.47598362e+00, 8.88702691e-01, 0.,
          2.02074647e+00, 3.77831483e+00, 4.05307978e-01, 2.76333523e+00,
          1.57079637e+00, 7.25060463e-01, 5.08511902e+02, 2.03404751e+01,
          3.65849185e+00, 5.37821007e+00, 6.80243433e-01, 1.77324526e-02,
          3.41104940e-02, 1.65480671e+01, 4.21862900e-01, 3.66998672e-01,
          7., 4., 3., 3., 3., 3., 3., 3., 2., 2., 2., 2., 2., 2.,
          9.78195071e-01, 1.68309994e+01, 1.16783895e+01 ]
      - [ 0., 15., 5.61428070e-02, 3.48156951e-02, 2.65969068e-01,
          2.83473641e-01, 7.38459647e-01, 4.21112962e-02, 1.30946741e-01,
          3.21591020e-01, 6.60431236e-02, 3.41190219e-01, 4.71736630e-03,
          2.23398075e-01, 4.51251119e-01, 4.95063752e-01, 0.,
          9.95358109e-01, 1.73381770e+00, 3.65199387e-01, 5.00610256e+00,
          1.57079637e+00, 8.45959008e-01, 1.54161743e+02, 1.02774496e+01,
          -3.38565397e+00, 0., 0., 1.55367553e-02, 2.78844964e-02,
          8.99865818e+00, 8.19021910e-02, 6.34999275e-01, 6., 5., 3., 2.,
          2., 1., 1., 1., 1., 1., 1., 1., 1., 1., 9.32360530e-01,
          1.36346817e+00, 1.72657466e+00 ]
      - [ 1., 4., 1.57333374e-01, 1.11504905e-02, 1.84598193e-01,
          1.84645817e-01, 4.97518092e-01, 1.57946378e-01, 1.78099230e-01,
          8.86844754e-01, 7.44565068e-06, 7.94365406e+00, 2.48188348e-06,
          7.94146872e+00, 7.94512796e+00, 9.99539495e-01, 0.,
          4.97558534e-01, 9.95076656e-01, 7.05363989e-01, 7.19527155e-02,
          1.57079637e+00, 8.51684034e-01, 7.19828247e+02, 1.79957062e+02,
          1.31716328e+01, 1.36638832e+01, 9.63974357e-01, 8.12263973e-03,
          1.66807021e-03, 1.20286074e+01, 4.38760762e-04, 4.72000122e-01,
          1., 1., 1., 1., 1., 1., 1., 1., 1., 1., 1., 1., 1., 1.,
          9.61529076e-01, 5.14314508e+00, 5.48314428e+00 ]
      - [ 1., 2., 1.69982910e-02, 0., 3.83586325e-02, 3.83586325e-02,
          7.67172650e-02, 7.67172650e-02, 7.67172650e-02, 1., 0., 0., 0.,
          0., 0., 0., 0., 0., 0., 0., 0., 0., 0., 6.31088724e-30,
          3.15544362e-30, -1.77635684e-15, 1.77635684e-15, -1., -1., -1.,
          1.71664600e+01, 0., 1.69982910e-02, 1., 1., 1., 1., 1., 1., 1.,
          1., 1., 1., 1., 1., 1., 1., 9.99010265e-01, 1.71580009e+01,
          1.71749992e+01 ]
      - [ 0., 2., 3.42000961e-01, 0., 1.83666348e-01, 1.83666348e-01,
          3.67332697e-01, 3.67332697e-01, 3.67332697e-01, 1., 0., 0., 0.,
          0., 0., 0., 0., 0., 0., 0., 0., 0., 0., 1.97215226e-30,
          9.86076132e-31, -4.44089210e-16, 1.33226763e-15,
          -3.33333343e-01, -1., -1., 3.07589264e+01, 0., 3.42000961e-01,
          1., 1., 1., 1., 1., 1., 1., 1., 1., 1., 1., 1., 1., 1.,
          9.88942742e-01, 3.05879993e+01, 1.55614161e+00 ]
      - [ 0., 8., 7.37141222e-02, 3.47742252e-02, 2.03937113e-01,
          2.05585763e-01, 6.24834716e-01, 8.53990018e-02, 1.32596135e-01,
          6.44053459e-01, 4.91766594e-02, 2.20674098e-01, 7.02523673e-03,
          1.07510038e-01, 3.33143950e-01, 3.22713464e-01, 0.,
          8.00825238e-01, 1.42566001e+00, 4.87452567e-01, 3.68907428e+00,
          1.57079637e+00, 9.95727718e-01, 6.25158508e+02, 7.81448135e+01,
          -9.01120281e+00, 0., 0., 1.84985008e-02, 2.93177404e-02,
          1.91385460e+01, 1.27231507e-02, 2.23999023e-01, 4., 3., 3., 2.,
          2., 2., 2., 2., 2., 1., 1., 1., 1., 1., 9.88354027e-01,
          1.27410889e+01, 1.92339993e+01 ]
      - [ 1., 1., -1., -1., 0., 0., -1., -1., -1., -1., 0., 0., 0., 0.,
          0., 0., 0., 0., 0., 0., 0., 0., 0., -1., -1., -1., -1., -1.,
          0., 0., 2.00319996e+01, 0., 0., 0., 0., 0., 0., 0., 0., 0., 0.,
          0., 0., 0., 0., 0., 0., 0., 1.33220949e+01, 1.00897491e+00 ]
      - [ 0., 30., 0., 0., 0., 0., 0., 0., 0., 0., 0., 0., 0., 0., 0.,
          0., 0., 0., 0., 0., 9.33333359e+04, 0., 1., 0., 0., 0., 0., 0.,
          0., 0., 0., 0., 0., 1., 1., 1., 1., 1., 1., 1., 1., 1., 1., 1.,
          1., 1., 1., 0., 1.92390003e+01, 4.12999988e-01 ]
      - [ 1., 19., 0., 0., 0., 0., 0., 0., 0., 0., 0., 0., 0., 0., 0.,
          0., 0., 0., 0., 0., 8.94736875e+04, 0., 1., 0., 0., 0., 0., 0.,
          0., 0., 0., 0., 0., 1., 1., 1., 1., 1., 1., 1., 1., 1., 1., 1.,
          1., 1., 1., 0., 4.56199980e+00, 1.10489998e+01 ]
      - [ 1., 7., 1.54999897e-01, 1.10594742e-01, 3.38768065e-01,
          3.41947526e-01, 1.06434643e+00, 9.68538672e-02, 3.69395256e-01,
          2.62195736e-01, 2.23645475e-02, 9.44605529e-01, 3.72742466e-03,
          8.56198072e-01, 1.02517462e+00, 8.35172951e-01, 0.,
          1.09760034e+00, 2.16194677e+00, 6.57563210e-01, 1.28056955e+00,
          1.57079637e+00, 7.96472549e-01, 2.15408310e+02, 3.07726154e+01,
          5.43666458e+00, 5.68513870e+00, 9.56294060e-01, 2.18803920e-02,
          3.49086896e-02, 1.47825842e+01, 3.53549086e-02, 9.29999352e-01,
          7., 7., 7., 7., 7., 7., 7., 4., 4., 4., 4., 4., 4., 3.,
          9.39295053e-01, 1.53199997e+01, 1.76297915e+00 ]
      - [ 0., 73., 4.53194231e-02, 2.25749984e-02, 1.13283336e+00,
          1.22694254e+00, 3.81765485e+00, 4.39164676e-02, 2.37754688e-01,
          1.84713364e-01, 3.54400015e+00, 1.68515038e+00, 4.92222235e-02,
          1.28572297e+00, 2.15082431e+00, 5.97781539e-01, 0.,
          4.96817112e+00, 8.78582573e+00, 3.51772696e-01, 3.79112124e+00,
          1.57079637e+00, 8.08416605e-01, 4.25411182e+03, 5.82755051e+01,
          6.38343859e+00, 9.64447498e+00, 6.61875129e-01, 1.68570112e-02,
          3.27482224e-02, 1.03209095e+01, 1.69836545e+00, 1.97000027e+00,
          27., 27., 24., 12., 6., 5., 4., 2., 1., 1., 1., 1., 1., 1.,
          8.29052389e-01, 1.00500040e+01, 1.18395674e+00 ]
      - [ 0., 3., 6.54997826e-02, 0., 6.44814894e-02, 6.50261790e-02,
          1.57275394e-01, 6.86841384e-02, 8.92619714e-02, 7.69466937e-01,
          3.08148791e-31, 4.25297916e-01, 1.54074396e-31, 4.25297916e-01,
          4.25297916e-01, 1., 0., 1.57946110e-01, 3.15221488e-01,
          5.61445892e-01, 7.83771873e-01, 1.57079637e+00, 9.87057924e-01,
          3.02882751e+02, 1.00960915e+02, 9.98174191e+00, 1.01054764e+01,
          9.87755716e-01, 2.09972425e-03, -1., 9.98960304e+00,
          5.66800765e-04, 1.30999565e-01, 1., 1., 1., 1., 1., 1., 1., 1.,
          1., 1., 1., 1., 1., 1., 9.86966491e-01, 4.27099615e-01, -1. ]
      - [ 0., 3., 1.49499893e-01, 0., 1.78889275e-01, 1.78919002e-01,
          4.38151032e-01, 2.16279984e-01, 2.21943676e-01, 9.74481404e-01,
          1.57772181e-30, 6.01733160e+00, 7.88860905e-31, 6.01733160e+00,
          6.01733160e+00, 1., 0., 4.38223660e-01, 8.76374662e-01,
          9.36148882e-01, 5.53957671e-02, 1.57079637e+00, 9.77921963e-01,
          3.94686523e+03, 1.31562183e+03, -3.64369125e+01, 0., 0.,
          8.15326988e-04, -1., 3.67467690e+01, 8.73813988e-04,
          2.98999786e-01, 3., 3., 3., 3., 3., 3., 3., 3., 3., 3., 3., 3.,
          3., 3., 9.91895914e-01, 3.03990765e+01, 3.00440769e+01 ]
      - [ 1., 2., 3.80001068e-02, 0., 4.51237485e-02, 4.51237485e-02,
          9.02474970e-02, 9.02474970e-02, 9.02474970e-02, 1., 0., 0., 0.,
          0., 0., 0., 0., 0., 0., 0., 0., 0., 0., 6.85175000e-28,
          3.42587500e-28, 1.42108547e-14, 2.19824159e-14, 6.46464646e-01,
          -1., -1., 1.87829552e+01, 0., 3.80001068e-02, 1., 1., 1., 1.,
          1., 1., 1., 1., 1., 1., 1., 1., 1., 1., 9.97978926e-01,
          1.87639999e+01, 1.88020000e+01 ]
      - [ 1., 16., 3.17333229e-02, 2.65395977e-02, 1.55515671e-01,
          1.59933582e-01, 4.52467173e-01, 2.94935685e-02, 9.37741473e-02,
          3.14517051e-01, 4.66162153e-03, 2.03368366e-01, 3.10774747e-04,
          1.68878302e-01, 2.40027368e-01, 7.03579366e-01, 0.,
          6.93278372e-01, 1.14574564e+00, 2.86075115e-01, 1.26071138e+01,
          1.57079637e+00, 9.75856364e-01, 3.25946075e+02, 2.03716297e+01,
          4.34997320e+00, 4.77405071e+00, 9.11170304e-01, 1.09707499e-02,
          1.98935047e-02, 6.77568293e+00, 5.39765358e-02, 2.29000092e-01,
          8., 4., 3., 2., 2., 2., 2., 2., 1., 1., 1., 1., 1., 1.,
          9.66878772e-01, 4.29111570e-01, 4.66040790e-01 ]
      - [ 1., 4., 3.93331833e-02, 2.58133672e-02, 8.93564373e-02,
          9.03014243e-02, 2.02897221e-01, 4.01288345e-02, 1.36511832e-01,
          2.93958634e-01, 2.15496213e-04, 1.01181261e-01, 7.18320734e-05,
          8.96861032e-02, 1.09186620e-01, 8.21402013e-01, 0.,
          2.53362596e-01, 4.56259817e-01, 4.77629483e-01, 3.82344007e+00,
          1.57079637e+00, 9.79500890e-01, 8.98598099e+01, 2.24649525e+01,
          -4.80748987e+00, 0., 0., 1.38793737e-02, 1.60461552e-02,
          7.69877434e+00, 7.57673569e-03, 6.89997673e-02, 3., 3., 1., 1.,
          1., 1., 1., 1., 1., 1., 1., 1., 1., 1., 9.91076052e-01,
          2.79312873e+00, 2.22618151e+00 ]
      - [ 0., 185., 3.27228159e-02, 7.31333271e-02, 1.03220105e+00,
          1.04480171e+00, 3.54719663e+00, 1.65189728e-02, 8.19264650e-01,
          2.01631710e-02, 4.23936043e+01, 1.03884614e+00, 2.30400011e-01,
          1.12401851e-01, 1.87617111e+00, 5.99102341e-02, 0.,
          7.65447378e+00, 1.12016706e+01, 2.47409210e-01, 1.70272789e+01,
          1.57079637e+00, 7.15603054e-01, 2.69276099e+03, 1.45554657e+01,
          3.41411304e+00, 4.98723602e+00, 6.84570193e-01, 1.03623336e-02,
          1.88131779e-02, 4.10314322e+00, 4.72312450e-01, 1.45199966e+00,
          73., 32., 15., 12., 10., 8., 8., 8., 8., 7., 6., 6., 6., 6.,
          7.21144676e-01, 8.27322543e-01, 4.67906475e+00 ]
      - [ 0., 3., 2.12499619e-01, 0., 1.80727124e-01, 1.81517810e-01,
          4.41717654e-01, 1.96289897e-01, 2.45594010e-01, 7.99245477e-01,
          3.15544362e-30, 4.00229216e+00, 1.57772181e-30, 4.00229216e+00,
          4.00229216e+00, 1., 0., 4.41883922e-01, 8.83601546e-01,
          9.40000832e-01, 8.32857564e-02, 1.57079637e+00, 8.62079024e-01,
          1.19256325e+02, 3.97521095e+01, -6.35640621e+00, 0., 0.,
          4.23101010e-03, -1., 1.38039122e+01, 1.33012270e-03,
          4.24999237e-01, 1., 1., 1., 1., 1., 1., 1., 1., 1., 1., 1., 1.,
          1., 1., 9.69696999e-01, 1.94677341e+00, 4.84999716e-01 ]
      - [ 1., 2., 4.60014343e-02, 0., 7.61094764e-02, 7.61094764e-02,
          1.52218953e-01, 1.52218953e-01, 1.52218953e-01, 1., 0., 0., 0.,
          0., 0., 0., 0., 0., 0., 0., 0., 0., 0., 2.34784727e-27,
          1.17392363e-27, -4.57411886e-14, 0., 0., -1., -1.,
          3.32959213e+01, 0., 4.60014343e-02, 2., 2., 2., 2., 1., 1., 1.,
          1., 1., 1., 1., 1., 1., 1., 9.98619378e-01, 1.14555800e+00,
          4.16220856e+00 ]
      - [ 0., 24., 1.37391249e-02, 1.46542359e-02, 9.31405798e-02,
          1.00011706e-01, 2.71503061e-01, 8.64100829e-03, 6.26328290e-02,
          1.37962922e-01, 1.11353043e-02, 1.21134698e-01, 4.84143646e-04,
          8.59276578e-02, 1.70194298e-01, 5.04879773e-01, 0.,
          4.10548240e-01, 6.82051301e-01, 1.76074788e-01, 5.22671623e+01,
          1.57079637e+00, 9.88711774e-01, 5.85387707e+00, 2.43911549e-01,
          -5.98021209e-01, 0., 0., 3.72865470e-03, 6.73088990e-03,
          2.06081462e+00, 3.42091173e-03, 2.03999877e-01, 4., 2., 1., 1.,
          1., 1., 1., 1., 1., 1., 1., 1., 1., 1., 9.05947506e-01, -1.,
          1.39005280e+00 ]
      - [ 0., 7., 1.00666046e-01, 1.07111834e-01, 3.16851139e-01,
          3.25021654e-01, 9.22121763e-01, 1.40340671e-01, 3.32986355e-01,
          4.21460718e-01, 3.71184684e-02, 4.22905862e-01, 6.18641172e-03,
          3.43379855e-01, 5.38556218e-01, 6.37593329e-01, 0.,
          1.11980915e+00, 2.04193091e+00, 6.39051020e-01, 2.68663955e+00,
          1.57079637e+00, 8.90649199e-01, 2.28706818e+01, 3.26724005e+00,
          1.36390543e+00, 2.20426917e+00, 6.18756294e-01, 3.22396271e-02,
          4.68856767e-02, 3.22633476e+01, 3.01929731e-02, 3.88000488e-01,
          4., 4., 4., 4., 3., 3., 3., 3., 3., 3., 3., 3., 3., 2.,
          9.88033175e-01, 4.24514323e-01, 2.11161575e+01 ]
      - [ 0., 8., 3.91857147e-01, 2.64265001e-01, 4.60445195e-01,
          4.61076647e-01, 1.27875650e+00, 2.31979400e-01, 8.59202504e-01,
          2.69993842e-01, 2.70852476e-01, 4.64114934e-01, 3.86932082e-02,
          1.64365292e-01, 6.94817960e-01, 2.36558780e-01, 0.,
          2.86414480e+00, 4.14290094e+00, 8.30953360e-01, 4.86660630e-01,
          1.57079637e+00, 9.29390669e-01, 1.83571243e+02, 2.29464054e+01,
          4.37601233e+00, 5.29399443e+00, 8.26599360e-01, 7.60618970e-02,
          1.12341620e-01, 1.93177624e+01, 9.89995599e-02, 1.20000076e+00,
          2., 2., 2., 2., 2., 2., 2., 2., 2., 2., 2., 2., 2., 2.,
          9.39725697e-01, 2.35323453e+00, 1.97420006e+01 ]
      - [ 0., 184., 9.55737382e-03, 1.36710033e-02, 8.18479061e-01,
          8.20337594e-01, 2.68780065e+00, 1.32789118e-02, 1.13213629e-01,
          1.17290750e-01, 3.00557733e+00, 1.83935261e+00, 1.64239202e-02,
          1.67782903e+00, 2.13749647e+00, 7.84950554e-01, 0.,
          3.43412447e+00, 6.12192488e+00, 1.83403790e-01, 2.60227718e+01,
          1.57079637e+00, 6.02928996e-01, 1.75729749e+03, 9.55053043e+00,
          2.78216982e+00, 3.20193982e+00, 8.68901312e-01, 5.14057837e-03,
          9.93874203e-03, 3.26942492e+00, 5.06578445e-01, 9.34999943e-01,
          46., 7., 2., 2., 2., 1., 1., 1., 1., 1., 1., 1., 1., 1.,
          7.63948500e-01, 2.07809782e+00, -1. ]
      - [ 1., 3., 7.20000267e-02, 0., 6.24077804e-02, 6.59578666e-02,
          1.28345624e-01, 4.40147705e-02, 1.29006505e-01, 3.41182560e-01,
          8.95480387e-30, 6.53071031e-02, 4.47740193e-30, 6.53071031e-02,
          6.53071031e-02, 1., 0., 1.73021272e-01, 3.01366895e-01,
          5.48968971e-01, 5.10409117e+00, 1.57079637e+00, 9.89831090e-01,
          2.36938004e+02, 7.89793320e+01, 8.83981991e+00, 8.95331097e+00,
          9.87324178e-01, 1.19859166e-02, -1., 8.91394329e+00,
          2.78978492e-03, 1.23000145e-01, 2., 2., 2., 2., 2., 2., 2., 2.,
          2., 2., 2., 2., 1., 1., 9.86316621e-01, 1.35465205e+00,
          9.78850603e-01 ]
      - [ 1., 2., 1.00002289e-02, 0., 3.71591039e-02, 3.71591039e-02,
          7.43182078e-02, 7.43182078e-02, 7.43182078e-02, 1., 0., 0., 0.,
          0., 0., 0., 0., 0., 0., 0., 0., 0., 0., 2.68212708e-29,
          1.34106354e-29, -4.44089210e-15, 0., 0., -1., -1.,
          1.68979588e+01, 0., 1.00002289e-02, 2., 1., 1., 1., 1., 1., 1.,
          1., 1., 1., 1., 1., 1., 1., 9.99408364e-01, 1.69029999e+01,
          1.87560642e+00 ]
      - [ 1., 115., 2.21228059e-02, 1.85587611e-02, 6.48300350e-01,
          7.14903295e-01, 2.23946571e+00, 1.39139956e-02, 1.85057029e-01,
          7.51876086e-02, 1.35787058e+00, 9.17510569e-01, 1.19111454e-02,
          7.59728074e-01, 1.23503244e+00, 6.15148246e-01, 0.,
          3.22048736e+00, 5.45995283e+00, 2.19813943e-01, 9.53664207e+00,
          1.57079637e+00, 8.34480703e-01, 9.29770691e+02, 8.08496284e+00,
          -3.69003868e+00, 0., 0., 7.81214470e-03, 1.53819267e-02,
          3.63910246e+00, 1.15511024e+00, 1.51200008e+00, 38., 23., 11.,
          4., 1., 1., 1., 1., 1., 1., 1., 1., 1., 1., 6.78023815e-01,
          2.44310260e+00, 4.26600456e+00 ]
      - [ 0., 2., 2.79998779e-02, 0., 6.08919933e-02, 6.08919933e-02,
          1.21783987e-01, 1.21783987e-01, 1.21783987e-01, 1., 0., 0., 0.,
          0., 0., 0., 0., 0., 0., 0., 0., 0., 0., 9.77004231e-26,
          4.88502116e-26, 7.72715225e-14, 3.02868841e-13, 2.55131960e-01,
          -1., -1., 2.71959343e+01, 0., 2.79998779e-02, 1., 1., 1., 1.,
          1., 1., 1., 1., 1., 1., 1., 1., 1., 1., 9.98970985e-01,
          2.71819992e+01, 2.12804794e+00 ]
      - [ 0., 3., 1.23499870e-01, 0., 1.37351468e-01, 1.52406037e-01,
          3.07255536e-01, 9.20405984e-02, 2.58672357e-01, 3.55819225e-01,
          3.77366713e-29, 1.67582154e-01, 1.88683357e-29, 1.67582154e-01,
          1.67582154e-01, 1., 0., 3.50712955e-01, 6.57968462e-01,
          8.11152577e-01, 1.98907423e+00, 1.57079637e+00, 9.92490530e-01,
          4.51116562e+01, 1.50372190e+01, -3.98294067e+00, 0., 0.,
          1.97835080e-02, -1., 2.10068665e+01, 1.09129306e-02,
          2.46999741e-01, 2., 2., 2., 2., 2., 2., 2., 2., 2., 2., 2., 2.,
          2., 2., 9.88288879e-01, 4.03384590e+00, 1.63532639e+00 ]
      - [ 0., 17., 8.53749514e-02, 1.05455659e-01, 4.79759425e-01,
          4.96953845e-01, 1.50579321e+00, 8.09656233e-02, 3.04025978e-01,
          2.66311526e-01, 7.72829130e-02, 6.63294375e-01, 4.83018206e-03,
          5.60736775e-01, 7.79613435e-01, 7.19249785e-01, 0.,
          2.12984443e+00, 3.63563776e+00, 4.92316812e-01, 2.69573474e+00,
          1.57079637e+00, 9.41307783e-01, 5.81480347e+02, 3.42047272e+01,
          5.34604883e+00, 6.49613523e+00, 8.22958410e-01, 3.01563572e-02,
          5.64593039e-02, 1.88033199e+01, 5.80096126e-01, 1.01899910e+00,
          5., 5., 5., 5., 5., 5., 5., 5., 5., 5., 5., 5., 5., 5.,
          9.47941184e-01, 1.92907298e+00, 1.89660811e+00 ]
      - [ 1., 9., 5.62499836e-03, 3.33542936e-03, 6.47977693e-03,
          6.64864806e-03, 2.06819717e-02, 2.03041499e-03, 1.01553062e-02,
          1.99936360e-01, 5.39835055e-05, 6.58700010e-03, 6.74793819e-06,
          3.69744282e-03, 1.06659224e-02, 3.46659482e-01, 0.,
          4.82053421e-02, 6.88873082e-02, 9.92020369e-02, 2.37582642e+02,
          1.57079637e+00, 9.98353899e-01, 2.96154079e+01, 3.29060102e+00,
          1.80417347e+00, 1.82454789e+00, 9.88833129e-01, 1.13665510e-03,
          1.64251798e-03, 4.07974154e-01, 6.51884147e-06, 1.50000155e-02,
          1., 1., 1., 1., 1., 1., 1., 1., 1., 1., 1., 1., 1., 1.,
          9.63942289e-01, 5.55300426e+00, 4.46500444e+00 ]
      - [ 1., 5., 1.39999390e-02, 2.07043625e-02, 7.93424398e-02,
          8.27291533e-02, 2.10908771e-01, 4.06215899e-02, 9.29679424e-02,
          4.36941922e-01, 4.57680173e-04, 1.82633489e-01, 1.14420043e-04,
          1.69267163e-01, 1.95299625e-01, 8.66705000e-01, 0.,
          2.15430856e-01, 4.26339626e-01, 3.76979053e-01, 2.93473577e+00,
          1.57079637e+00, 9.74806249e-01, 2.77099335e+02, 5.54198685e+01,
          -7.50214863e+00, 0., 0., 8.01809411e-03, 9.28239524e-03,
          9.32769489e+00, 6.73595408e-04, 5.59997559e-02, 2., 2., 2., 2.,
          1., 1., 1., 1., 1., 1., 1., 1., 1., 1., 9.94017124e-01,
          4.05211592e+00, 9.30399990e+00 ]
      - [ 0., 1., -1., -1., 0., 0., -1., -1., -1., -1., 0., 0., 0., 0.,
          0., 0., 0., 0., 0., 0., 0., 0., 0., -1., -1., -1., -1., -1.,
          0., 0., 4.92589989e+01, 0., 0., 0., 0., 0., 0., 0., 0., 0., 0.,
          0., 0., 0., 0., 0., 0., 0., 1.24303827e+01, 7.02581167e+00 ]
      - [ 0., 2., 3.69987488e-02, 0., 1.52602270e-01, 1.52602270e-01,
          3.05204540e-01, 3.05204540e-01, 3.05204540e-01, 1., 0., 0., 0.,
          0., 0., 0., 0., 0., 0., 0., 0., 0., 0., 1.04838906e-26,
          5.24194528e-27, 6.52811138e-14, 7.88813459e-14, 8.27586234e-01,
          -1., -1., 3.47581711e+01, 0., 3.69987488e-02, 1., 1., 1., 1.,
          1., 1., 1., 1., 1., 1., 1., 1., 1., 1., 9.98936117e-01,
          3.47400017e+01, 2.27372766e+00 ]
      - [ 0., 1., -1., -1., 0., 0., -1., -1., -1., -1., 0., 0., 0., 0.,
          0., 0., 0., 0., 0., 0., 0., 0., 0., -1., -1., -1., -1., -1.,
          0., 0., 5.04580002e+01, 0., 0., 0., 0., 0., 0., 0., 0., 0., 0.,
          0., 0., 0., 0., 0., 0., 0., 5.04580002e+01, 1.17495794e+01 ]
      - [ 0., 1., -1., -1., 0., 0., -1., -1., -1., -1., 0., 0., 0., 0.,
          0., 0., 0., 0., 0., 0., 0., 0., 0., -1., -1., -1., -1., -1.,
          0., 0., 1.49499998e+01, 0., 0., 0., 0., 0., 0., 0., 0., 0., 0.,
          0., 0., 0., 0., 0., 0., 0., 1.00620689e+01, 2.55668807e+00 ]
      - [ 0., 4., 1.53333349e-02, 1.76165290e-02, 3.34297381e-02,
          3.46059762e-02, 8.70477706e-02, 2.49589775e-02, 4.30447496e-02,
          5.79837918e-01, 2.49184534e-10, 6.28551245e-02, 8.30615091e-11,
          6.28460348e-02, 6.28669038e-02, 9.99668062e-01, 0.,
          9.48897004e-02, 1.81937471e-01, 3.01610231e-01, 7.96201611e+00,
          1.57079637e+00, 9.82754469e-01, 1.56338440e+02, 3.90846100e+01,
          6.21937656e+00, 6.29869318e+00, 9.87407446e-01, 1.70566002e-03,
          2.98192515e-03, 5.73593187e+00, 8.91553296e-04, 4.50000763e-02,
          1., 1., 1., 1., 1., 1., 1., 1., 1., 1., 1., 1., 1., 1.,
          9.92196977e-01, 3.12915397e+00, 3.27215075e+00 ]
      - [ 0., 11., 8.05001259e-02, 9.56734568e-02, 2.61694700e-01,
          2.63013631e-01, 7.76171803e-01, 3.92368175e-02, 3.28045636e-01,
          1.19607799e-01, 7.36953095e-02, 3.92437309e-01, 7.36953085e-03,
          2.44044214e-01, 4.92894143e-01, 4.95125026e-01, 0.,
          1.03189135e+00, 1.80806327e+00, 4.48214144e-01, 8.78650475e+00,
          1.57079637e+00, 8.43321443e-01, 3.73658813e+02, 3.39689827e+01,
          -6.25033617e+00, 0., 0., 2.69457549e-02, 4.56018820e-02,
          8.71399117e+00, 2.03108061e-02, 6.23000145e-01, 6., 6., 5., 4.,
          4., 4., 4., 4., 4., 4., 4., 4., 4., 3., 9.31160212e-01,
          9.01099968e+00, 3.37212086e+00 ]
      - [ 1., 6., 7.12001771e-02, 7.35608786e-02, 1.30095884e-01,
          1.31380200e-01, 3.07866633e-01, 6.23703860e-02, 2.09437549e-01,
          2.97799438e-01, 8.76611215e-04, 1.42029166e-01, 1.75322246e-04,
          1.24782950e-01, 1.59750476e-01, 7.81111598e-01, 0.,
          4.93442833e-01, 8.01309466e-01, 4.47579443e-01, 5.30908823e+00,
          1.57079637e+00, 9.68242884e-01, 8.32806030e+02, 1.38800995e+02,
          -1.19013348e+01, 0., 0., 1.81315336e-02, 2.33631898e-02,
          1.34706259e+01, 1.42567540e-02, 2.23000526e-01, 4., 4., 4., 3.,
          2., 1., 1., 1., 1., 1., 1., 1., 1., 1., 9.83607709e-01,
          2.60311947e+01, 6.75412989e+00 ]
      - [ 0., 2., 1.79996490e-02, 0., 5.35399914e-02, 5.35399914e-02,
          1.07079983e-01, 1.07079983e-01, 1.07079983e-01, 1., 0., 0., 0.,
          0., 0., 0., 0., 0., 0., 0., 0., 0., 0., 3.00477119e-27,
          1.50238559e-27, 3.55271368e-14, 4.17443857e-14, 8.51063848e-01,
          -1., -1., 2.42209415e+01, 0., 1.79996490e-02, 2., 1., 1., 1.,
          1., 1., 1., 1., 1., 1., 1., 1., 1., 1., 9.99257147e-01,
          1.63631096e+01, 1.63731098e+01 ]
      - [ 0., 2., 7.99942017e-03, 0., 2.57820617e-02, 2.57820617e-02,
          5.15641235e-02, 5.15641235e-02, 5.15641235e-02, 1., 0., 0., 0.,
          0., 0., 0., 0., 0., 0., 0., 0., 0., 0., 2.41588652e-28,
          1.20794326e-28, 9.32587341e-15, 1.24344979e-14, 7.50000000e-01,
          -1., -1., 1.16889725e+01, 0., 7.99942017e-03, 1., 1., 1., 1.,
          1., 1., 1., 1., 1., 1., 1., 1., 1., 1., 9.99315858e-01,
          3.50325990e+00, 4.22819614e+00 ]
      - [ 1., 4., 3.43333073e-02, 4.30154130e-02, 4.36003245e-02,
          4.73744124e-02, 1.10449456e-01, 1.61879789e-02, 8.50386545e-02,
          1.90360233e-01, 3.05228991e-06, 7.65910000e-02, 1.01742990e-06,
          7.51551762e-02, 7.73006529e-02, 9.72245038e-01, 0.,
          1.18024111e-01, 2.28473559e-01, 3.37989330e-01, 4.53190136e+00,
          1.57079637e+00, 9.66800153e-01, 8.83950615e+00, 2.20987654e+00,
          -1.52060318e+00, 0., 0., 2.30946811e-03, 6.17657043e-03,
          3.06896377e+00, 1.00658217e-03, 1.02999926e-01, 2., 2., 2., 2.,
          2., 2., 2., 2., 1., 1., 1., 1., 1., 1., 9.66795623e-01,
          2.03007436e+00, 2.14806795e+00 ]
      - [ 0., 4., 3.86670418e-02, 4.44557779e-02, 1.19333751e-01,
          1.22034550e-01, 3.13905060e-01, 1.00860782e-01, 1.34715527e-01,
          7.48694599e-01, 4.59050243e-05, 2.46752948e-01, 1.53016754e-05,
          2.41542980e-01, 2.50412554e-01, 9.64580178e-01, 0.,
          3.36437076e-01, 6.50342107e-01, 5.70237696e-01, 1.87744808e+00,
          1.57079637e+00, 9.50993240e-01, 2.52245636e+01, 6.30614090e+00,
          -2.65339732e+00, 0., 0., 6.25375286e-03, 8.51072744e-03,
          2.29759769e+01, 1.02173751e-02, 1.03000641e-01, 2., 1., 1., 1.,
          1., 1., 1., 1., 1., 1., 1., 1., 1., 1., 9.95530844e-01,
          2.64067769e+00, 7.58893728e-01 ]
      - [ 1., 86., 3.05176452e-02, 2.84117777e-02, 8.71135354e-01,
          8.98531735e-01, 3.01382852e+00, 3.02984137e-02, 1.22738615e-01,
          2.46853143e-01, 1.86926901e-01, 1.56168258e+00, 2.19914014e-03,
          1.50559568e+00, 1.69136429e+00, 8.90166402e-01, 0.,
          4.05601311e+00, 7.06984138e+00, 2.90111661e-01, 5.67211437e+00,
          1.57079637e+00, 8.70964646e-01, 2.49924927e+03, 2.90610371e+01,
          4.81366825e+00, 6.59570312e+00, 7.29818821e-01, 1.29692331e-02,
          2.52521243e-02, 7.21246099e+00, 1.86682618e+00, 1.48500013e+00,
          31., 22., 22., 22., 20., 14., 4., 4., 3., 2., 2., 1., 1., 1.,
          8.21600199e-01, 7.90700436e+00, 2.64014053e+00 ]
      - [ 0., 103., 5.39607853e-02, 1.45197541e-01, 8.25091720e-01,
          8.40645194e-01, 2.56027031e+00, 1.96722355e-02, 1.24687207e+00,
          1.57772694e-02, 5.21033573e+00, 1.11611259e+00, 5.10817245e-02,
          6.86647415e-01, 1.51652682e+00, 4.52776313e-01, 0.,
          7.53054285e+00, 1.00908127e+01, 3.16083908e-01, 1.88565121e+01,
          1.57079637e+00, 6.76155984e-01, 2.14794995e+03, 2.08538818e+01,
          4.19840193e+00, 5.20422840e+00, 8.06729019e-01, 2.12958455e-02,
          3.72705609e-02, 4.62920380e+00, 2.63786137e-01, 1.11700010e+00,
          40., 22., 15., 11., 8., 6., 5., 4., 3., 3., 3., 3., 3., 3.,
          8.01316261e-01, 2.77803063e+00, -1. ]
      - [ 1., 32., 1.23225562e-02, 2.08381061e-02, 1.79380491e-01,
          1.84877083e-01, 5.35862803e-01, 1.42246746e-02, 1.14956439e-01,
          1.23739690e-01, 3.43821794e-02, 2.83632845e-01, 1.10910262e-03,
          2.17781499e-01, 3.60819370e-01, 6.03574872e-01, 0.,
          6.70720160e-01, 1.20658302e+00, 2.00547829e-01, 2.40378933e+01,
          1.57079637e+00, 9.08092797e-01, 8.37397766e+01, 2.61686802e+00,
          -1.67236376e+00, 0., 0., 4.76103509e-03, 8.80803820e-03,
          3.42954779e+00, 8.14553467e-04, 3.09999943e-01, 2., 2., 2., 2.,
          1., 1., 1., 1., 1., 1., 1., 1., 1., 1., 9.13262486e-01,
          6.87119722e-01, 6.22405386e+00 ]
      - [ 0., 3., 1.59999847e-01, 0., 1.38234735e-01, 1.38237536e-01,
          3.38601142e-01, 1.68472484e-01, 1.70134872e-01, 9.90228951e-01,
          3.15544362e-30, 1.39663172e+01, 1.57772181e-30, 1.39663172e+01,
          1.39663172e+01, 1., 0., 3.38607371e-01, 6.77208483e-01,
          8.22926760e-01, 2.38694157e-02, 1.57079637e+00, 8.77901375e-01,
          1.89087219e+01, 6.30290747e+00, 2.48527050e+00, 2.53508782e+00,
          9.80348885e-01, 2.20094706e-04, -1., 1.27002525e+01,
          1.73727603e-04, 3.19999695e-01, 3., 3., 3., 3., 3., 3., 3., 3.,
          3., 3., 3., 3., 3., 3., 9.75116670e-01, 4.05018240e-01,
          4.33341056e-01 ]
      - [ 1., 5., 2.11500049e-01, 1.44061089e-01, 1.64777517e-01,
          1.82284579e-01, 1.17919691e-01, 6.05544150e-02, 3.79205555e-01,
          1.59687579e-01, 1.04664238e-02, 1.97478026e-01, 2.61660595e-03,
          1.13441467e-01, 2.37177059e-01, 4.78298664e-01, 0.,
          8.59538913e-01, 9.77458596e-01, 5.70806026e-01, 1.09086692e+00,
          1.57079637e+00, 8.87969196e-01, 3.52563385e+02, 7.05126801e+01,
          8.26451683e+00, 8.69579601e+00, 9.50403750e-01, 5.08468412e-02,
          6.07052669e-02, 6.82487249e+00, 1.81605723e-02, 4.31000233e-01,
          3., 3., 3., 3., 3., 2., 2., 2., 2., 2., 2., 2., 2., 2.,
          9.39508736e-01, 2.16913342e+00, 1.94328284e+00 ]
      - [ 1., 9., 8.36250782e-02, 2.87299696e-02, 2.00725496e-01,
          2.04104692e-01, 5.04543126e-01, 3.19281891e-02, 1.11219399e-01,
          2.87073940e-01, 6.74124807e-02, 2.09062815e-01, 8.42656009e-03,
          5.81099950e-02, 3.09845775e-01, 1.87544897e-01, 0.,
          7.11115837e-01, 1.21565902e+00, 4.16732013e-01, 3.34785295e+00,
          1.57079637e+00, 9.84830081e-01, 1.40533249e+02, 1.56148052e+01,
          -4.17855024e+00, 0., 0., 1.38696646e-02, 2.51644347e-02,
          6.27993345e+00, 2.23217681e-02, 5.61000347e-01, 2., 2., 2., 2.,
          2., 2., 2., 2., 2., 2., 1., 1., 1., 1., 9.15038586e-01,
          1.37820244e+00, 2.37623692e+00 ]
      - [ 1., 21., 2.75999550e-02, 2.69979145e-02, 1.73117444e-01,
          1.79883227e-01, 5.32549322e-01, 2.57072449e-02, 9.27782133e-02,
          2.77082771e-01, 7.14323344e-03, 2.65851945e-01, 3.57161683e-04,
          2.33133957e-01, 3.01216841e-01, 7.73973823e-01, 0.,
          8.22974086e-01, 1.35552335e+00, 2.67101735e-01, 1.33504534e+01,
          1.57079637e+00, 9.70305026e-01, 1.29479736e+02, 6.16570187e+00,
          -2.79596019e+00, 0., 0., 9.68199968e-03, 1.74638983e-02,
          5.93086720e+00, 8.85954127e-02, 2.54000187e-01, 8., 6., 4., 3.,
          3., 2., 2., 2., 1., 1., 1., 1., 1., 1., 9.58469570e-01,
          2.92517972e+00, 3.59615517e+00 ]
      - [ 1., 10., 2.32222244e-01, 6.98923543e-02, 6.77559733e-01,
          6.79460824e-01, 2.12572432e+00, 8.67273659e-02, 3.37315917e-01,
          2.57110208e-01, 2.06463574e-03, 1.25166521e+01, 2.29403988e-04,
          1.24972992e+01, 1.25395651e+01, 9.96629417e-01, 0.,
          2.12962747e+00, 4.25535154e+00, 7.29327738e-01, 4.58505929e-01,
          1.57079637e+00, 6.92283988e-01, 1.30384436e+03, 1.30384430e+02,
          1.04688005e+01, 1.25316229e+01, 8.35390627e-01, 3.72271240e-02,
          7.02696443e-02, 9.84662819e+00, 1.56366099e-02, 2.09000015e+00,
          1., 1., 1., 1., 1., 1., 1., 1., 1., 1., 1., 1., 1., 1.,
          8.09913576e-01, 1.81632960e+00, 4.33758914e-01 ]
      - [ 0., 1., -1., -1., 0., 0., -1., -1., -1., -1., 0., 0., 0., 0.,
          0., 0., 0., 0., 0., 0., 0., 0., 0., -1., -1., -1., -1., -1.,
          0., 0., 2.19510002e+01, 0., 0., 0., 0., 0., 0., 0., 0., 0., 0.,
          0., 0., 0., 0., 0., 0., 0., 1.12581987e+01, 1.35957694e+00 ]
      - [ 0., 23., 0., 0., 0., 0., 0., 0., 0., 0., .Nan, .Nan, .Nan, 0.,
          0., 0., 0., 0., 0., 0., 9.13043516e+04, 0., 1., 0., 0., 0., 0.,
          0., 0., 0., 0., 0., 0., 1., 1., 1., 1., 1., 1., 1., 1., 1., 1.,
          1., 1., 1., 1., 0., 9.74100018e+00, 1.21450005e+01 ]
      - [ 0., 248., 1.11659849e-02, 1.97510999e-02, 1.14154685e+00,
          1.15406060e+00, 4.41547680e+00, 1.17969178e-02, 3.68885100e-01,
          3.19799259e-02, 1.02508076e-01, 3.20684853e+01, 4.15012444e-04,
          3.20368042e+01, 3.21358185e+01, 9.96918857e-01, 0.,
          4.73883677e+00, 9.15431309e+00, 1.92905828e-01, 3.21981850e+01,
          1.57079637e+00, 4.99340445e-01, 1.70012048e+03, 6.85532427e+00,
          -2.73024702e+00, 0., 0., 5.56245912e-03, 1.07256901e-02,
          2.98832941e+00, 4.72379811e-02, 2.14599991e+00, 9., 2., 1., 1.,
          1., 1., 1., 1., 1., 1., 1., 1., 1., 1., 5.56794703e-01, -1.,
          8.09321165e-01 ]
      - [ 1., 3., 3.49998474e-03, 0., 1.94266681e-02, 1.94951501e-02,
          4.75013293e-02, 2.34989934e-02, 2.42482983e-02, 9.69098628e-01,
          5.00741786e-33, 1.17739551e-01, 2.50370893e-33, 1.17739551e-01,
          1.17739551e-01, 1., 0., 4.77472916e-02, 9.52486172e-02,
          3.08623761e-01, 2.83377433e+00, 1.57079637e+00, 9.81967270e-01,
          8.77258453e+01, 2.92419491e+01, 5.40376520e+00, 5.41302824e+00,
          9.98288810e-01, 4.08153632e-04, -1., 5.38963270e+00,
          5.74716832e-05, 6.99996948e-03, 1., 1., 1., 1., 1., 1., 1., 1.,
          1., 1., 1., 1., 1., 1., 9.98702288e-01, 3.20613766e+00,
          2.01018810e+00 ]
      - [ 0., 13., 3.82499993e-02, 1.18144073e-01, 1.97785571e-01,
          2.50017852e-01, 4.07000005e-01, 0., 4.12999988e-01, 0.,
          3.09921132e-04, 2.10771218e-01, 2.58267628e-05, 1.95533887e-01,
          2.16203466e-01, 9.04397547e-01, 0., 4.61743951e-01,
          8.68743956e-01, 2.81027973e-01, 3.08390234e+04, 9.99597669e-01,
          9.62923110e-01, 1.73186874e+01, 1.33220673e+00, 9.99597669e-01,
          1.24745119e+00, 8.01312029e-01, 1.08137680e-02, 1.73083860e-02,
          2.50064343e-01, 2.51257699e-03, 4.12999988e-01, 2., 1., 1., 1.,
          1., 1., 1., 1., 1., 1., 1., 1., 1., 1., 0., 1.64150009e+01,
          4.43700409e+00 ]
      - [ 0., 4., 1.26667023e-02, 7.23404950e-03, 6.12933263e-02,
          6.12934940e-02, 1.63697630e-01, 5.36101833e-02, 5.70779964e-02,
          9.39244330e-01, 2.46183807e-03, 6.52178973e-02, 8.20612710e-04,
          3.38258483e-02, 8.51131305e-02, 3.97422224e-01, 0.,
          1.64583340e-01, 3.28280985e-01, 4.05142546e-01, 1.96302021e+00,
          1.57079637e+00, 9.38273013e-01, 1.57587290e+01, 3.93968225e+00,
          -2.06570029e+00, 0., 0., 3.48676695e-03, 1.62047672e-03,
          1.21786051e+01, 2.55042687e-05, 3.80001068e-02, 2., 2., 1., 1.,
          1., 1., 1., 1., 1., 1., 1., 1., 1., 1., 9.96884704e-01,
          5.88612461e+00, 4.18721962e+00 ]
      - [ 1., 47., 1.06108695e-01, 8.44770446e-02, 1.47921109e+00,
          1.51459384e+00, 4.85982561e+00, 2.79852599e-02, 3.04067612e-01,
          9.20362994e-02, 9.45750773e-02, 1.56056843e+01, 2.05598003e-03,
          1.54866714e+01, 1.57082558e+01, 9.85893786e-01, 0.,
          5.33544350e+00, 1.01952686e+01, 4.75984812e-01, 5.88550234e+00,
          1.57079637e+00, 4.44981605e-01, 7.94684906e+01, 1.69081891e+00,
          -1.46408939e+00, 0., 0., 2.96018794e-02, 5.58017679e-02,
          7.74341679e+00, 3.54495883e-01, 4.61099958e+00, 3., 3., 3., 3.,
          3., 2., 1., 1., 1., 1., 1., 1., 1., 1., 5.52981138e-01,
          2.70805979e+00, 4.68261272e-01 ]
      - [ 0., 2., 3.10001373e-02, 0., 6.33531809e-02, 6.33531809e-02,
          1.26706362e-01, 1.26706362e-01, 1.26706362e-01, 1., 0., 0., 0.,
          0., 0., 0., 0., 0., 0., 0., 0., 0., 0., 6.83804354e-27,
          3.41902177e-27, -6.57252031e-14, 0., 0., -1., -1.,
          2.81904316e+01, 0., 3.10001373e-02, 1., 1., 1., 1., 1., 1., 1.,
          1., 1., 1., 1., 1., 1., 1., 9.98900950e-01, 2.81749992e+01,
          2.82059994e+01 ]
      - [ 1., 120., 2.23613475e-02, 4.75274809e-02, 6.80254579e-01,
          6.89252496e-01, 2.32429767e+00, 1.67147294e-02, 3.34540367e-01,
          4.99632694e-02, 2.69688725e+00, 1.09467340e+00, 2.26629172e-02,
          6.81620598e-01, 1.43890595e+00, 4.73707527e-01, 0.,
          3.89580059e+00, 6.22009850e+00, 2.29592457e-01, 2.27005634e+01,
          1.57079637e+00, 6.99480474e-01, 1.88767419e+03, 1.57306185e+01,
          -4.38704586e+00, 0., 0., 8.77839699e-03, 1.64962802e-02,
          4.04476261e+00, 6.79674625e-01, 8.33999872e-01, 23., 11., 10.,
          7., 6., 6., 6., 4., 4., 3., 3., 3., 3., 3., 8.19948196e-01,
          7.14297056e-01, 3.07510996e+00 ]
      - [ 0., 2., 7.69996643e-02, 0., 9.42119583e-02, 9.42119583e-02,
          1.88423917e-01, 1.88423917e-01, 1.88423917e-01, 1., 0., 0., 0.,
          0., 0., 0., 0., 0., 0., 0., 0., 0., 0., 2.52435490e-28,
          1.26217745e-28, -1.42108547e-14, 7.10542736e-15, -2., -1., -1.,
          3.94614067e+01, 0., 7.69996643e-02, 2., 2., 2., 2., 2., 2., 2.,
          1., 1., 1., 1., 1., 1., 1., 9.98050630e-01, 3.95000000e+01,
          3.94230003e+01 ]
      - [ 0., 1., -1., -1., 0., 0., -1., -1., -1., -1., 0., 0., 0., 0.,
          0., 0., 0., 0., 0., 0., 0., 0., 0., -1., -1., -1., -1., -1.,
          0., 0., 3.21640015e+01, 0., 0., 0., 0., 0., 0., 0., 0., 0., 0.,
          0., 0., 0., 0., 0., 0., 0., 3.21640015e+01, 1.21785030e+01 ]
      - [ 1., 2., 5.79996109e-02, 0., 3.82938385e-02, 3.82938385e-02,
          7.65876770e-02, 7.65876770e-02, 7.65876770e-02, 1., 0., 0., 0.,
          0., 0., 0., 0., 0., 0., 0., 0., 0., 0., 3.15544362e-30,
          1.57772181e-30, -1.77635684e-15, 0., 0., -1., -1.,
          1.14769726e+01, 0., 5.79996109e-02, 2., 2., 2., 2., 2., 1., 1.,
          1., 1., 1., 1., 1., 1., 1., 9.94959176e-01, 1.15059996e+01,
          3.61423540e+00 ]
      - [ 0., 8., 3.57142510e-03, 2.81999959e-03, 5.62305236e-03,
          5.78466151e-03, 1.53214801e-02, 1.79115846e-03, 9.17267986e-03,
          1.95271015e-01, 1.74619399e-05, 6.99003693e-03, 2.49456275e-06,
          4.54762764e-03, 9.02239233e-03, 5.04037857e-01, 0.,
          2.94629354e-02, 4.47844155e-02, 8.63948464e-02, 2.93471832e+02,
          1.57079637e+00, 9.97539699e-01, 2.63999462e+01, 3.29999328e+00,
          1.80617785e+00, 1.82189584e+00, 9.91372705e-01, 6.68641587e-04,
          1.00567739e-03, 4.11104620e-01, 6.66765482e-05, 1.39999986e-02,
          1., 1., 1., 1., 1., 1., 1., 1., 1., 1., 1., 1., 1., 1.,
          9.66346145e-01, 4.02000010e-01, 4.11000013e-01 ]
      - [ 0., 2., 2.89001465e-01, 0., 1.64859220e-01, 1.64859220e-01,
          3.29718441e-01, 3.29718441e-01, 3.29718441e-01, 1., 0., 0., 0.,
          0., 0., 0., 0., 0., 0., 0., 0., 0., 0., 4.10207671e-29,
          2.05103835e-29, -5.32907052e-15, 0., 0., -1., -1.,
          3.64214134e+01, 0., 2.89001465e-01, 2., 2., 2., 2., 2., 2., 2.,
          2., 2., 2., 2., 2., 2., 2., 9.92096424e-01, 3.65660019e+01,
          6.25948787e-01 ]
      - [ 0., 1., -1., -1., 0., 0., -1., -1., -1., -1., 0., 0., 0., 0.,
          0., 0., 0., 0., 0., 0., 0., 0., 0., -1., -1., -1., -1., -1.,
          0., 0., 3.00189991e+01, 0., 0., 0., 0., 0., 0., 0., 0., 0., 0.,
          0., 0., 0., 0., 0., 0., 0., 7.84780359e+00, 5.78695536e-01 ]
      - [ 0., 175., 1.65976956e-02, 3.01472154e-02, 5.31638205e-01,
          5.41849911e-01, 1.58151495e+00, 7.08183087e-03, 3.49115670e-01,
          2.02850569e-02, 7.27427626e+00, 5.35277963e-01, 4.18061838e-02,
          5.79828210e-02, 8.56202424e-01, 6.77209273e-02, 0.,
          3.55483842e+00, 5.13635349e+00, 1.72307581e-01, 4.68207054e+01,
          1.57079637e+00, 7.98645854e-01, 6.22565063e+02, 3.55751467e+00,
          1.61546516e+00, 2.15715122e+00, 7.48888195e-01, 5.39248344e-03,
          9.86480061e-03, 1.97764850e+00, 3.90948392e-02, 8.89000058e-01,
          47., 18., 9., 7., 3., 2., 2., 2., 2., 2., 2., 2., 2., 2.,
          6.45109773e-01, 1.15990248e+01, -1. ]
      - [ 0., 175., 1.65689643e-02, 1.32792769e-02, 9.25317287e-01,
          9.56782937e-01, 3.40083957e+00, 7.06364028e-03, 6.09107725e-02,
          1.15967013e-01, 1.45148104e-02, 3.09468460e+01, 8.34184466e-05,
          3.09275532e+01, 3.09760857e+01, 9.98433292e-01, 0.,
          3.55150700e+00, 6.95234632e+00, 2.00466886e-01, 2.74750366e+01,
          1.57079637e+00, 8.44987094e-01, 9.20728577e+02, 5.26130629e+00,
          1.59901464e+00, 3.42086291e+00, 4.67430204e-01, 5.72988484e-03,
          1.11857681e-02, 2.39227414e+00, 6.67144507e-02, 2.77799988e+00,
          98., 51., 27., 17., 3., 1., 1., 1., 1., 1., 1., 1., 1., 1.,
          3.66042912e-01, 1.50016320e+00, -1. ]
      - [ 1., 2., 1.36001587e-01, 0., 1.02224715e-01, 1.02224715e-01,
          2.04449430e-01, 2.04449430e-01, 2.04449430e-01, 1., 0., 0., 0.,
          0., 0., 0., 0., 0., 0., 0., 0., 0., 0., 2.12203584e-28,
          1.06101792e-28, 8.88178420e-15, 1.15463195e-14, 7.69230783e-01,
          -1., -1., 3.50289154e+01, 0., 1.36001587e-01, 2., 2., 2., 2.,
          2., 2., 2., 2., 2., 2., 2., 2., 2., 1., 9.96124983e-01,
          2.30740666e+00, 4.50231493e-01 ]
      - [ 0., 3., 6.14995956e-02, 0., 9.89559144e-02, 1.02790602e-01,
          2.37555742e-01, 1.03788570e-01, 1.44657031e-01, 7.17480302e-01,
          1.85274461e-30, 2.09499657e-01, 9.26372303e-31, 2.09499657e-01,
          2.09499657e-01, 1., 0., 2.48445585e-01, 4.86001343e-01,
          6.97137952e-01, 1.59109282e+00, 1.57079637e+00, 9.66213465e-01,
          5.46719804e-02, 1.82239935e-02, -2.08282843e-01, 0., 0.,
          6.95357192e-03, -1., 2.33311863e+01, 4.25609481e-03,
          1.22999191e-01, 3., 3., 2., 2., 2., 2., 2., 2., 2., 2., 1., 1.,
          1., 1., 9.94738877e-01, 6.11766160e-01, 2.32560005e+01 ]
      - [ 0., 41., 4.62749973e-02, 4.34298180e-02, 4.52100694e-01,
          4.76250261e-01, 1.40568626e+00, 2.73973104e-02, 2.32025817e-01,
          1.18078716e-01, 1.97212324e-01, 6.10502422e-01, 4.93030809e-03,
          4.16136771e-01, 7.31911302e-01, 5.68561733e-01, 0.,
          2.35766125e+00, 3.76334739e+00, 3.10638189e-01, 9.09064198e+00,
          1.57079637e+00, 9.65641320e-01, 1.98451653e+01, 4.84028399e-01,
          -1.25299299e+00, 0., 0., 1.63153317e-02, 3.01835649e-02,
          6.41662455e+00, 5.28064072e-01, 9.55999851e-01, 18., 10., 5.,
          5., 4., 4., 3., 3., 3., 3., 2., 2., 2., 2., 8.65465820e-01,
          9.55370188e-01, 4.65099841e-01 ]
      - [ 0., 25., 3.07083521e-02, 2.93635391e-02, 2.13133603e-01,
          2.17179373e-01, 6.33615971e-01, 2.53029913e-02, 1.14869595e-01,
          2.20275804e-01, 4.77157868e-02, 2.89667636e-01, 1.98815786e-03,
          2.31932476e-01, 3.74553591e-01, 6.19223773e-01, 0.,
          1.02901852e+00, 1.66263449e+00, 2.68865138e-01, 9.70530701e+00,
          1.57079637e+00, 8.95327389e-01, 5.44544373e+02, 2.17817745e+01,
          4.40830040e+00, 5.03120041e+00, 8.76192570e-01, 1.06799360e-02,
          1.94655415e-02, 5.85675812e+00, 9.99998152e-02, 3.60000134e-01,
          9., 5., 4., 4., 4., 3., 3., 2., 2., 2., 2., 1., 1., 1.,
          9.40564632e-01, 1.48628521e+00, 6.05700016e+00 ]
      - [ 0., 3., 3.00002098e-02, 0., 4.59673777e-02, 5.01587503e-02,
          1.07094809e-01, 5.07751554e-02, 7.04952776e-02, 7.20263183e-01,
          1.15420982e-30, 6.40052482e-02, 5.77104908e-31, 6.40052482e-02,
          6.40052482e-02, 1., 0., 1.21270433e-01, 2.28365242e-01,
          4.77875769e-01, 5.20791245e+00, 1.57079637e+00, 9.91455555e-01,
          2.12232838e+01, 7.07442808e+00, 2.61339402e+00, 2.70106792e+00,
          9.67540979e-01, 5.01809502e-03, -1., 1.14079285e+01,
          1.49728393e-03, 5.00001907e-02, 2., 2., 2., 2., 2., 1., 1., 1.,
          1., 1., 1., 1., 1., 1., 9.95624781e-01, 4.89642948e-01,
          1.13780003e+01 ]
      - [ 1., 2., 2.50005722e-02, 0., 2.79662646e-02, 2.79662646e-02,
          5.59325293e-02, 5.59325293e-02, 5.59325293e-02, 1., 0., 0., 0.,
          0., 0., 0., 0., 0., 0., 0., 0., 0., 0., 3.15544362e-30,
          1.57772181e-30, -1.77635684e-15, 0., 0., -1., -1.,
          1.14814730e+01, 0., 2.50005722e-02, 2., 2., 1., 1., 1., 1., 1.,
          1., 1., 1., 1., 1., 1., 1., 9.97824907e-01, 1.71084261e+00,
          1.85278344e+00 ]
      - [ 0., 2., 5.59997559e-02, 0., 5.52616678e-02, 5.52616678e-02,
          1.10523336e-01, 1.10523336e-01, 1.10523336e-01, 1., 0., 0., 0.,
          0., 0., 0., 0., 0., 0., 0., 0., 0., 0., 4.81205152e-29,
          2.40602576e-29, 4.44089210e-15, 5.32907052e-15, 8.33333313e-01,
          -1., -1., 2.18649483e+01, 0., 5.59997559e-02, 2., 2., 2., 2.,
          2., 1., 1., 1., 1., 1., 1., 1., 1., 1., 9.97442126e-01,
          1.53417766e+00, 7.59038925e+00 ]
      - [ 1., 9., 5.47499657e-02, 5.79009242e-02, 1.42628893e-01,
          1.52712926e-01, 4.00820822e-01, 3.87668423e-02, 1.77501455e-01,
          2.18402952e-01, 3.95034021e-03, 1.91691905e-01, 4.93792526e-04,
          1.41322687e-01, 2.17073604e-01, 6.51035845e-01, 0.,
          5.82793176e-01, 9.83614028e-01, 3.74855012e-01, 7.36146259e+00,
          1.57079637e+00, 9.80688274e-01, 1.23953976e-01, 1.37726637e-02,
          -2.30144620e-01, 3.56733017e-02, -6.45145321e+00,
          1.12148672e-02, 1.84310824e-02, 8.94842911e+00, 4.49408703e-02,
          3.42000008e-01, 4., 4., 3., 1., 1., 1., 1., 1., 1., 1., 1., 1.,
          1., 1., 9.62830126e-01, 7.64911056e-01, 1.67756665e+00 ]
      - [ 0., 45., 2.93863695e-02, 7.84074664e-02, 4.02360886e-01,
          4.13631260e-01, 1.31479001e+00, 2.36526690e-02, 3.95919830e-01,
          5.97410575e-02, 2.27801785e-01, 5.36226809e-01, 5.17731346e-03,
          3.53800178e-01, 7.43246853e-01, 4.76019770e-01, 0.,
          2.10611153e+00, 3.42090154e+00, 2.82056481e-01, 9.57722187e+00,
          1.57079637e+00, 8.58943284e-01, 2.06724585e+03, 4.59387970e+01,
          6.61596060e+00, 7.20501471e+00, 9.18243825e-01, 1.37306675e-02,
          2.55141594e-02, 5.63054752e+00, 2.89937586e-01, 5.39000034e-01,
          12., 4., 4., 3., 3., 2., 2., 2., 2., 2., 2., 2., 2., 2.,
          9.09578919e-01, 1.39429867e+00, 4.23502159e+00 ]
      - [ 1., 1., -1., -1., 0., 0., -1., -1., -1., -1., 0., 0., 0., 0.,
          0., 0., 0., 0., 0., 0., 0., 0., 0., -1., -1., -1., -1., -1.,
          0., 0., 3.60470009e+01, 0., 0., 0., 0., 0., 0., 0., 0., 0., 0.,
          0., 0., 0., 0., 0., 0., 0., 3.60470009e+01, 2.21224332e+00 ]
      - [ 1., 3., 8.20000172e-02, 0., 7.19308034e-02, 7.56922811e-02,
          1.70919761e-01, 5.11569716e-02, 1.21390946e-01, 4.21423286e-01,
          2.09541178e-31, 2.88046092e-01, 1.04770589e-31, 2.88046092e-01,
          2.88046092e-01, 1., 0., 1.72547922e-01, 3.43467683e-01,
          5.86061180e-01, 1.15722632e+00, 1.57079637e+00, 9.35087323e-01,
          7.89990158e+01, 2.63330059e+01, 5.03551102e+00, 5.20440292e+00,
          9.67548192e-01, 6.17568521e-03, -1., 5.53629827e+00,
          9.21215920e-04, 1.64000034e-01, 1., 1., 1., 1., 1., 1., 1., 1.,
          1., 1., 1., 1., 1., 1., 9.70745623e-01, 7.27334857e-01,
          1.07022583e+00 ]
      - [ 1., 26., 2.55600363e-02, 2.73313653e-02, 1.77419096e-01,
          1.82320029e-01, 5.52910268e-01, 2.14104094e-02, 1.18951380e-01,
          1.79992944e-01, 6.41338527e-02, 2.01239929e-01, 2.56535411e-03,
          8.93894285e-02, 2.88110316e-01, 3.10261101e-01, 0.,
          9.11613882e-01, 1.46452415e+00, 2.47025996e-01, 1.63727970e+01,
          1.57079637e+00, 9.12808359e-01, 2.47387711e+02, 9.51491165e+00,
          -3.21001935e+00, 0., 0., 8.32100119e-03, 1.51926214e-02,
          4.98105288e+00, 3.37921232e-02, 2.39000320e-01, 11., 6., 4.,
          3., 2., 2., 1., 1., 1., 1., 1., 1., 1., 1., 9.53155577e-01,
          6.41108513e+00, 2.75513721e+00 ]
      - [ 1., 6., 1.14399910e-01, 1.11673266e-01, 1.50396094e-01,
          1.51042491e-01, 3.45048308e-01, 6.98500499e-02, 3.00631851e-01,
          2.32344136e-01, 1.06243724e-02, 1.57169625e-01, 2.12487462e-03,
          7.63075352e-02, 1.97982401e-01, 3.85425836e-01, 0.,
          6.93033993e-01, 1.03808224e+00, 5.09431601e-01, 4.74283075e+00,
          1.57079637e+00, 9.93684113e-01, 9.75477112e+02, 1.62579514e+02,
          -1.29461575e+01, 0., 0., 3.26982886e-02, 4.35334072e-02,
          1.43629370e+01, 2.21021492e-02, 3.26000214e-01, 4., 4., 4., 2.,
          2., 2., 2., 2., 2., 2., 2., 2., 2., 2., 9.77605283e-01, -1.,
          1.06367469e+00 ]
      - [ 1., 7., 1.13833271e-01, 1.17935114e-01, 1.70177490e-01,
          2.00999066e-01, 2.93170482e-01, 4.13490422e-02, 3.15240771e-01,
          1.31166548e-01, 3.67158814e-03, 1.74316764e-01, 6.11931377e-04,
          1.48205623e-01, 2.09895745e-01, 7.06091583e-01, 0.,
          7.89796352e-01, 1.08296692e+00, 4.65395927e-01, 5.30291367e+00,
          1.57079637e+00, 9.31678534e-01, 2.15778427e+02, 3.08254910e+01,
          -5.64205933e+00, 0., 0., 2.14897767e-02, 3.50709446e-02,
          9.55488682e+00, 1.67378201e-03, 3.55999947e-01, 4., 3., 3., 3.,
          3., 3., 3., 3., 3., 3., 3., 3., 2., 2., 9.63569403e-01,
          7.03323483e-01, 3.25117683e+00 ]
      - [ 0., 83., 1.33780446e-02, 2.28260383e-02, 4.19947892e-01,
          4.21874464e-01, 1.42035353e+00, 1.59492698e-02, 1.25070378e-01,
          1.27522349e-01, 2.92683214e-01, 7.42892921e-01, 3.56930727e-03,
          6.36361539e-01, 8.57745945e-01, 7.41899788e-01, 0.,
          1.97794294e+00, 3.39829659e+00, 2.04827428e-01, 2.07752132e+01,
          1.57079637e+00, 7.96055794e-01, 1.18209106e+03, 1.42420607e+01,
          -4.01193237e+00, 0., 0., 5.98037243e-03, 1.13162454e-02,
          3.78766131e+00, 2.00397193e-01, 4.33999777e-01, 12., 7., 5.,
          5., 5., 5., 4., 3., 2., 2., 2., 2., 1., 1., 8.92120361e-01,
          -1., 5.09333968e-01 ]
      - [ 1., 4., 1.46665573e-02, 1.15461682e-03, 3.17428038e-02,
          3.17476876e-02, 8.52614939e-02, 2.80863512e-02, 2.90802140e-02,
          9.65823352e-01, 1.58668158e-07, 7.01378882e-01, 5.28893835e-08,
          7.01058507e-01, 7.01558352e-01, 9.99287546e-01, 0.,
          8.53058249e-02, 1.70567319e-01, 2.92033672e-01, 6.46287024e-01,
          1.57079637e+00, 9.67360020e-01, 1.71941895e+02, 4.29854736e+01,
          6.55264950e+00, 6.55896664e+00, 9.99036849e-01, 1.53484195e-03,
          1.86596022e-04, 5.58643341e+00, 5.75802515e-05, 4.39996719e-02,
          4., 1., 1., 1., 1., 1., 1., 1., 1., 1., 1., 1., 1., 1.,
          9.92154121e-01, 5.73467672e-01, 1.81410933e+00 ]
      - [ 1., 19., 7.36666769e-02, 1.36210099e-01, 2.76752055e-01,
          2.91866988e-01, 4.97945458e-01, 2.45383345e-02, 5.50602436e-01,
          4.45663407e-02, 1.33856654e-01, 2.86566228e-01, 7.43648037e-03,
          1.44550845e-01, 4.34960246e-01, 3.32331181e-01, 0.,
          1.53420591e+00, 2.03215146e+00, 3.45743150e-01, 8.98280048e+00,
          1.57079637e+00, 9.33631539e-01, 2.64112997e+00, 1.39006853e-01,
          -6.60203755e-01, 0., 0., 2.33570002e-02, 4.25757319e-02,
          5.91978884e+00, 1.59427747e-01, 6.89000130e-01, 4., 3., 3., 2.,
          2., 2., 2., 2., 2., 2., 2., 2., 2., 2., 8.90461028e-01,
          6.19999981e+00, 1.64528811e+00 ]
      - [ 1., 3., 2.40001678e-02, 0., 4.79304940e-02, 4.79755364e-02,
          1.17350042e-01, 5.75690083e-02, 5.99230006e-02, 9.60716367e-01,
          1.23259516e-32, 5.97565055e-01, 6.16297582e-33, 5.97565055e-01,
          5.97565055e-01, 1., 0., 1.17492013e-01, 2.34842047e-01,
          4.84605044e-01, 5.57879925e-01, 1.57079637e+00, 9.51944411e-01,
          3.27557129e+02, 1.09185715e+02, -1.04555016e+01, 0., 0.,
          5.19625610e-04, -1., 1.22869225e+01, 1.69363717e-04,
          4.80003357e-02, 1., 1., 1., 1., 1., 1., 1., 1., 1., 1., 1., 1.,
          1., 1., 9.96100724e-01, 3.92024779e+00, 4.13523149e+00 ]
      - [ 0., 95., 2.46276595e-02, 1.82527043e-02, 7.81149268e-01,
          7.91504085e-01, 2.41873240e+00, 1.72524620e-02, 1.24338597e-01,
          1.38753876e-01, 7.66149759e+00, 8.70698035e-01, 8.15052912e-02,
          3.55172932e-01, 1.40069258e+00, 2.53569514e-01, 0.,
          3.10222244e+00, 5.52095509e+00, 2.43649557e-01, 9.84179306e+00,
          1.57079637e+00, 6.73812211e-01, 1.29061646e+03, 1.35854368e+01,
          -5.07604361e+00, 0., 0., 7.91556574e-03, 1.53296832e-02,
          4.57485294e+00, 5.69637120e-01, 1.79800010e+00, 60., 41., 22.,
          12., 8., 4., 3., 3., 3., 3., 2., 2., 1., 1., 6.84284449e-01,
          1.29318428e+00, 3.25209808e+00 ]
      - [ 0., 3., 1.24998093e-02, 0., 1.97381414e-02, 2.14364771e-02,
          4.61278707e-02, 2.00697742e-02, 3.12373452e-02, 6.42492950e-01,
          8.00344263e-30, 2.87634823e-02, 4.00172131e-30, 2.87634823e-02,
          2.87634823e-02, 1., 0., 5.13071194e-02, 9.74349901e-02,
          3.12145770e-01, 1.15893021e+01, 1.57079637e+00, 9.99532104e-01,
          6.06634560e+01, 2.02211514e+01, 4.47687149e+00, 4.50854635e+00,
          9.92974520e-01, 2.09057890e-03, -1., 4.59163761e+00,
          2.51349818e-04, 2.39996910e-02, 1., 1., 1., 1., 1., 1., 1., 1.,
          1., 1., 1., 1., 1., 1., 9.94782686e-01, 4.57600021e+00,
          1.08422899e+00 ]
      - [ 1., 8., 1.12428665e-01, 1.09116249e-01, 2.21096158e-01,
          2.22733751e-01, 5.88440716e-01, 8.37066472e-02, 2.61252940e-01,
          3.20404619e-01, 5.66831231e-02, 2.27511272e-01, 8.09758902e-03,
          7.96171948e-02, 3.08742881e-01, 2.57875413e-01, 0.,
          1.07800651e+00, 1.66644728e+00, 5.27011573e-01, 4.24978304e+00,
          1.57079637e+00, 9.35603976e-01, 4.82415848e+01, 6.03019810e+00,
          -2.75055385e+00, 0., 0., 3.01271155e-02, 4.72991578e-02,
          1.89789257e+01, 8.31519812e-02, 4.20000076e-01, 6., 4., 3., 3.,
          3., 2., 2., 2., 2., 2., 2., 2., 2., 2., 9.78064418e-01,
          7.14031696e-01, 1.91469994e+01 ]
      - [ 0., 5., 6.17500544e-02, 6.66252598e-02, 2.06408530e-01,
          2.15835512e-01, 5.49981117e-01, 3.23775411e-02, 2.71395266e-01,
          1.19300306e-01, 4.22464291e-06, 7.17570186e-01, 1.05616073e-06,
          7.16237068e-01, 7.18977511e-01, 9.96188402e-01, 0.,
          5.61702251e-01, 1.11168337e+00, 6.08737290e-01, 8.26644242e-01,
          1.57079637e+00, 8.87719035e-01, 6.70205688e+01, 1.34041138e+01,
          -3.95571613e+00, 0., 0., 2.17108373e-02, 2.87988409e-02,
          7.48009253e+00, 1.64009649e-02, 2.47000217e-01, 4., 3., 3., 3.,
          3., 3., 3., 2., 2., 2., 2., 2., 2., 2., 9.67682838e-01,
          2.81312490e+00, 7.39599991e+00 ]
      - [ 0., 29., 9.10357088e-02, 6.97749555e-02, 5.98502219e-01,
          6.71093106e-01, 1.60944104e+00, 4.93959226e-02, 3.24782163e-01,
          1.52089402e-01, 7.20881104e-01, 6.63155019e-01, 2.57457551e-02,
          3.20586830e-01, 9.50390339e-01, 3.37321222e-01, 0.,
          3.04782748e+00, 4.65726852e+00, 4.15320873e-01, 5.11788893e+00,
          1.57079637e+00, 8.59981298e-01, 4.66216888e+02, 1.60764446e+01,
          -4.74165916e+00, 0., 0., 2.71417107e-02, 5.10684699e-02,
          1.14729376e+01, 8.11051130e-01, 1.43299961e+00, 11., 11., 8.,
          8., 7., 7., 7., 6., 5., 4., 4., 4., 4., 4., 8.84258151e-01,
          4.30156589e-01, 2.00784278e+00 ]
      - [ 0., 4., 7.50001296e-02, 5.05666882e-02, 8.84759501e-02,
          8.92538279e-02, 1.96794897e-01, 6.47973046e-02, 1.40324876e-01,
          4.61766362e-01, 3.17814905e-04, 9.86430347e-02, 1.05938299e-04,
          8.60081166e-02, 1.09920464e-01, 7.82457709e-01, 0.,
          2.98494846e-01, 4.95289743e-01, 4.97639298e-01, 5.45251465e+00,
          1.57079637e+00, 9.83015597e-01, 3.89199944e+01, 9.72999859e+00,
          3.03055906e+00, 3.21792960e+00, 9.41772938e-01, 6.44310471e-03,
          1.65401585e-02, 1.36685877e+01, 1.18318526e-02, 1.52999878e-01,
          2., 2., 2., 2., 2., 2., 2., 1., 1., 1., 1., 1., 1., 1.,
          9.88880038e-01, 4.46852684e+00, 1.34446883e+00 ]
      - [ 0., 1., -1., -1., 0., 0., -1., -1., -1., -1., 0., 0., 0., 0.,
          0., 0., 0., 0., 0., 0., 0., 0., 0., -1., -1., -1., -1., -1.,
          0., 0., 9.10000038e+00, 0., 0., 0., 0., 0., 0., 0., 0., 0., 0.,
          0., 0., 0., 0., 0., 0., 0., 1.65538895e+00, 9.10000038e+00 ]
      - [ 0., 9., 3.11250091e-02, 4.53885458e-02, 1.13354899e-01,
          1.27462566e-01, 2.70989180e-01, 1.95779987e-02, 1.34493828e-01,
          1.45568013e-01, 4.81202360e-03, 1.18626527e-01, 6.01502950e-04,
          6.47564083e-02, 1.42453119e-01, 4.54580486e-01, 0.,
          3.40102762e-01, 6.11091971e-01, 2.95463800e-01, 1.49310894e+01,
          1.57079637e+00, 9.20605898e-01, 7.26859665e+01, 8.07621861e+00,
          -2.95362329e+00, 0., 0., 8.86013359e-03, 1.50274960e-02,
          4.59315443e+00, 2.93986336e-03, 2.28000164e-01, 4., 4., 4., 4.,
          2., 2., 2., 2., 2., 2., 2., 2., 2., 1., 9.51448023e-01,
          2.21204996e+00, 5.02708006e+00 ]
      - [ 0., 7., 1.68333054e-02, 7.16688763e-03, 7.53311291e-02,
          7.56540596e-02, 2.27145135e-01, 3.62574607e-02, 4.51043807e-02,
          8.03856730e-01, 3.67306086e-04, 2.47235700e-01, 6.12176809e-05,
          2.37456441e-01, 2.58120358e-01, 9.19944584e-01, 0.,
          2.36740291e-01, 4.63885427e-01, 3.04593295e-01, 7.86325645e+00,
          1.57079637e+00, 9.45463717e-01, 5.76120644e+01, 8.23029518e+00,
          -2.98307395e+00, 0., 0., 5.39136445e-03, 8.44398234e-03,
          8.07897854e+00, 1.65668561e-03, 8.30001831e-02, 5., 2., 1., 1.,
          1., 1., 1., 1., 1., 1., 1., 1., 1., 1., 9.89788353e-01,
          7.70700455e+00, 1.95823765e+00 ]
      - [ 0., 4., 6.70000687e-02, 5.20868003e-02, 8.81908387e-02,
          8.85708481e-02, 1.99662417e-01, 6.64448217e-02, 1.31604075e-01,
          5.04884183e-01, 4.75395136e-05, 9.93806347e-02, 1.58465045e-05,
          9.42165554e-02, 1.03372037e-01, 9.11431789e-01, 0.,
          2.98522979e-01, 4.98185426e-01, 4.99091893e-01, 4.81217909e+00,
          1.57079637e+00, 9.71355557e-01, 5.38942604e+01, 1.34735651e+01,
          3.57669163e+00, 3.77635241e+00, 9.47128654e-01, 6.51992625e-03,
          1.57856494e-02, 1.50838203e+01, 1.24707939e-02, 1.14000320e-01,
          3., 2., 2., 2., 2., 2., 2., 1., 1., 1., 1., 1., 1., 1.,
          9.92472768e-01, 4.57461739e+00, 1.40069985e+00 ]
      - [ 0., 233., 2.05129348e-02, 3.60087603e-02, 1.23125648e+00,
          1.24787104e+00, 4.51979446e+00, 1.23325028e-02, 2.97364384e-01,
          4.14726995e-02, 6.61980286e+01, 1.39657080e+00, 2.85336316e-01,
          5.12716532e-01, 2.51099229e+00, 2.04188824e-01, 0.,
          6.57686377e+00, 1.10966578e+01, 2.19174549e-01, 2.32452583e+01,
          1.57079637e+00, 5.00601172e-01, 2.08667456e+03, 8.95568466e+00,
          -3.28887773e+00, 0., 0., 7.83045776e-03, 1.47276726e-02,
          3.35698056e+00, 4.47840035e-01, 2.50700021e+00, 30., 21., 12.,
          10., 6., 4., 4., 4., 4., 3., 2., 2., 2., 2., 5.29378593e-01,
          -1., 4.90500450e+00 ]
      - [ 0., 1., -1., -1., 0., 0., -1., -1., -1., -1., 0., 0., 0., 0.,
          0., 0., 0., 0., 0., 0., 0., 0., 0., -1., -1., -1., -1., -1.,
          0., 0., 1.21239996e+01, 0., 0., 0., 0., 0., 0., 0., 0., 0., 0.,
          0., 0., 0., 0., 0., 0., 0., 1.21239996e+01, 5.50313854e+00 ]
      - [ 0., 2., 1.11000061e-01, 0., 1.37139663e-01, 1.37139663e-01,
          2.74279326e-01, 2.74279326e-01, 2.74279326e-01, 1., 0., 0., 0.,
          0., 0., 0., 0., 0., 0., 0., 0., 0., 0., 1.37656228e-27,
          6.88281140e-28, -2.75335310e-14, 0., 0., -1., -1.,
          1.43879538e+01, 0., 1.11000061e-01, 2., 2., 2., 2., 2., 2., 2.,
          2., 2., 2., 2., 1., 1., 1., 9.92315173e-01, 4.28959846e+00,
          4.16260529e+00 ]
      - [ 0., 2., 4.10003662e-02, 0., 3.94228883e-02, 3.94228883e-02,
          7.88457766e-02, 7.88457766e-02, 7.88457766e-02, 1., 0., 0., 0.,
          0., 0., 0., 0., 0., 0., 0., 0., 0., 0., 3.15544362e-30,
          1.57772181e-30, 0., 1.77635684e-15, 0., -1., -1.,
          1.54534636e+01, 0., 4.10003662e-02, 2., 2., 2., 2., 1., 1., 1.,
          1., 1., 1., 1., 1., 1., 1., 9.97350395e-01, 7.74090827e-01,
          7.12717056e+00 ]
      - [ 0., 3., 2.10001469e-02, 0., 2.41923071e-02, 2.68228315e-02,
          5.40456399e-02, 2.24224087e-02, 4.29384895e-02, 5.22198379e-01,
          2.60819063e-31, 2.83120628e-02, 1.30409531e-31, 2.83120628e-02,
          2.83120628e-02, 1., 0., 6.53608963e-02, 1.19406536e-01,
          3.45552504e-01, 1.17736959e+01, 1.57079637e+00, 9.83382642e-01,
          4.63305855e+01, 1.54435282e+01, -3.95014858e+00, 0., 0.,
          3.50795244e-03, -1., 5.00396824e+00, 4.59471048e-04,
          3.70001793e-02, 2., 2., 2., 1., 1., 1., 1., 1., 1., 1., 1., 1.,
          1., 1., 9.92626488e-01, 5.01300001e+00, 3.39802194e+00 ]
      - [ 1., 12., 9.13636461e-02, 8.23959783e-02, 3.61902475e-01,
          3.63652319e-01, 1.07843232e+00, 4.06482033e-02, 3.21003258e-01,
          1.26628637e-01, 5.21304831e-03, 1.99559426e+00, 4.73913475e-04,
          1.96949291e+00, 2.03456903e+00, 9.68014777e-01, 0.,
          1.15969133e+00, 2.23812366e+00, 4.73088115e-01, 2.77625513e+00,
          1.57079637e+00, 7.64217436e-01, 5.00420135e+02, 4.17016754e+01,
          6.40235758e+00, 6.57535458e+00, 9.73690093e-01, 2.50686873e-02,
          4.35375720e-02, 9.64465523e+00, 2.60901470e-02, 9.89000320e-01,
          10., 10., 10., 10., 9., 9., 9., 8., 5., 3., 2., 2., 2., 2.,
          9.03143644e-01, 2.19535398e+00, 1.14461911e+00 ]
      - [ 1., 17., 4.46875393e-02, 2.01650634e-02, 1.87462002e-01,
          1.91840872e-01, 6.04870379e-01, 3.09072807e-02, 8.06860924e-02,
          3.83055866e-01, 3.07241809e-02, 3.03100705e-01, 1.92026130e-03,
          2.41359487e-01, 3.92216384e-01, 6.15373313e-01, 0.,
          8.56748819e-01, 1.46161926e+00, 3.12155873e-01, 1.50417871e+01,
          1.57079637e+00, 8.65987003e-01, 6.70955139e+02, 3.94679527e+01,
          6.22410536e+00, 6.35337257e+00, 9.79653776e-01, 1.19028026e-02,
          2.08313242e-02, 6.28586531e+00, 2.56527960e-03, 4.29000378e-01,
          12., 12., 10., 8., 8., 5., 3., 1., 1., 1., 1., 1., 1., 1.,
          9.33969498e-01, 4.65414762e+00, 8.25367510e-01 ]
      - [ 0., 6., 7.02000633e-02, 4.36143465e-02, 1.48463577e-01,
          1.51585564e-01, 3.92084479e-01, 5.14297970e-02, 1.73068300e-01,
          2.97164738e-01, 8.54229089e-04, 2.59889305e-01, 1.70845815e-04,
          2.41858080e-01, 2.77538955e-01, 8.71438324e-01, 0.,
          5.33931196e-01, 9.26015675e-01, 4.81148541e-01, 3.61655259e+00,
          1.57079637e+00, 9.13154304e-01, 1.82803528e+02, 3.04672546e+01,
          5.34167719e+00, 5.74690723e+00, 9.29487228e-01, 1.36934537e-02,
          1.70534514e-02, 4.78435040e+00, 1.41623719e-02, 2.93000221e-01,
          2., 2., 2., 2., 2., 1., 1., 1., 1., 1., 1., 1., 1., 1.,
          9.40459192e-01, 1.66217017e+00, 1.77008319e+00 ]
      - [ 1., 6., 5.18000610e-02, 9.17997956e-02, 1.25365719e-01,
          1.43167600e-01, 3.01660836e-01, 2.38170605e-02, 2.25987375e-01,
          1.05391115e-01, 3.65822198e-04, 1.87611103e-01, 7.31644395e-05,
          1.74942553e-01, 1.99650973e-01, 8.76241922e-01, 0.,
          3.23595107e-01, 6.25255942e-01, 3.95365626e-01, 2.90494442e+00,
          1.57079637e+00, 8.98656547e-01, 5.96525726e+01, 9.94209576e+00,
          -3.33278775e+00, 0., 0., 1.60333999e-02, 2.03544293e-02,
          5.03785372e+00, 3.56017402e-03, 2.59000301e-01, 5., 2., 2., 2.,
          2., 2., 2., 2., 2., 2., 2., 2., 2., 2., 9.50201809e-01,
          1.09818459e+00, 4.94199991e+00 ]
      - [ 0., 1., -1., -1., 0., 0., -1., -1., -1., -1., 0., 0., 0., 0.,
          0., 0., 0., 0., 0., 0., 0., 0., 0., -1., -1., -1., -1., -1.,
          0., 0., 2.02409992e+01, 0., 0., 0., 0., 0., 0., 0., 0., 0., 0.,
          0., 0., 0., 0., 0., 0., 0., 2.02409992e+01, 1.61322117e+00 ]
      - [ 0., 16., 1.39332965e-01, 1.60010919e-01, 5.62141120e-01,
          5.63544154e-01, 1.78876197e+00, 1.14246987e-01, 6.40665412e-01,
          1.78325519e-01, 8.77447963e-01, 5.68529308e-01, 5.84965311e-02,
          6.07545450e-02, 9.15736437e-01, 6.63450062e-02, 0.,
          3.03218389e+00, 4.82094574e+00, 5.86816251e-01, 2.12046123e+00,
          1.57079637e+00, 7.78008044e-01, 2.07454128e+01, 1.29658830e+00,
          6.61266521e-02, 1.85294318e+00, 3.56873609e-02, 4.47149202e-02,
          7.90752769e-02, 2.55852795e+01, 2.23352984e-02, 7.26999283e-01,
          6., 6., 5., 5., 4., 4., 4., 4., 4., 4., 4., 4., 4., 4.,
          9.71878409e-01, 2.56580009e+01, 2.55319996e+01 ]
      - [ 1., 39., 1.38421059e-02, 6.74846023e-03, 4.37464297e-01,
          4.37535137e-01, 1.47919643e+00, 3.59524786e-02, 5.13038859e-02,
          7.00774968e-01, 4.11851192e-03, 7.10955858e+00, 1.08381893e-04,
          7.09268427e+00, 7.13331223e+00, 9.94304478e-01, 0.,
          1.49552870e+00, 2.97472525e+00, 2.83545375e-01, 4.75989914e+00,
          1.57079637e+00, 7.72922814e-01, 1.09370215e+03, 2.80436440e+01,
          -5.46371841e+00, 0., 0., 9.08814277e-03, 1.78489890e-02,
          8.33091450e+00, 4.11565322e-03, 5.26000023e-01, 1., 1., 1., 1.,
          1., 1., 1., 1., 1., 1., 1., 1., 1., 1., 9.39014494e-01,
          2.84914160e+00, 6.84114873e-01 ]
      - [ 1., 6., 4.63998802e-02, 7.29230940e-02, 1.21007249e-01,
          1.24054216e-01, 3.44579130e-01, 5.47414981e-02, 1.84078068e-01,
          2.97381967e-01, 2.16005006e-04, 1.98382050e-01, 4.32010020e-05,
          1.88125923e-01, 2.07877025e-01, 9.04986680e-01, 0.,
          4.11212325e-01, 7.55791426e-01, 4.34681326e-01, 3.67124796e+00,
          1.57079637e+00, 9.74384606e-01, 1.17259375e+03, 1.95432297e+02,
          1.38214111e+01, 1.40249376e+01, 9.85488236e-01, 7.40433205e-03,
          1.00894785e-02, 1.24579887e+01, 2.08503138e-02, 2.22999573e-01,
          4., 3., 2., 2., 2., 2., 2., 2., 2., 2., 2., 2., 2., 2.,
          9.82175708e-01, 1.25019999e+01, 4.86241102e+00 ]
      - [ 0., 10., 1.36333257e-01, 3.24923657e-02, 4.39055860e-01,
          4.40168083e-01, 1.35331285e+00, 1.04844585e-01, 1.87891260e-01,
          5.58006704e-01, 6.47388049e-04, 5.69393110e+00, 7.19320087e-05,
          5.68189001e+00, 5.70676565e+00, 9.95641053e-01, 0.,
          1.35732484e+00, 2.71063781e+00, 5.82090795e-01, 3.13380629e-01,
          1.57079637e+00, 6.96768820e-01, 2.33345276e+02, 2.33345280e+01,
          -4.86632299e+00, 0., 0., 2.61554532e-02, 4.83135171e-02,
          1.45043621e+01, 2.96445992e-02, 1.22699928e+00, 1., 1., 1., 1.,
          1., 1., 1., 1., 1., 1., 1., 1., 1., 1., 9.19185996e-01,
          1.88684857e+00, 6.87336504e-01 ]
      - [ 1., 3., 2.39500046e-01, 0., 2.17557654e-01, 2.20382363e-01,
          5.29411793e-01, 2.18682021e-01, 3.12863111e-01, 6.98970318e-01,
          2.02145607e-30, 1.46140516e+00, 1.01072803e-30, 1.46140516e+00,
          1.46140516e+00, 1., 0., 5.31545162e-01, 1.06095695e+00,
          1.03002763e+00, 2.28091002e-01, 1.57079637e+00, 8.22754264e-01,
          1.83540665e+02, 6.11802216e+01, 7.77786398e+00, 7.85469389e+00,
          9.90218580e-01, 8.79293866e-03, -1., 2.58868351e+01,
          6.19627163e-03, 4.79000092e-01, 3., 3., 3., 3., 3., 3., 3., 3.,
          3., 3., 3., 3., 3., 3., 9.81653810e-01, 2.61089993e+01,
          4.80906397e-01 ]
      - [ 0., 6., 3.64002213e-02, 2.24119369e-02, 1.12450354e-01,
          1.12513617e-01, 3.16385776e-01, 6.30065277e-02, 9.11709219e-02,
          6.91081405e-01, 1.40855624e-03, 1.75877407e-01, 2.81711255e-04,
          1.52132094e-01, 1.93478972e-01, 7.86297858e-01, 0.,
          3.74440670e-01, 6.90826416e-01, 4.15579855e-01, 5.60472250e+00,
          1.57079637e+00, 9.25377131e-01, 5.70689659e+01, 9.51149464e+00,
          2.92788720e+00, 3.24400067e+00, 9.02554452e-01, 1.12311151e-02,
          1.49081023e-02, 1.44547653e+01, 1.33819049e-02, 1.01000786e-01,
          3., 3., 3., 1., 1., 1., 1., 1., 1., 1., 1., 1., 1., 1.,
          9.93034899e-01, 1.51045632e+00, 1.97787237e+00 ]
      - [ 1., 50., 5.82041070e-02, 1.09623045e-01, 2.91065961e-01,
          2.92182297e-01, 9.94008958e-01, 1.50338113e-02, 5.28053343e-01,
          2.84702498e-02, 8.57187331e-01, 3.09941500e-01, 1.74936187e-02,
          5.58261313e-02, 5.59036255e-01, 9.98613760e-02, 0.,
          3.29568958e+00, 4.28969860e+00, 2.98946023e-01, 1.61871300e+01,
          1.57079637e+00, 9.81457353e-01, 8.20643921e+02, 1.64128780e+01,
          3.81975007e+00, 4.49485874e+00, 8.49804223e-01, 2.05929819e-02,
          3.51639763e-02, 3.53851962e+00, 7.81661943e-02, 8.83000135e-01,
          24., 11., 9., 8., 8., 7., 7., 7., 7., 5., 5., 4., 4., 4.,
          7.84476399e-01, 3.81999993e+00, 1.25411057e+00 ]
      - [ 0., 4., 5.36667518e-02, 4.63613980e-02, 9.12818536e-02,
          9.23290402e-02, 2.47195572e-01, 6.33654073e-02, 1.20559290e-01,
          5.25595367e-01, 6.56651217e-04, 1.90337405e-01, 2.18883739e-04,
          1.68644592e-01, 2.02767685e-01, 8.31713378e-01, 0.,
          2.61947900e-01, 5.09143472e-01, 5.04551053e-01, 3.87725997e+00,
          1.57079637e+00, 9.82571006e-01, 9.19094238e+01, 2.29773560e+01,
          4.72272205e+00, 4.86930037e+00, 9.69897449e-01, 4.70114592e-03,
          8.29664990e-03, 1.43333302e+01, 3.42149893e-03, 1.61000252e-01,
          4., 3., 3., 3., 2., 2., 2., 2., 2., 2., 1., 1., 1., 1.,
          9.88841116e-01, 5.18959463e-01, 1.08564687e+00 ]
      - [ 1., 3., 1.48000240e-01, 0., 1.56116232e-01, 1.64438084e-01,
          3.71794134e-01, 1.09770820e-01, 2.62811750e-01, 4.17678535e-01,
          7.88860905e-31, 1.30666673e+00, 3.94430453e-31, 1.30666673e+00,
          1.30666673e+00, 1., 0., 3.72582555e-01, 7.44376659e-01,
          8.62772644e-01, 2.55102217e-01, 1.57079637e+00, 8.60324740e-01,
          1.41708801e+02, 4.72362671e+01, 6.85864019e+00, 6.90004158e+00,
          9.93999839e-01, 1.29122091e-02, -1., 1.29246473e+01,
          2.05215137e-03, 2.96000481e-01, 3., 3., 3., 3., 3., 3., 3., 3.,
          3., 2., 2., 2., 2., 2., 9.77326632e-01, 1.52118778e+00,
          3.64630270e+00 ]
      - [ 1., 6., 6.40001288e-03, 3.36151640e-03, 5.81781268e-02,
          5.82261197e-02, 1.70330748e-01, 3.38354260e-02, 3.52909677e-02,
          9.58755910e-01, 2.78540363e-04, 1.94344848e-01, 5.57080748e-05,
          1.85381591e-01, 2.04031885e-01, 9.08591330e-01, 0.,
          1.72815949e-01, 3.43146712e-01, 2.92893618e-01, 6.23460150e+00,
          1.57079637e+00, 9.46747303e-01, 5.05956116e+02, 8.43260193e+01,
          9.17413998e+00, 9.18918896e+00, 9.98362362e-01, 4.51511424e-03,
          6.06359635e-03, 7.76361847e+00, 2.20272064e-04, 1.99999809e-02,
          1., 1., 1., 1., 1., 1., 1., 1., 1., 1., 1., 1., 1., 1.,
          9.97426987e-01, 4.16706371e+00, 4.16906309e+00 ]
      - [ 0., 23., 3.87272611e-02, 5.50819337e-02, 3.33156526e-01,
          3.37118894e-01, 1.01907408e+00, 2.21070424e-02, 2.56660163e-01,
          8.61335173e-02, 1.61729246e-01, 4.90396798e-01, 7.35132955e-03,
          3.51296723e-01, 6.28580749e-01, 5.58872819e-01, 0.,
          1.49258935e+00, 2.51166344e+00, 3.45836699e-01, 1.24301682e+01,
          1.57079637e+00, 8.03033829e-01, 1.00082678e+03, 4.35142059e+01,
          6.40207767e+00, 6.69138098e+00, 9.56764758e-01, 1.93103943e-02,
          3.35718580e-02, 5.04702997e+00, 1.21666692e-01, 2.64999866e-01,
          9., 7., 6., 5., 5., 3., 2., 2., 2., 2., 2., 1., 1., 1.,
          9.49028671e-01, 8.69221270e-01, 5.84358871e-01 ]
      - [ 0., 3., 1.23500109e-01, 0., 1.16711922e-01, 1.23778820e-01,
          2.75138110e-01, 8.19148570e-02, 2.00459570e-01, 4.08635288e-01,
          1.33428427e-30, 2.86479682e-01, 6.67142133e-31, 2.86479682e-01,
          2.86479682e-01, 1., 0., 2.82374442e-01, 5.57512522e-01,
          7.46667624e-01, 1.16354978e+00, 1.57079637e+00, 8.90549779e-01,
          1.07750481e+02, 3.59168282e+01, -6.14968777e+00, 0., 0.,
          1.12073869e-02, -1., 6.93182373e+00, 3.94263305e-03,
          2.47000217e-01, 3., 3., 3., 3., 3., 2., 2., 2., 2., 2., 2., 2.,
          2., 2., 9.65103090e-01, 1.67121744e+00, 1.40125144e+00 ]
      - [ 1., 2., 2.00004578e-02, 0., 2.23404709e-02, 2.23404709e-02,
          4.46809418e-02, 4.46809418e-02, 4.46809418e-02, 1., 0., 0., 0.,
          0., 0., 0., 0., 0., 0., 0., 0., 0., 0., 3.15544362e-30,
          1.57772181e-30, -1.77635684e-15, 0., 0., -1., -1.,
          9.16797829e+00, 0., 2.00004578e-02, 2., 2., 1., 1., 1., 1., 1.,
          1., 1., 1., 1., 1., 1., 1., 9.97820854e-01, 5.90270162e-01,
          3.28515530e+00 ]
      - [ 1., 2., 3.78999710e-01, 0., 1.93162367e-01, 1.93162367e-01,
          3.86324733e-01, 3.86324733e-01, 3.86324733e-01, 1., 0., 0., 0.,
          0., 0., 0., 0., 0., 0., 0., 0., 0., 0., 3.35265885e-30,
          1.67632942e-30, -4.44089210e-16, 1.77635684e-15,
          -2.50000000e-01, -1., -1., 1.71814594e+01, 0., 3.78999710e-01,
          2., 2., 2., 2., 2., 2., 2., 2., 2., 2., 2., 2., 2., 2.,
          9.78182018e-01, 3.98855352e+00, 3.78656292e+00 ]
      - [ 0., 111., 2.24091057e-02, 2.16228049e-02, 7.11865246e-01,
          7.25196421e-01, 2.38126588e+00, 1.67979654e-02, 2.54106969e-01,
          6.61058798e-02, 5.31476688e+00, 8.95485640e-01, 4.83160652e-02,
          5.21057308e-01, 1.31061888e+00, 3.97565842e-01, 0.,
          3.43528605e+00, 5.81655169e+00, 2.31004030e-01, 1.08083906e+01,
          1.57079637e+00, 8.59193265e-01, 1.01057001e+03, 9.10423470e+00,
          2.38999724e+00, 4.01512861e+00, 5.95247984e-01, 8.45470373e-03,
          1.63905658e-02, 4.24365091e+00, 6.67737544e-01, 1.02900028e+00,
          50., 17., 6., 4., 3., 3., 3., 3., 2., 2., 2., 2., 2., 2.,
          7.86514461e-01, 1.78316617e+00, 7.16333449e-01 ]
      - [ 0., 1., -1., -1., 0., 0., -1., -1., -1., -1., 0., 0., 0., 0.,
          0., 0., 0., 0., 0., 0., 0., 0., 0., -1., -1., -1., -1., -1.,
          0., 0., 5.29500008e+00, 0., 0., 0., 0., 0., 0., 0., 0., 0., 0.,
          0., 0., 0., 0., 0., 0., 0., 9.73323882e-01, 1.05830193e+00 ]
      - [ 1., 4., 2.71000236e-01, 8.32103640e-02, 1.74742132e-01,
          1.77071437e-01, 4.40973014e-01, 2.08003581e-01, 3.66872460e-01,
          5.66964269e-01, 1.34813040e-02, 1.80953965e-01, 4.49376786e-03,
          9.01365355e-02, 2.29479060e-01, 3.92787635e-01, 0.,
          8.29585552e-01, 1.27055860e+00, 7.97044098e-01, 2.94980645e+00,
          1.57079637e+00, 8.94071937e-01, 5.76822472e+00, 1.44205618e+00,
          1.12755144e+00, 1.27482855e+00, 8.84472966e-01, 3.94471586e-02,
          6.57221377e-02, 1.22528553e+01, 6.26907218e-03, 4.11000252e-01,
          2., 2., 2., 2., 2., 2., 2., 2., 2., 2., 2., 2., 2., 2.,
          9.66934800e-01, 7.12813318e-01, 1.86966729e+00 ]
      - [ 1., 8., 7.71429911e-02, 9.54172686e-02, 1.52426928e-01,
          1.59254834e-01, 3.97838712e-01, 4.49951664e-02, 2.86658645e-01,
          1.56964257e-01, 3.32213193e-03, 2.04116181e-01, 4.74590255e-04,
          1.79953590e-01, 2.42952406e-01, 7.40694821e-01, 0.,
          6.81847095e-01, 1.07968581e+00, 4.24202353e-01, 8.36630917e+00,
          1.57079637e+00, 9.71560061e-01, 1.18718803e+02, 1.48398504e+01,
          3.74058080e+00, 4.01509094e+00, 9.31630433e-01, 1.00861546e-02,
          1.58684291e-02, 1.03402309e+01, 5.73042370e-02, 3.76999855e-01,
          4., 4., 4., 4., 3., 2., 2., 2., 2., 2., 2., 2., 2., 2.,
          9.64494288e-01, 1.91366041e+00, 1.30168760e+00 ]
      - [ 0., 2., 7.69996643e-02, 0., 7.08158761e-02, 7.08158761e-02,
          1.41631752e-01, 1.41631752e-01, 1.41631752e-01, 1., 0., 0., 0.,
          0., 0., 0., 0., 0., 0., 0., 0., 0., 0., 1.05076273e-27,
          5.25381363e-28, 5.32907052e-15, 3.19744231e-14, 1.66666672e-01,
          -1., -1., 2.72764359e+01, 0., 7.69996643e-02, 1., 1., 1., 1.,
          1., 1., 1., 1., 1., 1., 1., 1., 1., 1., 9.97181058e-01,
          1.19465387e+00, 2.73150005e+01 ]
      - [ 0., 5., 9.32493210e-02, 9.50355679e-02, 3.49610448e-01,
          3.51565450e-01, 9.71221566e-01, 2.37451106e-01, 3.32716227e-01,
          7.13674545e-01, 2.50643725e-03, 7.01974392e-01, 6.26609311e-04,
          6.61262155e-01, 7.26350188e-01, 9.10390258e-01, 0.,
          1.05535793e+00, 2.02657938e+00, 8.21904182e-01, 8.25733423e-01,
          1.57079637e+00, 8.09400678e-01, 1.81055676e+03, 3.62111359e+02,
          -1.95395641e+01, 0., 0., 2.37410739e-02, 2.38266829e-02,
          5.41901703e+01, 1.04189575e-01, 2.95997620e-01, 3., 3., 3., 3.,
          3., 3., 2., 2., 2., 2., 2., 2., 2., 2., 9.94557858e-01,
          5.43899994e+01, 5.41710014e+01 ]
      - [ 0., 26., 3.11599914e-02, 3.92923616e-02, 2.05761924e-01,
          2.06804559e-01, 6.76566720e-01, 1.99449454e-02, 1.77884281e-01,
          1.12123147e-01, 2.12997943e-01, 2.11351946e-01, 8.51991773e-03,
          6.69346824e-02, 3.62095505e-01, 1.84853658e-01, 0.,
          1.03531086e+00, 1.71187758e+00, 2.67073452e-01, 1.43255482e+01,
          1.57079637e+00, 8.64870191e-01, 8.24642639e+02, 3.17170258e+01,
          5.57800579e+00, 5.75175619e+00, 9.69791770e-01, 9.71853547e-03,
          1.72259752e-02, 4.68857861e+00, 1.79529190e-02, 4.29999828e-01,
          10., 9., 8., 7., 6., 4., 4., 3., 2., 2., 2., 2., 2., 2.,
          9.13008332e-01, 1.06226563e+00, 6.98322058e-01 ]
      - [ 0., 14., 1.29692227e-01, 1.09773599e-01, 6.54000282e-01,
          6.69554591e-01, 1.64750803e+00, 4.56831567e-02, 3.37472856e-01,
          1.35368392e-01, 2.48829842e-01, 8.29952598e-01, 1.91407576e-02,
          5.91684937e-01, 1.02327049e+00, 5.78229249e-01, 0.,
          2.09443021e+00, 3.74193811e+00, 5.58415771e-01, 2.80493283e+00,
          1.57079637e+00, 7.21100330e-01, 1.71655716e+02, 1.22611227e+01,
          3.13432789e+00, 3.70043182e+00, 8.47016811e-01, 3.06315925e-02,
          5.76200075e-02, 1.12081270e+01, 2.91858882e-01, 1.55799961e+00,
          9., 9., 9., 9., 9., 9., 8., 7., 7., 7., 7., 7., 7., 7.,
          8.69207561e-01, 3.22951937e+00, 5.40787995e-01 ]
      - [ 1., 3., 3.39984894e-02, 0., 1.19152762e-01, 1.19175494e-01,
          2.89260119e-01, 1.45703927e-01, 1.51246041e-01, 9.63356912e-01,
          1.87970763e-31, 3.28284144e-01, 9.39853813e-32, 3.28284144e-01,
          3.28284144e-01, 1., 0., 2.96949953e-01, 5.86210072e-01,
          7.65643597e-01, 1.01538074e+00, 1.57079637e+00, 8.94846857e-01,
          1.66022643e-01, 5.53408824e-02, -3.47857654e-01, 0., 0.,
          5.61407721e-03, -1., 3.30614586e+01, 4.85438202e-03,
          4.59976196e-02, 2., 2., 1., 1., 1., 1., 1., 1., 1., 1., 1., 1.,
          1., 1., 9.98609722e-01, 3.95231390e+00, 4.21877861e+00 ]
      - [ 1., 2., 3.99990082e-02, 0., 4.16896008e-02, 4.16896008e-02,
          8.33792016e-02, 8.33792016e-02, 8.33792016e-02, 1., 0., 0., 0.,
          0., 0., 0., 0., 0., 0., 0., 0., 0., 0., 2.38204439e-26,
          1.19102219e-26, 3.19744231e-14, 1.50990331e-13, 2.11764708e-01,
          -1., -1., 1.67869606e+01, 0., 3.99990082e-02, 2., 2., 2., 1.,
          1., 1., 1., 1., 1., 1., 1., 1., 1., 1., 9.97620106e-01,
          8.14216900e+00, 8.17216778e+00 ]
      - [ 0., 3., 2.95000076e-02, 0., 6.97090626e-02, 6.99857846e-02,
          1.70411706e-01, 8.23191702e-02, 8.89808163e-02, 9.25133884e-01,
          2.77333912e-31, 4.20749217e-01, 1.38666956e-31, 4.20749217e-01,
          4.20749217e-01, 1., 0., 1.71299979e-01, 3.41711700e-01,
          5.84561110e-01, 7.92241991e-01, 1.57079637e+00, 9.47184026e-01,
          5.31826687e+00, 1.77275574e+00, 1.24827838e+00, 1.41177607e+00,
          8.84190083e-01, 1.55437330e-03, -1., 1.83392162e+01,
          7.41674681e-04, 5.90000153e-02, 1., 1., 1., 1., 1., 1., 1., 1.,
          1., 1., 1., 1., 1., 1., 9.96788561e-01, 1.83129997e+01,
          1.83719997e+01 ]
      - [ 1., 9., 1.06249973e-02, 5.52752567e-03, 8.43991619e-03,
          8.58747307e-03, 1.54555421e-02, 3.48400394e-03, 2.20745020e-02,
          1.57829329e-01, 5.26304430e-05, 8.72208644e-03, 6.57880537e-06,
          3.34899896e-03, 1.15805492e-02, 2.89191723e-01, 0.,
          8.65659416e-02, 1.02021486e-01, 1.20724887e-01, 8.01339874e+01,
          1.57079637e+00, 9.99551892e-01, 1.59073067e+01, 1.76747847e+00,
          1.31935871e+00, 1.33780777e+00, 9.86209512e-01, 2.26528570e-03,
          3.33496067e-03, 4.14862603e-01, 7.49926985e-05, 2.19999850e-02,
          3., 1., 1., 1., 1., 1., 1., 1., 1., 1., 1., 1., 1., 1.,
          9.48477805e-01, 4.21999991e-01, 4.16999996e-01 ]
      - [ 0., 3., 7.49998093e-02, 0., 1.08807676e-01, 1.19135574e-01,
          2.52927125e-01, 1.01520240e-01, 1.79648250e-01, 5.65105617e-01,
          7.11900745e-29, 1.56134486e-01, 3.55950372e-29, 1.56134486e-01,
          1.56134486e-01, 1., 0., 2.81168491e-01, 5.34095645e-01,
          7.30818450e-01, 2.13491154e+00, 1.57079637e+00, 9.98333871e-01,
          1.40690308e+01, 4.68967676e+00, 2.07104850e+00, 2.26120424e+00,
          9.15905058e-01, 1.21299624e-02, -1., 2.33405190e+01,
          7.38604972e-03, 1.49999619e-01, 2., 2., 2., 2., 2., 2., 2., 2.,
          2., 2., 2., 2., 2., 2., 9.93600726e-01, 4.16647387e+00,
          1.10843575e+00 ]
      - [ 0., 14., 9.99989919e-03, 1.18179824e-02, 9.20903012e-02,
          9.21456441e-02, 2.89185405e-01, 2.22613737e-02, 4.39824387e-02,
          5.06142318e-01, 1.47792129e-02, 1.03053249e-01, 1.13686256e-03,
          5.85623421e-02, 1.59561157e-01, 3.67021292e-01, 0.,
          3.38944942e-01, 6.28130376e-01, 2.28788540e-01, 1.13568544e+01,
          1.57079637e+00, 9.30787027e-01, 1.71243820e+02, 1.22317019e+01,
          -3.52076459e+00, 0., 0., 4.96009272e-03, 9.27562080e-03,
          5.09257174e+00, 2.90678418e-03, 6.19997978e-02, 2., 2., 2., 1.,
          1., 1., 1., 1., 1., 1., 1., 1., 1., 1., 9.87878799e-01,
          7.12298453e-01, 7.69273579e-01 ]
      - [ 0., 1., -1., -1., 0., 0., -1., -1., -1., -1., 0., 0., 0., 0.,
          0., 0., 0., 0., 0., 0., 0., 0., 0., -1., -1., -1., -1., -1.,
          0., 0., 2.61700001e+01, 0., 0., 0., 0., 0., 0., 0., 0., 0., 0.,
          0., 0., 0., 0., 0., 0., 0., 4.74062109e+00, 1.86823571e+00 ]
      - [ 0., 19., 1.01166621e-01, 1.68564215e-01, 3.29228342e-01,
          3.55011135e-01, 8.76078486e-01, 3.08341663e-02, 7.00887322e-01,
          4.39930409e-02, 1.61426384e-02, 4.03743058e-01, 8.96813232e-04,
          3.29342782e-01, 4.57984895e-01, 7.19112754e-01, 0.,
          2.13187265e+00, 3.00795102e+00, 4.20640349e-01, 9.45202446e+00,
          1.57079637e+00, 9.82340038e-01, 1.32459717e+03, 6.97156448e+01,
          8.16564655e+00, 8.93747711e+00, 9.13641095e-01, 3.10639683e-02,
          5.18868454e-02, 7.25706577e+00, 2.35384747e-01, 7.15999603e-01,
          12., 10., 9., 6., 5., 5., 5., 4., 4., 4., 4., 2., 2., 2.,
          9.07803297e-01, 3.41208267e+00, 3.56308508e+00 ]
      - [ 0., 9., 2.47999907e-01, 7.56894872e-02, 6.59277737e-01,
          6.61685169e-01, 2.01457143e+00, 1.14171378e-01, 3.35382611e-01,
          3.40421289e-01, 3.01491073e-03, 9.91611576e+00, 3.76863842e-04,
          9.88987732e+00, 9.94495869e+00, 9.94461417e-01, 0.,
          2.01697350e+00, 4.03154469e+00, 7.58903801e-01, 2.31820017e-01,
          1.57079637e+00, 6.93488538e-01, 1.19905432e+03, 1.33228256e+02,
          1.06461754e+01, 1.26024847e+01, 8.44767988e-01, 4.53001037e-02,
          7.81222358e-02, 9.97592354e+00, 1.68388765e-02, 1.98399925e+00,
          1., 1., 1., 1., 1., 1., 1., 1., 1., 1., 1., 1., 1., 1.,
          8.20776939e-01, 1.89932716e+00, -1. ]
      - [ 1., 21., 1.88000444e-02, 2.36434657e-02, 2.41867080e-01,
          2.44151324e-01, 9.40938413e-01, 3.20011601e-02, 2.00369000e-01,
          1.59711137e-01, 2.32660919e-02, 6.69293880e-01, 1.16330455e-03,
          6.29938424e-01, 7.52304971e-01, 8.37344468e-01, 0.,
          1.08127975e+00, 2.02221823e+00, 3.26240003e-01, 9.46801949e+00,
          1.57079637e+00, 8.44703615e-01, 6.77839172e+02, 3.22780533e+01,
          -5.71558714e+00, 0., 0., 1.24477893e-02, 2.15449613e-02,
          7.30738544e+00, 9.69931036e-02, 1.61000252e-01, 5., 3., 3., 3.,
          2., 2., 2., 2., 2., 1., 1., 1., 1., 1., 9.78124976e-01,
          5.29402447e+00, 2.85310388e+00 ]
      - [ 0., 1., -1., -1., 0., 0., -1., -1., -1., -1., 0., 0., 0., 0.,
          0., 0., 0., 0., 0., 0., 0., 0., 0., -1., -1., -1., -1., -1.,
          0., 0., 3.48479996e+01, 0., 0., 0., 0., 0., 0., 0., 0., 0., 0.,
          0., 0., 0., 0., 0., 0., 0., 1.30519795e+00, 3.48479996e+01 ]
      - [ 0., 100., 2.84040384e-02, 3.00604589e-02, 8.74836922e-01,
          1.04514909e+00, 2.57971048e+00, 1.39671667e-02, 2.18554512e-01,
          6.39070198e-02, 9.62497139e+00, 9.75567579e-01, 9.72219259e-02,
          3.52471024e-01, 1.56014872e+00, 2.25921437e-01, 0.,
          3.47476888e+00, 6.05447912e+00, 2.48556644e-01, 1.08531570e+01,
          1.57079637e+00, 6.55915678e-01, 1.28370654e+03, 1.28370657e+01,
          -5.23954773e+00, 0., 0., 8.54987185e-03, 1.63583588e-02,
          3.91372156e+00, 8.07594180e-01, 2.25799990e+00, 55., 51., 37.,
          20., 7., 5., 4., 4., 3., 3., 3., 3., 3., 3., 5.85688055e-01,
          5.44999981e+00, 3.59307241e+00 ]
      - [ 0., 3., 2.55000591e-02, 0., 2.82970667e-02, 3.29094008e-02,
          6.27803579e-02, 2.89869197e-02, 4.92432788e-02, 5.88647246e-01,
          7.07682958e-31, 3.23096998e-02, 3.53841479e-31, 3.23096998e-02,
          3.23096998e-02, 1., 0., 7.82302022e-02, 1.41010568e-01,
          3.75513732e-01, 1.03168755e+01, 1.57079637e+00, 9.85923588e-01,
          3.79206848e+01, 1.26402273e+01, 3.54581594e+00, 3.57393742e+00,
          9.92131531e-01, 4.24011145e-03, -1., 6.25496054e+00,
          6.93393813e-04, 4.09998894e-02, 2., 2., 2., 2., 1., 1., 1., 1.,
          1., 1., 1., 1., 1., 1., 9.93470311e-01, 8.10522079e-01,
          9.19462204e-01 ]
      - [ 1., 3., 5.39999008e-02, 0., 1.08587027e-01, 1.14343978e-01,
          2.58643866e-01, 1.20913155e-01, 1.56855479e-01, 7.70857036e-01,
          1.16549577e-29, 1.89086288e-01, 5.82747883e-30, 1.89086288e-01,
          1.89086288e-01, 1., 0., 2.77768642e-01, 5.36412477e-01,
          7.32401848e-01, 1.76286376e+00, 1.57079637e+00, 9.60278571e-01,
          3.95899239e+01, 1.31966419e+01, -3.74736023e+00, 0., 0.,
          8.95615108e-03, -1., 2.77158241e+01, 6.48567872e-03,
          1.00000381e-01, 1., 1., 1., 1., 1., 1., 1., 1., 1., 1., 1., 1.,
          1., 1., 9.96400297e-01, 2.76879997e+01, 3.41940761e+00 ]
      - [ 1., 3., 6.00051880e-03, 0., 6.98289499e-02, 6.98290616e-02,
          1.71045154e-01, 8.55085775e-02, 8.55369866e-02, 9.99667823e-01,
          1.26217745e-29, 1.95196972e+01, 6.31088724e-30, 1.95196972e+01,
          1.95196972e+01, 1., 0., 1.71045557e-01, 3.42090726e-01,
          5.84885240e-01, 1.72833782e-02, 1.57079637e+00, 9.24512625e-01,
          1.53314667e+01, 5.11048889e+00, 2.17411375e+00, 2.34501481e+00,
          9.27121580e-01, 3.13151395e-05, -1., 1.95758762e+01,
          1.60229083e-05, 1.20010376e-02, 1., 1., 1., 1., 1., 1., 1., 1.,
          1., 1., 1., 1., 1., 1., 9.99387145e-01, 1.95699997e+01,
          2.37434912e+00 ]
      - [ 1., 1., -1., -1., 0., 0., -1., -1., -1., -1., 0., 0., 0., 0.,
          0., 0., 0., 0., 0., 0., 0., 0., 0., -1., -1., -1., -1., -1.,
          0., 0., 4.21870003e+01, 0., 0., 0., 0., 0., 0., 0., 0., 0., 0.,
          0., 0., 0., 0., 0., 0., 0., 6.11116457e+00, 1.78055496e+01 ]
      - [ 0., 10., 3.66668701e-02, 3.43694501e-02, 1.34425536e-01,
          1.34543732e-01, 4.06836420e-01, 4.44233157e-02, 1.17596269e-01,
          3.77761275e-01, 4.58461139e-03, 2.19378293e-01, 5.09401259e-04,
          1.76954716e-01, 2.42128864e-01, 7.30828702e-01, 0.,
          5.53966880e-01, 9.60803330e-01, 3.46555054e-01, 9.16337299e+00,
          1.57079637e+00, 9.28352654e-01, 3.88337975e+01, 3.88337970e+00,
          1.77205133e+00, 2.16600442e+00, 8.18119884e-01, 9.86098964e-03,
          1.71332359e-02, 1.00616093e+01, 3.31520811e-02, 1.69000626e-01,
          6., 3., 3., 3., 2., 2., 2., 2., 2., 2., 1., 1., 1., 1.,
          9.83402014e-01, 1.31084740e+00, 2.22433877e+00 ]
      - [ 0., 1., -1., -1., 0., 0., -1., -1., -1., -1., 0., 0., 0., 0.,
          0., 0., 0., 0., 0., 0., 0., 0., 0., -1., -1., -1., -1., -1.,
          0., 0., 3.24059982e+01, 0., 0., 0., 0., 0., 0., 0., 0., 0., 0.,
          0., 0., 0., 0., 0., 0., 0., 3.24059982e+01, 5.60546970e+00 ]
      - [ 0., 2., 6.40010834e-02, 0., 5.33656515e-02, 5.33656515e-02,
          1.06731303e-01, 1.06731303e-01, 1.06731303e-01, 1., 0., 0., 0.,
          0., 0., 0., 0., 0., 0., 0., 0., 0., 0., 9.86076132e-31,
          4.93038066e-31, -8.88178420e-16, 4.44089210e-16, -2., -1., -1.,
