%YAML:1.0
detector_type: adaboost
used_feature_dimensions:
   - "Throw a coin."
   - "Number of laser end points."
   - "Mean of difference in range of consecutive beams."
   - "Variance of difference in range of consecutive beams."
   - "Variance from center of gravity."
   - "Mean average deviation from median."
   - "Width."
   - "Min distance between points."
   - "Max distance between points."
   - "Ratio between min and max distance between points."
   - "Circularity."
   - "Radius of fitted circle."
   - "Variance of distance from points to center of circle."
   - "Minimal difference to radius."
   - "Maximal difference to radius."
   - "Ratio between min and max difference."
   - "Area of rectangles to fitted circle center."
   - "Boundary length."
   - "Perimeter."
   - "Contour regularity."
   - "Mean curvature."
   - "Mean angular difference."
   - "Aspect ratio."
   - "Linearity."
   - "Linearity mean error."
   - "Linearity min error."
   - "Linearity max error."
   - "Linearity ratio of min and max error."
   - "Error of fitted quadratic b-spline."
   - "Error of fitted cubic b-spline."
   - "Distance."
   - "Polygon Area."
   - "Difference of longest and shortest beam."
   - "Number of local minima (noise 0.01)."
   - "Number of local minima (noise 0.02)."
   - "Number of local minima (noise 0.03)."
   - "Number of local minima (noise 0.04)."
   - "Number of local minima (noise 0.05)."
   - "Number of local minima (noise 0.06)."
   - "Number of local minima (noise 0.07)."
   - "Number of local minima (noise 0.08)."
   - "Number of local minima (noise 0.09)."
   - "Number of local minima (noise 0.10)."
   - "Number of local minima (noise 0.11)."
   - "Number of local minima (noise 0.12)."
   - "Number of local minima (noise 0.13)."
   - "Number of local minima (noise 0.14)."
   - "Ratio between shortest and longest beam."
   - "Jump distance to previous segment."
   - "Jump distance to next segment."
classifier: !!opencv-ml-boost-tree
   boosting_type: DiscreteAdaboost
   splitting_criteria: 3
   ntrees: 50
   weight_trimming_rate: 1.
   is_classifier: 1
   var_all: 50
   var_count: 50
   ord_var_count: 50
   cat_var_count: 0
   training_params:
      use_surrogates: 1
      max_categories: 10
      max_depth: 1
      min_sample_count: 10
      cross_validation_folds: 0
      priors: !!opencv-matrix
         rows: 1
         cols: 2
         dt: d
         data: [ 1., 1. ]
   var_type: [ 0, 0, 0, 0, 0, 0, 0, 0, 0, 0, 0, 0, 0, 0, 0, 0, 0, 0, 0,
       0, 0, 0, 0, 0, 0, 0, 0, 0, 0, 0, 0, 0, 0, 0, 0, 0, 0, 0, 0, 0, 0,
       0, 0, 0, 0, 0, 0, 0, 0, 0 ]
   cat_count: !!opencv-matrix
      rows: 1
      cols: 1
      dt: i
      data: [ 2 ]
   cat_map: !!opencv-matrix
      rows: 1
      cols: 2
      dt: i
      data: [ 0, 1 ]
   trees:
      -
         best_tree_idx: -1
         nodes:
            -
               depth: 0
               sample_count: 49786
               value: -1.7611397473810033e+00
               norm_class_idx: 0
               Tn: 0
               complexity: 0
               alpha: 0.
               node_risk: 0.
               tree_risk: 0.
               tree_error: 0.
               splits:
                  - { var:27, quality:8.5335236787796021e-01,
                      le:-2.8823436737060547e+01 }
            -
               depth: 1
               sample_count: 48
               value: 1.7611397473810033e+00
               norm_class_idx: 1
               Tn: 0
               complexity: 0
               alpha: 0.
               node_risk: 0.
               tree_risk: 0.
               tree_error: 0.
            -
               depth: 1
               sample_count: 49738
               value: -1.7611397473810033e+00
               norm_class_idx: 0
               Tn: 0
               complexity: 0
               alpha: 0.
               node_risk: 0.
               tree_risk: 0.
               tree_error: 0.
      -
         best_tree_idx: -1
         nodes:
            -
               depth: 0
               sample_count: 49786
               value: -8.3319669061288126e-01
               norm_class_idx: 0
               Tn: 0
               complexity: 0
               alpha: 0.
               node_risk: 0.
               tree_risk: 0.
               tree_error: 0.
               splits:
                  - { var:31, quality:6.9703042507171631e-01,
                      le:3.5616066306829453e-03 }
                  - { var:17, quality:6.4680904150009155e-01,
                      le:2.5598800182342529e-01 }
                  - { var:18, quality:6.4400404691696167e-01,
                      le:4.9311625957489014e-01 }
                  - { var:29, quality:6.3362085819244385e-01,
                      le:4.7312141396105289e-03 }
                  - { var:28, quality:6.3234442472457886e-01,
                      le:3.9774253964424133e-03 }
                  - { var:6, quality:6.3211715221405029e-01,
                      le:2.4187031388282776e-01 }
                  - { var:3, quality:6.2714517116546631e-01,
                      le:7.0439400151371956e-03 }
                  - { var:5, quality:6.2666898965835571e-01,
                      le:1.0055027902126312e-01 }
                  - { var:4, quality:6.2527585029602051e-01,
                      le:9.9340513348579407e-02 }
                  - { var:14, quality:6.2243485450744629e-01,
                      le:1.3005684316158295e-01 }
                  - { var:11, quality:6.2169814109802246e-01,
                      le:1.0093313455581665e-01 }
                  - { var:10, quality:6.1311894655227661e-01,
                      le:1.1538476974237710e-04 }
                  - { var:13, quality:6.0987526178359985e-01,
                      le:9.2296767979860306e-03 }
                  - { var:19, quality:6.0916453599929810e-01,
                      le:1.2352722883224487e-01 }
                  - { var:32, quality:6.0862112045288086e-01,
                      le:8.1000804901123047e-02 }
                  - { var:20, quality:6.0444754362106323e-01,
                      le:6.2277418375015259e-01 }
                  - { var:21, quality:6.0046541690826416e-01,
                      le:1.1602473258972168e+00 }
                  - { var:23, quality:5.9773606061935425e-01,
                      le:9.9606718868017197e-03 }
                  - { var:24, quality:5.9772783517837524e-01,
                      le:2.4901679717004299e-03 }
                  - { var:15, quality:5.9753686189651489e-01,
                      le:5.0213723443448544e-04 }
                  - { var:12, quality:5.9710913896560669e-01,
                      le:9.1986767074558884e-05 }
                  - { var:1, quality:5.9581720829010010e-01,
                      le:4.5000000000000000e+00 }
                  - { var:22, quality:5.9496104717254639e-01,
                      le:1.2587535381317139e-01 }
                  - { var:33, quality:5.8758968114852905e-01,
                      le:2.5000000000000000e+00 }
                  - { var:34, quality:5.8706998825073242e-01,
                      le:1.5000000000000000e+00 }
                  - { var:35, quality:5.7625168561935425e-01,
                      le:1.5000000000000000e+00 }
                  - { var:36, quality:5.6043434143066406e-01,
                      le:1.5000000000000000e+00 }
                  - { var:2, quality:5.4896801710128784e-01,
                      le:1.0007734410464764e-02 }
                  - { var:8, quality:5.4599529504776001e-01,
                      le:5.1858067512512207e-02 }
                  - { var:7, quality:5.4000031948089600e-01,
                      le:3.5648359917104244e-03 }
                  - { var:37, quality:5.3802883625030518e-01,
                      le:1.5000000000000000e+00 }
                  - { var:47, quality:5.2783495187759399e-01,
                      le:8.5876479744911194e-02 }
                  - { var:9, quality:5.2782672643661499e-01,
                      le:9.2956394655629992e-04 }
                  - { var:46, quality:5.2230596542358398e-01,
                      le:5.0000000000000000e-01 }
                  - { var:45, quality:5.2230596542358398e-01,
                      le:5.0000000000000000e-01 }
                  - { var:44, quality:5.2230596542358398e-01,
                      le:5.0000000000000000e-01 }
                  - { var:43, quality:5.2230596542358398e-01,
                      le:5.0000000000000000e-01 }
                  - { var:42, quality:5.2230596542358398e-01,
                      le:5.0000000000000000e-01 }
                  - { var:41, quality:5.2230596542358398e-01,
                      le:5.0000000000000000e-01 }
                  - { var:40, quality:5.2230596542358398e-01,
                      le:5.0000000000000000e-01 }
                  - { var:39, quality:5.2230596542358398e-01,
                      le:5.0000000000000000e-01 }
                  - { var:38, quality:5.2230596542358398e-01,
                      le:5.0000000000000000e-01 }
                  - { var:26, quality:5.2230596542358398e-01,
                      le:-5.0000000000000000e-01 }
                  - { var:27, quality:5.1711946725845337e-01,
                      le:-9.9432265758514404e-01 }
                  - { var:25, quality:4.8890534043312073e-01,
                      le:3.2670966902514920e-05 }
                  - { var:30, quality:4.5957747101783752e-01,
                      gt:1.6815738677978516e+01 }
                  - { var:48, quality:4.1946429014205933e-01,
                      gt:2.9987499237060547e+01 }
                  - { var:49, quality:4.1714727878570557e-01,
                      gt:2.9900001525878906e+01 }
            -
               depth: 1
               sample_count: 27639
               value: -8.3319669061288126e-01
               norm_class_idx: 0
               Tn: 0
               complexity: 0
               alpha: 0.
               node_risk: 0.
               tree_risk: 0.
               tree_error: 0.
            -
               depth: 1
               sample_count: 22147
               value: 8.3319669061288126e-01
               norm_class_idx: 1
               Tn: 0
               complexity: 0
               alpha: 0.
               node_risk: 0.
               tree_risk: 0.
               tree_error: 0.
      -
         best_tree_idx: -1
         nodes:
            -
               depth: 0
               sample_count: 49786
               value: -8.1568628926310505e-01
               norm_class_idx: 0
               Tn: 0
               complexity: 0
               alpha: 0.
               node_risk: 0.
               tree_risk: 0.
               tree_error: 0.
               splits:
                  - { var:49, quality:6.9331991672515869e-01,
                      le:4.7643041610717773e+00 }
                  - { var:48, quality:4.7484380006790161e-01,
                      le:5.0091524124145508e+00 }
                  - { var:30, quality:4.3783578276634216e-01,
                      le:1.2594039916992188e+01 }
                  - { var:47, quality:4.2594742774963379e-01,
                      le:9.8331123590469360e-01 }
                  - { var:7, quality:4.2358314990997314e-01,
                      le:5.4220713675022125e-02 }
                  - { var:9, quality:4.2248186469078064e-01,
                      le:4.2785769701004028e-01 }
                  - { var:23, quality:4.1542389988899231e-01,
                      gt:9.1122406005859375e+01 }
                  - { var:24, quality:4.0130072832107544e-01,
                      gt:3.1577734947204590e+00 }
                  - { var:32, quality:4.0036046504974365e-01,
                      gt:3.1399941444396973e-01 }
                  - { var:20, quality:3.9525094628334045e-01,
                      gt:2.8170938491821289e+00 }
                  - { var:1, quality:3.8723370432853699e-01,
                      gt:8.5000000000000000e+00 }
                  - { var:29, quality:3.8269096612930298e-01,
                      gt:1.2283523101359606e-03 }
                  - { var:3, quality:3.8259178400039673e-01,
                      gt:2.8851657407358289e-04 }
                  - { var:28, quality:3.8189062476158142e-01,
                      gt:-5.0000000000000000e-01 }
                  - { var:26, quality:3.8140389323234558e-01,
                      gt:3.7388117313385010e+00 }
                  - { var:25, quality:3.8120588660240173e-01,
                      gt:3.2209172248840332e+00 }
                  - { var:10, quality:3.8119578361511230e-01,
                      gt:2.1946703782305121e-04 }
                  - { var:13, quality:3.7992966175079346e-01,
                      gt:2.8069608379155397e-04 }
                  - { var:8, quality:3.7992087006568909e-01,
                      gt:1.8979024887084961e-01 }
                  - { var:15, quality:3.7991318106651306e-01,
                      gt:6.8894634023308754e-03 }
                  - { var:14, quality:3.7990042567253113e-01,
                      gt:6.5788887441158295e-03 }
                  - { var:17, quality:3.7988868355751038e-01,
                      gt:7.2035104967653751e-03 }
                  - { var:18, quality:3.7987697124481201e-01,
                      gt:3.3596348017454147e-02 }
                  - { var:21, quality:3.7986066937446594e-01,
                      gt:1.4137167930603027e+00 }
                  - { var:19, quality:3.7985941767692566e-01,
                      gt:8.0907508730888367e-02 }
                  - { var:11, quality:3.7968382239341736e-01,
                      gt:2.1287121344357729e-03 }
                  - { var:31, quality:3.7934565544128418e-01,
                      gt:1.2289482583582867e-05 }
                  - { var:27, quality:3.7880611419677734e-01,
                      gt:-3.5882397787645459e-04 }
                  - { var:22, quality:3.7796089053153992e-01,
                      gt:3.3744037151336670e-01 }
                  - { var:5, quality:3.7722960114479065e-01,
                      gt:2.2196052968502045e-01 }
                  - { var:12, quality:3.7475609779357910e-01,
                      gt:8.3130272105336189e-04 }
                  - { var:4, quality:3.7451976537704468e-01,
                      gt:2.2055786848068237e-01 }
                  - { var:43, quality:3.7285500764846802e-01,
                      gt:1.5000000000000000e+00 }
                  - { var:46, quality:3.7212336063385010e-01,
                      gt:1.5000000000000000e+00 }
                  - { var:41, quality:3.7199923396110535e-01,
                      gt:1.5000000000000000e+00 }
                  - { var:2, quality:3.7170109152793884e-01,
                      le:4.2725056409835815e-01 }
            -
               depth: 1
               sample_count: 31696
               value: -8.1568628926310505e-01
               norm_class_idx: 0
               Tn: 0
               complexity: 0
               alpha: 0.
               node_risk: 0.
               tree_risk: 0.
               tree_error: 0.
            -
               depth: 1
               sample_count: 18090
               value: 8.1568628926310505e-01
               norm_class_idx: 1
               Tn: 0
               complexity: 0
               alpha: 0.
               node_risk: 0.
               tree_risk: 0.
               tree_error: 0.
      -
         best_tree_idx: -1
         nodes:
            -
               depth: 0
               sample_count: 49786
               value: -5.4752122845188778e-01
               norm_class_idx: 0
               Tn: 0
               complexity: 0
               alpha: 0.
               node_risk: 0.
               tree_risk: 0.
               tree_error: 0.
               splits:
                  - { var:22, quality:6.3356029987335205e-01,
                      le:8.6697918176651001e-01 }
                  - { var:20, quality:5.2872318029403687e-01,
                      le:2.5870743393898010e-01 }
                  - { var:1, quality:5.2740883827209473e-01,
                      le:2.5000000000000000e+00 }
                  - { var:11, quality:5.2579981088638306e-01,
                      le:2.1287121344357729e-03 }
                  - { var:15, quality:5.2522635459899902e-01,
                      le:1.1673551052808762e-02 }
                  - { var:28, quality:5.2514243125915527e-01,
                      le:4.7892999646137469e-06 }
                  - { var:24, quality:5.2514243125915527e-01,
                      le:2.0054059859830886e-04 }
                  - { var:23, quality:5.2514243125915527e-01,
                      le:1.6043247887864709e-03 }
                  - { var:21, quality:5.2514243125915527e-01,
                      le:7.1399830281734467e-02 }
                  - { var:19, quality:5.2514243125915527e-01,
                      le:3.5539384931325912e-02 }
                  - { var:18, quality:5.2514243125915527e-01,
                      le:1.2630479410290718e-02 }
                  - { var:17, quality:5.2514243125915527e-01,
                      le:7.2035104967653751e-03 }
                  - { var:14, quality:5.2514243125915527e-01,
                      le:2.7998473960906267e-03 }
                  - { var:13, quality:5.2514243125915527e-01,
                      le:5.4677253501722589e-05 }
                  - { var:31, quality:5.1211524009704590e-01,
                      le:1.3116307673044503e-04 }
                  - { var:29, quality:4.8231559991836548e-01,
                      le:3.2657782867318019e-05 }
                  - { var:3, quality:4.8231175541877747e-01,
                      le:2.8851657407358289e-04 }
                  - { var:32, quality:4.6942374110221863e-01,
                      le:1.1999368667602539e-02 }
                  - { var:47, quality:4.6874254941940308e-01,
                      le:7.9652869701385498e-01 }
                  - { var:6, quality:4.6733871102333069e-01,
                      le:1.4668567478656769e-01 }
                  - { var:27, quality:4.6434393525123596e-01,
                      le:-3.1797027587890625e-01 }
                  - { var:2, quality:4.6329277753829956e-01,
                      le:4.0285852737724781e-03 }
                  - { var:46, quality:4.6161442995071411e-01,
                      le:5.0000000000000000e-01 }
                  - { var:45, quality:4.6161442995071411e-01,
                      le:5.0000000000000000e-01 }
                  - { var:44, quality:4.6161442995071411e-01,
                      le:5.0000000000000000e-01 }
                  - { var:43, quality:4.6161442995071411e-01,
                      le:5.0000000000000000e-01 }
                  - { var:42, quality:4.6161442995071411e-01,
                      le:5.0000000000000000e-01 }
                  - { var:41, quality:4.6161442995071411e-01,
                      le:5.0000000000000000e-01 }
                  - { var:40, quality:4.6161442995071411e-01,
                      le:5.0000000000000000e-01 }
                  - { var:39, quality:4.6161442995071411e-01,
                      le:5.0000000000000000e-01 }
                  - { var:38, quality:4.6161442995071411e-01,
                      le:5.0000000000000000e-01 }
                  - { var:37, quality:4.6161442995071411e-01,
                      le:5.0000000000000000e-01 }
                  - { var:36, quality:4.6161442995071411e-01,
                      le:5.0000000000000000e-01 }
                  - { var:35, quality:4.6161442995071411e-01,
                      le:5.0000000000000000e-01 }
                  - { var:34, quality:4.6161442995071411e-01,
                      le:5.0000000000000000e-01 }
                  - { var:33, quality:4.6161442995071411e-01,
                      le:5.0000000000000000e-01 }
                  - { var:26, quality:4.6161442995071411e-01,
                      le:-5.0000000000000000e-01 }
                  - { var:9, quality:4.6161442995071411e-01,
                      le:-5.0000000000000000e-01 }
                  - { var:8, quality:4.6161442995071411e-01,
                      le:-5.0000000000000000e-01 }
                  - { var:7, quality:4.6161442995071411e-01,
                      le:-5.0000000000000000e-01 }
                  - { var:5, quality:4.5936545729637146e-01,
                      le:1.9363756291568279e-03 }
                  - { var:4, quality:4.5936545729637146e-01,
                      le:1.9045895896852016e-03 }
                  - { var:10, quality:4.5807445049285889e-01,
                      le:9.1164882178418338e-05 }
                  - { var:25, quality:4.4638031721115112e-01,
                      le:3.2670966902514920e-05 }
                  - { var:30, quality:4.2577201128005981e-01,
                      gt:2.4127424240112305e+01 }
                  - { var:12, quality:4.2506957054138184e-01,
                      le:9.1986767074558884e-05 }
                  - { var:49, quality:3.9498129487037659e-01,
                      gt:1.9037338256835938e+01 }
                  - { var:48, quality:3.9192187786102295e-01,
                      gt:2.5200099945068359e+01 }
            -
               depth: 1
               sample_count: 27275
               value: -5.4752122845188778e-01
               norm_class_idx: 0
               Tn: 0
               complexity: 0
               alpha: 0.
               node_risk: 0.
               tree_risk: 0.
               tree_error: 0.
            -
               depth: 1
               sample_count: 22511
               value: 5.4752122845188778e-01
               norm_class_idx: 1
               Tn: 0
               complexity: 0
               alpha: 0.
               node_risk: 0.
               tree_risk: 0.
               tree_error: 0.
      -
         best_tree_idx: -1
         nodes:
            -
               depth: 0
               sample_count: 49786
               value: -5.8043136712320464e-01
               norm_class_idx: 0
               Tn: 0
               complexity: 0
               alpha: 0.
               node_risk: 0.
               tree_risk: 0.
               tree_error: 0.
               splits:
                  - { var:24, quality:6.4116668701171875e-01,
                      le:1.7312203645706177e+00 }
                  - { var:23, quality:6.0299843549728394e-01,
                      le:1.3178701400756836e+01 }
                  - { var:25, quality:5.2832466363906860e-01,
                      le:1.0522247552871704e+00 }
                  - { var:26, quality:5.2485007047653198e-01,
                      le:1.3309473991394043e+00 }
                  - { var:21, quality:5.2409738302230835e-01,
                      le:1.0947973728179932e+00 }
                  - { var:15, quality:5.2025079727172852e-01,
                      le:5.9509165585041046e-03 }
                  - { var:28, quality:5.2023154497146606e-01,
                      le:4.7892999646137469e-06 }
                  - { var:19, quality:5.2023154497146606e-01,
                      le:3.5539384931325912e-02 }
                  - { var:18, quality:5.2023154497146606e-01,
                      le:1.2630479410290718e-02 }
                  - { var:17, quality:5.2023154497146606e-01,
                      le:7.2035104967653751e-03 }
                  - { var:14, quality:5.2023154497146606e-01,
                      le:2.7998473960906267e-03 }
                  - { var:13, quality:5.2023154497146606e-01,
                      le:5.4677253501722589e-05 }
                  - { var:31, quality:5.1935291290283203e-01,
                      le:5.5394170885847416e-06 }
                  - { var:11, quality:5.1932376623153687e-01,
                      le:2.1287121344357729e-03 }
                  - { var:22, quality:5.1710188388824463e-01,
                      le:1.2587535381317139e-01 }
                  - { var:20, quality:5.1710188388824463e-01,
                      le:1.2651630095206201e-04 }
                  - { var:1, quality:5.1710188388824463e-01,
                      le:2.5000000000000000e+00 }
                  - { var:27, quality:5.0239002704620361e-01,
                      le:6.6675817966461182e-01 }
                  - { var:29, quality:4.8105627298355103e-01,
                      le:3.2657782867318019e-05 }
                  - { var:3, quality:4.8105096817016602e-01,
                      le:2.8851657407358289e-04 }
                  - { var:6, quality:4.7830286622047424e-01,
                      le:1.9458562135696411e-01 }
                  - { var:5, quality:4.7107326984405518e-01,
                      le:8.4452226758003235e-02 }
                  - { var:4, quality:4.6990266442298889e-01,
                      le:8.0831155180931091e-02 }
                  - { var:32, quality:4.6124812960624695e-01,
                      le:1.4999628067016602e-02 }
                  - { var:10, quality:4.5467698574066162e-01,
                      le:1.0715816461015493e-04 }
                  - { var:2, quality:4.5448276400566101e-01,
                      le:4.0968605317175388e-03 }
                  - { var:9, quality:4.5380890369415283e-01,
                      le:5.1851905882358551e-03 }
                  - { var:7, quality:4.5379039645195007e-01,
                      le:8.7156228255480528e-04 }
                  - { var:47, quality:4.5378506183624268e-01,
                      le:8.5876479744911194e-02 }
                  - { var:8, quality:4.4994726777076721e-01,
                      le:1.7408949788659811e-03 }
                  - { var:46, quality:4.4680368900299072e-01,
                      le:5.0000000000000000e-01 }
                  - { var:45, quality:4.4680368900299072e-01,
                      le:5.0000000000000000e-01 }
                  - { var:44, quality:4.4680368900299072e-01,
                      le:5.0000000000000000e-01 }
                  - { var:43, quality:4.4680368900299072e-01,
                      le:5.0000000000000000e-01 }
                  - { var:42, quality:4.4680368900299072e-01,
                      le:5.0000000000000000e-01 }
                  - { var:41, quality:4.4680368900299072e-01,
                      le:5.0000000000000000e-01 }
                  - { var:40, quality:4.4680368900299072e-01,
                      le:5.0000000000000000e-01 }
                  - { var:39, quality:4.4680368900299072e-01,
                      le:5.0000000000000000e-01 }
                  - { var:38, quality:4.4680368900299072e-01,
                      le:5.0000000000000000e-01 }
                  - { var:37, quality:4.4680368900299072e-01,
                      le:5.0000000000000000e-01 }
                  - { var:36, quality:4.4680368900299072e-01,
                      le:5.0000000000000000e-01 }
                  - { var:35, quality:4.4680368900299072e-01,
                      le:5.0000000000000000e-01 }
                  - { var:34, quality:4.4680368900299072e-01,
                      le:5.0000000000000000e-01 }
                  - { var:33, quality:4.4680368900299072e-01,
                      le:5.0000000000000000e-01 }
                  - { var:12, quality:4.3886473774909973e-01,
                      le:1.0171283065574244e-04 }
                  - { var:30, quality:4.1072389483451843e-01,
                      gt:1.6915946960449219e+01 }
                  - { var:49, quality:3.8452842831611633e-01,
                      gt:1.9600500106811523e+01 }
                  - { var:48, quality:3.8148850202560425e-01,
                      gt:1.5004617691040039e+01 }
            -
               depth: 1
               sample_count: 24533
               value: 5.8043136712320464e-01
               norm_class_idx: 1
               Tn: 0
               complexity: 0
               alpha: 0.
               node_risk: 0.
               tree_risk: 0.
               tree_error: 0.
            -
               depth: 1
               sample_count: 25253
               value: -5.8043136712320464e-01
               norm_class_idx: 0
               Tn: 0
               complexity: 0
               alpha: 0.
               node_risk: 0.
               tree_risk: 0.
               tree_error: 0.
      -
         best_tree_idx: -1
         nodes:
            -
               depth: 0
               sample_count: 49786
               value: -5.3192637393710152e-01
               norm_class_idx: 0
               Tn: 0
               complexity: 0
               alpha: 0.
               node_risk: 0.
               tree_risk: 0.
               tree_error: 0.
               splits:
                  - { var:48, quality:6.2993228435516357e-01,
                      le:4.7811393737792969e+00 }
                  - { var:30, quality:4.0415424108505249e-01,
                      le:1.5638950347900391e+01 }
                  - { var:49, quality:4.0360420942306519e-01,
                      le:9.3935270309448242e+00 }
                  - { var:7, quality:3.8278824090957642e-01,
                      le:5.8837473392486572e-02 }
                  - { var:47, quality:3.7823489308357239e-01,
                      le:9.8223876953125000e-01 }
                  - { var:9, quality:3.7384009361267090e-01,
                      le:4.9285271763801575e-01 }
                  - { var:20, quality:3.6846455931663513e-01,
                      gt:2.9867477416992188e+00 }
                  - { var:32, quality:3.6102509498596191e-01,
                      gt:2.3750019073486328e-01 }
                  - { var:1, quality:3.5552486777305603e-01,
                      gt:6.5000000000000000e+00 }
                  - { var:10, quality:3.5522657632827759e-01,
                      gt:2.0209950162097812e-04 }
                  - { var:29, quality:3.5499694943428040e-01,
                      gt:1.0634660720825195e-03 }
                  - { var:3, quality:3.5478702187538147e-01,
                      gt:2.8851657407358289e-04 }
                  - { var:21, quality:3.5404264926910400e-01,
                      gt:1.4137167930603027e+00 }
                  - { var:28, quality:3.5225364565849304e-01,
                      gt:1.3770419172942638e-04 }
                  - { var:15, quality:3.5218173265457153e-01,
                      gt:6.6313399001955986e-03 }
                  - { var:19, quality:3.5216572880744934e-01,
                      gt:8.0422453582286835e-02 }
                  - { var:24, quality:3.5215631127357483e-01,
                      gt:2.0054059859830886e-04 }
                  - { var:23, quality:3.5215631127357483e-01,
                      gt:1.6043247887864709e-03 }
                  - { var:17, quality:3.5215631127357483e-01,
                      gt:7.2035104967653751e-03 }
                  - { var:13, quality:3.5215631127357483e-01,
                      gt:5.4677253501722589e-05 }
                  - { var:14, quality:3.5215330123901367e-01,
                      gt:6.1234505847096443e-03 }
                  - { var:18, quality:3.5215029120445251e-01,
                      gt:3.5676658153533936e-02 }
                  - { var:31, quality:3.5212281346321106e-01,
                      gt:5.5394170885847416e-06 }
                  - { var:11, quality:3.5127487778663635e-01,
                      gt:4.6802461147308350e-03 }
                  - { var:22, quality:3.4931918978691101e-01,
                      gt:2.9569235444068909e-01 }
                  - { var:12, quality:3.4897005558013916e-01,
                      gt:1.4050013851374388e-04 }
                  - { var:2, quality:3.4555500745773315e-01,
                      gt:4.0285852737724781e-03 }
                  - { var:25, quality:3.4534975886344910e-01,
                      le:-9.0984918642789125e-04 }
                  - { var:41, quality:3.4504815936088562e-01,
                      gt:1.5000000000000000e+00 }
                  - { var:6, quality:3.4490555524826050e-01,
                      gt:5.1140505820512772e-03 }
                  - { var:4, quality:3.4488072991371155e-01,
                      gt:4.6131936833262444e-03 }
                  - { var:5, quality:3.4487557411193848e-01,
                      gt:4.5409454032778740e-03 }
                  - { var:8, quality:3.4486529231071472e-01,
                      gt:1.7408949788659811e-03 }
                  - { var:40, quality:3.4456905722618103e-01,
                      gt:1.5000000000000000e+00 }
                  - { var:39, quality:3.4304803609848022e-01,
                      gt:1.5000000000000000e+00 }
                  - { var:43, quality:3.4220457077026367e-01,
                      gt:5.0000000000000000e-01 }
                  - { var:42, quality:3.4220457077026367e-01,
                      gt:5.0000000000000000e-01 }
                  - { var:37, quality:3.4220457077026367e-01,
                      gt:5.0000000000000000e-01 }
                  - { var:38, quality:3.4122136235237122e-01,
                      gt:1.5000000000000000e+00 }
                  - { var:44, quality:3.3925962448120117e-01,
                      gt:1.5000000000000000e+00 }
                  - { var:27, quality:3.3921495079994202e-01,
                      gt:-9.4791036844253540e-01 }
                  - { var:34, quality:3.3918455243110657e-01,
                      gt:1.5000000000000000e+00 }
                  - { var:26, quality:3.3788114786148071e-01,
                      le:8.3372628688812256e-01 }
                  - { var:35, quality:3.3569851517677307e-01,
                      gt:1.5000000000000000e+00 }
                  - { var:36, quality:3.3461171388626099e-01,
                      gt:1.5000000000000000e+00 }
            -
               depth: 1
               sample_count: 31662
               value: -5.3192637393710152e-01
               norm_class_idx: 0
               Tn: 0
               complexity: 0
               alpha: 0.
               node_risk: 0.
               tree_risk: 0.
               tree_error: 0.
            -
               depth: 1
               sample_count: 18124
               value: 5.3192637393710152e-01
               norm_class_idx: 1
               Tn: 0
               complexity: 0
               alpha: 0.
               node_risk: 0.
               tree_risk: 0.
               tree_error: 0.
      -
         best_tree_idx: -1
         nodes:
            -
               depth: 0
               sample_count: 49786
               value: -4.5958896315091752e-01
               norm_class_idx: 0
               Tn: 0
               complexity: 0
               alpha: 0.
               node_risk: 0.
               tree_risk: 0.
               tree_error: 0.
               splits:
                  - { var:26, quality:6.1291664838790894e-01,
                      le:8.4941703826189041e-03 }
                  - { var:25, quality:5.9342694282531738e-01,
                      le:3.2670966902514920e-05 }
                  - { var:27, quality:5.6964582204818726e-01,
                      le:6.4207029936369509e-05 }
                  - { var:28, quality:4.6666678786277771e-01,
                      le:2.6748460368253291e-04 }
                  - { var:15, quality:4.6595805883407593e-01,
                      le:5.9509165585041046e-03 }
                  - { var:24, quality:4.6593570709228516e-01,
                      le:2.0054059859830886e-04 }
                  - { var:23, quality:4.6593570709228516e-01,
                      le:1.6043247887864709e-03 }
                  - { var:21, quality:4.6593570709228516e-01,
                      le:7.1399830281734467e-02 }
                  - { var:19, quality:4.6593570709228516e-01,
                      le:3.5539384931325912e-02 }
                  - { var:18, quality:4.6593570709228516e-01,
                      le:1.2630479410290718e-02 }
                  - { var:17, quality:4.6593570709228516e-01,
                      le:7.2035104967653751e-03 }
                  - { var:14, quality:4.6593570709228516e-01,
                      le:2.7998473960906267e-03 }
                  - { var:13, quality:4.6593570709228516e-01,
                      le:5.4677253501722589e-05 }
                  - { var:31, quality:4.6442902088165283e-01,
                      le:1.7692087567411363e-05 }
                  - { var:11, quality:4.6439832448959351e-01,
                      le:2.1287121344357729e-03 }
                  - { var:29, quality:4.6365141868591309e-01,
                      le:4.3548626126721501e-04 }
                  - { var:22, quality:4.6364977955818176e-01,
                      le:7.3482453823089600e-01 }
                  - { var:3, quality:4.6355658769607544e-01,
                      le:2.8851657407358289e-04 }
                  - { var:20, quality:4.6227735280990601e-01,
                      le:5.3873848915100098e-01 }
                  - { var:1, quality:4.6074882149696350e-01,
                      le:2.5000000000000000e+00 }
                  - { var:6, quality:4.4769242405891418e-01,
                      le:2.4877871572971344e-01 }
                  - { var:10, quality:4.4723334908485413e-01,
                      le:9.1164882178418338e-05 }
                  - { var:5, quality:4.4040611386299133e-01,
                      le:1.0013102740049362e-01 }
                  - { var:4, quality:4.3977966904640198e-01,
                      le:9.9734000861644745e-02 }
                  - { var:33, quality:4.3410557508468628e-01,
                      le:2.5000000000000000e+00 }
                  - { var:32, quality:4.2734628915786743e-01,
                      le:7.7999785542488098e-02 }
                  - { var:12, quality:4.2508998513221741e-01,
                      le:9.6672607469372451e-05 }
                  - { var:34, quality:4.2016696929931641e-01,
                      le:1.5000000000000000e+00 }
                  - { var:35, quality:4.0330547094345093e-01,
                      le:2.5000000000000000e+00 }
                  - { var:2, quality:4.0209639072418213e-01,
                      le:4.0285852737724781e-03 }
                  - { var:8, quality:3.9668363332748413e-01,
                      le:1.7408949788659811e-03 }
                  - { var:47, quality:3.9460489153862000e-01,
                      le:7.8484505414962769e-01 }
                  - { var:9, quality:3.9255192875862122e-01,
                      le:2.0926866680383682e-02 }
                  - { var:46, quality:3.9147168397903442e-01,
                      le:5.0000000000000000e-01 }
                  - { var:45, quality:3.9147168397903442e-01,
                      le:5.0000000000000000e-01 }
                  - { var:44, quality:3.9147168397903442e-01,
                      le:5.0000000000000000e-01 }
                  - { var:43, quality:3.9147168397903442e-01,
                      le:5.0000000000000000e-01 }
                  - { var:42, quality:3.9147168397903442e-01,
                      le:5.0000000000000000e-01 }
                  - { var:41, quality:3.9147168397903442e-01,
                      le:5.0000000000000000e-01 }
                  - { var:40, quality:3.9147168397903442e-01,
                      le:5.0000000000000000e-01 }
                  - { var:39, quality:3.9147168397903442e-01,
                      le:5.0000000000000000e-01 }
                  - { var:38, quality:3.9147168397903442e-01,
                      le:5.0000000000000000e-01 }
                  - { var:37, quality:3.9147168397903442e-01,
                      le:5.0000000000000000e-01 }
                  - { var:36, quality:3.9147168397903442e-01,
                      le:5.0000000000000000e-01 }
                  - { var:7, quality:3.9147168397903442e-01,
                      le:-5.0000000000000000e-01 }
                  - { var:30, quality:3.7223127484321594e-01,
                      gt:1.6838768005371094e+01 }
                  - { var:49, quality:3.2782074809074402e-01,
                      gt:1.7301309585571289e+01 }
                  - { var:48, quality:3.2393041253089905e-01,
                      gt:1.7003757476806641e+01 }
            -
               depth: 1
               sample_count: 30442
               value: -4.5958896315091752e-01
               norm_class_idx: 0
               Tn: 0
               complexity: 0
               alpha: 0.
               node_risk: 0.
               tree_risk: 0.
               tree_error: 0.
            -
               depth: 1
               sample_count: 19344
               value: 4.5958896315091752e-01
               norm_class_idx: 1
               Tn: 0
               complexity: 0
               alpha: 0.
               node_risk: 0.
               tree_risk: 0.
               tree_error: 0.
      -
         best_tree_idx: -1
         nodes:
            -
               depth: 0
               sample_count: 49786
               value: -3.8629285478891007e-01
               norm_class_idx: 0
               Tn: 0
               complexity: 0
               alpha: 0.
               node_risk: 0.
               tree_risk: 0.
               tree_error: 0.
               splits:
                  - { var:8, quality:5.9538996219635010e-01,
                      le:1.7786428332328796e-01 }
                  - { var:3, quality:5.1001751422882080e-01,
                      le:4.5397281646728516e-02 }
                  - { var:46, quality:4.9130839109420776e-01,
                      le:1.5000000000000000e+00 }
                  - { var:32, quality:4.9072593450546265e-01,
                      le:3.3400034904479980e-01 }
                  - { var:45, quality:4.8896864056587219e-01,
                      le:1.5000000000000000e+00 }
                  - { var:5, quality:4.8728004097938538e-01,
                      le:1.9158160686492920e-01 }
                  - { var:44, quality:4.8553720116615295e-01,
                      le:1.5000000000000000e+00 }
                  - { var:28, quality:4.8274233937263489e-01,
                      le:1.5665365383028984e-02 }
                  - { var:4, quality:4.8232832551002502e-01,
                      le:1.8438293039798737e-01 }
                  - { var:43, quality:4.7983437776565552e-01,
                      le:1.5000000000000000e+00 }
                  - { var:2, quality:4.7718918323516846e-01,
                      le:5.6057158857584000e-02 }
                  - { var:29, quality:4.7373494505882263e-01,
                      le:2.6929466053843498e-02 }
                  - { var:42, quality:4.7202101349830627e-01,
                      le:1.5000000000000000e+00 }
                  - { var:17, quality:4.6848091483116150e-01,
                      le:8.7613362073898315e-01 }
                  - { var:18, quality:4.6837708353996277e-01,
                      le:1.4497979879379272e+00 }
                  - { var:41, quality:4.6419924497604370e-01,
                      le:1.5000000000000000e+00 }
                  - { var:6, quality:4.6394121646881104e-01,
                      le:6.4823293685913086e-01 }
                  - { var:12, quality:4.5630213618278503e-01,
                      le:3.7984794471412897e-03 }
                  - { var:40, quality:4.5485922694206238e-01,
                      le:1.5000000000000000e+00 }
                  - { var:39, quality:4.5335963368415833e-01,
                      le:2.5000000000000000e+00 }
                  - { var:31, quality:4.5176872611045837e-01,
                      le:5.6407622992992401e-02 }
                  - { var:38, quality:4.5094382762908936e-01,
                      le:2.5000000000000000e+00 }
                  - { var:10, quality:4.4512137770652771e-01,
                      le:5.7537972927093506e-02 }
                  - { var:14, quality:4.4467696547508240e-01,
                      le:4.6325069665908813e-01 }
                  - { var:37, quality:4.4437551498413086e-01,
                      le:2.5000000000000000e+00 }
                  - { var:7, quality:4.3606629967689514e-01,
                      le:1.7690233886241913e-01 }
                  - { var:36, quality:4.3384605646133423e-01,
                      le:5.5000000000000000e+00 }
                  - { var:11, quality:4.3298041820526123e-01,
                      le:3.4992450475692749e-01 }
                  - { var:34, quality:4.3287593126296997e-01,
                      le:5.5000000000000000e+00 }
                  - { var:35, quality:4.3231830000877380e-01,
                      le:6.5000000000000000e+00 }
                  - { var:23, quality:4.2695492506027222e-01,
                      le:6.9480224609375000e+02 }
                  - { var:19, quality:4.2650756239891052e-01,
                      le:7.2857141494750977e-01 }
                  - { var:33, quality:4.2386028170585632e-01,
                      le:9.5000000000000000e+00 }
                  - { var:1, quality:4.2081397771835327e-01,
                      le:4.3500000000000000e+01 }
                  - { var:13, quality:4.1683617234230042e-01,
                      le:7.4180799722671509e-01 }
                  - { var:24, quality:4.1616281867027283e-01,
                      le:7.0820999145507812e+01 }
                  - { var:26, quality:4.1548666357994080e-01,
                      le:8.6409568786621094e+00 }
                  - { var:20, quality:4.1405692696571350e-01,
                      le:8.6065068359375000e+03 }
                  - { var:30, quality:4.1404378414154053e-01,
                      gt:3.8347816467285156e-01 }
                  - { var:25, quality:4.1304925084114075e-01,
                      le:8.1327066421508789e+00 }
                  - { var:48, quality:4.1178321838378906e-01,
                      le:3.9460998535156250e+01 }
                  - { var:49, quality:4.1112363338470459e-01,
                      le:5.0343059539794922e+01 }
                  - { var:27, quality:4.1067829728126526e-01,
                      gt:-3.4884384155273438e+01 }
            -
               depth: 1
               sample_count: 34043
               value: 3.8629285478891007e-01
               norm_class_idx: 1
               Tn: 0
               complexity: 0
               alpha: 0.
               node_risk: 0.
               tree_risk: 0.
               tree_error: 0.
            -
               depth: 1
               sample_count: 15743
               value: -3.8629285478891007e-01
               norm_class_idx: 0
               Tn: 0
               complexity: 0
               alpha: 0.
               node_risk: 0.
               tree_risk: 0.
               tree_error: 0.
      -
         best_tree_idx: -1
         nodes:
            -
               depth: 0
               sample_count: 49786
               value: -3.7086800273916709e-01
               norm_class_idx: 0
               Tn: 0
               complexity: 0
               alpha: 0.
               node_risk: 0.
               tree_risk: 0.
               tree_error: 0.
               splits:
                  - { var:33, quality:5.9166872501373291e-01,
                      le:3.5000000000000000e+00 }
                  - { var:34, quality:5.3565257787704468e-01,
                      le:2.5000000000000000e+00 }
                  - { var:35, quality:5.1781898736953735e-01,
                      le:2.5000000000000000e+00 }
                  - { var:10, quality:5.0885057449340820e-01,
                      le:2.4585947394371033e-03 }
                  - { var:17, quality:5.0716304779052734e-01,
                      le:5.0475895404815674e-01 }
                  - { var:1, quality:5.0251919031143188e-01,
                      le:6.5000000000000000e+00 }
                  - { var:18, quality:5.0075459480285645e-01,
                      le:9.4636362791061401e-01 }
                  - { var:36, quality:4.9751558899879456e-01,
                      le:2.5000000000000000e+00 }
                  - { var:12, quality:4.9629187583923340e-01,
                      le:2.1529922378249466e-04 }
                  - { var:31, quality:4.9158239364624023e-01,
                      le:1.3488451950252056e-02 }
                  - { var:6, quality:4.8597982525825500e-01,
                      le:4.2212286591529846e-01 }
                  - { var:32, quality:4.7967517375946045e-01,
                      le:1.5899896621704102e-01 }
                  - { var:29, quality:4.7951391339302063e-01,
                      le:7.3169562965631485e-03 }
                  - { var:37, quality:4.7859814763069153e-01,
                      le:2.5000000000000000e+00 }
                  - { var:3, quality:4.6885406970977783e-01,
                      le:7.4174297042191029e-03 }
                  - { var:4, quality:4.6699512004852295e-01,
                      le:1.7557385563850403e-01 }
                  - { var:5, quality:4.6654471755027771e-01,
                      le:1.5447068214416504e-01 }
                  - { var:20, quality:4.6576252579689026e-01,
                      le:3.6600947380065918e+00 }
                  - { var:38, quality:4.6148303151130676e-01,
                      le:1.5000000000000000e+00 }
                  - { var:39, quality:4.5665156841278076e-01,
                      le:1.5000000000000000e+00 }
                  - { var:40, quality:4.5288157463073730e-01,
                      le:1.5000000000000000e+00 }
                  - { var:41, quality:4.4822323322296143e-01,
                      le:1.5000000000000000e+00 }
                  - { var:14, quality:4.4642311334609985e-01,
                      le:2.2876785695552826e-01 }
                  - { var:42, quality:4.4196230173110962e-01,
                      le:1.5000000000000000e+00 }
                  - { var:28, quality:4.3951082229614258e-01,
                      le:4.9546649679541588e-03 }
                  - { var:43, quality:4.3683320283889771e-01,
                      le:1.5000000000000000e+00 }
                  - { var:11, quality:4.3310499191284180e-01,
                      le:1.5301352739334106e-01 }
                  - { var:23, quality:4.2852908372879028e-01,
                      le:5.7448127746582031e+01 }
                  - { var:30, quality:4.2692756652832031e-01,
                      gt:1.1938295364379883e+01 }
                  - { var:45, quality:4.2655488848686218e-01,
                      le:1.5000000000000000e+00 }
                  - { var:19, quality:4.1050437092781067e-01,
                      le:1.2335339188575745e-01 }
                  - { var:13, quality:4.1027700901031494e-01,
                      le:9.2296767979860306e-03 }
                  - { var:8, quality:4.0160936117172241e-01,
                      le:2.0630031824111938e-01 }
                  - { var:21, quality:4.0155261754989624e-01,
                      le:8.3304178714752197e-01 }
                  - { var:24, quality:3.9859655499458313e-01,
                      le:2.5348659604787827e-02 }
                  - { var:15, quality:3.9726993441581726e-01,
                      le:5.0213723443448544e-04 }
                  - { var:46, quality:3.9521247148513794e-01,
                      le:2.5000000000000000e+00 }
                  - { var:26, quality:3.9234337210655212e-01,
                      le:1.8373147249221802e+00 }
                  - { var:22, quality:3.9222231507301331e-01,
                      le:1.2587535381317139e-01 }
                  - { var:25, quality:3.8382264971733093e-01,
                      le:1.8211627006530762e+00 }
                  - { var:47, quality:3.8047218322753906e-01,
                      gt:9.8405790328979492e-01 }
                  - { var:49, quality:3.7083467841148376e-01,
                      gt:-3.0000001192092896e-01 }
                  - { var:9, quality:3.7004476785659790e-01,
                      gt:4.8473092913627625e-01 }
                  - { var:48, quality:3.6677628755569458e-01,
                      gt:4.0010756254196167e-01 }
                  - { var:27, quality:3.6572712659835815e-01,
                      gt:-1.0614760589599609e+02 }
            -
               depth: 1
               sample_count: 33599
               value: -3.7086800273916709e-01
               norm_class_idx: 0
               Tn: 0
               complexity: 0
               alpha: 0.
               node_risk: 0.
               tree_risk: 0.
               tree_error: 0.
            -
               depth: 1
               sample_count: 16187
               value: 3.7086800273916709e-01
               norm_class_idx: 1
               Tn: 0
               complexity: 0
               alpha: 0.
               node_risk: 0.
               tree_risk: 0.
               tree_error: 0.
      -
         best_tree_idx: -1
         nodes:
            -
               depth: 0
               sample_count: 49786
               value: -4.2008932177653480e-01
               norm_class_idx: 0
               Tn: 0
               complexity: 0
               alpha: 0.
               node_risk: 0.
               tree_risk: 0.
               tree_error: 0.
               splits:
                  - { var:23, quality:6.0350459814071655e-01,
                      le:1.3591168212890625e+02 }
                  - { var:24, quality:5.3590989112854004e-01,
                      le:1.6954364776611328e+01 }
                  - { var:26, quality:5.2525442838668823e-01,
                      le:4.2540764808654785e+00 }
                  - { var:25, quality:5.1834607124328613e-01,
                      le:4.0658645629882812e+00 }
                  - { var:27, quality:4.6678531169891357e-01,
                      le:8.3339238166809082e-01 }
                  - { var:18, quality:4.6274912357330322e-01,
                      le:1.6213698387145996e+00 }
                  - { var:6, quality:4.6205657720565796e-01,
                      le:6.9385075569152832e-01 }
                  - { var:4, quality:4.6155729889869690e-01,
                      le:2.3138239979743958e-01 }
                  - { var:32, quality:4.6117240190505981e-01,
                      le:4.3699955940246582e-01 }
                  - { var:17, quality:4.6111464500427246e-01,
                      le:9.8789960145950317e-01 }
                  - { var:5, quality:4.6100971102714539e-01,
                      le:2.5262814760208130e-01 }
                  - { var:36, quality:4.6024623513221741e-01,
                      le:4.5000000000000000e+00 }
                  - { var:38, quality:4.5838043093681335e-01,
                      le:3.5000000000000000e+00 }
                  - { var:35, quality:4.5743444561958313e-01,
                      le:6.5000000000000000e+00 }
                  - { var:31, quality:4.5721787214279175e-01,
                      le:8.2441277801990509e-02 }
                  - { var:34, quality:4.5718598365783691e-01,
                      le:5.5000000000000000e+00 }
                  - { var:37, quality:4.5606991648674011e-01,
                      le:5.5000000000000000e+00 }
                  - { var:33, quality:4.5350429415702820e-01,
                      le:5.5000000000000000e+00 }
                  - { var:40, quality:4.5286557078361511e-01,
                      le:2.5000000000000000e+00 }
                  - { var:10, quality:4.5224273204803467e-01,
                      le:2.0187539979815483e-02 }
                  - { var:12, quality:4.5171588659286499e-01,
                      le:2.1744652185589075e-03 }
                  - { var:41, quality:4.5143267512321472e-01,
                      le:2.5000000000000000e+00 }
                  - { var:42, quality:4.5020261406898499e-01,
                      le:2.5000000000000000e+00 }
                  - { var:43, quality:4.4911575317382812e-01,
                      le:2.5000000000000000e+00 }
                  - { var:14, quality:4.4881460070610046e-01,
                      le:5.9653925895690918e-01 }
                  - { var:45, quality:4.4686070084571838e-01,
                      le:2.5000000000000000e+00 }
                  - { var:29, quality:4.4616881012916565e-01,
                      le:2.4546336382627487e-02 }
                  - { var:46, quality:4.4540068507194519e-01,
                      le:2.5000000000000000e+00 }
                  - { var:44, quality:4.4375544786453247e-01,
                      le:3.5000000000000000e+00 }
                  - { var:39, quality:4.4327256083488464e-01,
                      le:6.5000000000000000e+00 }
                  - { var:11, quality:4.4130825996398926e-01,
                      le:4.4063648581504822e-01 }
                  - { var:1, quality:4.4030436873435974e-01,
                      le:6.2500000000000000e+01 }
                  - { var:8, quality:4.3728592991828918e-01,
                      le:4.3340134620666504e-01 }
                  - { var:28, quality:4.3703076243400574e-01,
                      le:1.5874331817030907e-02 }
                  - { var:49, quality:4.3590661883354187e-01,
                      gt:-3.0000001192092896e-01 }
                  - { var:13, quality:4.3357676267623901e-01,
                      le:7.8284883499145508e-01 }
                  - { var:3, quality:4.3174248933792114e-01,
                      le:9.6447259187698364e-02 }
                  - { var:2, quality:4.2844468355178833e-01,
                      le:4.2725056409835815e-01 }
                  - { var:19, quality:4.2843312025070190e-01,
                      le:1.2437627315521240e+00 }
            -
               depth: 1
               sample_count: 35213
               value: 4.2008932177653480e-01
               norm_class_idx: 1
               Tn: 0
               complexity: 0
               alpha: 0.
               node_risk: 0.
               tree_risk: 0.
               tree_error: 0.
            -
               depth: 1
               sample_count: 14573
               value: -4.2008932177653480e-01
               norm_class_idx: 0
               Tn: 0
               complexity: 0
               alpha: 0.
               node_risk: 0.
               tree_risk: 0.
               tree_error: 0.
      -
         best_tree_idx: -1
         nodes:
            -
               depth: 0
               sample_count: 49786
               value: -4.2174781388190596e-01
               norm_class_idx: 0
               Tn: 0
               complexity: 0
               alpha: 0.
               node_risk: 0.
               tree_risk: 0.
               tree_error: 0.
               splits:
                  - { var:47, quality:6.0390138626098633e-01,
                      le:9.9990177154541016e-01 }
            -
               depth: 1
               sample_count: 49549
               value: -4.2174781388190596e-01
               norm_class_idx: 0
               Tn: 0
               complexity: 0
               alpha: 0.
               node_risk: 0.
               tree_risk: 0.
               tree_error: 0.
            -
               depth: 1
               sample_count: 237
               value: 4.2174781388190596e-01
               norm_class_idx: 1
               Tn: 0
               complexity: 0
               alpha: 0.
               node_risk: 0.
               tree_risk: 0.
               tree_error: 0.
      -
         best_tree_idx: -1
         nodes:
            -
               depth: 0
               sample_count: 49786
               value: -4.0122689099099851e-01
               norm_class_idx: 0
               Tn: 0
               complexity: 0
               alpha: 0.
               node_risk: 0.
               tree_risk: 0.
               tree_error: 0.
               splits:
                  - { var:47, quality:5.9898239374160767e-01,
                      le:9.6048152446746826e-01 }
                  - { var:9, quality:5.4055976867675781e-01,
                      le:2.1238173544406891e-01 }
                  - { var:7, quality:5.1772809028625488e-01,
                      le:2.9197555035352707e-02 }
                  - { var:4, quality:4.4830763339996338e-01,
                      le:1.1176394298672676e-02 }
                  - { var:5, quality:4.4827815890312195e-01,
                      le:1.1809707619249821e-02 }
                  - { var:6, quality:4.4809061288833618e-01,
                      le:2.4209141731262207e-02 }
                  - { var:8, quality:4.4777750968933105e-01,
                      le:2.4093788117170334e-02 }
                  - { var:32, quality:4.4470033049583435e-01,
                      le:4.9972534179687500e-04 }
                  - { var:46, quality:4.4107961654663086e-01,
                      le:5.0000000000000000e-01 }
                  - { var:45, quality:4.4107961654663086e-01,
                      le:5.0000000000000000e-01 }
                  - { var:44, quality:4.4107961654663086e-01,
                      le:5.0000000000000000e-01 }
                  - { var:43, quality:4.4107961654663086e-01,
                      le:5.0000000000000000e-01 }
                  - { var:42, quality:4.4107961654663086e-01,
                      le:5.0000000000000000e-01 }
                  - { var:41, quality:4.4107961654663086e-01,
                      le:5.0000000000000000e-01 }
                  - { var:40, quality:4.4107961654663086e-01,
                      le:5.0000000000000000e-01 }
                  - { var:39, quality:4.4107961654663086e-01,
                      le:5.0000000000000000e-01 }
                  - { var:38, quality:4.4107961654663086e-01,
                      le:5.0000000000000000e-01 }
                  - { var:37, quality:4.4107961654663086e-01,
                      le:5.0000000000000000e-01 }
                  - { var:36, quality:4.4107961654663086e-01,
                      le:5.0000000000000000e-01 }
                  - { var:35, quality:4.4107961654663086e-01,
                      le:5.0000000000000000e-01 }
                  - { var:34, quality:4.4107961654663086e-01,
                      le:5.0000000000000000e-01 }
                  - { var:33, quality:4.4107961654663086e-01,
                      le:5.0000000000000000e-01 }
                  - { var:26, quality:4.4107961654663086e-01,
                      le:-5.0000000000000000e-01 }
                  - { var:24, quality:4.4107961654663086e-01,
                      le:-5.0000000000000000e-01 }
                  - { var:23, quality:4.4107961654663086e-01,
                      le:-5.0000000000000000e-01 }
                  - { var:3, quality:4.4107961654663086e-01,
                      le:-5.0000000000000000e-01 }
                  - { var:2, quality:4.4107961654663086e-01,
                      le:-5.0000000000000000e-01 }
                  - { var:1, quality:4.4107961654663086e-01,
                      le:1.5000000000000000e+00 }
                  - { var:27, quality:4.3185713887214661e-01,
                      le:-9.7223806381225586e-01 }
                  - { var:19, quality:4.3029293417930603e-01,
                      le:2.9206800460815430e-01 }
                  - { var:25, quality:4.1757389903068542e-01,
                      le:-9.2056083679199219e-01 }
                  - { var:30, quality:4.1736984252929688e-01,
                      le:6.7901840209960938e+00 }
                  - { var:20, quality:4.0920642018318176e-01,
                      gt:9.0707693099975586e+00 }
                  - { var:10, quality:4.0698021650314331e-01,
                      gt:1.9750665873289108e-02 }
                  - { var:17, quality:4.0686804056167603e-01,
                      gt:9.2119193077087402e-01 }
                  - { var:18, quality:4.0072622895240784e-01,
                      gt:1.6378854513168335e+00 }
                  - { var:15, quality:3.9839842915534973e-01,
                      le:6.8285876512527466e-01 }
                  - { var:31, quality:3.8770323991775513e-01,
                      gt:6.2623806297779083e-02 }
                  - { var:22, quality:3.8420367240905762e-01,
                      le:8.4415459632873535e-01 }
                  - { var:29, quality:3.8405472040176392e-01,
                      gt:-5.0000000000000000e-01 }
                  - { var:12, quality:3.8140898942947388e-01,
                      gt:2.5045736692845821e-03 }
                  - { var:21, quality:3.7795314192771912e-01,
                      le:1.4137167930603027e+00 }
                  - { var:13, quality:3.7524920701980591e-01,
                      le:8.0999461933970451e-03 }
                  - { var:14, quality:3.7517827749252319e-01,
                      le:1.9813517108559608e-02 }
                  - { var:11, quality:3.7390616536140442e-01,
                      le:1.5197895467281342e-02 }
                  - { var:28, quality:3.7178370356559753e-01,
                      le:4.7892999646137469e-06 }
                  - { var:49, quality:3.4921422600746155e-01,
                      le:5.4151904582977295e-01 }
                  - { var:48, quality:3.4893673658370972e-01,
                      le:5.3590250015258789e-01 }
            -
               depth: 1
               sample_count: 26064
               value: -4.0122689099099851e-01
               norm_class_idx: 0
               Tn: 0
               complexity: 0
               alpha: 0.
               node_risk: 0.
               tree_risk: 0.
               tree_error: 0.
            -
               depth: 1
               sample_count: 23722
               value: 4.0122689099099851e-01
               norm_class_idx: 1
               Tn: 0
               complexity: 0
               alpha: 0.
               node_risk: 0.
               tree_risk: 0.
               tree_error: 0.
      -
         best_tree_idx: -1
         nodes:
            -
               depth: 0
               sample_count: 49786
               value: -2.9053609012219317e-01
               norm_class_idx: 0
               Tn: 0
               complexity: 0
               alpha: 0.
               node_risk: 0.
               tree_risk: 0.
               tree_error: 0.
               splits:
                  - { var:24, quality:5.7212734222412109e-01,
                      le:1.6915508270263672e+01 }
                  - { var:25, quality:5.4833459854125977e-01,
                      le:3.9864716529846191e+00 }
                  - { var:26, quality:5.4810369014739990e-01,
                      le:4.3470115661621094e+00 }
                  - { var:23, quality:5.0408345460891724e-01,
                      le:1.3955458068847656e+02 }
                  - { var:27, quality:4.8790416121482849e-01,
                      le:8.9251685142517090e-01 }
                  - { var:42, quality:4.3698921799659729e-01,
                      le:6.5000000000000000e+00 }
                  - { var:37, quality:4.3698766827583313e-01,
                      le:8.5000000000000000e+00 }
                  - { var:44, quality:4.3692657351493835e-01,
                      le:5.5000000000000000e+00 }
                  - { var:41, quality:4.3691527843475342e-01,
                      le:7.5000000000000000e+00 }
                  - { var:39, quality:4.3689116835594177e-01,
                      le:8.5000000000000000e+00 }
                  - { var:38, quality:4.3682515621185303e-01,
                      le:9.5000000000000000e+00 }
                  - { var:43, quality:4.3680447340011597e-01,
                      le:5.5000000000000000e+00 }
                  - { var:40, quality:4.3679466843605042e-01,
                      le:7.5000000000000000e+00 }
                  - { var:45, quality:4.3674671649932861e-01,
                      le:4.5000000000000000e+00 }
                  - { var:36, quality:4.3667319416999817e-01,
                      le:1.0500000000000000e+01 }
                  - { var:3, quality:4.3664139509201050e-01,
                      le:1.8516841530799866e-01 }
                  - { var:46, quality:4.3663582205772400e-01,
                      le:5.5000000000000000e+00 }
                  - { var:28, quality:4.3660861253738403e-01,
                      le:2.8104949742555618e-02 }
                  - { var:29, quality:4.3650934100151062e-01,
                      le:7.6498746871948242e-02 }
                  - { var:8, quality:4.3643185496330261e-01,
                      le:8.9825296401977539e-01 }
                  - { var:19, quality:4.3637987971305847e-01,
                      le:1.2000449895858765e+00 }
                  - { var:2, quality:4.3637582659721375e-01,
                      le:4.2725056409835815e-01 }
                  - { var:14, quality:4.3637511134147644e-01,
                      le:3.1850814819335938e+02 }
                  - { var:13, quality:4.3637511134147644e-01,
                      le:3.1850814819335938e+02 }
                  - { var:11, quality:4.3637511134147644e-01,
                      le:3.1850814819335938e+02 }
            -
               depth: 1
               sample_count: 36958
               value: 2.9053609012219317e-01
               norm_class_idx: 1
               Tn: 0
               complexity: 0
               alpha: 0.
               node_risk: 0.
               tree_risk: 0.
               tree_error: 0.
            -
               depth: 1
               sample_count: 12828
               value: -2.9053609012219317e-01
               norm_class_idx: 0
               Tn: 0
               complexity: 0
               alpha: 0.
               node_risk: 0.
               tree_risk: 0.
               tree_error: 0.
      -
         best_tree_idx: -1
         nodes:
            -
               depth: 0
               sample_count: 49786
               value: -3.4475208104119182e-01
               norm_class_idx: 0
               Tn: 0
               complexity: 0
               alpha: 0.
               node_risk: 0.
               tree_risk: 0.
               tree_error: 0.
               splits:
                  - { var:10, quality:5.8534437417984009e-01,
                      le:1.4050435274839401e-03 }
                  - { var:12, quality:5.6776314973831177e-01,
                      le:2.1529922378249466e-04 }
                  - { var:17, quality:5.2101695537567139e-01,
                      le:4.9494230747222900e-01 }
                  - { var:29, quality:5.1362144947052002e-01,
                      le:8.0285612493753433e-03 }
                  - { var:18, quality:5.1301646232604980e-01,
                      le:9.1068148612976074e-01 }
                  - { var:1, quality:5.0658887624740601e-01,
                      le:5.5000000000000000e+00 }
                  - { var:33, quality:5.0003409385681152e-01,
                      le:3.5000000000000000e+00 }
                  - { var:3, quality:4.9764388799667358e-01,
                      le:7.9393377527594566e-03 }
                  - { var:6, quality:4.9730652570724487e-01,
                      le:3.3809652924537659e-01 }
                  - { var:32, quality:4.9153500795364380e-01,
                      le:1.4499902725219727e-01 }
                  - { var:31, quality:4.8993957042694092e-01,
                      le:1.1390871368348598e-02 }
                  - { var:34, quality:4.8734837770462036e-01,
                      le:2.5000000000000000e+00 }
                  - { var:5, quality:4.8282599449157715e-01,
                      le:1.1973962932825089e-01 }
                  - { var:4, quality:4.8224315047264099e-01,
                      le:1.2115012109279633e-01 }
                  - { var:20, quality:4.8129892349243164e-01,
                      le:2.3778200149536133e+00 }
                  - { var:28, quality:4.6953657269477844e-01,
                      le:4.8916926607489586e-03 }
                  - { var:35, quality:4.6877211332321167e-01,
                      le:2.5000000000000000e+00 }
                  - { var:14, quality:4.6331369876861572e-01,
                      le:1.5757736563682556e-01 }
                  - { var:11, quality:4.5477777719497681e-01,
                      le:1.1104299873113632e-01 }
                  - { var:36, quality:4.4422283768653870e-01,
                      le:1.5000000000000000e+00 }
                  - { var:37, quality:4.4037577509880066e-01,
                      le:1.5000000000000000e+00 }
                  - { var:23, quality:4.4018486142158508e-01,
                      le:3.9221576690673828e+01 }
                  - { var:19, quality:4.3945270776748657e-01,
                      le:1.2787222862243652e-01 }
                  - { var:13, quality:4.3899312615394592e-01,
                      le:9.0848747640848160e-03 }
                  - { var:38, quality:4.3481725454330444e-01,
                      le:1.5000000000000000e+00 }
                  - { var:39, quality:4.3006032705307007e-01,
                      le:1.5000000000000000e+00 }
                  - { var:21, quality:4.2999222874641418e-01,
                      le:1.4137167930603027e+00 }
                  - { var:40, quality:4.2609876394271851e-01,
                      le:1.5000000000000000e+00 }
                  - { var:24, quality:4.2459884285926819e-01,
                      le:2.4901679717004299e-03 }
                  - { var:15, quality:4.2440122365951538e-01,
                      le:5.0213723443448544e-04 }
                  - { var:22, quality:4.2265108227729797e-01,
                      le:1.2587535381317139e-01 }
                  - { var:41, quality:4.2187920212745667e-01,
                      le:1.5000000000000000e+00 }
                  - { var:42, quality:4.1521391272544861e-01,
                      le:1.5000000000000000e+00 }
                  - { var:30, quality:4.1060513257980347e-01,
                      gt:1.2965845108032227e+01 }
                  - { var:43, quality:4.0947774052619934e-01,
                      le:1.5000000000000000e+00 }
                  - { var:45, quality:3.9985936880111694e-01,
                      le:1.5000000000000000e+00 }
                  - { var:26, quality:3.9622053503990173e-01,
                      le:1.8334506750106812e+00 }
                  - { var:8, quality:3.9580971002578735e-01,
                      le:1.8311892449855804e-01 }
                  - { var:25, quality:3.8697639107704163e-01,
                      le:1.8211627006530762e+00 }
                  - { var:9, quality:3.8250643014907837e-01,
                      gt:6.1655426025390625e-01 }
                  - { var:47, quality:3.8031533360481262e-01,
                      gt:9.8751914501190186e-01 }
                  - { var:2, quality:3.7877956032752991e-01,
                      le:1.1027874425053596e-02 }
                  - { var:7, quality:3.7035009264945984e-01,
                      le:3.5402975045144558e-03 }
                  - { var:27, quality:3.5743185877799988e-01,
                      le:5.0029295682907104e-01 }
                  - { var:46, quality:3.4780761599540710e-01,
                      le:5.0000000000000000e-01 }
                  - { var:44, quality:3.4780761599540710e-01,
                      le:5.0000000000000000e-01 }
                  - { var:48, quality:3.4524983167648315e-01,
                      gt:3.6834638118743896e+00 }
                  - { var:49, quality:3.4422764182090759e-01,
                      gt:3.1141405105590820e+00 }
            -
               depth: 1
               sample_count: 30778
               value: -3.4475208104119182e-01
               norm_class_idx: 0
               Tn: 0
               complexity: 0
               alpha: 0.
               node_risk: 0.
               tree_risk: 0.
               tree_error: 0.
            -
               depth: 1
               sample_count: 19008
               value: 3.4475208104119182e-01
               norm_class_idx: 1
               Tn: 0
               complexity: 0
               alpha: 0.
               node_risk: 0.
               tree_risk: 0.
               tree_error: 0.
      -
         best_tree_idx: -1
         nodes:
            -
               depth: 0
               sample_count: 49786
               value: -2.2603708749512139e-01
               norm_class_idx: 0
               Tn: 0
               complexity: 0
               alpha: 0.
               node_risk: 0.
               tree_risk: 0.
               tree_error: 0.
               splits:
                  - { var:47, quality:5.5626988410949707e-01,
                      le:9.8806905746459961e-01 }
                  - { var:9, quality:5.1508665084838867e-01,
                      le:5.7184159755706787e-01 }
                  - { var:7, quality:4.6798959374427795e-01,
                      le:5.6242037564516068e-02 }
                  - { var:29, quality:4.6553474664688110e-01,
                      gt:-5.0000000000000000e-01 }
                  - { var:28, quality:4.2763090133666992e-01,
                      gt:-5.0000000000000000e-01 }
                  - { var:15, quality:4.1541799902915955e-01,
                      le:9.3704640865325928e-01 }
                  - { var:19, quality:4.0141212940216064e-01,
                      le:5.0169801712036133e-01 }
                  - { var:30, quality:4.0058115124702454e-01,
                      le:1.9138217926025391e+01 }
                  - { var:1, quality:3.9802485704421997e-01,
                      gt:6.5000000000000000e+00 }
                  - { var:32, quality:3.8530170917510986e-01,
                      gt:1.4699959754943848e-01 }
                  - { var:20, quality:3.8508230447769165e-01,
                      gt:3.0483269691467285e+00 }
                  - { var:48, quality:3.7727159261703491e-01,
                      le:1.8501121520996094e+01 }
                  - { var:10, quality:3.7261843681335449e-01,
                      gt:9.3289505457505584e-05 }
                  - { var:49, quality:3.7066546082496643e-01,
                      le:1.5636513710021973e+01 }
                  - { var:3, quality:3.6898148059844971e-01,
                      gt:1.5657488256692886e-03 }
                  - { var:27, quality:3.6733493208885193e-01,
                      le:9.9496364593505859e-01 }
                  - { var:24, quality:3.6676087975502014e-01,
                      le:2.3654959106445312e+02 }
                  - { var:25, quality:3.6641860008239746e-01,
                      gt:-1.2293492317199707e+01 }
                  - { var:26, quality:3.6543476581573486e-01,
                      le:1.5797027587890625e+01 }
                  - { var:23, quality:3.6482408642768860e-01,
                      le:1.0977835937500000e+04 }
                  - { var:14, quality:3.6477056145668030e-01,
                      le:2.9636822509765625e+02 }
                  - { var:13, quality:3.6477056145668030e-01,
                      le:2.9636822509765625e+02 }
                  - { var:11, quality:3.6477056145668030e-01,
                      le:2.9636822509765625e+02 }
            -
               depth: 1
               sample_count: 35622
               value: -2.2603708749512139e-01
               norm_class_idx: 0
               Tn: 0
               complexity: 0
               alpha: 0.
               node_risk: 0.
               tree_risk: 0.
               tree_error: 0.
            -
               depth: 1
               sample_count: 14164
               value: 2.2603708749512139e-01
               norm_class_idx: 1
               Tn: 0
               complexity: 0
               alpha: 0.
               node_risk: 0.
               tree_risk: 0.
               tree_error: 0.
      -
         best_tree_idx: -1
         nodes:
            -
               depth: 0
               sample_count: 49786
               value: -2.4904273402136873e-01
               norm_class_idx: 0
               Tn: 0
               complexity: 0
               alpha: 0.
               node_risk: 0.
               tree_risk: 0.
               tree_error: 0.
               splits:
                  - { var:7, quality:5.6194084882736206e-01,
                      le:2.1722581237554550e-02 }
                  - { var:9, quality:4.9196690320968628e-01,
                      le:1.2197166681289673e-01 }
                  - { var:47, quality:4.9143251776695251e-01,
                      le:9.0323579311370850e-01 }
                  - { var:8, quality:4.7959312796592712e-01,
                      le:4.3483391404151917e-02 }
                  - { var:2, quality:4.7682020068168640e-01,
                      le:1.6990512609481812e-02 }
                  - { var:4, quality:4.7461542487144470e-01,
                      le:1.1176394298672676e-02 }
                  - { var:5, quality:4.7457835078239441e-01,
                      le:1.1221454478800297e-02 }
                  - { var:6, quality:4.7435683012008667e-01,
                      le:2.4209141731262207e-02 }
                  - { var:19, quality:4.7094839811325073e-01,
                      le:2.5767299532890320e-01 }
                  - { var:30, quality:4.6544945240020752e-01,
                      le:5.0476722717285156e+00 }
                  - { var:32, quality:4.6190178394317627e-01,
                      le:4.9972534179687500e-04 }
                  - { var:46, quality:4.5922663807868958e-01,
                      le:5.0000000000000000e-01 }
                  - { var:45, quality:4.5922663807868958e-01,
                      le:5.0000000000000000e-01 }
                  - { var:44, quality:4.5922663807868958e-01,
                      le:5.0000000000000000e-01 }
                  - { var:43, quality:4.5922663807868958e-01,
                      le:5.0000000000000000e-01 }
                  - { var:42, quality:4.5922663807868958e-01,
                      le:5.0000000000000000e-01 }
                  - { var:41, quality:4.5922663807868958e-01,
                      le:5.0000000000000000e-01 }
                  - { var:40, quality:4.5922663807868958e-01,
                      le:5.0000000000000000e-01 }
                  - { var:39, quality:4.5922663807868958e-01,
                      le:5.0000000000000000e-01 }
                  - { var:38, quality:4.5922663807868958e-01,
                      le:5.0000000000000000e-01 }
                  - { var:37, quality:4.5922663807868958e-01,
                      le:5.0000000000000000e-01 }
                  - { var:36, quality:4.5922663807868958e-01,
                      le:5.0000000000000000e-01 }
                  - { var:35, quality:4.5922663807868958e-01,
                      le:5.0000000000000000e-01 }
                  - { var:34, quality:4.5922663807868958e-01,
                      le:5.0000000000000000e-01 }
                  - { var:33, quality:4.5922663807868958e-01,
                      le:5.0000000000000000e-01 }
                  - { var:26, quality:4.5922663807868958e-01,
                      le:-5.0000000000000000e-01 }
                  - { var:24, quality:4.5922663807868958e-01,
                      le:-5.0000000000000000e-01 }
                  - { var:23, quality:4.5922663807868958e-01,
                      le:-5.0000000000000000e-01 }
                  - { var:3, quality:4.5922663807868958e-01,
                      le:-5.0000000000000000e-01 }
                  - { var:1, quality:4.5922663807868958e-01,
                      le:1.5000000000000000e+00 }
                  - { var:20, quality:4.4903588294982910e-01,
                      gt:1.3034927368164062e+01 }
                  - { var:27, quality:4.4602555036544800e-01,
                      le:-9.7223806381225586e-01 }
                  - { var:13, quality:4.0602582693099976e-01,
                      le:2.7589935809373856e-02 }
                  - { var:14, quality:4.0496274828910828e-01,
                      le:6.1927303671836853e-02 }
                  - { var:11, quality:4.0423473715782166e-01,
                      le:4.7778107225894928e-02 }
                  - { var:18, quality:4.0344890952110291e-01,
                      le:1.3907450437545776e-01 }
                  - { var:25, quality:4.0209463238716125e-01,
                      le:-9.9995863437652588e-01 }
                  - { var:17, quality:4.0112158656120300e-01,
                      le:8.8450744748115540e-02 }
                  - { var:28, quality:3.9940309524536133e-01,
                      le:6.0373339802026749e-03 }
                  - { var:31, quality:3.9870166778564453e-01,
                      le:1.4664072659797966e-04 }
                  - { var:21, quality:3.9600539207458496e-01,
                      le:1.4137167930603027e+00 }
                  - { var:15, quality:3.9270642399787903e-01,
                      le:2.3141875863075256e-01 }
                  - { var:22, quality:3.8858658075332642e-01,
                      le:4.7848430275917053e-01 }
                  - { var:48, quality:3.7389421463012695e-01,
                      le:4.0016618371009827e-01 }
                  - { var:49, quality:3.7097057700157166e-01,
                      le:4.1818696260452271e-01 }
                  - { var:10, quality:3.6947292089462280e-01,
                      gt:7.3883438110351562e-01 }
                  - { var:12, quality:3.6556434631347656e-01,
                      gt:1.8346261978149414e-01 }
            -
               depth: 1
               sample_count: 19654
               value: 2.4904273402136873e-01
               norm_class_idx: 1
               Tn: 0
               complexity: 0
               alpha: 0.
               node_risk: 0.
               tree_risk: 0.
               tree_error: 0.
            -
               depth: 1
               sample_count: 30132
               value: -2.4904273402136873e-01
               norm_class_idx: 0
               Tn: 0
               complexity: 0
               alpha: 0.
               node_risk: 0.
               tree_risk: 0.
               tree_error: 0.
      -
         best_tree_idx: -1
         nodes:
            -
               depth: 0
               sample_count: 49786
               value: -2.5513987743325411e-01
               norm_class_idx: 0
               Tn: 0
               complexity: 0
               alpha: 0.
               node_risk: 0.
               tree_risk: 0.
               tree_error: 0.
               splits:
                  - { var:23, quality:5.6344121694564819e-01,
                      le:4.3129986572265625e+02 }
                  - { var:24, quality:5.1957768201828003e-01,
                      le:6.3419563293457031e+01 }
                  - { var:26, quality:5.1622098684310913e-01,
                      le:8.0186939239501953e+00 }
                  - { var:25, quality:5.1502168178558350e-01,
                      le:7.7563591003417969e+00 }
                  - { var:18, quality:5.1167988777160645e-01,
                      le:3.8371820449829102e+00 }
                  - { var:17, quality:5.1118034124374390e-01,
                      le:2.7568454742431641e+00 }
                  - { var:5, quality:5.1098138093948364e-01,
                      le:6.0359489917755127e-01 }
                  - { var:4, quality:5.1088857650756836e-01,
                      le:5.4575842618942261e-01 }
                  - { var:6, quality:5.1088804006576538e-01,
                      le:1.7504804134368896e+00 }
                  - { var:34, quality:5.1063472032546997e-01,
                      le:1.7500000000000000e+01 }
                  - { var:37, quality:5.1010042428970337e-01,
                      le:8.5000000000000000e+00 }
                  - { var:31, quality:5.0977367162704468e-01,
                      le:3.6798411607742310e-01 }
                  - { var:10, quality:5.0974887609481812e-01,
                      le:1.7382199764251709e+00 }
                  - { var:36, quality:5.0950759649276733e-01,
                      le:1.2500000000000000e+01 }
                  - { var:33, quality:5.0947332382202148e-01,
                      le:2.6500000000000000e+01 }
                  - { var:38, quality:5.0927662849426270e-01,
                      le:7.5000000000000000e+00 }
                  - { var:1, quality:5.0886809825897217e-01,
                      le:9.0500000000000000e+01 }
                  - { var:39, quality:5.0819599628448486e-01,
                      le:7.5000000000000000e+00 }
                  - { var:40, quality:5.0783658027648926e-01,
                      le:6.5000000000000000e+00 }
                  - { var:32, quality:5.0738739967346191e-01,
                      le:1.0295002460479736e+00 }
                  - { var:12, quality:5.0728440284729004e-01,
                      le:3.3215291798114777e-02 }
                  - { var:44, quality:5.0696140527725220e-01,
                      le:5.5000000000000000e+00 }
                  - { var:45, quality:5.0670003890991211e-01,
                      le:4.5000000000000000e+00 }
                  - { var:46, quality:5.0641149282455444e-01,
                      le:5.5000000000000000e+00 }
                  - { var:41, quality:5.0637561082839966e-01,
                      le:9.5000000000000000e+00 }
                  - { var:49, quality:5.0575888156890869e-01,
                      gt:-3.0000001192092896e-01 }
                  - { var:35, quality:5.0519394874572754e-01,
                      le:3.6500000000000000e+01 }
                  - { var:43, quality:5.0518852472305298e-01,
                      le:1.2500000000000000e+01 }
                  - { var:8, quality:5.0515437126159668e-01,
                      le:5.8223903179168701e-01 }
                  - { var:42, quality:5.0485098361968994e-01,
                      le:1.9500000000000000e+01 }
                  - { var:14, quality:5.0449854135513306e-01,
                      le:5.3703231811523438e+01 }
                  - { var:13, quality:5.0449812412261963e-01,
                      le:5.2918972015380859e+01 }
                  - { var:11, quality:5.0447678565979004e-01,
                      le:5.2920860290527344e+01 }
            -
               depth: 1
               sample_count: 41496
               value: 2.5513987743325411e-01
               norm_class_idx: 1
               Tn: 0
               complexity: 0
               alpha: 0.
               node_risk: 0.
               tree_risk: 0.
               tree_error: 0.
            -
               depth: 1
               sample_count: 8290
               value: -2.5513987743325411e-01
               norm_class_idx: 0
               Tn: 0
               complexity: 0
               alpha: 0.
               node_risk: 0.
               tree_risk: 0.
               tree_error: 0.
      -
         best_tree_idx: -1
         nodes:
            -
               depth: 0
               sample_count: 49786
               value: -2.6119059302197412e-01
               norm_class_idx: 0
               Tn: 0
               complexity: 0
               alpha: 0.
               node_risk: 0.
               tree_risk: 0.
               tree_error: 0.
               splits:
                  - { var:31, quality:5.6492894887924194e-01,
                      le:1.4383107423782349e-02 }
                  - { var:17, quality:5.0367456674575806e-01,
                      le:4.8395717144012451e-01 }
                  - { var:18, quality:4.9683457612991333e-01,
                      le:8.1635153293609619e-01 }
                  - { var:6, quality:4.8204582929611206e-01,
                      le:3.7663227319717407e-01 }
                  - { var:29, quality:4.8044416308403015e-01,
                      le:1.1045115068554878e-02 }
                  - { var:5, quality:4.7790387272834778e-01,
                      le:1.4689049124717712e-01 }
                  - { var:32, quality:4.7614762187004089e-01,
                      le:1.8599939346313477e-01 }
                  - { var:4, quality:4.7545483708381653e-01,
                      le:1.4221809804439545e-01 }
                  - { var:10, quality:4.7020649909973145e-01,
                      le:1.5100331511348486e-03 }
                  - { var:33, quality:4.6777588129043579e-01,
                      le:3.5000000000000000e+00 }
                  - { var:34, quality:4.6547228097915649e-01,
                      le:2.5000000000000000e+00 }
                  - { var:12, quality:4.6545201539993286e-01,
                      le:9.1986767074558884e-05 }
                  - { var:3, quality:4.6380224823951721e-01,
                      le:1.8675707280635834e-02 }
                  - { var:35, quality:4.5737099647521973e-01,
                      le:2.5000000000000000e+00 }
                  - { var:28, quality:4.5521268248558044e-01,
                      le:7.4666785076260567e-03 }
                  - { var:1, quality:4.5081987977027893e-01,
                      le:5.5000000000000000e+00 }
                  - { var:14, quality:4.4051107764244080e-01,
                      le:2.2847275435924530e-01 }
                  - { var:11, quality:4.3755480647087097e-01,
                      le:1.5921741724014282e-01 }
                  - { var:37, quality:4.3622589111328125e-01,
                      le:1.5000000000000000e+00 }
                  - { var:38, quality:4.3480730056762695e-01,
                      le:1.5000000000000000e+00 }
                  - { var:36, quality:4.3469950556755066e-01,
                      le:1.5000000000000000e+00 }
                  - { var:39, quality:4.3234372138977051e-01,
                      le:1.5000000000000000e+00 }
                  - { var:40, quality:4.3019139766693115e-01,
                      le:1.5000000000000000e+00 }
                  - { var:41, quality:4.2767184972763062e-01,
                      le:1.5000000000000000e+00 }
                  - { var:42, quality:4.2560264468193054e-01,
                      le:1.5000000000000000e+00 }
                  - { var:43, quality:4.2230045795440674e-01,
                      le:1.5000000000000000e+00 }
                  - { var:23, quality:4.2077583074569702e-01,
                      le:4.4387119293212891e+01 }
                  - { var:13, quality:4.1833952069282532e-01,
                      le:1.1534170806407928e-01 }
                  - { var:45, quality:4.1652265191078186e-01,
                      le:1.5000000000000000e+00 }
                  - { var:20, quality:4.1402271389961243e-01,
                      le:2.3766689300537109e+00 }
                  - { var:8, quality:4.1396906971931458e-01,
                      le:1.8325737118721008e-01 }
                  - { var:19, quality:3.9627504348754883e-01,
                      le:1.3798274099826813e-01 }
                  - { var:26, quality:3.9524656534194946e-01,
                      le:1.8362510204315186e+00 }
                  - { var:25, quality:3.8780483603477478e-01,
                      le:1.8230978250503540e+00 }
                  - { var:24, quality:3.8669243454933167e-01,
                      le:3.3628134727478027e+00 }
                  - { var:21, quality:3.8409903645515442e-01,
                      le:7.5206208229064941e-01 }
                  - { var:15, quality:3.7971669435501099e-01,
                      le:1.0029739700257778e-02 }
                  - { var:22, quality:3.7502157688140869e-01,
                      le:1.2587535381317139e-01 }
                  - { var:2, quality:3.7205970287322998e-01,
                      le:3.5010874271392822e-02 }
                  - { var:46, quality:3.7203240394592285e-01,
                      le:3.5000000000000000e+00 }
                  - { var:44, quality:3.6631730198860168e-01,
                      le:5.5000000000000000e+00 }
                  - { var:30, quality:3.6497372388839722e-01,
                      gt:1.0111509323120117e+01 }
                  - { var:27, quality:3.6241734027862549e-01,
                      gt:-3.9528663635253906e+01 }
                  - { var:49, quality:3.6208766698837280e-01,
                      gt:4.0087515115737915e-01 }
            -
               depth: 1
               sample_count: 33589
               value: -2.6119059302197412e-01
               norm_class_idx: 0
               Tn: 0
               complexity: 0
               alpha: 0.
               node_risk: 0.
               tree_risk: 0.
               tree_error: 0.
            -
               depth: 1
               sample_count: 16197
               value: 2.6119059302197412e-01
               norm_class_idx: 1
               Tn: 0
               complexity: 0
               alpha: 0.
               node_risk: 0.
               tree_risk: 0.
               tree_error: 0.
      -
         best_tree_idx: -1
         nodes:
            -
               depth: 0
               sample_count: 49786
               value: -2.2827578148122757e-01
               norm_class_idx: 0
               Tn: 0
               complexity: 0
               alpha: 0.
               node_risk: 0.
               tree_risk: 0.
               tree_error: 0.
               splits:
                  - { var:5, quality:5.5682241916656494e-01,
                      le:2.0219272375106812e-01 }
                  - { var:4, quality:5.4895889759063721e-01,
                      le:2.0014771819114685e-01 }
                  - { var:6, quality:5.3165376186370850e-01,
                      le:5.8643299341201782e-01 }
                  - { var:18, quality:5.2829587459564209e-01,
                      le:1.3393154144287109e+00 }
                  - { var:17, quality:5.2076750993728638e-01,
                      le:7.9926484823226929e-01 }
                  - { var:32, quality:5.0372159481048584e-01,
                      le:3.8299965858459473e-01 }
                  - { var:29, quality:4.8865279555320740e-01,
                      le:2.3661011829972267e-02 }
                  - { var:31, quality:4.8771017789840698e-01,
                      le:5.2281022071838379e-02 }
                  - { var:14, quality:4.8601683974266052e-01,
                      le:3.6036023497581482e-01 }
                  - { var:10, quality:4.8584806919097900e-01,
                      le:2.3558445274829865e-02 }
                  - { var:12, quality:4.8469907045364380e-01,
                      le:1.8729425501078367e-03 }
                  - { var:28, quality:4.7625657916069031e-01,
                      le:1.4027245342731476e-02 }
                  - { var:8, quality:4.7266659140586853e-01,
                      le:2.2429463267326355e-01 }
                  - { var:34, quality:4.7228777408599854e-01,
                      le:5.5000000000000000e+00 }
                  - { var:11, quality:4.6823289990425110e-01,
                      le:2.9312378168106079e-01 }
                  - { var:33, quality:4.6700850129127502e-01,
                      le:6.5000000000000000e+00 }
                  - { var:38, quality:4.6464243531227112e-01,
                      le:2.5000000000000000e+00 }
                  - { var:37, quality:4.6293142437934875e-01,
                      le:2.5000000000000000e+00 }
                  - { var:40, quality:4.6100008487701416e-01,
                      le:2.5000000000000000e+00 }
                  - { var:41, quality:4.5839422941207886e-01,
                      le:2.5000000000000000e+00 }
                  - { var:1, quality:4.5833504199981689e-01,
                      le:1.3500000000000000e+01 }
                  - { var:36, quality:4.5747324824333191e-01,
                      le:2.5000000000000000e+00 }
                  - { var:42, quality:4.5492538809776306e-01,
                      le:2.5000000000000000e+00 }
                  - { var:39, quality:4.5251977443695068e-01,
                      le:3.5000000000000000e+00 }
                  - { var:3, quality:4.5224317908287048e-01,
                      le:4.4870018959045410e-02 }
                  - { var:43, quality:4.5170727372169495e-01,
                      le:2.5000000000000000e+00 }
                  - { var:45, quality:4.5144471526145935e-01,
                      le:1.5000000000000000e+00 }
                  - { var:35, quality:4.4754248857498169e-01,
                      le:2.5000000000000000e+00 }
                  - { var:46, quality:4.4244474172592163e-01,
                      le:2.5000000000000000e+00 }
                  - { var:23, quality:4.3762516975402832e-01,
                      le:4.8875872802734375e+02 }
                  - { var:13, quality:4.2978730797767639e-01,
                      le:2.8388568758964539e-01 }
                  - { var:19, quality:4.1794365644454956e-01,
