%YAML:1.0
detector_type: adaboost
used_feature_dimensions:
   - "Throw a coin."
   - "Number of laser end points."
   - "Mean of difference in range of consecutive beams."
   - "Variance of difference in range of consecutive beams."
   - "Variance from center of gravity."
   - "Mean average deviation from median."
   - "Width."
   - "Min distance between points."
   - "Max distance between points."
   - "Ratio between min and max distance between points."
   - "Circularity."
   - "Radius of fitted circle."
   - "Variance of distance from points to center of circle."
   - "Minimal difference to radius."
   - "Maximal difference to radius."
   - "Ratio between min and max difference."
   - "Area of rectangles to fitted circle center."
   - "Boundary length."
   - "Perimeter."
   - "Contour regularity."
   - "Mean curvature."
   - "Mean angular difference."
   - "Aspect ratio."
   - "Linearity."
   - "Linearity mean error."
   - "Linearity min error."
   - "Linearity max error."
   - "Linearity ratio of min and max error."
   - "Error of fitted quadratic b-spline."
   - "Error of fitted cubic b-spline."
   - "Distance."
   - "Polygon Area."
   - "Difference of longest and shortest beam."
   - "Number of local minima (noise 0.01)."
   - "Number of local minima (noise 0.02)."
   - "Number of local minima (noise 0.03)."
   - "Number of local minima (noise 0.04)."
   - "Number of local minima (noise 0.05)."
   - "Number of local minima (noise 0.06)."
   - "Number of local minima (noise 0.07)."
   - "Number of local minima (noise 0.08)."
   - "Number of local minima (noise 0.09)."
   - "Number of local minima (noise 0.10)."
   - "Number of local minima (noise 0.11)."
   - "Number of local minima (noise 0.12)."
   - "Number of local minima (noise 0.13)."
   - "Number of local minima (noise 0.14)."
   - "Ratio between shortest and longest beam."
   - "Jump distance to previous segment."
   - "Jump distance to next segment."
classifier: !!opencv-ml-boost-tree
   boosting_type: DiscreteAdaboost
   splitting_criteria: 3
   ntrees: 250
   weight_trimming_rate: 1.
   is_classifier: 1
   var_all: 50
   var_count: 50
   ord_var_count: 50
   cat_var_count: 0
   training_params:
      use_surrogates: 1
      max_categories: 10
      max_depth: 1
      min_sample_count: 10
      cross_validation_folds: 0
      priors: !!opencv-matrix
         rows: 1
         cols: 2
         dt: d
         data: [ 1., 1. ]
   var_type: [ 0, 0, 0, 0, 0, 0, 0, 0, 0, 0, 0, 0, 0, 0, 0, 0, 0, 0, 0,
       0, 0, 0, 0, 0, 0, 0, 0, 0, 0, 0, 0, 0, 0, 0, 0, 0, 0, 0, 0, 0, 0,
       0, 0, 0, 0, 0, 0, 0, 0, 0 ]
   cat_count: !!opencv-matrix
      rows: 1
      cols: 1
      dt: i
      data: [ 2 ]
   cat_map: !!opencv-matrix
      rows: 1
      cols: 2
      dt: i
      data: [ 0, 1 ]
   trees:
      -
         best_tree_idx: -1
         nodes:
            -
               depth: 0
               sample_count: 95735
               value: -2.0108782994538985e+00
               norm_class_idx: 0
               Tn: 0
               complexity: 0
               alpha: 0.
               node_risk: 0.
               tree_risk: 0.
               tree_error: 0.
               splits:
                  - { var:24, quality:8.8193452358245850e-01,
                      le:1.1240603923797607e+00 }
                  - { var:23, quality:8.6014753580093384e-01,
                      le:1.1380485534667969e+01 }
                  - { var:29, quality:8.1427973508834839e-01,
                      le:5.4221763275563717e-04 }
                  - { var:28, quality:8.1427055597305298e-01,
                      le:3.4169317223131657e-04 }
                  - { var:32, quality:8.1426137685775757e-01,
                      le:9.9992752075195312e-04 }
                  - { var:30, quality:8.1426137685775757e-01,
                      le:1.8068063259124756e-01 }
                  - { var:22, quality:8.1426137685775757e-01,
                      gt:9.9999940395355225e-01 }
                  - { var:21, quality:8.1426137685775757e-01,
                      le:1.5693770255893469e-03 }
                  - { var:20, quality:8.1426137685775757e-01,
                      gt:3.4290148437500000e+04 }
                  - { var:19, quality:8.1426137685775757e-01,
                      le:3.5047266632318497e-02 }
                  - { var:18, quality:8.1426137685775757e-01,
                      le:1.1405672878026962e-02 }
                  - { var:17, quality:8.1426137685775757e-01,
                      le:6.8601411767303944e-03 }
                  - { var:15, quality:8.1426137685775757e-01,
                      le:6.9565471494570374e-04 }
                  - { var:14, quality:8.1426137685775757e-01,
                      le:2.3829485289752483e-03 }
                  - { var:13, quality:8.1426137685775757e-01,
                      le:4.4836076995125040e-05 }
                  - { var:9, quality:8.1426137685775757e-01,
                      le:2.6154544204473495e-02 }
                  - { var:8, quality:8.1426137685775757e-01,
                      le:1.7420019721612334e-03 }
                  - { var:6, quality:8.1426137685775757e-01,
                      le:3.6432365886867046e-03 }
                  - { var:5, quality:8.1426137685775757e-01,
                      le:1.7315418226644397e-03 }
                  - { var:4, quality:8.1426137685775757e-01,
                      le:1.6568198334425688e-03 }
                  - { var:2, quality:8.1426137685775757e-01,
                      le:3.9999483851715922e-04 }
                  - { var:7, quality:8.1425213813781738e-01,
                      le:8.5635681170970201e-04 }
                  - { var:3, quality:8.1425213813781738e-01,
                      le:2.4998188018798828e-04 }
                  - { var:47, quality:8.1422454118728638e-01,
                      le:2.5341007858514786e-02 }
                  - { var:49, quality:8.0847603082656860e-01,
                      gt:1.3065118789672852e+01 }
                  - { var:11, quality:8.0380547046661377e-01,
                      le:1.7631936352699995e-03 }
                  - { var:48, quality:8.0375939607620239e-01,
                      gt:1.3111118316650391e+01 }
                  - { var:27, quality:8.0357515811920166e-01,
                      le:-5.8058102149516344e-04 }
                  - { var:12, quality:7.9604876041412354e-01,
                      gt:1.1531488597393036e-01 }
                  - { var:10, quality:7.9349690675735474e-01,
                      gt:5.1848106384277344e+01 }
            -
               depth: 1
               sample_count: 9672
               value: 2.0108782994538985e+00
               norm_class_idx: 1
               Tn: 0
               complexity: 0
               alpha: 0.
               node_risk: 0.
               tree_risk: 0.
               tree_error: 0.
            -
               depth: 1
               sample_count: 86063
               value: -2.0108782994538985e+00
               norm_class_idx: 0
               Tn: 0
               complexity: 0
               alpha: 0.
               node_risk: 0.
               tree_risk: 0.
               tree_error: 0.
      -
         best_tree_idx: -1
         nodes:
            -
               depth: 0
               sample_count: 95735
               value: -8.4505254582866696e-01
               norm_class_idx: 0
               Tn: 0
               complexity: 0
               alpha: 0.
               node_risk: 0.
               tree_risk: 0.
               tree_error: 0.
               splits:
                  - { var:31, quality:6.9952827692031860e-01,
                      le:1.7656465992331505e-02 }
                  - { var:17, quality:5.6808227300643921e-01,
                      le:4.8625594377517700e-01 }
                  - { var:18, quality:5.6182599067687988e-01,
                      le:8.0710667371749878e-01 }
                  - { var:5, quality:5.5189096927642822e-01,
                      le:1.1498516798019409e-01 }
                  - { var:4, quality:5.5055636167526245e-01,
                      le:1.1037981510162354e-01 }
                  - { var:6, quality:5.4868865013122559e-01,
                      le:3.3609277009963989e-01 }
                  - { var:33, quality:5.3205645084381104e-01,
                      le:4.5000000000000000e+00 }
                  - { var:32, quality:5.2894699573516846e-01,
                      le:1.6050004959106445e-01 }
                  - { var:14, quality:5.2864950895309448e-01,
                      le:1.8022698163986206e-01 }
                  - { var:13, quality:5.2249956130981445e-01,
                      le:1.0876034200191498e-01 }
                  - { var:34, quality:5.1991850137710571e-01,
                      le:2.5000000000000000e+00 }
                  - { var:1, quality:5.1607161760330200e-01,
                      le:1.2500000000000000e+01 }
                  - { var:35, quality:5.0906080007553101e-01,
                      le:2.5000000000000000e+00 }
                  - { var:11, quality:4.9993696808815002e-01,
                      le:1.4758628606796265e-01 }
                  - { var:29, quality:4.9779713153839111e-01,
                      le:1.1867329478263855e-02 }
                  - { var:37, quality:4.9057585000991821e-01,
                      le:1.5000000000000000e+00 }
                  - { var:8, quality:4.8331990838050842e-01,
                      le:7.0148363709449768e-02 }
                  - { var:38, quality:4.7926342487335205e-01,
                      le:1.5000000000000000e+00 }
                  - { var:3, quality:4.7673049569129944e-01,
                      le:1.6745530068874359e-02 }
                  - { var:28, quality:4.7533038258552551e-01,
                      le:6.8169804289937019e-03 }
                  - { var:10, quality:4.7468325495719910e-01,
                      le:2.3208009079098701e-03 }
                  - { var:15, quality:4.5593008399009705e-01,
                      le:4.3972700834274292e-01 }
                  - { var:22, quality:4.5503664016723633e-01,
                      gt:9.7118902206420898e-01 }
                  - { var:2, quality:4.4745424389839172e-01,
                      le:1.4503897167742252e-02 }
                  - { var:41, quality:4.4666710495948792e-01,
                      le:1.5000000000000000e+00 }
                  - { var:30, quality:4.4460725784301758e-01,
                      le:1.0563182830810547e+00 }
                  - { var:7, quality:4.4253319501876831e-01,
                      le:5.5009638890624046e-03 }
                  - { var:23, quality:4.3764460086822510e-01,
                      le:3.4252834320068359e+01 }
                  - { var:19, quality:4.3741434812545776e-01,
                      le:1.7277209460735321e-01 }
                  - { var:20, quality:4.3721505999565125e-01,
                      gt:5.3703636169433594e+01 }
                  - { var:42, quality:4.3707284331321716e-01,
                      le:1.5000000000000000e+00 }
                  - { var:12, quality:4.3638497591018677e-01,
                      le:4.6188087435439229e-04 }
                  - { var:43, quality:4.2829388380050659e-01,
                      le:1.5000000000000000e+00 }
                  - { var:24, quality:4.1998517513275146e-01,
                      le:1.1216940879821777e+00 }
                  - { var:40, quality:4.1521963477134705e-01,
                      le:2.5000000000000000e+00 }
                  - { var:27, quality:4.1269356012344360e-01,
                      gt:9.3474054336547852e-01 }
                  - { var:25, quality:4.1066208481788635e-01,
                      gt:-1.2805621623992920e+00 }
                  - { var:21, quality:4.0929439663887024e-01,
                      le:2.1125473082065582e-01 }
                  - { var:39, quality:4.0376925468444824e-01,
                      le:3.5000000000000000e+00 }
                  - { var:36, quality:3.9871001243591309e-01,
                      le:7.5000000000000000e+00 }
                  - { var:26, quality:3.9724826812744141e-01,
                      le:1.3477222919464111e+00 }
                  - { var:9, quality:3.9415785670280457e-01,
                      le:5.3809538483619690e-02 }
                  - { var:44, quality:3.9212918281555176e-01,
                      le:2.5000000000000000e+00 }
                  - { var:47, quality:3.9204025268554688e-01,
                      le:2.5341007858514786e-02 }
                  - { var:46, quality:3.8022682070732117e-01,
                      le:5.5000000000000000e+00 }
                  - { var:45, quality:3.7995341420173645e-01,
                      le:8.5000000000000000e+00 }
            -
               depth: 1
               sample_count: 53822
               value: -8.4505254582866696e-01
               norm_class_idx: 0
               Tn: 0
               complexity: 0
               alpha: 0.
               node_risk: 0.
               tree_risk: 0.
               tree_error: 0.
            -
               depth: 1
               sample_count: 41913
               value: 8.4505254582866696e-01
               norm_class_idx: 1
               Tn: 0
               complexity: 0
               alpha: 0.
               node_risk: 0.
               tree_risk: 0.
               tree_error: 0.
      -
         best_tree_idx: -1
         nodes:
            -
               depth: 0
               sample_count: 95735
               value: -6.9822947813924141e-01
               norm_class_idx: 0
               Tn: 0
               complexity: 0
               alpha: 0.
               node_risk: 0.
               tree_risk: 0.
               tree_error: 0.
               splits:
                  - { var:27, quality:6.6779512166976929e-01,
                      le:-1.1417964935302734e+01 }
                  - { var:6, quality:6.6707903146743774e-01,
                      gt:7.7912092208862305e+00 }
                  - { var:32, quality:6.6707241535186768e-01,
                      gt:8.0235004425048828e+00 }
                  - { var:18, quality:6.6707241535186768e-01,
                      gt:1.7108024597167969e+01 }
                  - { var:8, quality:6.6707241535186768e-01,
                      gt:8.0085020065307617e+00 }
            -
               depth: 1
               sample_count: 108
               value: 6.9822947813924141e-01
               norm_class_idx: 1
               Tn: 0
               complexity: 0
               alpha: 0.
               node_risk: 0.
               tree_risk: 0.
               tree_error: 0.
            -
               depth: 1
               sample_count: 95627
               value: -6.9822947813924141e-01
               norm_class_idx: 0
               Tn: 0
               complexity: 0
               alpha: 0.
               node_risk: 0.
               tree_risk: 0.
               tree_error: 0.
      -
         best_tree_idx: -1
         nodes:
            -
               depth: 0
               sample_count: 95735
               value: -7.8213885778348691e-01
               norm_class_idx: 0
               Tn: 0
               complexity: 0
               alpha: 0.
               node_risk: 0.
               tree_risk: 0.
               tree_error: 0.
               splits:
                  - { var:14, quality:6.8614089488983154e-01,
                      le:4.0279275178909302e-01 }
                  - { var:11, quality:6.5801090002059937e-01,
                      le:3.5482728481292725e-01 }
                  - { var:6, quality:6.4721530675888062e-01,
                      le:6.9403594732284546e-01 }
                  - { var:4, quality:6.4369177818298340e-01,
                      le:2.2471627593040466e-01 }
                  - { var:5, quality:6.4150631427764893e-01,
                      le:2.3090210556983948e-01 }
                  - { var:13, quality:6.4124232530593872e-01,
                      le:3.0330106616020203e-01 }
                  - { var:18, quality:6.3470047712326050e-01,
                      le:1.7397384643554688e+00 }
                  - { var:17, quality:6.2227010726928711e-01,
                      le:1.0796672105789185e+00 }
                  - { var:32, quality:6.2215125560760498e-01,
                      le:4.5999932289123535e-01 }
                  - { var:22, quality:6.1993324756622314e-01,
                      gt:8.7206077575683594e-01 }
                  - { var:31, quality:5.8752155303955078e-01,
                      le:8.5545510053634644e-02 }
                  - { var:34, quality:5.8111768960952759e-01,
                      le:8.5000000000000000e+00 }
                  - { var:33, quality:5.7890069484710693e-01,
                      le:1.2500000000000000e+01 }
                  - { var:23, quality:5.7618308067321777e-01,
                      le:4.8825131225585938e+02 }
                  - { var:35, quality:5.7317984104156494e-01,
                      le:6.5000000000000000e+00 }
                  - { var:36, quality:5.6701248884201050e-01,
                      le:5.5000000000000000e+00 }
                  - { var:1, quality:5.6437736749649048e-01,
                      le:4.9500000000000000e+01 }
                  - { var:10, quality:5.6180125474929810e-01,
                      le:1.6736286878585815e-01 }
                  - { var:37, quality:5.6080764532089233e-01,
                      le:4.5000000000000000e+00 }
                  - { var:38, quality:5.5918538570404053e-01,
                      le:4.5000000000000000e+00 }
                  - { var:39, quality:5.5536925792694092e-01,
                      le:4.5000000000000000e+00 }
                  - { var:15, quality:5.5296528339385986e-01,
                      le:9.3825864791870117e-01 }
                  - { var:40, quality:5.5176085233688354e-01,
                      le:3.5000000000000000e+00 }
                  - { var:29, quality:5.4946273565292358e-01,
                      le:2.8219129890203476e-02 }
                  - { var:20, quality:5.4742550849914551e-01,
                      gt:3.3564853668212891e+00 }
                  - { var:12, quality:5.4557067155838013e-01,
                      le:6.7798811942338943e-03 }
                  - { var:43, quality:5.4151260852813721e-01,
                      le:2.5000000000000000e+00 }
                  - { var:42, quality:5.4091781377792358e-01,
                      le:2.5000000000000000e+00 }
                  - { var:28, quality:5.4040855169296265e-01,
                      le:1.6483623534440994e-02 }
                  - { var:45, quality:5.3915232419967651e-01,
                      le:3.5000000000000000e+00 }
                  - { var:44, quality:5.3810608386993408e-01,
                      le:4.5000000000000000e+00 }
                  - { var:2, quality:5.3662854433059692e-01,
                      le:8.1105574965476990e-02 }
                  - { var:19, quality:5.3613281250000000e-01,
                      le:4.8709702491760254e-01 }
                  - { var:7, quality:5.3565663099288940e-01,
                      le:6.0020811855792999e-02 }
                  - { var:25, quality:5.3522855043411255e-01,
                      gt:-4.2716927528381348e+00 }
                  - { var:8, quality:5.3215563297271729e-01,
                      le:1.9650393724441528e-01 }
                  - { var:26, quality:5.3198736906051636e-01,
                      le:9.1389560699462891e+00 }
                  - { var:27, quality:5.3197187185287476e-01,
                      gt:-9.3277366638183594e+01 }
                  - { var:3, quality:5.3190666437149048e-01,
                      le:2.0787519216537476e-01 }
                  - { var:9, quality:5.3186720609664917e-01,
                      le:9.7093498706817627e-01 }
            -
               depth: 1
               sample_count: 61849
               value: 7.8213885778348691e-01
               norm_class_idx: 1
               Tn: 0
               complexity: 0
               alpha: 0.
               node_risk: 0.
               tree_risk: 0.
               tree_error: 0.
            -
               depth: 1
               sample_count: 33886
               value: -7.8213885778348691e-01
               norm_class_idx: 0
               Tn: 0
               complexity: 0
               alpha: 0.
               node_risk: 0.
               tree_risk: 0.
               tree_error: 0.
      -
         best_tree_idx: -1
         nodes:
            -
               depth: 0
               sample_count: 95735
               value: -5.7244227417963722e-01
               norm_class_idx: 0
               Tn: 0
               complexity: 0
               alpha: 0.
               node_risk: 0.
               tree_risk: 0.
               tree_error: 0.
               splits:
                  - { var:1, quality:6.3932651281356812e-01,
                      le:1.1500000000000000e+01 }
                  - { var:18, quality:4.9597927927970886e-01,
                      le:7.6492655277252197e-01 }
                  - { var:17, quality:4.9565830826759338e-01,
                      le:4.3381744623184204e-01 }
                  - { var:33, quality:4.8948943614959717e-01,
                      le:4.5000000000000000e+00 }
                  - { var:6, quality:4.8909151554107666e-01,
                      le:3.0238741636276245e-01 }
                  - { var:4, quality:4.7881764173507690e-01,
                      le:1.0357732325792313e-01 }
                  - { var:14, quality:4.7827839851379395e-01,
                      le:1.7443829774856567e-01 }
                  - { var:5, quality:4.7763720154762268e-01,
                      le:1.0273990035057068e-01 }
                  - { var:10, quality:4.7316664457321167e-01,
                      le:3.0880111735314131e-03 }
                  - { var:31, quality:4.6951845288276672e-01,
                      le:7.0728510618209839e-03 }
                  - { var:32, quality:4.5793876051902771e-01,
                      le:9.9999666213989258e-02 }
                  - { var:11, quality:4.5084387063980103e-01,
                      le:1.1299294233322144e-01 }
                  - { var:29, quality:4.4853341579437256e-01,
                      le:6.2730922363698483e-03 }
                  - { var:19, quality:4.4649401307106018e-01,
                      gt:3.4833827614784241e-01 }
                  - { var:30, quality:4.4258031249046326e-01,
                      le:4.6490299701690674e-01 }
                  - { var:22, quality:4.3875312805175781e-01,
                      gt:9.8997783660888672e-01 }
                  - { var:7, quality:4.3868407607078552e-01,
                      le:3.5416283644735813e-03 }
                  - { var:13, quality:4.3780505657196045e-01,
                      le:1.0662660002708435e-02 }
                  - { var:28, quality:4.3667164444923401e-01,
                      le:2.7549476362764835e-03 }
                  - { var:27, quality:4.3550866842269897e-01,
                      gt:9.6770119667053223e-01 }
                  - { var:8, quality:4.3388172984123230e-01,
                      le:2.4099767208099365e-02 }
                  - { var:23, quality:4.3321862816810608e-01,
                      le:1.7256626129150391e+01 }
                  - { var:21, quality:4.3134078383445740e-01,
                      gt:9.7228533029556274e-01 }
                  - { var:20, quality:4.3043273687362671e-01,
                      gt:8.2441146850585938e+01 }
                  - { var:3, quality:4.3016374111175537e-01,
                      le:6.6876499913632870e-03 }
                  - { var:47, quality:4.2945665121078491e-01,
                      gt:9.8007380962371826e-01 }
                  - { var:35, quality:4.2475172877311707e-01,
                      le:1.5000000000000000e+00 }
                  - { var:2, quality:4.2281383275985718e-01,
                      le:7.6261069625616074e-03 }
                  - { var:12, quality:4.2247608304023743e-01,
                      le:4.6188087435439229e-04 }
                  - { var:24, quality:4.1773229837417603e-01,
                      le:1.1257809400558472e+00 }
                  - { var:9, quality:4.0777212381362915e-01,
                      gt:5.5589985847473145e-01 }
                  - { var:15, quality:4.0625533461570740e-01,
                      le:6.9565471494570374e-04 }
                  - { var:36, quality:4.0364599227905273e-01,
                      le:1.5000000000000000e+00 }
                  - { var:25, quality:3.9682143926620483e-01,
                      gt:5.5577845573425293e+00 }
                  - { var:26, quality:3.9441820979118347e-01,
                      gt:7.7597279548645020e+00 }
                  - { var:49, quality:3.9256420731544495e-01,
                      gt:3.2222999572753906e+01 }
                  - { var:48, quality:3.9180421829223633e-01,
                      gt:3.7308532714843750e+01 }
            -
               depth: 1
               sample_count: 43126
               value: -5.7244227417963722e-01
               norm_class_idx: 0
               Tn: 0
               complexity: 0
               alpha: 0.
               node_risk: 0.
               tree_risk: 0.
               tree_error: 0.
            -
               depth: 1
               sample_count: 52609
               value: 5.7244227417963722e-01
               norm_class_idx: 1
               Tn: 0
               complexity: 0
               alpha: 0.
               node_risk: 0.
               tree_risk: 0.
               tree_error: 0.
      -
         best_tree_idx: -1
         nodes:
            -
               depth: 0
               sample_count: 95735
               value: -6.7929043706198244e-01
               norm_class_idx: 0
               Tn: 0
               complexity: 0
               alpha: 0.
               node_risk: 0.
               tree_risk: 0.
               tree_error: 0.
               splits:
                  - { var:30, quality:6.6358029842376709e-01,
                      le:1.2884817123413086e+01 }
                  - { var:25, quality:6.6025787591934204e-01,
                      le:1.3384044647216797e+01 }
                  - { var:24, quality:6.6025787591934204e-01,
                      le:1.8052676391601562e+02 }
                  - { var:26, quality:6.6025525331497192e-01,
                      le:1.3493407249450684e+01 }
            -
               depth: 1
               sample_count: 95400
               value: -6.7929043706198244e-01
               norm_class_idx: 0
               Tn: 0
               complexity: 0
               alpha: 0.
               node_risk: 0.
               tree_risk: 0.
               tree_error: 0.
            -
               depth: 1
               sample_count: 335
               value: 6.7929043706198244e-01
               norm_class_idx: 1
               Tn: 0
               complexity: 0
               alpha: 0.
               node_risk: 0.
               tree_risk: 0.
               tree_error: 0.
      -
         best_tree_idx: -1
         nodes:
            -
               depth: 0
               sample_count: 95735
               value: -6.3431833553599737e-01
               norm_class_idx: 0
               Tn: 0
               complexity: 0
               alpha: 0.
               node_risk: 0.
               tree_risk: 0.
               tree_error: 0.
               splits:
                  - { var:23, quality:6.5346801280975342e-01,
                      le:2.4417480468750000e+02 }
                  - { var:24, quality:5.6623870134353638e-01,
                      le:1.8911853790283203e+01 }
                  - { var:26, quality:5.4986852407455444e-01,
                      le:4.6215324401855469e+00 }
                  - { var:25, quality:5.4507577419281006e-01,
                      le:4.2951397895812988e+00 }
                  - { var:6, quality:5.3038895130157471e-01,
                      le:7.0057344436645508e-01 }
                  - { var:4, quality:5.2829027175903320e-01,
                      le:2.2809922695159912e-01 }
                  - { var:5, quality:5.2776682376861572e-01,
                      le:2.3046591877937317e-01 }
                  - { var:18, quality:5.2742445468902588e-01,
                      le:1.8299067020416260e+00 }
                  - { var:14, quality:5.2456450462341309e-01,
                      le:5.2527707815170288e-01 }
                  - { var:17, quality:5.2298206090927124e-01,
                      le:1.1443542242050171e+00 }
                  - { var:22, quality:5.1831895112991333e-01,
                      gt:8.5813724994659424e-01 }
                  - { var:11, quality:5.1404774188995361e-01,
                      le:5.1874899864196777e-01 }
                  - { var:32, quality:5.1298671960830688e-01,
                      le:5.3949999809265137e-01 }
                  - { var:13, quality:5.1164019107818604e-01,
                      le:4.6287405490875244e-01 }
                  - { var:31, quality:5.1102876663208008e-01,
                      le:8.8541932404041290e-02 }
                  - { var:33, quality:5.0908702611923218e-01,
                      le:1.4500000000000000e+01 }
                  - { var:1, quality:5.0695478916168213e-01,
                      le:4.9500000000000000e+01 }
                  - { var:35, quality:5.0187915563583374e-01,
                      le:8.5000000000000000e+00 }
                  - { var:36, quality:4.9759450554847717e-01,
                      le:7.5000000000000000e+00 }
                  - { var:10, quality:4.9386110901832581e-01,
                      le:2.1516448259353638e-01 }
                  - { var:37, quality:4.9343365430831909e-01,
                      le:4.5000000000000000e+00 }
                  - { var:49, quality:4.9142798781394958e-01,
                      gt:4.4790901243686676e-02 }
                  - { var:39, quality:4.9006521701812744e-01,
                      le:5.5000000000000000e+00 }
                  - { var:40, quality:4.8918020725250244e-01,
                      le:4.5000000000000000e+00 }
                  - { var:42, quality:4.8763939738273621e-01,
                      le:4.5000000000000000e+00 }
                  - { var:41, quality:4.8759996891021729e-01,
                      le:7.5000000000000000e+00 }
                  - { var:15, quality:4.8759955167770386e-01,
                      le:9.7530007362365723e-01 }
                  - { var:34, quality:4.8758006095886230e-01,
                      le:5.0500000000000000e+01 }
                  - { var:38, quality:4.8748192191123962e-01,
                      le:1.7500000000000000e+01 }
                  - { var:44, quality:4.8707550764083862e-01,
                      le:4.5000000000000000e+00 }
                  - { var:43, quality:4.8705345392227173e-01,
                      le:7.5000000000000000e+00 }
                  - { var:45, quality:4.8698776960372925e-01,
                      le:3.5000000000000000e+00 }
                  - { var:29, quality:4.8691621422767639e-01,
                      le:3.4437902271747589e-02 }
                  - { var:46, quality:4.8675745725631714e-01,
                      le:3.5000000000000000e+00 }
                  - { var:27, quality:4.8602569103240967e-01,
                      le:9.9700784683227539e-01 }
                  - { var:47, quality:4.8595646023750305e-01,
                      le:9.9799752235412598e-01 }
                  - { var:9, quality:4.8594924807548523e-01,
                      le:9.6613907814025879e-01 }
                  - { var:8, quality:4.8593446612358093e-01,
                      le:5.0253397226333618e-01 }
                  - { var:3, quality:4.8593252897262573e-01,
                      le:9.8904743790626526e-02 }
                  - { var:28, quality:4.8592084646224976e-01,
                      le:3.2640554010868073e-02 }
                  - { var:2, quality:4.8591980338096619e-01,
                      le:3.4369999170303345e-01 }
                  - { var:30, quality:4.8591625690460205e-01,
                      le:1.2998416900634766e+01 }
                  - { var:19, quality:4.8591613769531250e-01,
                      le:8.3734381198883057e-01 }
            -
               depth: 1
               sample_count: 56813
               value: 6.3431833553599737e-01
               norm_class_idx: 1
               Tn: 0
               complexity: 0
               alpha: 0.
               node_risk: 0.
               tree_risk: 0.
               tree_error: 0.
            -
               depth: 1
               sample_count: 38922
               value: -6.3431833553599737e-01
               norm_class_idx: 0
               Tn: 0
               complexity: 0
               alpha: 0.
               node_risk: 0.
               tree_risk: 0.
               tree_error: 0.
      -
         best_tree_idx: -1
         nodes:
            -
               depth: 0
               sample_count: 95735
               value: -5.3015513467086461e-01
               norm_class_idx: 0
               Tn: 0
               complexity: 0
               alpha: 0.
               node_risk: 0.
               tree_risk: 0.
               tree_error: 0.
               splits:
                  - { var:47, quality:6.2951928377151489e-01,
                      le:9.6478933095932007e-01 }
                  - { var:9, quality:5.0920099020004272e-01,
                      le:2.8819420933723450e-01 }
                  - { var:30, quality:4.7241345047950745e-01,
                      le:6.7900800704956055e+00 }
                  - { var:7, quality:4.7083601355552673e-01,
                      le:2.9431972652673721e-02 }
                  - { var:20, quality:4.3620395660400391e-01,
                      gt:1.0191283226013184e+01 }
                  - { var:19, quality:4.3007266521453857e-01,
                      le:3.0638784170150757e-01 }
                  - { var:1, quality:4.2622110247612000e-01,
                      gt:1.2500000000000000e+01 }
                  - { var:32, quality:4.2030104994773865e-01,
                      gt:2.3399949073791504e-01 }
                  - { var:15, quality:4.0471521019935608e-01,
                      le:7.0178782939910889e-01 }
                  - { var:10, quality:3.9318051934242249e-01,
                      gt:9.2077422887086868e-03 }
                  - { var:24, quality:3.9271789789199829e-01,
                      le:2.9151145935058594e+01 }
                  - { var:25, quality:3.9174517989158630e-01,
                      le:5.2199048995971680e+00 }
                  - { var:26, quality:3.8938376307487488e-01,
                      le:5.5669689178466797e+00 }
                  - { var:27, quality:3.8663861155509949e-01,
                      le:9.9394965171813965e-01 }
                  - { var:3, quality:3.8522839546203613e-01,
                      le:7.4963152408599854e-02 }
            -
               depth: 1
               sample_count: 58801
               value: -5.3015513467086461e-01
               norm_class_idx: 0
               Tn: 0
               complexity: 0
               alpha: 0.
               node_risk: 0.
               tree_risk: 0.
               tree_error: 0.
            -
               depth: 1
               sample_count: 36934
               value: 5.3015513467086461e-01
               norm_class_idx: 1
               Tn: 0
               complexity: 0
               alpha: 0.
               node_risk: 0.
               tree_risk: 0.
               tree_error: 0.
      -
         best_tree_idx: -1
         nodes:
            -
               depth: 0
               sample_count: 95735
               value: -6.1106766034003035e-01
               norm_class_idx: 0
               Tn: 0
               complexity: 0
               alpha: 0.
               node_risk: 0.
               tree_risk: 0.
               tree_error: 0.
               splits:
                  - { var:1, quality:6.4818429946899414e-01,
                      le:9.5000000000000000e+00 }
                  - { var:19, quality:5.3631460666656494e-01,
                      gt:3.9041423797607422e-01 }
                  - { var:47, quality:5.2559190988540649e-01,
                      gt:9.8691350221633911e-01 }
                  - { var:17, quality:5.2489018440246582e-01,
                      le:3.3813959360122681e-01 }
                  - { var:18, quality:5.2379983663558960e-01,
                      le:5.7888799905776978e-01 }
                  - { var:27, quality:5.2379262447357178e-01,
                      gt:9.8844081163406372e-01 }
                  - { var:12, quality:5.2096319198608398e-01,
                      gt:5.1676988601684570e-02 }
                  - { var:7, quality:5.2069008350372314e-01,
                      gt:5.6191056966781616e-02 }
                  - { var:2, quality:5.2042382955551147e-01,
                      gt:7.3163628578186035e-02 }
                  - { var:9, quality:5.2021127939224243e-01,
                      gt:6.9670772552490234e-01 }
                  - { var:3, quality:5.2018159627914429e-01,
                      gt:6.4302042126655579e-02 }
                  - { var:6, quality:5.2015924453735352e-01,
                      le:2.3292140662670135e-01 }
                  - { var:21, quality:5.1998901367187500e-01,
                      gt:1.2989566326141357e+00 }
                  - { var:20, quality:5.1688927412033081e-01,
                      le:2.7848291397094727e+00 }
                  - { var:14, quality:5.1643347740173340e-01,
                      le:1.1936026066541672e-01 }
                  - { var:25, quality:5.1578783988952637e-01,
                      gt:9.3349380493164062e+00 }
                  - { var:24, quality:5.1573729515075684e-01,
                      gt:9.1007537841796875e+01 }
                  - { var:26, quality:5.1518553495407104e-01,
                      gt:9.8226890563964844e+00 }
                  - { var:30, quality:5.1503247022628784e-01,
                      gt:1.2914614677429199e+01 }
                  - { var:10, quality:5.1489412784576416e-01,
                      gt:1.3856824874877930e+01 }
                  - { var:49, quality:5.1484018564224243e-01,
                      gt:5.4273498535156250e+01 }
                  - { var:15, quality:5.1451873779296875e-01,
                      gt:9.9985027313232422e-01 }
                  - { var:48, quality:5.1449638605117798e-01,
                      gt:6.4350494384765625e+01 }
            -
               depth: 1
               sample_count: 31884
               value: -6.1106766034003035e-01
               norm_class_idx: 0
               Tn: 0
               complexity: 0
               alpha: 0.
               node_risk: 0.
               tree_risk: 0.
               tree_error: 0.
            -
               depth: 1
               sample_count: 63851
               value: 6.1106766034003035e-01
               norm_class_idx: 1
               Tn: 0
               complexity: 0
               alpha: 0.
               node_risk: 0.
               tree_risk: 0.
               tree_error: 0.
      -
         best_tree_idx: -1
         nodes:
            -
               depth: 0
               sample_count: 95735
               value: -6.5952505494227354e-01
               norm_class_idx: 0
               Tn: 0
               complexity: 0
               alpha: 0.
               node_risk: 0.
               tree_risk: 0.
               tree_error: 0.
               splits:
                  - { var:27, quality:6.5915369987487793e-01,
                      le:-9.9821266174316406e+01 }
            -
               depth: 1
               sample_count: 10
               value: 6.5952505494227354e-01
               norm_class_idx: 1
               Tn: 0
               complexity: 0
               alpha: 0.
               node_risk: 0.
               tree_risk: 0.
               tree_error: 0.
            -
               depth: 1
               sample_count: 95725
               value: -6.5952505494227354e-01
               norm_class_idx: 0
               Tn: 0
               complexity: 0
               alpha: 0.
               node_risk: 0.
               tree_risk: 0.
               tree_error: 0.
      -
         best_tree_idx: -1
         nodes:
            -
               depth: 0
               sample_count: 95735
               value: 5.2897612841604502e-01
               norm_class_idx: 1
               Tn: 0
               complexity: 0
               alpha: 0.
               node_risk: 0.
               tree_risk: 0.
               tree_error: 0.
               splits:
                  - { var:6, quality:6.2924426794052124e-01,
                      le:2.7869361639022827e-01 }
                  - { var:4, quality:6.1308574676513672e-01,
                      le:9.0152636170387268e-02 }
                  - { var:18, quality:6.1266446113586426e-01,
                      le:6.3680779933929443e-01 }
                  - { var:5, quality:6.1129951477050781e-01,
                      le:9.3582168221473694e-02 }
                  - { var:14, quality:6.1046153306961060e-01,
                      le:1.5613722801208496e-01 }
                  - { var:17, quality:6.0129630565643311e-01,
                      le:3.5494387149810791e-01 }
                  - { var:11, quality:5.8021843433380127e-01,
                      le:1.1528497934341431e-01 }
                  - { var:29, quality:5.6734848022460938e-01,
                      le:6.2359301373362541e-03 }
                  - { var:32, quality:5.6349235773086548e-01,
                      le:9.0499877929687500e-02 }
                  - { var:28, quality:5.5925673246383667e-01,
                      le:3.3380417153239250e-03 }
                  - { var:8, quality:5.5449873208999634e-01,
                      le:3.0441049486398697e-02 }
                  - { var:30, quality:5.5304223299026489e-01,
                      le:1.0389546155929565e+00 }
                  - { var:31, quality:5.5219954252243042e-01,
                      le:1.4366167597472668e-03 }
                  - { var:7, quality:5.5168509483337402e-01,
                      le:5.5311489850282669e-03 }
                  - { var:19, quality:5.5021631717681885e-01,
                      le:1.3112536072731018e-01 }
                  - { var:10, quality:5.4950577020645142e-01,
                      le:1.1944954749196768e-03 }
                  - { var:3, quality:5.4891842603683472e-01,
                      le:6.8823285400867462e-03 }
                  - { var:20, quality:5.4861271381378174e-01,
                      gt:7.4947250366210938e+01 }
                  - { var:13, quality:5.4573035240173340e-01,
                      le:6.8545714020729065e-03 }
                  - { var:2, quality:5.4501920938491821e-01,
                      le:8.5017662495374680e-03 }
                  - { var:22, quality:5.4154217243194580e-01,
                      gt:9.9458330869674683e-01 }
                  - { var:33, quality:5.2561831474304199e-01,
                      le:1.5000000000000000e+00 }
                  - { var:24, quality:5.2507305145263672e-01,
                      le:9.8609123378992081e-03 }
                  - { var:23, quality:5.2486324310302734e-01,
                      le:1.3755109906196594e-01 }
                  - { var:9, quality:5.2475082874298096e-01,
                      le:3.1337279826402664e-02 }
                  - { var:21, quality:5.2448642253875732e-01,
                      le:1.5693770255893469e-03 }
                  - { var:15, quality:5.2448642253875732e-01,
                      le:6.9565471494570374e-04 }
                  - { var:47, quality:5.2447390556335449e-01,
                      le:2.5341007858514786e-02 }
                  - { var:1, quality:5.0909048318862915e-01,
                      le:8.5000000000000000e+00 }
                  - { var:27, quality:5.0435203313827515e-01,
                      gt:9.7490668296813965e-01 }
                  - { var:49, quality:4.9625533819198608e-01,
                      gt:2.6309539794921875e+01 }
                  - { var:12, quality:4.9401712417602539e-01,
                      gt:4.4139914214611053e-02 }
                  - { var:35, quality:4.9211606383323669e-01,
                      le:1.5000000000000000e+00 }
                  - { var:48, quality:4.9053704738616943e-01,
                      gt:2.4135044097900391e+01 }
                  - { var:34, quality:4.8604178428649902e-01,
                      le:2.5000000000000000e+00 }
            -
               depth: 1
               sample_count: 28430
               value: -5.2897612841604502e-01
               norm_class_idx: 0
               Tn: 0
               complexity: 0
               alpha: 0.
               node_risk: 0.
               tree_risk: 0.
               tree_error: 0.
            -
               depth: 1
               sample_count: 67305
               value: 5.2897612841604502e-01
               norm_class_idx: 1
               Tn: 0
               complexity: 0
               alpha: 0.
               node_risk: 0.
               tree_risk: 0.
               tree_error: 0.
      -
         best_tree_idx: -1
         nodes:
            -
               depth: 0
               sample_count: 95735
               value: -4.2692414736687007e-01
               norm_class_idx: 0
               Tn: 0
               complexity: 0
               alpha: 0.
               node_risk: 0.
               tree_risk: 0.
               tree_error: 0.
               splits:
                  - { var:48, quality:6.0513895750045776e-01,
                      le:4.1810121536254883e+00 }
                  - { var:49, quality:4.5178940892219543e-01,
                      le:6.3981375694274902e+00 }
                  - { var:5, quality:4.3559572100639343e-01,
                      gt:1.0928334668278694e-02 }
                  - { var:4, quality:4.3559038639068604e-01,
                      gt:1.0316912084817886e-02 }
                  - { var:14, quality:4.3557423353195190e-01,
                      gt:1.8564596772193909e-02 }
                  - { var:30, quality:4.3552494049072266e-01,
                      gt:4.2041757702827454e-01 }
                  - { var:18, quality:4.3538111448287964e-01,
                      gt:1.3380324840545654e-01 }
                  - { var:19, quality:4.3528631329536438e-01,
                      gt:1.0511973500251770e-01 }
                  - { var:17, quality:4.3503043055534363e-01,
                      gt:8.0452084541320801e-02 }
                  - { var:8, quality:4.3486705422401428e-01,
                      gt:2.0234443247318268e-02 }
                  - { var:20, quality:4.3477046489715576e-01,
                      le:1.5812048339843750e+02 }
                  - { var:28, quality:4.3471845984458923e-01,
                      gt:1.8556618597358465e-03 }
                  - { var:6, quality:4.3465894460678101e-01,
                      gt:2.2925637662410736e-02 }
                  - { var:7, quality:4.3432372808456421e-01,
                      gt:2.4906254839152098e-03 }
                  - { var:13, quality:4.3424496054649353e-01,
                      gt:4.6119987964630127e-03 }
                  - { var:29, quality:4.3421649932861328e-01,
                      gt:2.9651541262865067e-03 }
                  - { var:2, quality:4.3380424380302429e-01,
                      gt:5.2095144055783749e-03 }
                  - { var:32, quality:4.3361374735832214e-01,
                      gt:3.1499862670898438e-02 }
                  - { var:3, quality:4.3342471122741699e-01,
                      gt:3.1541069038212299e-03 }
                  - { var:15, quality:4.3306666612625122e-01,
                      gt:1.6020042821764946e-03 }
                  - { var:24, quality:4.3305706977844238e-01,
                      gt:4.3530858238227665e-04 }
                  - { var:23, quality:4.3305706977844238e-01,
                      gt:5.5783865973353386e-03 }
                  - { var:22, quality:4.3305706977844238e-01,
                      le:9.9999940395355225e-01 }
                  - { var:21, quality:4.3305706977844238e-01,
                      gt:1.5693770255893469e-03 }
                  - { var:9, quality:4.3305402994155884e-01,
                      gt:1.1910227476619184e-04 }
                  - { var:47, quality:4.3304398655891418e-01,
                      gt:2.5341007858514786e-02 }
                  - { var:31, quality:4.3271037936210632e-01,
                      gt:1.4503972488455474e-04 }
                  - { var:11, quality:4.2570579051971436e-01,
                      gt:1.2611140497028828e-02 }
                  - { var:33, quality:4.2001211643218994e-01,
                      gt:1.5000000000000000e+00 }
                  - { var:10, quality:4.1760471463203430e-01,
                      gt:2.3868682910688221e-04 }
                  - { var:12, quality:4.1291287541389465e-01,
                      le:5.4144050925970078e-02 }
            -
               depth: 1
               sample_count: 70209
               value: -4.2692414736687007e-01
               norm_class_idx: 0
               Tn: 0
               complexity: 0
               alpha: 0.
               node_risk: 0.
               tree_risk: 0.
               tree_error: 0.
            -
               depth: 1
               sample_count: 25526
               value: 4.2692414736687007e-01
               norm_class_idx: 1
               Tn: 0
               complexity: 0
               alpha: 0.
               node_risk: 0.
               tree_risk: 0.
               tree_error: 0.
      -
         best_tree_idx: -1
         nodes:
            -
               depth: 0
               sample_count: 95735
               value: -4.7107325073502276e-01
               norm_class_idx: 0
               Tn: 0
               complexity: 0
               alpha: 0.
               node_risk: 0.
               tree_risk: 0.
               tree_error: 0.
               splits:
                  - { var:5, quality:6.1563771963119507e-01,
                      le:2.0993441343307495e-01 }
                  - { var:4, quality:6.0723823308944702e-01,
                      le:2.0654883980751038e-01 }
                  - { var:6, quality:5.9011077880859375e-01,
                      le:6.5234750509262085e-01 }
                  - { var:18, quality:5.7992440462112427e-01,
                      le:1.5498023033142090e+00 }
                  - { var:17, quality:5.6738978624343872e-01,
                      le:9.6544224023818970e-01 }
                  - { var:32, quality:5.6190812587738037e-01,
                      le:4.5300030708312988e-01 }
                  - { var:14, quality:5.5929064750671387e-01,
                      le:4.3392592668533325e-01 }
                  - { var:22, quality:5.5062925815582275e-01,
                      gt:8.6708098649978638e-01 }
                  - { var:31, quality:5.4522603750228882e-01,
                      le:7.1233570575714111e-02 }
                  - { var:11, quality:5.4183912277221680e-01,
                      le:4.3368715047836304e-01 }
                  - { var:13, quality:5.3250086307525635e-01,
                      le:4.1093209385871887e-01 }
                  - { var:34, quality:5.2654099464416504e-01,
                      le:8.5000000000000000e+00 }
                  - { var:33, quality:5.2510774135589600e-01,
                      le:1.2500000000000000e+01 }
                  - { var:35, quality:5.2232402563095093e-01,
                      le:6.5000000000000000e+00 }
                  - { var:29, quality:5.2008467912673950e-01,
                      le:2.5623826310038567e-02 }
                  - { var:36, quality:5.1895803213119507e-01,
                      le:5.5000000000000000e+00 }
                  - { var:10, quality:5.1611578464508057e-01,
                      le:1.4957839250564575e-01 }
                  - { var:23, quality:5.1567322015762329e-01,
                      le:7.8483410644531250e+02 }
                  - { var:37, quality:5.1485878229141235e-01,
                      le:4.5000000000000000e+00 }
                  - { var:38, quality:5.1409864425659180e-01,
                      le:4.5000000000000000e+00 }
                  - { var:1, quality:5.1222944259643555e-01,
                      le:4.9500000000000000e+01 }
                  - { var:40, quality:5.1038944721221924e-01,
                      le:3.5000000000000000e+00 }
                  - { var:39, quality:5.1022571325302124e-01,
                      le:3.5000000000000000e+00 }
                  - { var:12, quality:5.0864833593368530e-01,
                      le:6.6675413399934769e-03 }
                  - { var:28, quality:5.0739020109176636e-01,
                      le:1.4907877892255783e-02 }
                  - { var:44, quality:5.0388371944427490e-01,
                      le:2.5000000000000000e+00 }
                  - { var:43, quality:5.0362497568130493e-01,
                      le:2.5000000000000000e+00 }
                  - { var:42, quality:5.0326752662658691e-01,
                      le:4.5000000000000000e+00 }
                  - { var:45, quality:5.0094360113143921e-01,
                      le:3.5000000000000000e+00 }
                  - { var:15, quality:4.9907681345939636e-01,
                      le:9.7231006622314453e-01 }
                  - { var:20, quality:4.9770343303680420e-01,
                      gt:2.9675168991088867e+00 }
                  - { var:2, quality:4.9632924795150757e-01,
                      le:1.0304176807403564e-01 }
                  - { var:19, quality:4.9580365419387817e-01,
                      le:5.6649601459503174e-01 }
                  - { var:7, quality:4.9575415253639221e-01,
                      le:1.2522652745246887e-01 }
                  - { var:27, quality:4.9572461843490601e-01,
                      gt:-4.5090209960937500e+01 }
                  - { var:8, quality:4.9557614326477051e-01,
                      le:5.0253397226333618e-01 }
                  - { var:3, quality:4.9557363986968994e-01,
                      le:2.0787519216537476e-01 }
            -
               depth: 1
               sample_count: 65315
               value: 4.7107325073502276e-01
               norm_class_idx: 1
               Tn: 0
               complexity: 0
               alpha: 0.
               node_risk: 0.
               tree_risk: 0.
               tree_error: 0.
            -
               depth: 1
               sample_count: 30420
               value: -4.7107325073502276e-01
               norm_class_idx: 0
               Tn: 0
               complexity: 0
               alpha: 0.
               node_risk: 0.
               tree_risk: 0.
               tree_error: 0.
      -
         best_tree_idx: -1
         nodes:
            -
               depth: 0
               sample_count: 95735
               value: -4.7578366101831043e-01
               norm_class_idx: 0
               Tn: 0
               complexity: 0
               alpha: 0.
               node_risk: 0.
               tree_risk: 0.
               tree_error: 0.
               splits:
                  - { var:27, quality:6.1675173044204712e-01,
                      le:-9.9821266174316406e+01 }
            -
               depth: 1
               sample_count: 10
               value: 4.7578366101831043e-01
               norm_class_idx: 1
               Tn: 0
               complexity: 0
               alpha: 0.
               node_risk: 0.
               tree_risk: 0.
               tree_error: 0.
            -
               depth: 1
               sample_count: 95725
               value: -4.7578366101831043e-01
               norm_class_idx: 0
               Tn: 0
               complexity: 0
               alpha: 0.
               node_risk: 0.
               tree_risk: 0.
               tree_error: 0.
      -
         best_tree_idx: -1
         nodes:
            -
               depth: 0
               sample_count: 95735
               value: 4.7180382350240591e-01
               norm_class_idx: 1
               Tn: 0
               complexity: 0
               alpha: 0.
               node_risk: 0.
               tree_risk: 0.
               tree_error: 0.
               splits:
                  - { var:33, quality:6.1581063270568848e-01,
                      le:3.5000000000000000e+00 }
                  - { var:35, quality:5.0678730010986328e-01,
                      le:1.5000000000000000e+00 }
                  - { var:17, quality:5.0375801324844360e-01,
                      le:2.7751940488815308e-01 }
                  - { var:18, quality:5.0354689359664917e-01,
                      le:5.1202934980392456e-01 }
                  - { var:32, quality:5.0308692455291748e-01,
                      le:6.5500259399414062e-02 }
                  - { var:6, quality:5.0189107656478882e-01,
                      le:1.7691186070442200e-01 }
                  - { var:5, quality:5.0165879726409912e-01,
                      le:5.7184800505638123e-02 }
                  - { var:4, quality:5.0132489204406738e-01,
                      le:5.8734882622957230e-02 }
                  - { var:14, quality:5.0003111362457275e-01,
                      le:9.8443157970905304e-02 }
                  - { var:29, quality:4.9898490309715271e-01,
                      le:4.4699693098664284e-03 }
                  - { var:28, quality:4.9697527289390564e-01,
                      le:2.5182818062603474e-03 }
                  - { var:8, quality:4.9507743120193481e-01,
                      le:2.4376254528760910e-02 }
                  - { var:31, quality:4.9455812573432922e-01,
                      le:7.0665101520717144e-04 }
                  - { var:30, quality:4.9434119462966919e-01,
                      le:4.3596816062927246e-01 }
                  - { var:7, quality:4.9381214380264282e-01,
                      le:3.5206382162868977e-03 }
                  - { var:3, quality:4.9379679560661316e-01,
                      le:6.6041639074683189e-03 }
                  - { var:19, quality:4.9347779154777527e-01,
                      le:1.1740914732217789e-01 }
                  - { var:2, quality:4.9233868718147278e-01,
                      le:7.6675103046000004e-03 }
                  - { var:13, quality:4.9230995774269104e-01,
                      le:6.0208160430192947e-03 }
                  - { var:20, quality:4.9129599332809448e-01,
                      gt:1.0478141784667969e+02 }
                  - { var:10, quality:4.8536404967308044e-01,
                      le:4.4992810580879450e-04 }
                  - { var:22, quality:4.8459270596504211e-01,
                      gt:9.9644231796264648e-01 }
                  - { var:11, quality:4.8404622077941895e-01,
                      le:8.3947211503982544e-02 }
                  - { var:21, quality:4.7607284784317017e-01,
                      le:1.0561884939670563e-01 }
                  - { var:23, quality:4.7594732046127319e-01,
                      le:1.3651588559150696e-01 }
                  - { var:24, quality:4.7582459449768066e-01,
                      le:3.4475841093808413e-03 }
                  - { var:9, quality:4.7579273581504822e-01,
                      le:1.8769357353448868e-02 }
                  - { var:15, quality:4.7577962279319763e-01,
                      le:6.9565471494570374e-04 }
                  - { var:47, quality:4.7577702999114990e-01,
                      le:2.5341007858514786e-02 }
                  - { var:49, quality:4.5011976361274719e-01,
                      gt:2.1795057296752930e+01 }
                  - { var:48, quality:4.4601318240165710e-01,
                      gt:2.2934038162231445e+01 }
                  - { var:1, quality:4.4578489661216736e-01,
                      le:5.5000000000000000e+00 }
                  - { var:12, quality:4.4573646783828735e-01,
                      gt:4.4139914214611053e-02 }
                  - { var:27, quality:4.4492620229721069e-01,
                      gt:9.7839826345443726e-01 }
                  - { var:37, quality:4.4031071662902832e-01,
                      le:1.5000000000000000e+00 }
                  - { var:25, quality:4.3384903669357300e-01,
                      le:-1.1781112670898438e+01 }
            -
               depth: 1
               sample_count: 37319
               value: -4.7180382350240591e-01
               norm_class_idx: 0
               Tn: 0
               complexity: 0
               alpha: 0.
               node_risk: 0.
               tree_risk: 0.
               tree_error: 0.
            -
               depth: 1
               sample_count: 58416
               value: 4.7180382350240591e-01
               norm_class_idx: 1
               Tn: 0
               complexity: 0
               alpha: 0.
               node_risk: 0.
               tree_risk: 0.
               tree_error: 0.
      -
         best_tree_idx: -1
         nodes:
            -
               depth: 0
               sample_count: 95735
               value: -4.0538939126048146e-01
               norm_class_idx: 0
               Tn: 0
               complexity: 0
               alpha: 0.
               node_risk: 0.
               tree_risk: 0.
               tree_error: 0.
               splits:
                  - { var:2, quality:5.9998184442520142e-01,
                      le:2.7482120320200920e-02 }
                  - { var:28, quality:5.1945090293884277e-01,
                      le:8.7613537907600403e-03 }
                  - { var:19, quality:5.1415711641311646e-01,
                      le:2.7299946546554565e-01 }
                  - { var:29, quality:5.0649833679199219e-01,
                      le:1.5745196491479874e-02 }
                  - { var:3, quality:5.0048416852951050e-01,
                      le:2.6403635740280151e-02 }
                  - { var:8, quality:4.7137391567230225e-01,
                      le:1.0271620005369186e-01 }
                  - { var:7, quality:4.6168640255928040e-01,
                      le:2.3794569075107574e-02 }
                  - { var:30, quality:4.5887112617492676e-01,
                      le:5.6493935585021973e+00 }
                  - { var:20, quality:4.5532116293907166e-01,
                      gt:1.2411508560180664e+01 }
                  - { var:39, quality:4.3185079097747803e-01,
                      le:1.5000000000000000e+00 }
                  - { var:32, quality:4.3077254295349121e-01,
                      le:2.2699952125549316e-01 }
                  - { var:38, quality:4.3033778667449951e-01,
                      le:1.5000000000000000e+00 }
                  - { var:40, quality:4.2844340205192566e-01,
                      le:1.5000000000000000e+00 }
                  - { var:36, quality:4.2630615830421448e-01,
                      le:2.5000000000000000e+00 }
                  - { var:37, quality:4.2480638623237610e-01,
                      le:2.5000000000000000e+00 }
                  - { var:42, quality:4.1892695426940918e-01,
                      le:1.5000000000000000e+00 }
                  - { var:43, quality:4.0983447432518005e-01,
                      le:1.5000000000000000e+00 }
                  - { var:5, quality:4.0871679782867432e-01,
                      le:1.4728367328643799e-01 }
                  - { var:35, quality:4.0789055824279785e-01,
                      le:3.5000000000000000e+00 }
                  - { var:4, quality:4.0536174178123474e-01,
                      le:1.3964976370334625e-01 }
                  - { var:17, quality:4.0136975049972534e-01,
                      le:5.7213091850280762e-01 }
                  - { var:18, quality:3.9690020680427551e-01,
                      le:9.6241176128387451e-01 }
                  - { var:45, quality:3.9304885268211365e-01,
                      le:1.5000000000000000e+00 }
                  - { var:31, quality:3.8844513893127441e-01,
                      le:3.2138332724571228e-02 }
                  - { var:6, quality:3.8224503397941589e-01,
                      le:4.3474698066711426e-01 }
                  - { var:12, quality:3.7374192476272583e-01,
                      le:1.0554520413279533e-03 }
                  - { var:14, quality:3.7022915482521057e-01,
                      le:2.3759078979492188e-01 }
                  - { var:34, quality:3.6856111884117126e-01,
                      le:2.5000000000000000e+00 }
                  - { var:1, quality:3.6731255054473877e-01,
                      gt:1.5500000000000000e+01 }
                  - { var:24, quality:3.6613991856575012e-01,
                      le:9.5879268646240234e+00 }
                  - { var:11, quality:3.5789930820465088e-01,
                      le:1.7277178168296814e-01 }
                  - { var:26, quality:3.5728943347930908e-01,
                      le:4.7600641250610352e+00 }
                  - { var:44, quality:3.5721600055694580e-01,
                      le:2.5000000000000000e+00 }
                  - { var:41, quality:3.5532930493354797e-01,
                      le:3.5000000000000000e+00 }
                  - { var:25, quality:3.5392597317695618e-01,
                      le:3.8918519020080566e+00 }
                  - { var:48, quality:3.5295611619949341e-01,
                      gt:6.8622177839279175e-01 }
                  - { var:22, quality:3.5042414069175720e-01,
                      gt:9.2213892936706543e-01 }
                  - { var:49, quality:3.5035005211830139e-01,
                      gt:6.1240267753601074e-01 }
                  - { var:21, quality:3.4892445802688599e-01,
                      le:7.1589267253875732e-01 }
                  - { var:13, quality:3.4731325507164001e-01,
                      le:2.4383452534675598e-01 }
                  - { var:10, quality:3.4192115068435669e-01,
                      le:8.2976110279560089e-03 }
                  - { var:15, quality:3.3795282244682312e-01,
                      le:9.7783410549163818e-01 }
                  - { var:23, quality:3.3760523796081543e-01,
                      le:4.3449554443359375e+02 }
                  - { var:27, quality:3.3671882748603821e-01,
                      gt:-5.5232542753219604e-01 }
                  - { var:33, quality:3.3581829071044922e-01,
                      le:1.2250000000000000e+02 }
            -
               depth: 1
               sample_count: 47502
               value: 4.0538939126048146e-01
               norm_class_idx: 1
               Tn: 0
               complexity: 0
               alpha: 0.
               node_risk: 0.
               tree_risk: 0.
               tree_error: 0.
            -
               depth: 1
               sample_count: 48233
               value: -4.0538939126048146e-01
               norm_class_idx: 0
               Tn: 0
               complexity: 0
               alpha: 0.
               node_risk: 0.
               tree_risk: 0.
               tree_error: 0.
      -
         best_tree_idx: -1
         nodes:
            -
               depth: 0
               sample_count: 95735
               value: -4.1509810782246054e-01
               norm_class_idx: 0
               Tn: 0
               complexity: 0
               alpha: 0.
               node_risk: 0.
               tree_risk: 0.
               tree_error: 0.
               splits:
                  - { var:26, quality:6.0230970382690430e-01,
                      le:1.3043371438980103e+00 }
                  - { var:25, quality:5.9250140190124512e-01,
                      le:1.0348978042602539e+00 }
                  - { var:27, quality:5.8321070671081543e-01,
                      le:5.6825518608093262e-01 }
                  - { var:24, quality:4.4132944941520691e-01,
                      le:5.6233015060424805e+00 }
                  - { var:23, quality:4.3544128537178040e-01,
                      le:9.2955383300781250e+01 }
                  - { var:49, quality:3.4564521908760071e-01,
                      gt:2.0000392198562622e-01 }
                  - { var:30, quality:3.4072238206863403e-01,
                      le:3.8640313148498535e+00 }
                  - { var:7, quality:3.4018227458000183e-01,
                      le:1.6782715916633606e-02 }
                  - { var:47, quality:3.3739230036735535e-01,
                      le:9.4441151618957520e-01 }
                  - { var:20, quality:3.3655011653900146e-01,
                      gt:1.5294649124145508e+01 }
                  - { var:21, quality:3.3560109138488770e-01,
                      le:1.5445241928100586e+00 }
                  - { var:33, quality:3.3416801691055298e-01,
                      le:2.9500000000000000e+01 }
                  - { var:34, quality:3.3280673623085022e-01,
                      le:1.5500000000000000e+01 }
                  - { var:42, quality:3.3233880996704102e-01,
                      le:3.5000000000000000e+00 }
                  - { var:9, quality:3.3213695883750916e-01,
                      le:3.3410090208053589e-01 }
                  - { var:35, quality:3.3210384845733643e-01,
                      le:1.0500000000000000e+01 }
                  - { var:36, quality:3.3187037706375122e-01,
                      le:8.5000000000000000e+00 }
                  - { var:37, quality:3.3151799440383911e-01,
                      le:7.5000000000000000e+00 }
                  - { var:31, quality:3.3144703507423401e-01,
                      le:7.6857428066432476e-03 }
                  - { var:44, quality:3.3139678835868835e-01,
                      le:1.5000000000000000e+00 }
                  - { var:38, quality:3.3132869005203247e-01,
                      le:8.5000000000000000e+00 }
                  - { var:41, quality:3.3124896883964539e-01,
                      le:5.5000000000000000e+00 }
                  - { var:39, quality:3.3122965693473816e-01,
                      le:8.5000000000000000e+00 }
                  - { var:40, quality:3.3114296197891235e-01,
                      le:7.5000000000000000e+00 }
                  - { var:45, quality:3.3113104104995728e-01,
                      le:3.5000000000000000e+00 }
                  - { var:18, quality:3.3096840977668762e-01,
                      le:5.5655999183654785e+00 }
                  - { var:17, quality:3.3092749118804932e-01,
                      le:3.3031194210052490e+00 }
                  - { var:6, quality:3.3092069625854492e-01,
                      le:2.3214578628540039e+00 }
                  - { var:43, quality:3.3086907863616943e-01,
                      le:5.5000000000000000e+00 }
                  - { var:4, quality:3.3083027601242065e-01,
                      le:6.8975150585174561e-01 }
                  - { var:5, quality:3.3081185817718506e-01,
                      le:7.0089775323867798e-01 }
                  - { var:1, quality:3.3057567477226257e-01,
                      le:1.4550000000000000e+02 }
                  - { var:22, quality:3.3050838112831116e-01,
                      gt:6.6595506668090820e-01 }
                  - { var:14, quality:3.3047607541084290e-01,
                      le:3.0051591396331787e+00 }
                  - { var:46, quality:3.3045724034309387e-01,
                      le:3.5000000000000000e+00 }
                  - { var:13, quality:3.3043709397315979e-01,
                      le:3.2279777526855469e+00 }
                  - { var:32, quality:3.3024993538856506e-01,
                      le:1.8615000247955322e+00 }
                  - { var:15, quality:3.3020222187042236e-01,
                      le:9.7107791900634766e-01 }
                  - { var:11, quality:3.2999140024185181e-01,
                      le:6.1370921134948730e+00 }
                  - { var:19, quality:3.2998856902122498e-01,
                      le:2.6258665323257446e-01 }
                  - { var:29, quality:3.2918265461921692e-01,
                      le:5.3248025476932526e-02 }
                  - { var:28, quality:3.2916632294654846e-01,
                      le:2.7757674455642700e-02 }
                  - { var:2, quality:3.2916596531867981e-01,
                      le:2.7236703783273697e-02 }
                  - { var:8, quality:3.2913953065872192e-01,
                      le:1.9996461272239685e-01 }
                  - { var:3, quality:3.2912978529930115e-01,
                      le:1.0012784600257874e-01 }
            -
               depth: 1
               sample_count: 49193
               value: -4.1509810782246054e-01
               norm_class_idx: 0
               Tn: 0
               complexity: 0
               alpha: 0.
               node_risk: 0.
               tree_risk: 0.
               tree_error: 0.
            -
               depth: 1
               sample_count: 46542
               value: 4.1509810782246054e-01
               norm_class_idx: 1
               Tn: 0
               complexity: 0
               alpha: 0.
               node_risk: 0.
               tree_risk: 0.
               tree_error: 0.
      -
         best_tree_idx: -1
         nodes:
            -
               depth: 0
               sample_count: 95735
               value: -5.3968056086414173e-01
               norm_class_idx: 0
               Tn: 0
               complexity: 0
               alpha: 0.
               node_risk: 0.
               tree_risk: 0.
               tree_error: 0.
               splits:
                  - { var:24, quality:6.3173812627792358e-01,
                      le:4.4460697174072266e+00 }
                  - { var:23, quality:5.7551944255828857e-01,
                      le:7.0428886413574219e+01 }
                  - { var:25, quality:5.2316504716873169e-01,
                      le:2.0088579654693604e+00 }
                  - { var:26, quality:5.2219963073730469e-01,
                      le:2.2581639289855957e+00 }
                  - { var:27, quality:4.8087376356124878e-01,
                      le:7.8931838274002075e-01 }
                  - { var:30, quality:4.4041016697883606e-01,
                      le:3.0639491081237793e+00 }
                  - { var:7, quality:4.3856418132781982e-01,
                      le:1.3805346563458443e-02 }
                  - { var:20, quality:4.2673453688621521e-01,
                      gt:2.5793289184570312e+01 }
                  - { var:19, quality:4.2469701170921326e-01,
                      le:1.8537372350692749e-01 }
                  - { var:49, quality:4.1968941688537598e-01,
                      gt:4.3941621780395508e+00 }
                  - { var:28, quality:4.1830116510391235e-01,
                      le:4.2676427401602268e-03 }
                  - { var:29, quality:4.1660535335540771e-01,
                      le:8.0998754128813744e-03 }
                  - { var:4, quality:4.0894299745559692e-01,
                      le:8.2497149705886841e-02 }
                  - { var:5, quality:4.0815916657447815e-01,
                      le:7.7241905033588409e-02 }
                  - { var:14, quality:4.0708553791046143e-01,
                      le:1.4300292730331421e-01 }
                  - { var:6, quality:4.0703666210174561e-01,
                      le:1.2591551244258881e-01 }
                  - { var:18, quality:4.0521049499511719e-01,
                      le:5.2522611618041992e-01 }
                  - { var:8, quality:4.0467390418052673e-01,
                      le:3.0423667281866074e-02 }
                  - { var:13, quality:4.0391203761100769e-01,
                      le:2.4069685488939285e-02 }
                  - { var:17, quality:4.0317001938819885e-01,
                      le:2.5641596317291260e-01 }
                  - { var:2, quality:4.0230920910835266e-01,
                      le:9.9685853347182274e-03 }
                  - { var:31, quality:4.0022376179695129e-01,
                      le:6.1444286257028580e-04 }
                  - { var:32, quality:3.9983636140823364e-01,
                      le:3.3000260591506958e-02 }
                  - { var:3, quality:3.9831465482711792e-01,
                      le:6.7288214340806007e-03 }
                  - { var:11, quality:3.9708739519119263e-01,
                      le:1.0770248621702194e-01 }
                  - { var:9, quality:3.9702510833740234e-01,
                      le:9.5196761190891266e-02 }
                  - { var:22, quality:3.9696624875068665e-01,
                      gt:9.9593394994735718e-01 }
                  - { var:33, quality:3.9417493343353271e-01,
                      le:1.5000000000000000e+00 }
                  - { var:35, quality:3.8672050833702087e-01,
                      le:1.5000000000000000e+00 }
                  - { var:15, quality:3.8592237234115601e-01,
                      le:8.5969135165214539e-02 }
                  - { var:47, quality:3.8506186008453369e-01,
                      le:3.3623564243316650e-01 }
                  - { var:21, quality:3.8502255082130432e-01,
                      le:1.5693770255893469e-03 }
                  - { var:10, quality:3.8388654589653015e-01,
                      le:2.3261038586497307e-04 }
                  - { var:48, quality:3.8259920477867126e-01,
                      gt:9.0916042327880859e+00 }
                  - { var:36, quality:3.7542921304702759e-01,
                      le:1.5000000000000000e+00 }
                  - { var:38, quality:3.6289975047111511e-01,
                      le:1.5000000000000000e+00 }
                  - { var:12, quality:3.5778558254241943e-01,
                      gt:5.1676988601684570e-02 }
                  - { var:39, quality:3.5545879602432251e-01,
                      le:1.5000000000000000e+00 }
                  - { var:1, quality:3.4868016839027405e-01,
                      gt:2.6250000000000000e+02 }
            -
               depth: 1
               sample_count: 26572
               value: 5.3968056086414173e-01
               norm_class_idx: 1
               Tn: 0
               complexity: 0
               alpha: 0.
               node_risk: 0.
               tree_risk: 0.
               tree_error: 0.
            -
               depth: 1
               sample_count: 69163
               value: -5.3968056086414173e-01
               norm_class_idx: 0
               Tn: 0
               complexity: 0
               alpha: 0.
               node_risk: 0.
               tree_risk: 0.
               tree_error: 0.
      -
         best_tree_idx: -1
         nodes:
            -
               depth: 0
               sample_count: 95735
               value: -3.7522626332218029e-01
               norm_class_idx: 0
               Tn: 0
               complexity: 0
               alpha: 0.
               node_risk: 0.
               tree_risk: 0.
               tree_error: 0.
               splits:
                  - { var:31, quality:5.9272122383117676e-01,
                      le:2.8679319657385349e-03 }
                  - { var:17, quality:5.4546052217483521e-01,
                      le:2.0799839496612549e-01 }
                  - { var:18, quality:5.4481619596481323e-01,
                      le:3.3445030450820923e-01 }
                  - { var:5, quality:5.4441565275192261e-01,
                      le:4.9329783767461777e-02 }
                  - { var:4, quality:5.4418939352035522e-01,
                      le:4.7568380832672119e-02 }
                  - { var:6, quality:5.4285591840744019e-01,
                      le:1.4163815975189209e-01 }
                  - { var:14, quality:5.4139393568038940e-01,
                      le:8.0489195883274078e-02 }
                  - { var:32, quality:5.4056721925735474e-01,
                      le:6.6500186920166016e-02 }
                  - { var:29, quality:5.3841179609298706e-01,
                      le:5.1958546973764896e-03 }
                  - { var:30, quality:5.3678596019744873e-01,
                      le:8.9353030920028687e-01 }
                  - { var:8, quality:5.3570955991744995e-01,
                      le:2.8149809688329697e-02 }
                  - { var:28, quality:5.3562903404235840e-01,
                      le:2.9393839649856091e-03 }
                  - { var:7, quality:5.3489130735397339e-01,
                      le:4.4233468361198902e-03 }
                  - { var:3, quality:5.3221803903579712e-01,
                      le:6.8849669769406319e-03 }
                  - { var:19, quality:5.3200304508209229e-01,
                      le:1.3162845373153687e-01 }
                  - { var:13, quality:5.3158527612686157e-01,
                      le:6.5345494076609612e-03 }
                  - { var:20, quality:5.3074210882186890e-01,
                      gt:7.8948059082031250e+01 }
                  - { var:11, quality:5.2603906393051147e-01,
                      le:6.9330915808677673e-02 }
                  - { var:2, quality:5.2585691213607788e-01,
                      le:8.5017662495374680e-03 }
                  - { var:22, quality:5.2002722024917603e-01,
                      gt:9.9665641784667969e-01 }
                  - { var:10, quality:5.1429259777069092e-01,
                      le:2.0011031301692128e-04 }
                  - { var:33, quality:5.1074767112731934e-01,
                      le:1.5000000000000000e+00 }
                  - { var:9, quality:5.0622665882110596e-01,
                      le:3.6345176398754120e-02 }
                  - { var:23, quality:5.0621271133422852e-01,
                      le:1.0020183026790619e-01 }
                  - { var:24, quality:5.0614500045776367e-01,
                      le:5.1245884969830513e-03 }
                  - { var:21, quality:5.0609385967254639e-01,
                      le:6.3800394535064697e-02 }
                  - { var:15, quality:5.0594395399093628e-01,
                      le:6.9565471494570374e-04 }
                  - { var:47, quality:5.0593912601470947e-01,
                      le:2.5341007858514786e-02 }
                  - { var:27, quality:4.8025515675544739e-01,
                      gt:9.8021829128265381e-01 }
                  - { var:49, quality:4.7759672999382019e-01,
                      gt:2.0845520019531250e+01 }
                  - { var:35, quality:4.7539940476417542e-01,
                      le:1.5000000000000000e+00 }
                  - { var:48, quality:4.7504812479019165e-01,
                      gt:2.1678092956542969e+01 }
                  - { var:12, quality:4.7278061509132385e-01,
                      gt:4.4139914214611053e-02 }
                  - { var:1, quality:4.6568900346755981e-01,
                      le:8.5000000000000000e+00 }
            -
               depth: 1
               sample_count: 26205
               value: -3.7522626332218029e-01
               norm_class_idx: 0
               Tn: 0
               complexity: 0
               alpha: 0.
               node_risk: 0.
               tree_risk: 0.
               tree_error: 0.
            -
               depth: 1
               sample_count: 69530
               value: 3.7522626332218029e-01
               norm_class_idx: 1
               Tn: 0
               complexity: 0
               alpha: 0.
               node_risk: 0.
               tree_risk: 0.
               tree_error: 0.
      -
         best_tree_idx: -1
         nodes:
            -
               depth: 0
               sample_count: 95735
               value: -4.1203670088882183e-01
               norm_class_idx: 0
               Tn: 0
               complexity: 0
               alpha: 0.
               node_risk: 0.
               tree_risk: 0.
               tree_error: 0.
               splits:
                  - { var:27, quality:6.0157614946365356e-01,
                      le:-9.9821266174316406e+01 }
            -
               depth: 1
               sample_count: 10
               value: 4.1203670088882183e-01
               norm_class_idx: 1
               Tn: 0
               complexity: 0
               alpha: 0.
               node_risk: 0.
               tree_risk: 0.
               tree_error: 0.
            -
               depth: 1
               sample_count: 95725
               value: -4.1203670088882183e-01
               norm_class_idx: 0
               Tn: 0
               complexity: 0
               alpha: 0.
               node_risk: 0.
               tree_risk: 0.
               tree_error: 0.
      -
         best_tree_idx: -1
         nodes:
            -
               depth: 0
               sample_count: 95735
               value: 4.3465736866397603e-01
               norm_class_idx: 1
               Tn: 0
               complexity: 0
               alpha: 0.
               node_risk: 0.
               tree_risk: 0.
               tree_error: 0.
               splits:
                  - { var:18, quality:6.0698527097702026e-01,
                      le:1.6062841415405273e+00 }
                  - { var:17, quality:5.9194076061248779e-01,
                      le:9.6840536594390869e-01 }
                  - { var:6, quality:5.8253878355026245e-01,
                      le:6.8900114297866821e-01 }
                  - { var:4, quality:5.8085525035858154e-01,
                      le:2.2288890182971954e-01 }
                  - { var:5, quality:5.7921236753463745e-01,
                      le:2.2954079508781433e-01 }
                  - { var:14, quality:5.5842411518096924e-01,
                      le:5.4413878917694092e-01 }
                  - { var:32, quality:5.5769044160842896e-01,
                      le:4.9999976158142090e-01 }
                  - { var:31, quality:5.5379152297973633e-01,
                      le:9.3007653951644897e-02 }
                  - { var:22, quality:5.5245119333267212e-01,
                      gt:8.5372918844223022e-01 }
                  - { var:34, quality:5.4621940851211548e-01,
                      le:8.5000000000000000e+00 }
                  - { var:11, quality:5.4620629549026489e-01,
                      le:4.9325746297836304e-01 }
                  - { var:33, quality:5.4611247777938843e-01,
                      le:1.2500000000000000e+01 }
                  - { var:35, quality:5.4211270809173584e-01,
                      le:6.5000000000000000e+00 }
                  - { var:10, quality:5.4008686542510986e-01,
                      le:1.4068482816219330e-01 }
                  - { var:13, quality:5.3888469934463501e-01,
                      le:4.6531242132186890e-01 }
                  - { var:1, quality:5.3833508491516113e-01,
                      le:4.9500000000000000e+01 }
                  - { var:36, quality:5.3809821605682373e-01,
                      le:5.5000000000000000e+00 }
                  - { var:38, quality:5.3575646877288818e-01,
                      le:4.5000000000000000e+00 }
                  - { var:37, quality:5.3457754850387573e-01,
                      le:4.5000000000000000e+00 }
                  - { var:23, quality:5.3329545259475708e-01,
                      le:8.5994409179687500e+02 }
                  - { var:40, quality:5.3224283456802368e-01,
                      le:3.5000000000000000e+00 }
                  - { var:39, quality:5.3204834461212158e-01,
                      le:3.5000000000000000e+00 }
                  - { var:29, quality:5.2890205383300781e-01,
                      le:3.0352044850587845e-02 }
                  - { var:12, quality:5.2754747867584229e-01,
                      le:6.3944123685359955e-03 }
                  - { var:42, quality:5.2637511491775513e-01,
                      le:4.5000000000000000e+00 }
                  - { var:43, quality:5.2475172281265259e-01,
                      le:2.5000000000000000e+00 }
                  - { var:28, quality:5.2263784408569336e-01,
                      le:1.8370090052485466e-02 }
                  - { var:15, quality:5.2178382873535156e-01,
                      le:9.8416000604629517e-01 }
                  - { var:27, quality:5.2071648836135864e-01,
                      gt:-4.5090209960937500e+01 }
                  - { var:2, quality:5.2065920829772949e-01,
                      le:1.3603578507900238e-01 }
                  - { var:8, quality:5.2062135934829712e-01,
                      le:5.0253397226333618e-01 }
                  - { var:20, quality:5.2061980962753296e-01,
                      gt:1.9507631659507751e-01 }
                  - { var:3, quality:5.2061957120895386e-01,
                      le:2.0787519216537476e-01 }
                  - { var:19, quality:5.2061283588409424e-01,
                      le:7.1475636959075928e-01 }
                  - { var:7, quality:5.2060890197753906e-01,
                      le:1.3554023206233978e-01 }
            -
               depth: 1
               sample_count: 68463
               value: 4.3465736866397603e-01
               norm_class_idx: 1
               Tn: 0
               complexity: 0
               alpha: 0.
               node_risk: 0.
               tree_risk: 0.
               tree_error: 0.
            -
               depth: 1
               sample_count: 27272
               value: -4.3465736866397603e-01
               norm_class_idx: 0
               Tn: 0
               complexity: 0
               alpha: 0.
               node_risk: 0.
               tree_risk: 0.
               tree_error: 0.
      -
         best_tree_idx: -1
         nodes:
            -
               depth: 0
               sample_count: 95735
               value: -3.2363174107225412e-01
               norm_class_idx: 0
               Tn: 0
               complexity: 0
               alpha: 0.
               node_risk: 0.
               tree_risk: 0.
               tree_error: 0.
               splits:
                  - { var:8, quality:5.8020907640457153e-01,
                      le:2.1365226805210114e-01 }
                  - { var:3, quality:5.8017915487289429e-01,
                      le:1.0524474084377289e-01 }
                  - { var:2, quality:5.8016848564147949e-01,
                      le:2.1412500739097595e-01 }
                  - { var:19, quality:5.8016830682754517e-01,
                      le:7.1475636959075928e-01 }
                  - { var:32, quality:5.8016556501388550e-01,
                      le:7.0669999122619629e+00 }
                  - { var:29, quality:5.8016532659530640e-01,
                      le:7.7989168465137482e-02 }
                  - { var:28, quality:5.8016532659530640e-01,
                      le:4.2613308876752853e-02 }
                  - { var:17, quality:5.8016461133956909e-01,
                      le:8.4952678680419922e+00 }
                  - { var:5, quality:5.8016365766525269e-01,
                      le:2.1040339469909668e+00 }
                  - { var:4, quality:5.8016365766525269e-01,
                      le:2.0313587188720703e+00 }
                  - { var:18, quality:5.8016294240951538e-01,
                      le:1.6336246490478516e+01 }
                  - { var:6, quality:5.8016222715377808e-01,
                      le:7.5662879943847656e+00 }
                  - { var:31, quality:5.8015918731689453e-01,
                      le:4.6503839492797852e+00 }
            -
               depth: 1
               sample_count: 95721
               value: -3.2363174107225412e-01
               norm_class_idx: 0
               Tn: 0
               complexity: 0
               alpha: 0.
               node_risk: 0.
               tree_risk: 0.
               tree_error: 0.
            -
               depth: 1
               sample_count: 14
               value: 3.2363174107225412e-01
               norm_class_idx: 1
               Tn: 0
               complexity: 0
               alpha: 0.
               node_risk: 0.
               tree_risk: 0.
               tree_error: 0.
      -
         best_tree_idx: -1
         nodes:
            -
               depth: 0
               sample_count: 95735
               value: 4.2052875194462769e-01
               norm_class_idx: 1
               Tn: 0
               complexity: 0
               alpha: 0.
               node_risk: 0.
               tree_risk: 0.
               tree_error: 0.
               splits:
                  - { var:1, quality:6.0360974073410034e-01,
                      le:9.5000000000000000e+00 }
                  - { var:19, quality:5.5037516355514526e-01,
                      gt:4.0232697129249573e-01 }
                  - { var:7, quality:5.4361474514007568e-01,
                      gt:5.6547723710536957e-02 }
                  - { var:27, quality:5.4306054115295410e-01,
                      gt:9.9151957035064697e-01 }
                  - { var:3, quality:5.4291611909866333e-01,
                      gt:6.9574624300003052e-02 }
                  - { var:47, quality:5.4281753301620483e-01,
                      gt:9.9171525239944458e-01 }
                  - { var:2, quality:5.4274272918701172e-01,
                      gt:8.1972047686576843e-02 }
                  - { var:12, quality:5.4194539785385132e-01,
                      gt:1.0483440756797791e-01 }
                  - { var:9, quality:5.4169261455535889e-01,
                      gt:8.3255165815353394e-01 }
                  - { var:20, quality:5.4164433479309082e-01,
                      le:2.4003472328186035e+00 }
                  - { var:25, quality:5.4152101278305054e-01,
                      gt:9.8857059478759766e+00 }
                  - { var:26, quality:5.4132395982742310e-01,
                      gt:1.0589740753173828e+01 }
                  - { var:24, quality:5.4121470451354980e-01,
                      gt:1.4513439941406250e+02 }
                  - { var:49, quality:5.4120719432830811e-01,
                      gt:6.1430999755859375e+01 }
                  - { var:30, quality:5.4120182991027832e-01,
                      gt:1.2973155975341797e+01 }
                  - { var:21, quality:5.4113906621932983e-01,
                      gt:2.5199151039123535e+00 }
                  - { var:10, quality:5.4109102487564087e-01,
                      gt:6.5871850585937500e+02 }
                  - { var:15, quality:5.4108399152755737e-01,
                      gt:9.9985027313232422e-01 }
                  - { var:48, quality:5.4107868671417236e-01,
                      gt:6.4350494384765625e+01 }
            -
               depth: 1
               sample_count: 31884
               value: -4.2052875194462769e-01
               norm_class_idx: 0
               Tn: 0
               complexity: 0
               alpha: 0.
               node_risk: 0.
               tree_risk: 0.
               tree_error: 0.
            -
               depth: 1
               sample_count: 63851
               value: 4.2052875194462769e-01
               norm_class_idx: 1
               Tn: 0
               complexity: 0
               alpha: 0.
               node_risk: 0.
               tree_risk: 0.
               tree_error: 0.
      -
         best_tree_idx: -1
         nodes:
            -
               depth: 0
               sample_count: 95735
               value: -3.4677253907223810e-01
               norm_class_idx: 0
               Tn: 0
               complexity: 0
               alpha: 0.
               node_risk: 0.
               tree_risk: 0.
               tree_error: 0.
               splits:
                  - { var:27, quality:5.8583468198776245e-01,
                      le:-9.9821266174316406e+01 }
            -
               depth: 1
               sample_count: 10
               value: 3.4677253907223810e-01
               norm_class_idx: 1
               Tn: 0
               complexity: 0
               alpha: 0.
               node_risk: 0.
               tree_risk: 0.
               tree_error: 0.
            -
               depth: 1
               sample_count: 95725
               value: -3.4677253907223810e-01
               norm_class_idx: 0
               Tn: 0
               complexity: 0
               alpha: 0.
               node_risk: 0.
               tree_risk: 0.
               tree_error: 0.
      -
         best_tree_idx: -1
         nodes:
            -
               depth: 0
               sample_count: 95735
               value: 3.9812302144465544e-01
               norm_class_idx: 1
               Tn: 0
               complexity: 0
               alpha: 0.
               node_risk: 0.
               tree_risk: 0.
               tree_error: 0.
               splits:
                  - { var:32, quality:5.9823662042617798e-01,
                      le:6.5500259399414062e-02 }
                  - { var:17, quality:5.8500397205352783e-01,
                      le:1.5396307408809662e-01 }
                  - { var:18, quality:5.8439952135086060e-01,
                      le:2.6929765939712524e-01 }
                  - { var:5, quality:5.8375638723373413e-01,
                      le:2.9801193624734879e-02 }
                  - { var:4, quality:5.8359116315841675e-01,
                      le:2.9833117499947548e-02 }
                  - { var:14, quality:5.8337843418121338e-01,
                      le:4.5501694083213806e-02 }
                  - { var:6, quality:5.8281219005584717e-01,
                      le:9.2789024114608765e-02 }
                  - { var:30, quality:5.8195096254348755e-01,
                      le:4.2341595888137817e-01 }
                  - { var:29, quality:5.8179759979248047e-01,
                      le:4.0671727620065212e-03 }
                  - { var:8, quality:5.8168542385101318e-01,
                      le:2.5136791169643402e-02 }
                  - { var:28, quality:5.8017599582672119e-01,
                      le:2.2922377102077007e-03 }
                  - { var:19, quality:5.7972723245620728e-01,
                      le:1.2228859215974808e-01 }
                  - { var:7, quality:5.7943868637084961e-01,
                      le:3.5250391811132431e-03 }
                  - { var:13, quality:5.7930046319961548e-01,
                      le:5.9486264362931252e-03 }
                  - { var:31, quality:5.7796800136566162e-01,
                      le:1.5997989976312965e-04 }
                  - { var:3, quality:5.7777547836303711e-01,
                      le:5.7891122996807098e-03 }
                  - { var:20, quality:5.7666236162185669e-01,
                      gt:1.0405332183837891e+02 }
                  - { var:2, quality:5.7473373413085938e-01,
                      le:7.6116952113807201e-03 }
                  - { var:11, quality:5.7231706380844116e-01,
                      le:3.0868526548147202e-02 }
                  - { var:10, quality:5.6620484590530396e-01,
                      le:1.7210474470630288e-04 }
                  - { var:22, quality:5.6619167327880859e-01,
                      gt:9.9778914451599121e-01 }
                  - { var:23, quality:5.6181150674819946e-01,
                      le:1.2978632003068924e-02 }
                  - { var:24, quality:5.6179320812225342e-01,
                      le:4.3530858238227665e-04 }
                  - { var:21, quality:5.6179320812225342e-01,
                      le:1.5693770255893469e-03 }
                  - { var:15, quality:5.6179320812225342e-01,
                      le:6.9565471494570374e-04 }
                  - { var:9, quality:5.6179243326187134e-01,
                      le:1.1910227476619184e-04 }
                  - { var:47, quality:5.6178528070449829e-01,
                      le:2.5341007858514786e-02 }
                  - { var:33, quality:5.4797536134719849e-01,
                      le:1.5000000000000000e+00 }
                  - { var:49, quality:5.3876233100891113e-01,
                      gt:2.4556095123291016e+01 }
                  - { var:27, quality:5.3747266530990601e-01,
                      gt:9.8419135808944702e-01 }
                  - { var:48, quality:5.3621202707290649e-01,
                      gt:2.2934038162231445e+01 }
                  - { var:12, quality:5.3522324562072754e-01,
