%YAML:1.0
detector_type: adaboost
used_feature_dimensions:
   - "Throw a coin."
   - "Number of laser end points."
   - "Mean of difference in range of consecutive beams."
   - "Variance of difference in range of consecutive beams."
   - "Variance from center of gravity."
   - "Mean average deviation from median."
   - "Width."
   - "Min distance between points."
   - "Max distance between points."
   - "Ratio between min and max distance between points."
   - "Circularity."
   - "Radius of fitted circle."
   - "Variance of distance from points to center of circle."
   - "Minimal difference to radius."
   - "Maximal difference to radius."
   - "Ratio between min and max difference."
   - "Area of rectangles to fitted circle center."
   - "Boundary length."
   - "Perimeter."
   - "Contour regularity."
   - "Mean curvature."
   - "Mean angular difference."
   - "Aspect ratio."
   - "Linearity."
   - "Linearity mean error."
   - "Linearity min error."
   - "Linearity max error."
   - "Linearity ratio of min and max error."
   - "Error of fitted quadratic b-spline."
   - "Error of fitted cubic b-spline."
   - "Distance."
   - "Polygon Area."
   - "Difference of longest and shortest beam."
   - "Number of local minima (noise 0.01)."
   - "Number of local minima (noise 0.02)."
   - "Number of local minima (noise 0.03)."
   - "Number of local minima (noise 0.04)."
   - "Number of local minima (noise 0.05)."
   - "Number of local minima (noise 0.06)."
   - "Number of local minima (noise 0.07)."
   - "Number of local minima (noise 0.08)."
   - "Number of local minima (noise 0.09)."
   - "Number of local minima (noise 0.10)."
   - "Number of local minima (noise 0.11)."
   - "Number of local minima (noise 0.12)."
   - "Number of local minima (noise 0.13)."
   - "Number of local minima (noise 0.14)."
   - "Ratio between shortest and longest beam."
   - "Jump distance to previous segment."
   - "Jump distance to next segment."
classifier: !!opencv-ml-boost-tree
   boosting_type: DiscreteAdaboost
   splitting_criteria: 3
   ntrees: 500
   weight_trimming_rate: 1.
   is_classifier: 1
   var_all: 50
   var_count: 50
   ord_var_count: 50
   cat_var_count: 0
   training_params:
      use_surrogates: 1
      max_categories: 10
      max_depth: 1
      min_sample_count: 10
      cross_validation_folds: 0
      priors: !!opencv-matrix
         rows: 1
         cols: 2
         dt: d
         data: [ 1., 1. ]
   var_type: [ 0, 0, 0, 0, 0, 0, 0, 0, 0, 0, 0, 0, 0, 0, 0, 0, 0, 0, 0,
       0, 0, 0, 0, 0, 0, 0, 0, 0, 0, 0, 0, 0, 0, 0, 0, 0, 0, 0, 0, 0, 0,
       0, 0, 0, 0, 0, 0, 0, 0, 0 ]
   cat_count: !!opencv-matrix
      rows: 1
      cols: 1
      dt: i
      data: [ 2 ]
   cat_map: !!opencv-matrix
      rows: 1
      cols: 2
      dt: i
      data: [ 0, 1 ]
   trees:
      -
         best_tree_idx: -1
         nodes:
            -
               depth: 0
               sample_count: 49489
               value: -1.7434001297212312e+00
               norm_class_idx: 0
               Tn: 0
               complexity: 0
               alpha: 0.
               node_risk: 0.
               tree_risk: 0.
               tree_error: 0.
               splits:
                  - { var:27, quality:8.5111844539642334e-01,
                      le:-1.6065643310546875e+01 }
            -
               depth: 1
               sample_count: 93
               value: 1.7434001297212312e+00
               norm_class_idx: 1
               Tn: 0
               complexity: 0
               alpha: 0.
               node_risk: 0.
               tree_risk: 0.
               tree_error: 0.
            -
               depth: 1
               sample_count: 49396
               value: -1.7434001297212312e+00
               norm_class_idx: 0
               Tn: 0
               complexity: 0
               alpha: 0.
               node_risk: 0.
               tree_risk: 0.
               tree_error: 0.
      -
         best_tree_idx: -1
         nodes:
            -
               depth: 0
               sample_count: 49489
               value: -8.2654385680972520e-01
               norm_class_idx: 0
               Tn: 0
               complexity: 0
               alpha: 0.
               node_risk: 0.
               tree_risk: 0.
               tree_error: 0.
               splits:
                  - { var:31, quality:6.9562363624572754e-01,
                      le:3.0466690659523010e-03 }
                  - { var:17, quality:6.4903140068054199e-01,
                      le:2.4179533123970032e-01 }
                  - { var:18, quality:6.4636838436126709e-01,
                      le:4.6120029687881470e-01 }
                  - { var:28, quality:6.3911414146423340e-01,
                      le:3.3270325511693954e-03 }
                  - { var:29, quality:6.3546681404113770e-01,
                      le:4.7262655571103096e-03 }
                  - { var:6, quality:6.3447046279907227e-01,
                      le:2.4570360779762268e-01 }
                  - { var:14, quality:6.2957155704498291e-01,
                      le:9.2685505747795105e-02 }
                  - { var:11, quality:6.2947136163711548e-01,
                      le:8.6789511144161224e-02 }
                  - { var:3, quality:6.2927740812301636e-01,
                      le:7.2184423916041851e-03 }
                  - { var:5, quality:6.2793409824371338e-01,
                      le:9.5700010657310486e-02 }
                  - { var:4, quality:6.2631082534790039e-01,
                      le:9.2813357710838318e-02 }
                  - { var:13, quality:6.1798220872879028e-01,
                      le:1.0230969637632370e-02 }
                  - { var:19, quality:6.1708086729049683e-01,
                      le:1.2348255515098572e-01 }
                  - { var:10, quality:6.1612415313720703e-01,
                      le:1.0945126996375620e-04 }
                  - { var:32, quality:6.1256742477416992e-01,
                      le:7.1500778198242188e-02 }
                  - { var:1, quality:6.1149197816848755e-01,
                      le:3.5000000000000000e+00 }
                  - { var:20, quality:6.1146515607833862e-01,
                      le:5.1821702718734741e-01 }
                  - { var:21, quality:6.0830581188201904e-01,
                      le:1.1451435089111328e+00 }
                  - { var:23, quality:6.0620033740997314e-01,
                      le:3.0115921050310135e-02 }
                  - { var:24, quality:6.0619205236434937e-01,
                      le:8.1921517848968506e-03 }
                  - { var:15, quality:6.0588639974594116e-01,
                      le:1.7858497449196875e-04 }
                  - { var:22, quality:6.0332661867141724e-01,
                      le:1.2591630220413208e-01 }
                  - { var:33, quality:5.8641839027404785e-01,
                      le:2.5000000000000000e+00 }
                  - { var:12, quality:5.8263075351715088e-01,
                      le:1.3985173427499831e-04 }
                  - { var:35, quality:5.7546776533126831e-01,
                      le:1.5000000000000000e+00 }
                  - { var:34, quality:5.6055563688278198e-01,
                      le:2.5000000000000000e+00 }
                  - { var:36, quality:5.5759871006011963e-01,
                      le:1.5000000000000000e+00 }
                  - { var:2, quality:5.5500018596649170e-01,
                      le:8.0086607486009598e-03 }
                  - { var:8, quality:5.5380976200103760e-01,
                      le:4.6142891049385071e-02 }
                  - { var:7, quality:5.4769790172576904e-01,
                      le:3.5251006484031677e-03 }
                  - { var:47, quality:5.3630071878433228e-01,
                      le:8.6359485983848572e-02 }
                  - { var:9, quality:5.3629249334335327e-01,
                      le:4.9732875777408481e-04 }
                  - { var:37, quality:5.3561019897460938e-01,
                      le:1.5000000000000000e+00 }
                  - { var:46, quality:5.3132975101470947e-01,
                      le:5.0000000000000000e-01 }
                  - { var:45, quality:5.3132975101470947e-01,
                      le:5.0000000000000000e-01 }
                  - { var:44, quality:5.3132975101470947e-01,
                      le:5.0000000000000000e-01 }
                  - { var:43, quality:5.3132975101470947e-01,
                      le:5.0000000000000000e-01 }
                  - { var:42, quality:5.3132975101470947e-01,
                      le:5.0000000000000000e-01 }
                  - { var:41, quality:5.3132975101470947e-01,
                      le:5.0000000000000000e-01 }
                  - { var:40, quality:5.3132975101470947e-01,
                      le:5.0000000000000000e-01 }
                  - { var:39, quality:5.3132975101470947e-01,
                      le:5.0000000000000000e-01 }
                  - { var:38, quality:5.3132975101470947e-01,
                      le:5.0000000000000000e-01 }
                  - { var:26, quality:5.3132975101470947e-01,
                      le:-5.0000000000000000e-01 }
                  - { var:27, quality:5.2716130018234253e-01,
                      le:-9.9990773200988770e-01 }
                  - { var:25, quality:4.9000751972198486e-01,
                      le:2.7020481866202317e-05 }
                  - { var:30, quality:4.6265050768852234e-01,
                      gt:2.2559795379638672e+01 }
                  - { var:48, quality:4.2726171016693115e-01,
                      gt:3.2861000061035156e+01 }
                  - { var:49, quality:4.2441809177398682e-01,
                      gt:3.0754604339599609e+01 }
            -
               depth: 1
               sample_count: 26546
               value: -8.2654385680972520e-01
               norm_class_idx: 0
               Tn: 0
               complexity: 0
               alpha: 0.
               node_risk: 0.
               tree_risk: 0.
               tree_error: 0.
            -
               depth: 1
               sample_count: 22943
               value: 8.2654385680972520e-01
               norm_class_idx: 1
               Tn: 0
               complexity: 0
               alpha: 0.
               node_risk: 0.
               tree_risk: 0.
               tree_error: 0.
      -
         best_tree_idx: -1
         nodes:
            -
               depth: 0
               sample_count: 49489
               value: -7.8587696471972635e-01
               norm_class_idx: 0
               Tn: 0
               complexity: 0
               alpha: 0.
               node_risk: 0.
               tree_risk: 0.
               tree_error: 0.
               splits:
                  - { var:49, quality:6.8694537878036499e-01,
                      le:4.6800236701965332e+00 }
                  - { var:48, quality:4.7155997157096863e-01,
                      le:5.3242845535278320e+00 }
                  - { var:30, quality:4.3901559710502625e-01,
                      le:1.7062122344970703e+01 }
                  - { var:7, quality:4.2249280214309692e-01,
                      le:5.5956583470106125e-02 }
                  - { var:47, quality:4.2129781842231750e-01,
                      le:9.8557269573211670e-01 }
                  - { var:9, quality:4.1681849956512451e-01,
                      le:4.2416611313819885e-01 }
                  - { var:23, quality:4.0966245532035828e-01,
                      gt:6.8443275451660156e+01 }
                  - { var:24, quality:3.9808920025825500e-01,
                      gt:3.2987577915191650e+00 }
                  - { var:20, quality:3.9580598473548889e-01,
                      gt:3.1043632030487061e+00 }
                  - { var:32, quality:3.9302888512611389e-01,
                      gt:2.5100088119506836e-01 }
                  - { var:29, quality:3.8270968198776245e-01,
                      gt:1.9599073566496372e-03 }
                  - { var:3, quality:3.8245430588722229e-01,
                      gt:1.9991397857666016e-03 }
                  - { var:1, quality:3.8114273548126221e-01,
                      gt:7.5000000000000000e+00 }
                  - { var:10, quality:3.8052377104759216e-01,
                      gt:4.9608828703640029e-05 }
                  - { var:19, quality:3.8041719794273376e-01,
                      le:5.3793466091156006e-01 }
                  - { var:28, quality:3.8030952215194702e-01,
                      gt:7.3701085057109594e-04 }
                  - { var:13, quality:3.7985122203826904e-01,
                      gt:1.2361411936581135e-03 }
                  - { var:21, quality:3.7975993752479553e-01,
                      gt:8.3612179756164551e-01 }
                  - { var:18, quality:3.7975907325744629e-01,
                      gt:3.5611145198345184e-02 }
                  - { var:14, quality:3.7975907325744629e-01,
                      gt:7.1773305535316467e-03 }
                  - { var:17, quality:3.7974739074707031e-01,
                      gt:2.0389538258314133e-02 }
                  - { var:15, quality:3.7972977757453918e-01,
                      gt:2.3616906255483627e-03 }
                  - { var:11, quality:3.7954223155975342e-01,
                      gt:7.7598597854375839e-03 }
                  - { var:31, quality:3.7904286384582520e-01,
                      gt:4.7043413360370323e-05 }
                  - { var:22, quality:3.7833991646766663e-01,
                      gt:3.2159888744354248e-01 }
                  - { var:25, quality:3.7726062536239624e-01,
                      gt:2.9636273384094238e+00 }
                  - { var:26, quality:3.7637791037559509e-01,
                      gt:3.7341399192810059e+00 }
                  - { var:27, quality:3.7579247355461121e-01,
                      gt:-3.2824371010065079e-04 }
                  - { var:12, quality:3.7464442849159241e-01,
                      gt:1.1005016858689487e-04 }
                  - { var:8, quality:3.7416991591453552e-01,
                      gt:1.9850072264671326e-01 }
                  - { var:45, quality:3.7090221047401428e-01,
                      le:2.9500000000000000e+01 }
                  - { var:38, quality:3.7088882923126221e-01,
                      le:5.8500000000000000e+01 }
            -
               depth: 1
               sample_count: 31300
               value: -7.8587696471972635e-01
               norm_class_idx: 0
               Tn: 0
               complexity: 0
               alpha: 0.
               node_risk: 0.
               tree_risk: 0.
               tree_error: 0.
            -
               depth: 1
               sample_count: 18189
               value: 7.8587696471972635e-01
               norm_class_idx: 1
               Tn: 0
               complexity: 0
               alpha: 0.
               node_risk: 0.
               tree_risk: 0.
               tree_error: 0.
      -
         best_tree_idx: -1
         nodes:
            -
               depth: 0
               sample_count: 49489
               value: -5.2981050510204297e-01
               norm_class_idx: 0
               Tn: 0
               complexity: 0
               alpha: 0.
               node_risk: 0.
               tree_risk: 0.
               tree_error: 0.
               splits:
                  - { var:22, quality:6.2943893671035767e-01,
                      le:8.7009978294372559e-01 }
                  - { var:20, quality:5.1655697822570801e-01,
                      le:1.1107957363128662e-01 }
                  - { var:1, quality:5.1590180397033691e-01,
                      le:2.5000000000000000e+00 }
                  - { var:11, quality:5.1431882381439209e-01,
                      le:2.1312311291694641e-03 }
                  - { var:15, quality:5.1377946138381958e-01,
                      le:4.7091739252209663e-03 }
                  - { var:28, quality:5.1369553804397583e-01,
                      le:3.2144969281944213e-06 }
                  - { var:24, quality:5.1369553804397583e-01,
                      le:2.5309025659225881e-04 }
                  - { var:23, quality:5.1369553804397583e-01,
                      le:7.5927079888060689e-04 }
                  - { var:21, quality:5.1369553804397583e-01,
                      le:5.6099869310855865e-02 }
                  - { var:19, quality:5.1369553804397583e-01,
                      le:3.6905139684677124e-02 }
                  - { var:18, quality:5.1369553804397583e-01,
                      le:1.4203929342329502e-02 }
                  - { var:17, quality:5.1369553804397583e-01,
                      le:8.2910731434822083e-03 }
                  - { var:14, quality:5.1369553804397583e-01,
                      le:2.7534493710845709e-03 }
                  - { var:13, quality:5.1369553804397583e-01,
                      le:3.4624761610757560e-05 }
                  - { var:31, quality:5.0313091278076172e-01,
                      le:8.9004075562115759e-05 }
                  - { var:29, quality:4.7412273287773132e-01,
                      le:5.3881904023000970e-05 }
                  - { var:3, quality:4.7412273287773132e-01,
                      le:2.8851657407358289e-04 }
                  - { var:47, quality:4.6128648519515991e-01,
                      le:8.0188512802124023e-01 }
                  - { var:32, quality:4.5941644906997681e-01,
                      le:1.4999628067016602e-02 }
                  - { var:10, quality:4.5896640419960022e-01,
                      le:4.6860448492225260e-05 }
                  - { var:6, quality:4.5858076214790344e-01,
                      le:1.4471480250358582e-01 }
                  - { var:27, quality:4.5572286844253540e-01,
                      le:-7.8902649879455566e-01 }
                  - { var:2, quality:4.5221480727195740e-01,
                      le:4.0894756093621254e-03 }
                  - { var:46, quality:4.5131686329841614e-01,
                      le:5.0000000000000000e-01 }
                  - { var:45, quality:4.5131686329841614e-01,
                      le:5.0000000000000000e-01 }
                  - { var:44, quality:4.5131686329841614e-01,
                      le:5.0000000000000000e-01 }
                  - { var:43, quality:4.5131686329841614e-01,
                      le:5.0000000000000000e-01 }
                  - { var:42, quality:4.5131686329841614e-01,
                      le:5.0000000000000000e-01 }
                  - { var:41, quality:4.5131686329841614e-01,
                      le:5.0000000000000000e-01 }
                  - { var:40, quality:4.5131686329841614e-01,
                      le:5.0000000000000000e-01 }
                  - { var:39, quality:4.5131686329841614e-01,
                      le:5.0000000000000000e-01 }
                  - { var:38, quality:4.5131686329841614e-01,
                      le:5.0000000000000000e-01 }
                  - { var:37, quality:4.5131686329841614e-01,
                      le:5.0000000000000000e-01 }
                  - { var:36, quality:4.5131686329841614e-01,
                      le:5.0000000000000000e-01 }
                  - { var:35, quality:4.5131686329841614e-01,
                      le:5.0000000000000000e-01 }
                  - { var:34, quality:4.5131686329841614e-01,
                      le:5.0000000000000000e-01 }
                  - { var:33, quality:4.5131686329841614e-01,
                      le:5.0000000000000000e-01 }
                  - { var:26, quality:4.5131686329841614e-01,
                      le:-5.0000000000000000e-01 }
                  - { var:9, quality:4.5131686329841614e-01,
                      le:-5.0000000000000000e-01 }
                  - { var:8, quality:4.5131686329841614e-01,
                      le:-5.0000000000000000e-01 }
                  - { var:7, quality:4.5131686329841614e-01,
                      le:-5.0000000000000000e-01 }
                  - { var:5, quality:4.4923132658004761e-01,
                      le:4.1486984118819237e-03 }
                  - { var:4, quality:4.4923132658004761e-01,
                      le:4.1277091950178146e-03 }
                  - { var:25, quality:4.3762618303298950e-01,
                      le:2.7020481866202317e-05 }
                  - { var:30, quality:4.1916200518608093e-01,
                      gt:2.0797903060913086e+01 }
                  - { var:12, quality:4.1456720232963562e-01,
                      le:1.1005016858689487e-04 }
                  - { var:49, quality:3.8648945093154907e-01,
                      gt:1.9087200164794922e+01 }
                  - { var:48, quality:3.8349691033363342e-01,
                      gt:2.5662544250488281e+01 }
            -
               depth: 1
               sample_count: 27371
               value: -5.2981050510204297e-01
               norm_class_idx: 0
               Tn: 0
               complexity: 0
               alpha: 0.
               node_risk: 0.
               tree_risk: 0.
               tree_error: 0.
            -
               depth: 1
               sample_count: 22118
               value: 5.2981050510204297e-01
               norm_class_idx: 1
               Tn: 0
               complexity: 0
               alpha: 0.
               node_risk: 0.
               tree_risk: 0.
               tree_error: 0.
      -
         best_tree_idx: -1
         nodes:
            -
               depth: 0
               sample_count: 49489
               value: -5.5604264988289198e-01
               norm_class_idx: 0
               Tn: 0
               complexity: 0
               alpha: 0.
               node_risk: 0.
               tree_risk: 0.
               tree_error: 0.
               splits:
                  - { var:48, quality:6.3553637266159058e-01,
                      le:4.7071828842163086e+00 }
                  - { var:30, quality:4.1935086250305176e-01,
                      le:1.6085836410522461e+01 }
                  - { var:49, quality:4.1449990868568420e-01,
                      le:9.8520021438598633e+00 }
                  - { var:7, quality:3.9548313617706299e-01,
                      le:6.8557083606719971e-02 }
                  - { var:47, quality:3.8655927777290344e-01,
                      le:9.8635840415954590e-01 }
                  - { var:20, quality:3.8306859135627747e-01,
                      gt:1.8354563713073730e+00 }
                  - { var:9, quality:3.8123360276222229e-01,
                      le:5.9906524419784546e-01 }
                  - { var:21, quality:3.7314921617507935e-01,
                      gt:1.4835298061370850e+00 }
                  - { var:13, quality:3.7178668379783630e-01,
                      gt:3.0108841601759195e-03 }
                  - { var:14, quality:3.7177968025207520e-01,
                      gt:1.7026592046022415e-02 }
                  - { var:29, quality:3.7161001563072205e-01,
                      gt:2.7238274924457073e-03 }
                  - { var:19, quality:3.7159034609794617e-01,
                      gt:1.0817584395408630e-01 }
                  - { var:28, quality:3.7140813469886780e-01,
                      gt:1.4340304187498987e-04 }
                  - { var:31, quality:3.7137106060981750e-01,
                      gt:2.9394389002845855e-06 }
                  - { var:11, quality:3.7134355306625366e-01,
                      gt:1.2306923046708107e-02 }
                  - { var:3, quality:3.7127703428268433e-01,
                      gt:6.6668784711509943e-04 }
                  - { var:15, quality:3.7123888731002808e-01,
                      gt:5.5122580379247665e-03 }
                  - { var:18, quality:3.7121963500976562e-01,
                      gt:3.3732771873474121e-02 }
                  - { var:17, quality:3.7120690941810608e-01,
                      gt:2.0389538258314133e-02 }
                  - { var:23, quality:3.7115800380706787e-01,
                      gt:1.8788781017065048e-02 }
                  - { var:24, quality:3.7085974216461182e-01,
                      gt:3.4500006586313248e-03 }
                  - { var:10, quality:3.6975201964378357e-01,
                      gt:2.8534367447718978e-04 }
                  - { var:1, quality:3.6960908770561218e-01,
                      gt:4.5000000000000000e+00 }
                  - { var:22, quality:3.6952012777328491e-01,
                      gt:1.2591630220413208e-01 }
                  - { var:32, quality:3.6921989917755127e-01,
                      gt:5.7999134063720703e-02 }
                  - { var:12, quality:3.6368006467819214e-01,
                      gt:1.0616354120429605e-04 }
                  - { var:2, quality:3.5830092430114746e-01,
                      gt:4.1714310646057129e-03 }
                  - { var:5, quality:3.5827007889747620e-01,
                      gt:1.0908337309956551e-02 }
                  - { var:4, quality:3.5826477408409119e-01,
                      gt:1.0814793407917023e-02 }
                  - { var:8, quality:3.5801953077316284e-01,
                      gt:5.3125834092497826e-03 }
                  - { var:6, quality:3.5799616575241089e-01,
                      gt:4.0230345912277699e-03 }
                  - { var:33, quality:3.5657325387001038e-01,
                      gt:1.5000000000000000e+00 }
                  - { var:45, quality:3.5627272725105286e-01,
                      gt:5.0000000000000000e-01 }
                  - { var:41, quality:3.5627272725105286e-01,
                      gt:5.0000000000000000e-01 }
                  - { var:39, quality:3.5627272725105286e-01,
                      gt:5.0000000000000000e-01 }
                  - { var:37, quality:3.5627272725105286e-01,
                      gt:5.0000000000000000e-01 }
                  - { var:34, quality:3.5627272725105286e-01,
                      gt:5.0000000000000000e-01 }
                  - { var:26, quality:3.5627272725105286e-01,
                      gt:-5.0000000000000000e-01 }
                  - { var:27, quality:3.5470154881477356e-01,
                      gt:-9.9466598033905029e-01 }
                  - { var:25, quality:3.5107198357582092e-01,
                      gt:-9.9111232757568359e+00 }
                  - { var:35, quality:3.4899288415908813e-01,
                      gt:1.5000000000000000e+00 }
            -
               depth: 1
               sample_count: 31235
               value: -5.5604264988289198e-01
               norm_class_idx: 0
               Tn: 0
               complexity: 0
               alpha: 0.
               node_risk: 0.
               tree_risk: 0.
               tree_error: 0.
            -
               depth: 1
               sample_count: 18254
               value: 5.5604264988289198e-01
               norm_class_idx: 1
               Tn: 0
               complexity: 0
               alpha: 0.
               node_risk: 0.
               tree_risk: 0.
               tree_error: 0.
      -
         best_tree_idx: -1
         nodes:
            -
               depth: 0
               sample_count: 49489
               value: -4.8760794553137521e-01
               norm_class_idx: 0
               Tn: 0
               complexity: 0
               alpha: 0.
               node_risk: 0.
               tree_risk: 0.
               tree_error: 0.
               splits:
                  - { var:24, quality:6.1954277753829956e-01,
                      le:1.7072108983993530e+00 }
                  - { var:23, quality:5.8048224449157715e-01,
                      le:1.4921375274658203e+01 }
                  - { var:25, quality:5.0927662849426270e-01,
                      le:1.0446381568908691e+00 }
                  - { var:26, quality:5.0693517923355103e-01,
                      le:1.3286437988281250e+00 }
                  - { var:21, quality:5.0522989034652710e-01,
                      le:1.1629934310913086e+00 }
                  - { var:19, quality:5.0086361169815063e-01,
                      le:2.1085341274738312e-01 }
                  - { var:15, quality:5.0031256675720215e-01,
                      le:9.1632092371582985e-03 }
                  - { var:28, quality:5.0027400255203247e-01,
                      le:3.2144969281944213e-06 }
                  - { var:18, quality:5.0027400255203247e-01,
                      le:1.4203929342329502e-02 }
                  - { var:17, quality:5.0027400255203247e-01,
                      le:8.2910731434822083e-03 }
                  - { var:14, quality:5.0027400255203247e-01,
                      le:2.7534493710845709e-03 }
                  - { var:13, quality:5.0027400255203247e-01,
                      le:3.4624761610757560e-05 }
                  - { var:11, quality:4.9921420216560364e-01,
                      le:2.1312311291694641e-03 }
                  - { var:22, quality:4.9662226438522339e-01,
                      le:1.2591630220413208e-01 }
                  - { var:20, quality:4.9662226438522339e-01,
                      le:3.2664836908224970e-05 }
                  - { var:1, quality:4.9662226438522339e-01,
                      le:2.5000000000000000e+00 }
                  - { var:31, quality:4.8977327346801758e-01,
                      le:6.6841101215686649e-05 }
                  - { var:27, quality:4.8520725965499878e-01,
                      le:6.8011349439620972e-01 }
                  - { var:3, quality:4.6430066227912903e-01,
                      le:5.7717075105756521e-04 }
                  - { var:29, quality:4.6430054306983948e-01,
                      le:5.3881904023000970e-05 }
                  - { var:6, quality:4.5879408717155457e-01,
                      le:1.7775645852088928e-01 }
                  - { var:5, quality:4.5196020603179932e-01,
                      le:8.5733965039253235e-02 }
                  - { var:4, quality:4.5067667961120605e-01,
                      le:8.5657179355621338e-02 }
                  - { var:10, quality:4.4872784614562988e-01,
                      le:4.9608828703640029e-05 }
                  - { var:32, quality:4.4572240114212036e-01,
                      le:4.6999454498291016e-02 }
                  - { var:9, quality:4.3889600038528442e-01,
                      le:4.9732875777408481e-04 }
                  - { var:7, quality:4.3889600038528442e-01,
                      le:8.7156228255480528e-04 }
                  - { var:47, quality:4.3888887763023376e-01,
                      le:8.6359485983848572e-02 }
                  - { var:2, quality:4.3723270297050476e-01,
                      le:3.0635800212621689e-03 }
                  - { var:8, quality:4.3399211764335632e-01,
                      le:1.7453478649258614e-03 }
                  - { var:46, quality:4.3033120036125183e-01,
                      le:5.0000000000000000e-01 }
                  - { var:45, quality:4.3033120036125183e-01,
                      le:5.0000000000000000e-01 }
                  - { var:44, quality:4.3033120036125183e-01,
                      le:5.0000000000000000e-01 }
                  - { var:43, quality:4.3033120036125183e-01,
                      le:5.0000000000000000e-01 }
                  - { var:42, quality:4.3033120036125183e-01,
                      le:5.0000000000000000e-01 }
                  - { var:41, quality:4.3033120036125183e-01,
                      le:5.0000000000000000e-01 }
                  - { var:40, quality:4.3033120036125183e-01,
                      le:5.0000000000000000e-01 }
                  - { var:39, quality:4.3033120036125183e-01,
                      le:5.0000000000000000e-01 }
                  - { var:38, quality:4.3033120036125183e-01,
                      le:5.0000000000000000e-01 }
                  - { var:37, quality:4.3033120036125183e-01,
                      le:5.0000000000000000e-01 }
                  - { var:36, quality:4.3033120036125183e-01,
                      le:5.0000000000000000e-01 }
                  - { var:35, quality:4.3033120036125183e-01,
                      le:5.0000000000000000e-01 }
                  - { var:34, quality:4.3033120036125183e-01,
                      le:5.0000000000000000e-01 }
                  - { var:33, quality:4.3033120036125183e-01,
                      le:5.0000000000000000e-01 }
                  - { var:12, quality:4.2323243618011475e-01,
                      le:1.1124979937449098e-04 }
                  - { var:30, quality:3.9029935002326965e-01,
                      gt:2.2479795455932617e+01 }
                  - { var:49, quality:3.7190419435501099e-01,
                      gt:1.7257999420166016e+01 }
                  - { var:48, quality:3.6689251661300659e-01,
                      gt:1.6876688003540039e+01 }
            -
               depth: 1
               sample_count: 24184
               value: 4.8760794553137521e-01
               norm_class_idx: 1
               Tn: 0
               complexity: 0
               alpha: 0.
               node_risk: 0.
               tree_risk: 0.
               tree_error: 0.
            -
               depth: 1
               sample_count: 25305
               value: -4.8760794553137521e-01
               norm_class_idx: 0
               Tn: 0
               complexity: 0
               alpha: 0.
               node_risk: 0.
               tree_risk: 0.
               tree_error: 0.
      -
         best_tree_idx: -1
         nodes:
            -
               depth: 0
               sample_count: 49489
               value: -4.3011090248437572e-01
               norm_class_idx: 0
               Tn: 0
               complexity: 0
               alpha: 0.
               node_risk: 0.
               tree_risk: 0.
               tree_error: 0.
               splits:
                  - { var:26, quality:6.0590016841888428e-01,
                      le:3.8695074617862701e-02 }
                  - { var:25, quality:5.8738756179809570e-01,
                      le:2.7020481866202317e-05 }
                  - { var:27, quality:5.6486058235168457e-01,
                      le:4.2433010094100609e-05 }
                  - { var:23, quality:4.5787149667739868e-01,
                      le:1.9320039078593254e-02 }
                  - { var:17, quality:4.5778533816337585e-01,
                      le:2.4307455867528915e-02 }
                  - { var:15, quality:4.5777326822280884e-01,
                      le:7.5826253741979599e-03 }
                  - { var:18, quality:4.5776942372322083e-01,
                      le:3.7679430097341537e-02 }
                  - { var:24, quality:4.5776578783988953e-01,
                      le:1.1692540720105171e-03 }
                  - { var:28, quality:4.5772817730903625e-01,
                      le:3.3952543162740767e-05 }
                  - { var:21, quality:4.5772254467010498e-01,
                      le:5.6099869310855865e-02 }
                  - { var:19, quality:4.5772254467010498e-01,
                      le:3.6905139684677124e-02 }
                  - { var:14, quality:4.5772254467010498e-01,
                      le:2.7534493710845709e-03 }
                  - { var:13, quality:4.5772254467010498e-01,
                      le:3.4624761610757560e-05 }
                  - { var:11, quality:4.5636045932769775e-01,
                      le:2.1312311291694641e-03 }
                  - { var:29, quality:4.5560625195503235e-01,
                      le:4.4179003452882171e-04 }
                  - { var:3, quality:4.5555016398429871e-01,
                      le:1.0479231132194400e-03 }
                  - { var:22, quality:4.5549497008323669e-01,
                      le:7.0939517021179199e-01 }
                  - { var:20, quality:4.5377984642982483e-01,
                      le:2.0840021967887878e-01 }
                  - { var:1, quality:4.5302912592887878e-01,
                      le:2.5000000000000000e+00 }
                  - { var:31, quality:4.5201551914215088e-01,
                      le:5.0373797421343625e-05 }
                  - { var:10, quality:4.4440093636512756e-01,
                      le:4.9608828703640029e-05 }
                  - { var:6, quality:4.3852284550666809e-01,
                      le:2.4538011848926544e-01 }
                  - { var:5, quality:4.3218275904655457e-01,
                      le:9.6518382430076599e-02 }
                  - { var:4, quality:4.3212646245956421e-01,
                      le:9.6166662871837616e-02 }
                  - { var:33, quality:4.2732751369476318e-01,
                      le:2.5000000000000000e+00 }
                  - { var:32, quality:4.1953709721565247e-01,
                      le:6.1998844146728516e-02 }
                  - { var:12, quality:4.1500228643417358e-01,
                      le:1.0616354120429605e-04 }
                  - { var:34, quality:4.0993401408195496e-01,
                      le:2.5000000000000000e+00 }
                  - { var:35, quality:4.0662842988967896e-01,
                      le:1.5000000000000000e+00 }
                  - { var:2, quality:3.9508461952209473e-01,
                      le:4.0402850136160851e-03 }
                  - { var:8, quality:3.9114698767662048e-01,
                      le:1.7453478649258614e-03 }
                  - { var:47, quality:3.8879084587097168e-01,
                      le:7.8572285175323486e-01 }
                  - { var:46, quality:3.8644173741340637e-01,
                      le:5.0000000000000000e-01 }
                  - { var:45, quality:3.8644173741340637e-01,
                      le:5.0000000000000000e-01 }
                  - { var:44, quality:3.8644173741340637e-01,
                      le:5.0000000000000000e-01 }
                  - { var:43, quality:3.8644173741340637e-01,
                      le:5.0000000000000000e-01 }
                  - { var:42, quality:3.8644173741340637e-01,
                      le:5.0000000000000000e-01 }
                  - { var:41, quality:3.8644173741340637e-01,
                      le:5.0000000000000000e-01 }
                  - { var:40, quality:3.8644173741340637e-01,
                      le:5.0000000000000000e-01 }
                  - { var:39, quality:3.8644173741340637e-01,
                      le:5.0000000000000000e-01 }
                  - { var:38, quality:3.8644173741340637e-01,
                      le:5.0000000000000000e-01 }
                  - { var:37, quality:3.8644173741340637e-01,
                      le:5.0000000000000000e-01 }
                  - { var:36, quality:3.8644173741340637e-01,
                      le:5.0000000000000000e-01 }
                  - { var:9, quality:3.8644173741340637e-01,
                      le:-5.0000000000000000e-01 }
                  - { var:7, quality:3.8644173741340637e-01,
                      le:-5.0000000000000000e-01 }
                  - { var:30, quality:3.6210563778877258e-01,
                      gt:1.7553966522216797e+01 }
                  - { var:49, quality:3.2473009824752808e-01,
                      gt:1.7257999420166016e+01 }
                  - { var:48, quality:3.2066386938095093e-01,
                      gt:1.8248064041137695e+01 }
            -
               depth: 1
               sample_count: 30098
               value: -4.3011090248437572e-01
               norm_class_idx: 0
               Tn: 0
               complexity: 0
               alpha: 0.
               node_risk: 0.
               tree_risk: 0.
               tree_error: 0.
            -
               depth: 1
               sample_count: 19391
               value: 4.3011090248437572e-01
               norm_class_idx: 1
               Tn: 0
               complexity: 0
               alpha: 0.
               node_risk: 0.
               tree_risk: 0.
               tree_error: 0.
      -
         best_tree_idx: -1
         nodes:
            -
               depth: 0
               sample_count: 49489
               value: -3.9465873822357084e-01
               norm_class_idx: 0
               Tn: 0
               complexity: 0
               alpha: 0.
               node_risk: 0.
               tree_risk: 0.
               tree_error: 0.
               splits:
                  - { var:24, quality:5.9740370512008667e-01,
                      le:1.4647770881652832e+01 }
                  - { var:25, quality:5.6666928529739380e-01,
                      le:3.6547021865844727e+00 }
                  - { var:26, quality:5.6368118524551392e-01,
                      le:4.0791778564453125e+00 }
                  - { var:23, quality:5.3214704990386963e-01,
                      le:1.1868296813964844e+02 }
                  - { var:27, quality:5.0045329332351685e-01,
                      le:8.8910251855850220e-01 }
                  - { var:28, quality:4.3399778008460999e-01,
                      le:1.7285015434026718e-02 }
                  - { var:29, quality:4.3398827314376831e-01,
                      le:3.1621560454368591e-02 }
                  - { var:39, quality:4.3125388026237488e-01,
                      le:4.5000000000000000e+00 }
                  - { var:37, quality:4.3116858601570129e-01,
                      le:6.5000000000000000e+00 }
                  - { var:3, quality:4.3052628636360168e-01,
                      le:8.2106947898864746e-02 }
                  - { var:44, quality:4.3042662739753723e-01,
                      le:2.5000000000000000e+00 }
                  - { var:42, quality:4.2992848157882690e-01,
                      le:2.5000000000000000e+00 }
                  - { var:36, quality:4.2930257320404053e-01,
                      le:6.5000000000000000e+00 }
                  - { var:38, quality:4.2837035655975342e-01,
                      le:3.5000000000000000e+00 }
                  - { var:41, quality:4.2805859446525574e-01,
                      le:5.5000000000000000e+00 }
                  - { var:40, quality:4.2738905549049377e-01,
                      le:6.5000000000000000e+00 }
                  - { var:45, quality:4.2735937237739563e-01,
                      le:4.5000000000000000e+00 }
                  - { var:13, quality:4.2703628540039062e-01,
                      le:8.0245852470397949e-01 }
                  - { var:35, quality:4.2692503333091736e-01,
                      le:1.0500000000000000e+01 }
                  - { var:8, quality:4.2668944597244263e-01,
                      le:5.5697262287139893e-01 }
                  - { var:14, quality:4.2603665590286255e-01,
                      le:1.1701217889785767e+00 }
                  - { var:11, quality:4.2596226930618286e-01,
                      le:1.0542821884155273e+00 }
                  - { var:43, quality:4.2565724253654480e-01,
                      le:6.5000000000000000e+00 }
                  - { var:19, quality:4.2540189623832703e-01,
                      le:7.6855289936065674e-01 }
                  - { var:32, quality:4.2441388964653015e-01,
                      le:8.0400037765502930e-01 }
                  - { var:4, quality:4.2421379685401917e-01,
                      le:6.2540465593338013e-01 }
                  - { var:5, quality:4.2414423823356628e-01,
                      le:6.6322779655456543e-01 }
                  - { var:18, quality:4.2413681745529175e-01,
                      le:4.5661039352416992e+00 }
                  - { var:2, quality:4.2409953474998474e-01,
                      le:4.0000033378601074e-01 }
                  - { var:17, quality:4.2409333586692810e-01,
                      le:2.2345170974731445e+01 }
            -
               depth: 1
               sample_count: 35371
               value: 3.9465873822357084e-01
               norm_class_idx: 1
               Tn: 0
               complexity: 0
               alpha: 0.
               node_risk: 0.
               tree_risk: 0.
               tree_error: 0.
            -
               depth: 1
               sample_count: 14118
               value: -3.9465873822357084e-01
               norm_class_idx: 0
               Tn: 0
               complexity: 0
               alpha: 0.
               node_risk: 0.
               tree_risk: 0.
               tree_error: 0.
      -
         best_tree_idx: -1
         nodes:
            -
               depth: 0
               sample_count: 49489
               value: -3.6956302752608222e-01
               norm_class_idx: 0
               Tn: 0
               complexity: 0
               alpha: 0.
               node_risk: 0.
               tree_risk: 0.
               tree_error: 0.
               splits:
                  - { var:9, quality:5.9135335683822632e-01,
                      le:3.5959362983703613e-01 }
                  - { var:47, quality:5.3449827432632446e-01,
                      le:9.7983747720718384e-01 }
                  - { var:7, quality:4.8631176352500916e-01,
                      le:5.2406337112188339e-02 }
                  - { var:29, quality:4.4638141989707947e-01,
                      gt:-5.0000000000000000e-01 }
                  - { var:15, quality:4.0953996777534485e-01,
                      le:8.1798958778381348e-01 }
                  - { var:28, quality:4.0436381101608276e-01,
                      gt:-5.0000000000000000e-01 }
                  - { var:1, quality:4.0055078268051147e-01,
                      gt:6.5000000000000000e+00 }
                  - { var:30, quality:3.9775395393371582e-01,
                      le:1.1831720352172852e+01 }
                  - { var:19, quality:3.9152076840400696e-01,
                      le:4.2153650522232056e-01 }
                  - { var:32, quality:3.9109641313552856e-01,
                      gt:2.1999955177307129e-01 }
                  - { var:20, quality:3.8677519559860229e-01,
                      gt:4.2822837829589844e+00 }
                  - { var:25, quality:3.7618806958198547e-01,
                      le:-4.9721502000465989e-04 }
                  - { var:10, quality:3.7604650855064392e-01,
                      gt:7.5299432501196861e-03 }
                  - { var:17, quality:3.7361159920692444e-01,
                      gt:6.6876685619354248e-01 }
                  - { var:4, quality:3.6798837780952454e-01,
                      le:1.0616019368171692e-02 }
                  - { var:5, quality:3.6796364188194275e-01,
                      le:1.1057585477828979e-02 }
                  - { var:6, quality:3.6762854456901550e-01,
                      le:2.7113005518913269e-02 }
                  - { var:8, quality:3.6573168635368347e-01,
                      le:2.2077696397900581e-02 }
                  - { var:18, quality:3.6347833275794983e-01,
                      gt:1.0632356405258179e+00 }
                  - { var:12, quality:3.6319524049758911e-01,
                      gt:6.6307152155786753e-04 }
                  - { var:33, quality:3.6268237233161926e-01,
                      gt:3.5000000000000000e+00 }
                  - { var:2, quality:3.6208015680313110e-01,
                      le:1.8990786746144295e-02 }
                  - { var:49, quality:3.5932374000549316e-01,
                      le:1.2330223083496094e+01 }
                  - { var:48, quality:3.5829973220825195e-01,
                      le:1.2132722854614258e+01 }
                  - { var:3, quality:3.5823693871498108e-01,
                      gt:2.8588484972715378e-02 }
                  - { var:31, quality:3.5654795169830322e-01,
                      gt:2.2490374743938446e-02 }
                  - { var:46, quality:3.4875324368476868e-01,
                      le:5.0000000000000000e-01 }
                  - { var:45, quality:3.4875324368476868e-01,
                      le:5.0000000000000000e-01 }
                  - { var:44, quality:3.4875324368476868e-01,
                      le:5.0000000000000000e-01 }
                  - { var:43, quality:3.4875324368476868e-01,
                      le:5.0000000000000000e-01 }
                  - { var:42, quality:3.4875324368476868e-01,
                      le:5.0000000000000000e-01 }
                  - { var:41, quality:3.4875324368476868e-01,
                      le:5.0000000000000000e-01 }
                  - { var:40, quality:3.4875324368476868e-01,
                      le:5.0000000000000000e-01 }
                  - { var:39, quality:3.4875324368476868e-01,
                      le:5.0000000000000000e-01 }
                  - { var:38, quality:3.4875324368476868e-01,
                      le:5.0000000000000000e-01 }
                  - { var:37, quality:3.4875324368476868e-01,
                      le:5.0000000000000000e-01 }
                  - { var:36, quality:3.4875324368476868e-01,
                      le:5.0000000000000000e-01 }
                  - { var:35, quality:3.4875324368476868e-01,
                      le:5.0000000000000000e-01 }
                  - { var:34, quality:3.4875324368476868e-01,
                      le:5.0000000000000000e-01 }
                  - { var:26, quality:3.4875324368476868e-01,
                      le:-5.0000000000000000e-01 }
                  - { var:24, quality:3.4875324368476868e-01,
                      le:-5.0000000000000000e-01 }
                  - { var:23, quality:3.4875324368476868e-01,
                      le:-5.0000000000000000e-01 }
                  - { var:13, quality:3.4754243493080139e-01,
                      le:2.8166604042053223e-01 }
                  - { var:27, quality:3.4594103693962097e-01,
                      le:9.0243732929229736e-01 }
                  - { var:11, quality:3.3983564376831055e-01,
                      le:1.6918215751647949e+00 }
                  - { var:14, quality:3.3756399154663086e-01,
                      le:2.2056853771209717e+00 }
            -
               depth: 1
               sample_count: 30447
               value: -3.6956302752608222e-01
               norm_class_idx: 0
               Tn: 0
               complexity: 0
               alpha: 0.
               node_risk: 0.
               tree_risk: 0.
               tree_error: 0.
            -
               depth: 1
               sample_count: 19042
               value: 3.6956302752608222e-01
               norm_class_idx: 1
               Tn: 0
               complexity: 0
               alpha: 0.
               node_risk: 0.
               tree_risk: 0.
               tree_error: 0.
      -
         best_tree_idx: -1
         nodes:
            -
               depth: 0
               sample_count: 49489
               value: -4.5214297542253312e-01
               norm_class_idx: 0
               Tn: 0
               complexity: 0
               alpha: 0.
               node_risk: 0.
               tree_risk: 0.
               tree_error: 0.
               splits:
                  - { var:33, quality:6.1114859580993652e-01,
                      le:3.5000000000000000e+00 }
                  - { var:34, quality:5.5071330070495605e-01,
                      le:2.5000000000000000e+00 }
                  - { var:35, quality:5.3234159946441650e-01,
                      le:2.5000000000000000e+00 }
                  - { var:10, quality:5.2260953187942505e-01,
                      le:2.2523896768689156e-03 }
                  - { var:1, quality:5.1917737722396851e-01,
                      le:7.5000000000000000e+00 }
                  - { var:17, quality:5.1677799224853516e-01,
                      le:5.2229630947113037e-01 }
                  - { var:18, quality:5.0852483510971069e-01,
                      le:1.0462856292724609e+00 }
                  - { var:12, quality:5.0806242227554321e-01,
                      le:1.5809563046786934e-04 }
                  - { var:36, quality:5.0669974088668823e-01,
                      le:2.5000000000000000e+00 }
                  - { var:31, quality:5.0599193572998047e-01,
                      le:1.6797525808215141e-02 }
                  - { var:6, quality:4.9075320363044739e-01,
                      le:4.2956957221031189e-01 }
                  - { var:29, quality:4.9026349186897278e-01,
                      le:7.0652370341122150e-03 }
                  - { var:32, quality:4.8778384923934937e-01,
                      le:1.6099953651428223e-01 }
                  - { var:37, quality:4.8549282550811768e-01,
                      le:2.5000000000000000e+00 }
                  - { var:20, quality:4.8181265592575073e-01,
                      le:3.5210399627685547e+00 }
                  - { var:3, quality:4.8095947504043579e-01,
                      le:8.0573540180921555e-03 }
                  - { var:38, quality:4.7060546278953552e-01,
                      le:1.5000000000000000e+00 }
                  - { var:4, quality:4.6956834197044373e-01,
                      le:1.7273563146591187e-01 }
                  - { var:5, quality:4.6823647618293762e-01,
                      le:1.7030966281890869e-01 }
                  - { var:39, quality:4.6589916944503784e-01,
                      le:1.5000000000000000e+00 }
                  - { var:40, quality:4.5954605937004089e-01,
                      le:1.5000000000000000e+00 }
                  - { var:41, quality:4.5450791716575623e-01,
                      le:1.5000000000000000e+00 }
                  - { var:14, quality:4.5333349704742432e-01,
                      le:2.2097933292388916e-01 }
                  - { var:42, quality:4.4818350672721863e-01,
                      le:1.5000000000000000e+00 }
                  - { var:28, quality:4.4590657949447632e-01,
                      le:4.1606714949011803e-03 }
                  - { var:23, quality:4.4301339983940125e-01,
                      le:5.5971141815185547e+01 }
                  - { var:43, quality:4.4299331307411194e-01,
                      le:1.5000000000000000e+00 }
                  - { var:11, quality:4.4204926490783691e-01,
                      le:1.3592252135276794e-01 }
                  - { var:30, quality:4.3847605586051941e-01,
                      gt:1.1804283142089844e+01 }
                  - { var:44, quality:4.3740394711494446e-01,
                      le:1.5000000000000000e+00 }
                  - { var:45, quality:4.3347865343093872e-01,
                      le:1.5000000000000000e+00 }
                  - { var:46, quality:4.3003273010253906e-01,
                      le:1.5000000000000000e+00 }
                  - { var:13, quality:4.2100656032562256e-01,
                      le:1.3481454923748970e-02 }
                  - { var:19, quality:4.2046737670898438e-01,
                      le:1.1911898851394653e-01 }
                  - { var:21, quality:4.1359645128250122e-01,
                      le:1.4835298061370850e+00 }
                  - { var:24, quality:4.0972250699996948e-01,
                      le:1.6594458371400833e-02 }
                  - { var:15, quality:4.0796297788619995e-01,
                      le:5.5122580379247665e-03 }
                  - { var:8, quality:4.0418273210525513e-01,
                      le:2.3471337556838989e-01 }
                  - { var:22, quality:4.0383261442184448e-01,
                      le:1.2591630220413208e-01 }
                  - { var:26, quality:4.0221703052520752e-01,
                      le:1.8968296051025391e+00 }
                  - { var:47, quality:3.9787936210632324e-01,
                      gt:9.8047757148742676e-01 }
                  - { var:25, quality:3.9405801892280579e-01,
                      le:1.8156552314758301e+00 }
                  - { var:9, quality:3.9057344198226929e-01,
                      gt:4.4462472200393677e-01 }
                  - { var:49, quality:3.7779930233955383e-01,
                      gt:-3.0000001192092896e-01 }
                  - { var:27, quality:3.7384152412414551e-01,
                      gt:-3.5291633605957031e+01 }
            -
               depth: 1
               sample_count: 33057
               value: -4.5214297542253312e-01
               norm_class_idx: 0
               Tn: 0
               complexity: 0
               alpha: 0.
               node_risk: 0.
               tree_risk: 0.
               tree_error: 0.
            -
               depth: 1
               sample_count: 16432
               value: 4.5214297542253312e-01
               norm_class_idx: 1
               Tn: 0
               complexity: 0
               alpha: 0.
               node_risk: 0.
               tree_risk: 0.
               tree_error: 0.
      -
         best_tree_idx: -1
         nodes:
            -
               depth: 0
               sample_count: 49489
               value: -3.7603084613515736e-01
               norm_class_idx: 0
               Tn: 0
               complexity: 0
               alpha: 0.
               node_risk: 0.
               tree_risk: 0.
               tree_error: 0.
               splits:
                  - { var:8, quality:5.9291541576385498e-01,
                      le:1.5269583463668823e-01 }
                  - { var:3, quality:4.9214410781860352e-01,
                      le:3.7602655589580536e-02 }
                  - { var:5, quality:4.7639152407646179e-01,
                      le:1.6529482603073120e-01 }
                  - { var:4, quality:4.7420194745063782e-01,
                      le:1.5996855497360229e-01 }
                  - { var:32, quality:4.7109383344650269e-01,
                      le:2.6449990272521973e-01 }
                  - { var:44, quality:4.6543505787849426e-01,
                      le:1.5000000000000000e+00 }
                  - { var:2, quality:4.6389046311378479e-01,
                      le:4.7501564025878906e-02 }
                  - { var:43, quality:4.6334490180015564e-01,
                      le:1.5000000000000000e+00 }
                  - { var:28, quality:4.6031469106674194e-01,
                      le:1.3020545244216919e-02 }
                  - { var:41, quality:4.5688024163246155e-01,
                      le:1.5000000000000000e+00 }
                  - { var:40, quality:4.5163214206695557e-01,
                      le:1.5000000000000000e+00 }
                  - { var:29, quality:4.4995039701461792e-01,
                      le:2.1043624728918076e-02 }
                  - { var:6, quality:4.4826915860176086e-01,
                      le:3.9779275655746460e-01 }
                  - { var:18, quality:4.4718459248542786e-01,
                      le:1.0782027244567871e+00 }
                  - { var:17, quality:4.4633373618125916e-01,
                      le:7.7252352237701416e-01 }
                  - { var:39, quality:4.4464981555938721e-01,
                      le:1.5000000000000000e+00 }
                  - { var:38, quality:4.3757608532905579e-01,
                      le:1.5000000000000000e+00 }
                  - { var:14, quality:4.3361446261405945e-01,
                      le:3.3843991160392761e-01 }
                  - { var:11, quality:4.3239805102348328e-01,
                      le:2.5190588831901550e-01 }
                  - { var:12, quality:4.3079525232315063e-01,
                      le:2.0832242444157600e-03 }
                  - { var:31, quality:4.2959567904472351e-01,
                      le:3.7494841963052750e-02 }
                  - { var:37, quality:4.2691558599472046e-01,
                      le:1.5000000000000000e+00 }
                  - { var:10, quality:4.1923168301582336e-01,
                      le:2.9847534373402596e-02 }
                  - { var:36, quality:4.1628274321556091e-01,
                      le:3.5000000000000000e+00 }
                  - { var:35, quality:4.1133302450180054e-01,
                      le:3.5000000000000000e+00 }
                  - { var:19, quality:4.1062456369400024e-01,
                      le:4.1093572974205017e-01 }
                  - { var:7, quality:4.0634784102439880e-01,
                      le:1.4331272244453430e-01 }
                  - { var:13, quality:4.0448036789894104e-01,
                      le:1.6573522984981537e-01 }
                  - { var:34, quality:4.0272644162178040e-01,
                      le:4.5000000000000000e+00 }
                  - { var:33, quality:3.9161086082458496e-01,
                      le:6.5000000000000000e+00 }
                  - { var:23, quality:3.8847783207893372e-01,
                      le:4.9465768432617188e+02 }
                  - { var:1, quality:3.8510084152221680e-01,
                      le:1.6500000000000000e+01 }
                  - { var:24, quality:3.7458574771881104e-01,
                      le:6.6873443603515625e+01 }
                  - { var:26, quality:3.7403360009193420e-01,
                      le:5.7737259864807129e+00 }
                  - { var:30, quality:3.7125805020332336e-01,
                      le:3.4915420532226562e+01 }
                  - { var:25, quality:3.7120759487152100e-01,
                      le:8.0882530212402344e+00 }
                  - { var:48, quality:3.6884084343910217e-01,
                      le:3.4228500366210938e+01 }
                  - { var:20, quality:3.6745613813400269e-01,
                      le:4.8512666015625000e+03 }
                  - { var:49, quality:3.6633893847465515e-01,
                      le:3.4844001770019531e+01 }
                  - { var:27, quality:3.6340272426605225e-01,
                      gt:-1.5065390014648438e+02 }
            -
               depth: 1
               sample_count: 31032
               value: 3.7603084613515736e-01
               norm_class_idx: 1
               Tn: 0
               complexity: 0
               alpha: 0.
               node_risk: 0.
               tree_risk: 0.
               tree_error: 0.
            -
               depth: 1
               sample_count: 18457
               value: -3.7603084613515736e-01
               norm_class_idx: 0
               Tn: 0
               complexity: 0
               alpha: 0.
               node_risk: 0.
               tree_risk: 0.
               tree_error: 0.
      -
         best_tree_idx: -1
         nodes:
            -
               depth: 0
               sample_count: 49489
               value: -3.0923542762552708e-01
               norm_class_idx: 0
               Tn: 0
               complexity: 0
               alpha: 0.
               node_risk: 0.
               tree_risk: 0.
               tree_error: 0.
               splits:
                  - { var:27, quality:5.7669860124588013e-01,
                      le:-1.0071213245391846e+00 }
                  - { var:28, quality:5.6064462661743164e-01,
                      gt:1.0951840877532959e-01 }
                  - { var:48, quality:5.6063157320022583e-01,
                      gt:6.4934997558593750e+01 }
            -
               depth: 1
               sample_count: 953
               value: 3.0923542762552708e-01
               norm_class_idx: 1
               Tn: 0
               complexity: 0
               alpha: 0.
               node_risk: 0.
               tree_risk: 0.
               tree_error: 0.
            -
               depth: 1
               sample_count: 48536
               value: -3.0923542762552708e-01
               norm_class_idx: 0
               Tn: 0
               complexity: 0
               alpha: 0.
               node_risk: 0.
               tree_risk: 0.
               tree_error: 0.
      -
         best_tree_idx: -1
         nodes:
            -
               depth: 0
               sample_count: 49489
               value: -3.5385121157241040e-01
               norm_class_idx: 0
               Tn: 0
               complexity: 0
               alpha: 0.
               node_risk: 0.
               tree_risk: 0.
               tree_error: 0.
               splits:
                  - { var:23, quality:5.8755117654800415e-01,
                      le:3.1010278320312500e+02 }
                  - { var:24, quality:5.2356362342834473e-01,
                      le:3.0814750671386719e+01 }
                  - { var:26, quality:5.2112597227096558e-01,
                      le:5.7678098678588867e+00 }
                  - { var:25, quality:5.1502811908721924e-01,
                      le:5.5596766471862793e+00 }
                  - { var:18, quality:4.9904352426528931e-01,
                      le:3.0664761066436768e+00 }
                  - { var:35, quality:4.9897632002830505e-01,
                      le:1.0500000000000000e+01 }
                  - { var:6, quality:4.9871250987052917e-01,
                      le:1.4379227161407471e+00 }
                  - { var:36, quality:4.9864143133163452e-01,
                      le:7.5000000000000000e+00 }
                  - { var:17, quality:4.9855411052703857e-01,
                      le:2.0667524337768555e+00 }
                  - { var:5, quality:4.9811804294586182e-01,
                      le:5.2939307689666748e-01 }
                  - { var:4, quality:4.9811106920242310e-01,
                      le:4.4538420438766479e-01 }
                  - { var:34, quality:4.9782600998878479e-01,
                      le:1.1500000000000000e+01 }
                  - { var:31, quality:4.9675771594047546e-01,
                      le:1.9530513882637024e-01 }
                  - { var:37, quality:4.9668836593627930e-01,
                      le:8.5000000000000000e+00 }
                  - { var:10, quality:4.9571058154106140e-01,
                      le:1.1281321048736572e+00 }
                  - { var:32, quality:4.9515536427497864e-01,
                      le:8.0400037765502930e-01 }
                  - { var:33, quality:4.9462491273880005e-01,
                      le:2.5500000000000000e+01 }
                  - { var:39, quality:4.9441862106323242e-01,
                      le:5.5000000000000000e+00 }
                  - { var:12, quality:4.9384543299674988e-01,
                      le:2.3558760061860085e-02 }
                  - { var:40, quality:4.9384447932243347e-01,
                      le:4.5000000000000000e+00 }
                  - { var:41, quality:4.9279940128326416e-01,
                      le:5.5000000000000000e+00 }
                  - { var:42, quality:4.9270007014274597e-01,
                      le:4.5000000000000000e+00 }
                  - { var:1, quality:4.9209240078926086e-01,
                      le:8.1500000000000000e+01 }
                  - { var:43, quality:4.9110168218612671e-01,
                      le:3.5000000000000000e+00 }
                  - { var:44, quality:4.9079656600952148e-01,
                      le:3.5000000000000000e+00 }
                  - { var:14, quality:4.9058008193969727e-01,
                      le:1.2569172382354736e+00 }
                  - { var:38, quality:4.9044206738471985e-01,
                      le:1.2500000000000000e+01 }
                  - { var:8, quality:4.9012252688407898e-01,
                      le:5.6142759323120117e-01 }
                  - { var:49, quality:4.8975494503974915e-01,
                      gt:-3.0000001192092896e-01 }
                  - { var:46, quality:4.8916909098625183e-01,
                      le:6.5000000000000000e+00 }
                  - { var:45, quality:4.8765316605567932e-01,
                      le:1.4500000000000000e+01 }
                  - { var:11, quality:4.8741176724433899e-01,
                      le:3.6634850502014160e+00 }
                  - { var:13, quality:4.8735153675079346e-01,
                      le:3.7041602134704590e+00 }
                  - { var:3, quality:4.8714125156402588e-01,
                      le:2.0553152263164520e-01 }
                  - { var:29, quality:4.8710116744041443e-01,
                      le:9.1214925050735474e-02 }
                  - { var:28, quality:4.8707807064056396e-01,
                      le:8.0726966261863708e-02 }
            -
               depth: 1
               sample_count: 39104
               value: 3.5385121157241040e-01
               norm_class_idx: 1
               Tn: 0
               complexity: 0
               alpha: 0.
               node_risk: 0.
               tree_risk: 0.
               tree_error: 0.
            -
               depth: 1
               sample_count: 10385
               value: -3.5385121157241040e-01
               norm_class_idx: 0
               Tn: 0
               complexity: 0
               alpha: 0.
               node_risk: 0.
               tree_risk: 0.
               tree_error: 0.
      -
         best_tree_idx: -1
         nodes:
            -
               depth: 0
               sample_count: 49489
               value: -3.1709952876296715e-01
               norm_class_idx: 0
               Tn: 0
               complexity: 0
               alpha: 0.
               node_risk: 0.
               tree_risk: 0.
               tree_error: 0.
               splits:
                  - { var:31, quality:5.7861721515655518e-01,
                      le:1.4756271615624428e-02 }
                  - { var:17, quality:5.1249247789382935e-01,
                      le:4.7749745845794678e-01 }
                  - { var:18, quality:5.0622880458831787e-01,
                      le:9.1632342338562012e-01 }
                  - { var:6, quality:4.9109238386154175e-01,
                      le:4.2002576589584351e-01 }
                  - { var:29, quality:4.8898050189018250e-01,
                      le:1.0647257789969444e-02 }
                  - { var:5, quality:4.8631304502487183e-01,
                      le:1.4356103539466858e-01 }
                  - { var:32, quality:4.8464435338973999e-01,
                      le:1.8100118637084961e-01 }
                  - { var:4, quality:4.8446118831634521e-01,
                      le:1.4623665809631348e-01 }
                  - { var:10, quality:4.8199447989463806e-01,
                      le:9.1785565018653870e-04 }
                  - { var:12, quality:4.7548931837081909e-01,
                      le:1.7140820273198187e-04 }
                  - { var:34, quality:4.7339788079261780e-01,
                      le:2.5000000000000000e+00 }
                  - { var:3, quality:4.7098654508590698e-01,
                      le:1.9923489540815353e-02 }
                  - { var:33, quality:4.6701273322105408e-01,
                      le:2.5000000000000000e+00 }
                  - { var:35, quality:4.6564698219299316e-01,
                      le:2.5000000000000000e+00 }
                  - { var:1, quality:4.6198388934135437e-01,
                      le:6.5000000000000000e+00 }
                  - { var:28, quality:4.6061652898788452e-01,
                      le:7.9179052263498306e-03 }
                  - { var:14, quality:4.4987487792968750e-01,
                      le:2.1436530351638794e-01 }
                  - { var:37, quality:4.4828423857688904e-01,
                      le:1.5000000000000000e+00 }
                  - { var:11, quality:4.4683089852333069e-01,
                      le:1.6063560545444489e-01 }
                  - { var:36, quality:4.4630447030067444e-01,
                      le:1.5000000000000000e+00 }
                  - { var:38, quality:4.4408771395683289e-01,
                      le:1.5000000000000000e+00 }
                  - { var:39, quality:4.4243583083152771e-01,
                      le:1.5000000000000000e+00 }
                  - { var:40, quality:4.3930456042289734e-01,
                      le:1.5000000000000000e+00 }
                  - { var:41, quality:4.3669345974922180e-01,
                      le:1.5000000000000000e+00 }
                  - { var:42, quality:4.3292230367660522e-01,
                      le:1.5000000000000000e+00 }
                  - { var:43, quality:4.2939007282257080e-01,
                      le:1.5000000000000000e+00 }
                  - { var:13, quality:4.2571863532066345e-01,
                      le:1.0385049879550934e-01 }
                  - { var:44, quality:4.2507645487785339e-01,
                      le:1.5000000000000000e+00 }
                  - { var:23, quality:4.2463865876197815e-01,
                      le:5.6371902465820312e+01 }
                  - { var:8, quality:4.2279240489006042e-01,
                      le:1.7820206284523010e-01 }
                  - { var:20, quality:4.2156308889389038e-01,
                      le:2.1473317146301270e+00 }
                  - { var:46, quality:4.1962748765945435e-01,
                      le:1.5000000000000000e+00 }
                  - { var:19, quality:4.0174230933189392e-01,
                      le:1.2955795228481293e-01 }
                  - { var:26, quality:3.9622741937637329e-01,
                      le:1.8968296051025391e+00 }
                  - { var:24, quality:3.9179605245590210e-01,
                      le:3.3305442333221436e+00 }
                  - { var:21, quality:3.9142763614654541e-01,
                      le:1.1451435089111328e+00 }
                  - { var:25, quality:3.8774707913398743e-01,
                      le:1.8314133882522583e+00 }
                  - { var:15, quality:3.8670340180397034e-01,
                      le:9.8085654899477959e-03 }
                  - { var:22, quality:3.8245508074760437e-01,
                      le:1.2591630220413208e-01 }
                  - { var:2, quality:3.7730410695075989e-01,
                      le:2.8015010058879852e-02 }
                  - { var:30, quality:3.6873400211334229e-01,
                      gt:9.3178615570068359e+00 }
                  - { var:27, quality:3.6190471053123474e-01,
                      gt:-2.3804219055175781e+02 }
            -
               depth: 1
               sample_count: 33163
               value: -3.1709952876296715e-01
               norm_class_idx: 0
               Tn: 0
               complexity: 0
               alpha: 0.
               node_risk: 0.
               tree_risk: 0.
               tree_error: 0.
            -
               depth: 1
               sample_count: 16326
               value: 3.1709952876296715e-01
               norm_class_idx: 1
               Tn: 0
               complexity: 0
               alpha: 0.
               node_risk: 0.
               tree_risk: 0.
               tree_error: 0.
      -
         best_tree_idx: -1
         nodes:
            -
               depth: 0
               sample_count: 49489
               value: -2.6788273747715402e-01
               norm_class_idx: 0
               Tn: 0
               complexity: 0
               alpha: 0.
               node_risk: 0.
               tree_risk: 0.
               tree_error: 0.
               splits:
                  - { var:32, quality:5.6657302379608154e-01,
                      le:4.0999960899353027e-01 }
                  - { var:5, quality:5.2031540870666504e-01,
                      le:2.3554609715938568e-01 }
                  - { var:4, quality:5.1670426130294800e-01,
                      le:2.2873130440711975e-01 }
                  - { var:17, quality:5.1540249586105347e-01,
                      le:9.8659348487854004e-01 }
                  - { var:18, quality:5.1451539993286133e-01,
                      le:1.7230911254882812e+00 }
                  - { var:6, quality:5.1016086339950562e-01,
                      le:7.4654769897460938e-01 }
                  - { var:31, quality:5.0302129983901978e-01,
                      le:7.4843630194664001e-02 }
                  - { var:10, quality:4.9789226055145264e-01,
                      le:6.4626052975654602e-02 }
                  - { var:8, quality:4.9473184347152710e-01,
                      le:2.6790824532508850e-01 }
                  - { var:41, quality:4.9391523003578186e-01,
                      le:2.5000000000000000e+00 }
                  - { var:38, quality:4.9379032850265503e-01,
                      le:3.5000000000000000e+00 }
                  - { var:40, quality:4.9327537417411804e-01,
                      le:2.5000000000000000e+00 }
                  - { var:34, quality:4.9287223815917969e-01,
                      le:7.5000000000000000e+00 }
                  - { var:12, quality:4.9281391501426697e-01,
                      le:2.8075412847101688e-03 }
                  - { var:42, quality:4.9241295456886292e-01,
                      le:2.5000000000000000e+00 }
                  - { var:39, quality:4.9168989062309265e-01,
                      le:3.5000000000000000e+00 }
                  - { var:35, quality:4.9144941568374634e-01,
                      le:4.5000000000000000e+00 }
                  - { var:43, quality:4.9084970355033875e-01,
                      le:2.5000000000000000e+00 }
                  - { var:44, quality:4.8885667324066162e-01,
                      le:2.5000000000000000e+00 }
                  - { var:33, quality:4.8740571737289429e-01,
                      le:1.1500000000000000e+01 }
                  - { var:36, quality:4.8703464865684509e-01,
                      le:3.5000000000000000e+00 }
                  - { var:29, quality:4.8490464687347412e-01,
                      le:2.8722539544105530e-02 }
                  - { var:3, quality:4.8416009545326233e-01,
                      le:6.4480692148208618e-02 }
                  - { var:1, quality:4.8296877741813660e-01,
                      le:2.8500000000000000e+01 }
                  - { var:46, quality:4.7986033558845520e-01,
                      le:1.5000000000000000e+00 }
                  - { var:14, quality:4.7883465886116028e-01,
                      le:5.6192529201507568e-01 }
                  - { var:28, quality:4.7442463040351868e-01,
                      le:1.9058754667639732e-02 }
                  - { var:37, quality:4.7035434842109680e-01,
                      le:2.5000000000000000e+00 }
                  - { var:23, quality:4.6716791391372681e-01,
                      le:7.2881494140625000e+02 }
                  - { var:11, quality:4.6322786808013916e-01,
                      le:4.5144617557525635e-01 }
                  - { var:45, quality:4.6221351623535156e-01,
                      le:4.5000000000000000e+00 }
                  - { var:20, quality:4.5575490593910217e-01,
                      le:4.8512666015625000e+03 }
                  - { var:30, quality:4.5575055480003357e-01,
                      gt:3.8110816478729248e-01 }
                  - { var:13, quality:4.5568427443504333e-01,
                      le:2.8362975120544434e+00 }
                  - { var:2, quality:4.5460972189903259e-01,
                      le:1.4110031723976135e-01 }
                  - { var:19, quality:4.5401853322982788e-01,
                      le:1.0656030178070068e+00 }
                  - { var:27, quality:4.5357909798622131e-01,
                      gt:-2.4467710876464844e+02 }
            -
               depth: 1
               sample_count: 38153
               value: 2.6788273747715402e-01
               norm_class_idx: 1
               Tn: 0
               complexity: 0
               alpha: 0.
               node_risk: 0.
               tree_risk: 0.
               tree_error: 0.
            -
               depth: 1
               sample_count: 11336
               value: -2.6788273747715402e-01
               norm_class_idx: 0
               Tn: 0
               complexity: 0
               alpha: 0.
               node_risk: 0.
               tree_risk: 0.
               tree_error: 0.
      -
         best_tree_idx: -1
         nodes:
            -
               depth: 0
               sample_count: 49489
               value: -3.4875878006066119e-01
               norm_class_idx: 0
               Tn: 0
               complexity: 0
               alpha: 0.
               node_risk: 0.
               tree_risk: 0.
               tree_error: 0.
               splits:
                  - { var:27, quality:5.8631652593612671e-01,
                      le:-4.2881445312500000e+02 }
            -
               depth: 1
               sample_count: 2
               value: 3.4875878006066119e-01
               norm_class_idx: 1
               Tn: 0
               complexity: 0
               alpha: 0.
               node_risk: 0.
               tree_risk: 0.
               tree_error: 0.
            -
               depth: 1
               sample_count: 49487
               value: -3.4875878006066119e-01
               norm_class_idx: 0
               Tn: 0
               complexity: 0
               alpha: 0.
               node_risk: 0.
               tree_risk: 0.
               tree_error: 0.
      -
         best_tree_idx: -1
         nodes:
            -
               depth: 0
               sample_count: 49489
               value: 2.6213214511862720e-01
               norm_class_idx: 1
               Tn: 0
               complexity: 0
               alpha: 0.
               node_risk: 0.
               tree_risk: 0.
               tree_error: 0.
               splits:
                  - { var:11, quality:5.6516033411026001e-01,
                      le:4.6168988943099976e-01 }
                  - { var:13, quality:5.4313677549362183e-01,
                      le:4.1479915380477905e-01 }
                  - { var:14, quality:5.4279845952987671e-01,
                      le:5.9014666080474854e-01 }
                  - { var:6, quality:5.0474154949188232e-01,
                      le:1.1430945396423340e+00 }
                  - { var:4, quality:5.0464963912963867e-01,
                      le:3.6959916353225708e-01 }
                  - { var:5, quality:5.0400334596633911e-01,
                      le:3.8028079271316528e-01 }
                  - { var:18, quality:4.9807256460189819e-01,
                      le:2.8644456863403320e+00 }
                  - { var:32, quality:4.9398893117904663e-01,
                      le:7.5200057029724121e-01 }
                  - { var:17, quality:4.9262619018554688e-01,
                      le:1.6900446414947510e+00 }
                  - { var:31, quality:4.9082836508750916e-01,
                      le:1.9222384691238403e-01 }
                  - { var:34, quality:4.8423835635185242e-01,
                      le:1.2500000000000000e+01 }
                  - { var:35, quality:4.8239973187446594e-01,
                      le:7.5000000000000000e+00 }
                  - { var:33, quality:4.8197031021118164e-01,
                      le:1.8500000000000000e+01 }
                  - { var:10, quality:4.8125410079956055e-01,
                      le:1.1281321048736572e+00 }
                  - { var:12, quality:4.8038214445114136e-01,
                      le:2.8586726635694504e-02 }
                  - { var:39, quality:4.8015660047531128e-01,
                      le:4.5000000000000000e+00 }
                  - { var:38, quality:4.7999611496925354e-01,
                      le:5.5000000000000000e+00 }
                  - { var:23, quality:4.7994732856750488e-01,
                      le:9.2329357910156250e+02 }
                  - { var:40, quality:4.7954085469245911e-01,
                      le:4.5000000000000000e+00 }
                  - { var:36, quality:4.7934758663177490e-01,
                      le:8.5000000000000000e+00 }
                  - { var:37, quality:4.7849589586257935e-01,
                      le:8.5000000000000000e+00 }
                  - { var:42, quality:4.7810888290405273e-01,
                      le:4.5000000000000000e+00 }
                  - { var:43, quality:4.7780427336692810e-01,
                      le:3.5000000000000000e+00 }
                  - { var:29, quality:4.7779750823974609e-01,
                      le:4.6224955469369888e-02 }
                  - { var:45, quality:4.7744357585906982e-01,
                      le:3.5000000000000000e+00 }
                  - { var:41, quality:4.7677099704742432e-01,
                      le:6.5000000000000000e+00 }
                  - { var:1, quality:4.7606852650642395e-01,
                      le:7.2500000000000000e+01 }
                  - { var:8, quality:4.7444701194763184e-01,
                      le:6.5209221839904785e-01 }
                  - { var:28, quality:4.7388136386871338e-01,
                      le:3.0332807451486588e-02 }
                  - { var:19, quality:4.7380530834197998e-01,
                      le:8.9100265502929688e-01 }
                  - { var:24, quality:4.7297301888465881e-01,
                      le:7.6535852050781250e+02 }
                  - { var:25, quality:4.7297063469886780e-01,
                      gt:-1.2697039604187012e+01 }
                  - { var:3, quality:4.7288772463798523e-01,
                      le:2.1637322008609772e-01 }
                  - { var:26, quality:4.7271555662155151e-01,
                      le:2.8785737991333008e+01 }
                  - { var:27, quality:4.7250461578369141e-01,
                      gt:-6.2188604736328125e+02 }
            -
               depth: 1
               sample_count: 38893
               value: 2.6213214511862720e-01
               norm_class_idx: 1
               Tn: 0
               complexity: 0
               alpha: 0.
               node_risk: 0.
               tree_risk: 0.
               tree_error: 0.
            -
               depth: 1
               sample_count: 10596
               value: -2.6213214511862720e-01
               norm_class_idx: 0
               Tn: 0
               complexity: 0
               alpha: 0.
               node_risk: 0.
               tree_risk: 0.
               tree_error: 0.
      -
         best_tree_idx: -1
         nodes:
            -
               depth: 0
               sample_count: 49489
               value: -2.3165807635484273e-01
               norm_class_idx: 0
               Tn: 0
               complexity: 0
               alpha: 0.
               node_risk: 0.
               tree_risk: 0.
               tree_error: 0.
               splits:
                  - { var:10, quality:5.5765688419342041e-01,
                      le:1.7311871051788330e-03 }
                  - { var:12, quality:5.3751915693283081e-01,
                      le:2.4808797752484679e-04 }
                  - { var:17, quality:4.9574017524719238e-01,
                      le:4.9660941958427429e-01 }
                  - { var:18, quality:4.8941767215728760e-01,
                      le:9.0746015310287476e-01 }
                  - { var:29, quality:4.8752823472023010e-01,
                      le:8.6539909243583679e-03 }
                  - { var:1, quality:4.8145648837089539e-01,
                      le:5.5000000000000000e+00 }
                  - { var:33, quality:4.7526562213897705e-01,
                      le:3.5000000000000000e+00 }
                  - { var:6, quality:4.7436138987541199e-01,
                      le:3.3812880516052246e-01 }
                  - { var:32, quality:4.7045201063156128e-01,
                      le:1.6299891471862793e-01 }
                  - { var:3, quality:4.6773272752761841e-01,
                      le:8.5873603820800781e-03 }
                  - { var:34, quality:4.6337452530860901e-01,
                      le:2.5000000000000000e+00 }
                  - { var:31, quality:4.6274781227111816e-01,
                      le:1.1904036626219749e-02 }
                  - { var:5, quality:4.6190437674522400e-01,
                      le:1.3480979204177856e-01 }
                  - { var:4, quality:4.6115139126777649e-01,
                      le:1.2917113304138184e-01 }
                  - { var:20, quality:4.5364964008331299e-01,
                      le:2.6242613792419434e+00 }
                  - { var:28, quality:4.4662332534790039e-01,
                      le:5.8891312219202518e-03 }
                  - { var:14, quality:4.4042012095451355e-01,
                      le:1.6503642499446869e-01 }
                  - { var:36, quality:4.3118175864219666e-01,
                      le:2.5000000000000000e+00 }
                  - { var:11, quality:4.3101277947425842e-01,
                      le:1.1402699351310730e-01 }
                  - { var:35, quality:4.2594799399375916e-01,
                      le:1.5000000000000000e+00 }
                  - { var:37, quality:4.2216852307319641e-01,
                      le:1.5000000000000000e+00 }
                  - { var:23, quality:4.1709423065185547e-01,
                      le:4.1775077819824219e+01 }
                  - { var:38, quality:4.1667419672012329e-01,
                      le:1.5000000000000000e+00 }
                  - { var:39, quality:4.1283807158470154e-01,
                      le:1.5000000000000000e+00 }
                  - { var:19, quality:4.1182339191436768e-01,
                      le:1.2955795228481293e-01 }
                  - { var:13, quality:4.1135650873184204e-01,
                      le:6.5708374604582787e-03 }
                  - { var:40, quality:4.0899860858917236e-01,
                      le:1.5000000000000000e+00 }
                  - { var:41, quality:4.0546342730522156e-01,
                      le:1.5000000000000000e+00 }
                  - { var:21, quality:4.0290144085884094e-01,
                      le:1.4835298061370850e+00 }
                  - { var:42, quality:4.0054252743721008e-01,
                      le:1.5000000000000000e+00 }
                  - { var:24, quality:3.9983180165290833e-01,
                      le:1.7377980053424835e-02 }
                  - { var:15, quality:3.9831024408340454e-01,
                      le:1.7858497449196875e-04 }
                  - { var:22, quality:3.9663338661193848e-01,
                      le:1.2591630220413208e-01 }
                  - { var:43, quality:3.9560908079147339e-01,
                      le:1.5000000000000000e+00 }
                  - { var:44, quality:3.9029851555824280e-01,
                      le:1.5000000000000000e+00 }
                  - { var:30, quality:3.8597384095191956e-01,
                      gt:1.3140506744384766e+01 }
                  - { var:8, quality:3.8558545708656311e-01,
                      le:1.7818574607372284e-01 }
                  - { var:46, quality:3.8338246941566467e-01,
                      le:1.5000000000000000e+00 }
                  - { var:26, quality:3.7492236495018005e-01,
                      le:1.8716900348663330e+00 }
                  - { var:25, quality:3.6688745021820068e-01,
                      le:1.8160169124603271e+00 }
                  - { var:9, quality:3.6408588290214539e-01,
                      gt:5.1847398281097412e-01 }
                  - { var:47, quality:3.6353817582130432e-01,
                      gt:9.8604476451873779e-01 }
                  - { var:2, quality:3.5589155554771423e-01,
                      le:1.4014380984008312e-02 }
                  - { var:7, quality:3.4432467818260193e-01,
                      le:3.5825108643621206e-03 }
                  - { var:27, quality:3.3979973196983337e-01,
                      le:6.4831537008285522e-01 }
                  - { var:49, quality:3.2763019204139709e-01,
                      gt:4.0013858675956726e-01 }
                  - { var:48, quality:3.2750591635704041e-01,
                      gt:4.0042203664779663e-01 }
            -
               depth: 1
               sample_count: 30793
               value: -2.3165807635484273e-01
               norm_class_idx: 0
               Tn: 0
               complexity: 0
               alpha: 0.
               node_risk: 0.
               tree_risk: 0.
               tree_error: 0.
            -
               depth: 1
               sample_count: 18696
               value: 2.3165807635484273e-01
               norm_class_idx: 1
               Tn: 0
               complexity: 0
               alpha: 0.
               node_risk: 0.
               tree_risk: 0.
               tree_error: 0.
      -
         best_tree_idx: -1
         nodes:
            -
               depth: 0
               sample_count: 49489
               value: -2.3518910690097905e-01
               norm_class_idx: 0
               Tn: 0
               complexity: 0
               alpha: 0.
               node_risk: 0.
               tree_risk: 0.
               tree_error: 0.
               splits:
                  - { var:47, quality:5.5852776765823364e-01,
                      le:9.8906987905502319e-01 }
                  - { var:9, quality:5.1729297637939453e-01,
                      le:5.7665407657623291e-01 }
                  - { var:7, quality:4.7061896324157715e-01,
                      le:7.0909127593040466e-02 }
                  - { var:28, quality:4.3854275345802307e-01,
                      gt:-5.0000000000000000e-01 }
                  - { var:15, quality:4.1728088259696960e-01,
                      le:9.3023598194122314e-01 }
                  - { var:30, quality:4.0510606765747070e-01,
                      le:1.9358493804931641e+01 }
                  - { var:19, quality:4.0456855297088623e-01,
                      le:5.1411736011505127e-01 }
                  - { var:1, quality:3.9834222197532654e-01,
                      gt:5.5000000000000000e+00 }
                  - { var:32, quality:3.9045712351799011e-01,
                      gt:1.5099930763244629e-01 }
                  - { var:20, quality:3.8633266091346741e-01,
                      gt:2.8746843338012695e+00 }
                  - { var:48, quality:3.8598969578742981e-01,
                      le:1.8756999969482422e+01 }
                  - { var:49, quality:3.7966734170913696e-01,
                      le:1.7457670211791992e+01 }
                  - { var:10, quality:3.7912464141845703e-01,
                      gt:5.9710779169108719e-05 }
                  - { var:27, quality:3.7736043334007263e-01,
                      le:9.9445080757141113e-01 }
                  - { var:24, quality:3.7554338574409485e-01,
                      le:1.4064648437500000e+02 }
                  - { var:25, quality:3.7545335292816162e-01,
                      gt:-1.2943700790405273e+01 }
                  - { var:29, quality:3.7502917647361755e-01,
                      gt:8.5556006524711847e-04 }
                  - { var:3, quality:3.7459331750869751e-01,
                      gt:2.1027564071118832e-03 }
                  - { var:26, quality:3.7455925345420837e-01,
                      le:2.5674819946289062e+01 }
                  - { var:23, quality:3.7424829602241516e-01,
                      le:1.0972931640625000e+04 }
                  - { var:14, quality:3.7415313720703125e-01,
                      le:4.9686828613281250e+02 }
                  - { var:13, quality:3.7415313720703125e-01,
                      le:4.9686828613281250e+02 }
                  - { var:11, quality:3.7415313720703125e-01,
                      le:4.9686828613281250e+02 }
            -
               depth: 1
               sample_count: 36296
               value: -2.3518910690097905e-01
               norm_class_idx: 0
               Tn: 0
               complexity: 0
               alpha: 0.
               node_risk: 0.
               tree_risk: 0.
               tree_error: 0.
            -
               depth: 1
               sample_count: 13193
               value: 2.3518910690097905e-01
               norm_class_idx: 1
               Tn: 0
               complexity: 0
               alpha: 0.
               node_risk: 0.
               tree_risk: 0.
               tree_error: 0.
      -
         best_tree_idx: -1
         nodes:
            -
               depth: 0
               sample_count: 49489
               value: -2.2204965911283542e-01
               norm_class_idx: 0
               Tn: 0
               complexity: 0
               alpha: 0.
               node_risk: 0.
               tree_risk: 0.
               tree_error: 0.
               splits:
                  - { var:24, quality:5.5528545379638672e-01,
                      le:3.1771856307983398e+01 }
                  - { var:25, quality:5.4245555400848389e-01,
                      le:5.5226011276245117e+00 }
                  - { var:26, quality:5.4123944044113159e-01,
                      le:5.9058837890625000e+00 }
                  - { var:23, quality:5.0118595361709595e-01,
                      le:5.7139367675781250e+02 }
                  - { var:27, quality:4.8837640881538391e-01,
                      le:9.9416977167129517e-01 }
                  - { var:14, quality:4.8787111043930054e-01,
                      le:9.1098931884765625e+02 }
                  - { var:13, quality:4.8787111043930054e-01,
                      le:9.1098931884765625e+02 }
                  - { var:11, quality:4.8787111043930054e-01,
                      le:9.1098931884765625e+02 }
            -
               depth: 1
               sample_count: 41336
               value: 2.2204965911283542e-01
               norm_class_idx: 1
               Tn: 0
               complexity: 0
               alpha: 0.
               node_risk: 0.
               tree_risk: 0.
               tree_error: 0.
            -
               depth: 1
               sample_count: 8153
               value: -2.2204965911283542e-01
               norm_class_idx: 0
               Tn: 0
               complexity: 0
               alpha: 0.
               node_risk: 0.
               tree_risk: 0.
               tree_error: 0.
      -
         best_tree_idx: -1
         nodes:
            -
               depth: 0
               sample_count: 49489
               value: -2.6888744158585326e-01
               norm_class_idx: 0
               Tn: 0
               complexity: 0
               alpha: 0.
               node_risk: 0.
               tree_risk: 0.
               tree_error: 0.
               splits:
                  - { var:30, quality:5.6681972742080688e-01,
                      le:4.6927423477172852e+00 }
                  - { var:20, quality:5.4457706212997437e-01,
                      gt:1.4803616523742676e+01 }
                  - { var:1, quality:4.8974472284317017e-01,
                      gt:3.8500000000000000e+01 }
                  - { var:22, quality:4.8180499672889709e-01,
                      gt:9.9613827466964722e-01 }
                  - { var:48, quality:4.7726556658744812e-01,
                      le:4.0100941061973572e-01 }
                  - { var:33, quality:4.7442802786827087e-01,
                      gt:2.1500000000000000e+01 }
                  - { var:49, quality:4.7428897023200989e-01,
                      le:4.0004116296768188e-01 }
                  - { var:10, quality:4.7192654013633728e-01,
                      gt:8.8690400123596191e-01 }
                  - { var:34, quality:4.7098252177238464e-01,
                      gt:2.1500000000000000e+01 }
                  - { var:18, quality:4.7059318423271179e-01,
                      gt:9.0599327087402344e+00 }
                  - { var:17, quality:4.7039395570755005e-01,
                      gt:5.6054158210754395e+00 }
                  - { var:6, quality:4.7034353017807007e-01,
                      gt:3.7249178886413574e+00 }
                  - { var:35, quality:4.7021892666816711e-01,
                      gt:3.9500000000000000e+01 }
                  - { var:36, quality:4.7017142176628113e-01,
                      gt:3.1500000000000000e+01 }
                  - { var:5, quality:4.7015622258186340e-01,
                      gt:1.1587224006652832e+00 }
                  - { var:12, quality:4.7015288472175598e-01,
                      gt:1.9563418626785278e-01 }
                  - { var:4, quality:4.7009533643722534e-01,
                      gt:1.1177767515182495e+00 }
                  - { var:37, quality:4.7009235620498657e-01,
                      gt:2.8500000000000000e+01 }
                  - { var:38, quality:4.7007420659065247e-01,
                      gt:2.4500000000000000e+01 }
                  - { var:32, quality:4.7006675601005554e-01,
                      gt:5.8919992446899414e+00 }
                  - { var:39, quality:4.7005859017372131e-01,
                      gt:2.2500000000000000e+01 }
                  - { var:40, quality:4.6998170018196106e-01,
                      gt:2.1500000000000000e+01 }
                  - { var:41, quality:4.6996176242828369e-01,
                      gt:1.9500000000000000e+01 }
                  - { var:42, quality:4.6993613243103027e-01,
                      gt:1.7500000000000000e+01 }
